[4.825013160705566, -3.027878761291504, -2.594515800476074, -0.26749929785728455, 1.1504316329956055, -1.6856212615966797, -5.9745869636535645, 0.5463026165962219, 2.1468396186828613, 3.2327516078948975, 3.594041585922241, 5.007864475250244, -0.6358352899551392, 0.616688072681427, 1.3743253946304321, -4.278382301330566, 3.715900182723999, -2.968534469604492, 2.2524211406707764, 1.2152570486068726, 1.2128554582595825, 2.4992167949676514, 4.197878360748291, 3.317803144454956, 0.8232401609420776, 0.3129974603652954, 1.2115296125411987, -0.5513848066329956, 4.181130886077881, 4.306458473205566, 3.192718982696533, 3.729654312133789, -0.2892211377620697, 2.8350460529327393, -2.557508707046509, 1.3943387269973755, 3.160334825515747, 0.060715578496456146]
[2.960735559463501, 6.485689163208008, -11.240718841552734, -2.1258139610290527, -8.094143867492676, -3.102221727371216, -6.245637893676758, -2.958698034286499, 7.989574432373047, -7.866519451141357, 4.134572982788086, 4.500058650970459, 2.193418264389038, 0.4971665143966675, -5.314923286437988, -6.065132141113281, -6.626378536224365, -8.819857597351074, 14.280294418334961, 1.622710108757019, 3.9523067474365234, 7.653059005737305, 11.269749641418457, -2.4453928470611572, -2.7310824394226074, 2.2437384128570557, -3.722433090209961, -11.765671730041504, 16.211933135986328, -5.051254749298096, -10.884130477905273, 14.25584888458252, -2.8642172813415527, 24.850067138671875, -4.340098857879639, -2.281456708908081, -4.606266975402832, -5.423617839813232]
[-0.0015225410461425781, 0.04956302046775818, 0.10856810212135315, 0.12627995014190674, 0.07144743204116821, -0.07447502017021179, -0.06212504208087921, 0.23575538396835327, -0.2355937957763672, -0.04040542244911194, -0.2460259348154068, -0.15794724225997925, -0.25495725870132446, 0.07674387097358704, -0.20910653471946716, -0.10532653331756592, -0.06382466852664948, 0.1002972424030304, -0.06431366503238678, 0.19559058547019958, 0.10564714670181274, 0.21514391899108887, -0.10593947768211365, 0.0071755945682525635, 0.19010907411575317, 0.023858308792114258, -0.07602287828922272, 0.2263580858707428, -0.10707667469978333, -0.2179737687110901, -0.16303811967372894, -0.18921679258346558, 0.019112974405288696, -0.15527358651161194, 0.23121753334999084, 0.1534782350063324, -0.18941029906272888, -0.08154557645320892]
[2.82029128074646, -4.631627082824707, 2.0938475131988525, -2.9015562534332275, 0.196889728307724, -5.606724262237549, -1.743290901184082, -0.25085312128067017, -2.8017609119415283, 5.8739447593688965, 3.3759610652923584, 6.022207736968994, -3.5782947540283203, 1.1121530532836914, 5.442427158355713, -0.29866287112236023, 4.882339000701904, -8.820021629333496, 3.6451025009155273, -6.523984909057617, -10.307520866394043, 3.5584757328033447, 7.125092506408691, 3.2539360523223877, -0.9230547547340393, -2.719087600708008, -0.8264245986938477, -6.740954875946045, 3.339785575866699, 7.824411869049072, -0.45600295066833496, 6.974493026733398, -0.3910430073738098, 7.957381248474121, -6.84358549118042, -5.104626655578613, 3.9657230377197266, 1.7830348014831543]
[-0.06789875030517578, 0.02137148380279541, 0.18143340945243835, 0.17211246490478516, 0.1949564814567566, -0.018935248255729675, -0.004007160663604736, -0.20592184364795685, 0.10838925838470459, -0.21650922298431396, -0.133332297205925, -0.2520344853401184, 0.15118268132209778, 0.2504805028438568, -0.06974756717681885, 0.023505568504333496, 0.10434085130691528, 0.07397511601448059, -0.23945339024066925, 0.1290895640850067, 0.1877214014530182, 0.07045182585716248, 0.18021908402442932, -0.015482977032661438, 0.23709246516227722, -0.22388407588005066, 0.10224372148513794, -0.043457865715026855, -0.24276749789714813, -0.001441359519958496, -0.014666438102722168, 0.13999149203300476, 0.2611444890499115, -0.033730536699295044, 0.09205549955368042, -0.2233998030424118, -0.1352362036705017, -0.2183825969696045]
[0.062240272760391235, -0.055158644914627075, -0.03849111497402191, 0.2426488697528839, -0.05715557932853699, -0.07417318224906921, -0.14896446466445923, 0.20999664068222046, -0.19570934772491455, -0.024069711565971375, -0.09479835629463196, -0.22840112447738647, 0.09628027677536011, -0.18766848742961884, -0.22938737273216248, 0.022181987762451172, -0.24850626289844513, 0.1898573637008667, 0.25626131892204285, -0.17220541834831238, 0.09187614917755127, -0.031690970063209534, -0.08286634087562561, -0.07638712227344513, 0.15319055318832397, 0.061658382415771484, -0.14208754897117615, 0.10721156001091003, 0.17388305068016052, 0.18107107281684875, -0.25955191254615784, -0.2200092375278473, 0.040644675493240356, -0.15543712675571442, 0.025826454162597656, -0.0844527930021286, -0.07259106636047363, 0.03593754768371582]
[0.6391909718513489, 0.6692323088645935, 1.9068467617034912, -8.46677017211914, 1.330694317817688, 2.3586952686309814, 12.947786331176758, 0.38997557759284973, -8.918891906738281, -1.5290604829788208, 2.5592737197875977, -2.9570388793945312, 0.5138070583343506, -2.2045950889587402, -0.38227176666259766, 2.196475028991699, 1.3761955499649048, 4.500062942504883, 2.6561849117279053, -4.425307750701904, -5.914004802703857, 9.207841873168945, -1.3095303773880005, 2.7014360427856445, -1.991135835647583, 5.6344404220581055, 4.21638822555542, 9.003094673156738, -5.2417426109313965, -0.80048668384552, -2.0712077617645264, -0.21618753671646118, 4.369744300842285, -1.1153161525726318, -7.255155086517334, 0.12749168276786804, -4.2730841636657715, -0.8072319626808167]
[4.626086235046387, -3.0831565856933594, -2.679884195327759, -0.3007659912109375, 1.4077513217926025, -1.6910301446914673, -6.17173433303833, 0.7352783679962158, 2.2488832473754883, 3.3214733600616455, 3.590280055999756, 4.911055088043213, -0.8092048168182373, 0.48015403747558594, 1.4154229164123535, -4.176877975463867, 3.743593692779541, -3.043959617614746, 2.215510368347168, 1.4004874229431152, 1.4163494110107422, 2.432983875274658, 4.243373870849609, 3.322924852371216, 0.9863201379776001, 0.16086632013320923, 1.3320658206939697, -0.5434796810150146, 4.285884857177734, 4.244936943054199, 3.028956890106201, 3.5032846927642822, -0.17614343762397766, 2.5657217502593994, -2.568864107131958, 1.3260443210601807, 3.3697755336761475, -0.05777847766876221]
[0.1103864312171936, -0.15272027254104614, 0.039187729358673096, 0.23394474387168884, 0.2247423529624939, 0.06919729709625244, -0.017353445291519165, -0.21712706983089447, -0.24422724545001984, -0.25503095984458923, 0.1049518883228302, -0.13621358573436737, 0.21372076869010925, -0.050825029611587524, -0.0876617431640625, -0.11705955862998962, 0.0691797137260437, -0.11607129871845245, 0.15533581376075745, -0.13545845448970795, -0.08989381790161133, 0.03484097123146057, 0.04936641454696655, 0.013736546039581299, 0.08139148354530334, -0.07402752339839935, -0.15028232336044312, 0.025243431329727173, 0.16846030950546265, 0.18122351169586182, 0.23413032293319702, 0.09191101789474487, 0.23670664429664612, -0.06908576190471649, -0.2276894450187683, -0.1172768771648407, 0.03444969654083252, 0.05064958333969116]
[2.142514705657959, 10.34079647064209, 4.096925735473633, 4.3889055252075195, -10.642908096313477, 0.2581283152103424, 6.8871307373046875, 0.09328491240739822, 2.598525047302246, 0.883705735206604, 12.943987846374512, 2.287853717803955, -1.131178617477417, -3.5343291759490967, -5.193123817443848, -4.926156997680664, 2.7744414806365967, -10.81342601776123, 0.4132102131843567, 0.6862947344779968, 3.206102132797241, 6.634768486022949, -16.608551025390625, 4.932733058929443, -6.5794219970703125, -24.538101196289062, 4.632002830505371, 10.161527633666992, -0.8948635458946228, -0.7470280528068542, -28.109325408935547, 0.4182112216949463, -0.35960888862609863, 13.52292251586914, 3.0515785217285156, 2.0952298641204834, 22.58971405029297, -15.799777030944824]
[0.6510031819343567, 0.35994604229927063, 2.3330016136169434, -8.13138198852539, 1.3637930154800415, 2.2991783618927, 13.063835144042969, 0.4364902973175049, -8.896444320678711, -1.833738923072815, 2.8877053260803223, -2.7370452880859375, 0.4257826507091522, -2.236402988433838, -0.494905948638916, 1.8634014129638672, 1.4281612634658813, 4.661198616027832, 2.728624105453491, -4.258368968963623, -5.6156392097473145, 8.816168785095215, -1.2812269926071167, 2.7928123474121094, -2.256071090698242, 5.715301513671875, 4.241737365722656, 9.035035133361816, -5.458768367767334, -0.8492772579193115, -2.364292860031128, -0.3870367705821991, 4.336826324462891, -0.6882026195526123, -7.520144939422607, -0.3285888135433197, -4.105916976928711, -0.3886234164237976]
[4.7501373291015625, -3.2385988235473633, -2.4342703819274902, -0.21193258464336395, 1.1661343574523926, -1.7144840955734253, -6.165505886077881, 0.7811769247055054, 1.9630286693572998, 3.473496198654175, 3.410672187805176, 4.991103649139404, -0.43584704399108887, 0.6915766596794128, 1.3957171440124512, -4.471147060394287, 3.5915040969848633, -2.8204236030578613, 2.1052207946777344, 1.349808931350708, 1.186516523361206, 2.355933666229248, 4.20080041885376, 3.1769754886627197, 0.8213887214660645, 0.3042372167110443, 1.1651363372802734, -0.793623685836792, 3.9926459789276123, 4.3445539474487305, 3.274843215942383, 3.5916388034820557, -0.46309149265289307, 2.9030873775482178, -2.5420377254486084, 1.1895256042480469, 3.037046194076538, -0.0776948630809784]
[-0.8237729072570801, -4.974700927734375, -6.3045854568481445, 2.949965238571167, -2.2182505130767822, -10.223053932189941, 0.9236875772476196, -1.073584794998169, 0.6725162267684937, -6.629300117492676, 7.063725471496582, 6.640773773193359, 0.4636514186859131, 5.741645812988281, -2.261497735977173, -1.2857935428619385, -1.8958542346954346, 4.478036403656006, 6.42852783203125, 6.924310684204102, 1.642669439315796, 3.3862953186035156, 16.67966651916504, 1.559816598892212, -0.8845367431640625, 5.847349643707275, 1.449877381324768, -1.4362605810165405, 1.5836089849472046, -8.71871566772461, 2.350584030151367, -1.5185539722442627, 1.5751953125, 5.1829833984375, 9.726737976074219, 5.549100399017334, 5.253615379333496, -2.5329489707946777]
[-5.076950550079346, 1.1170053482055664, 1.8530267477035522, -3.9541380405426025, -1.866215705871582, 0.7840008735656738, 5.487527370452881, -0.2784879803657532, 2.7401416301727295, -0.16578803956508636, -4.839969158172607, 5.439004421234131, 1.5494672060012817, -0.8408935070037842, 0.9989952445030212, 0.40242835879325867, 0.4685195982456207, -2.2626094818115234, 0.34085968136787415, 1.1321582794189453, 3.4840614795684814, 10.061389923095703, 6.4942851066589355, 1.8029330968856812, 1.3999606370925903, -0.1870790421962738, 5.415427207946777, 0.7720991373062134, 2.5891335010528564, -0.6582265496253967, -7.050626277923584, 0.35393714904785156, -2.628343105316162, 9.514986038208008, 0.6479716897010803, 1.185571312904358, -1.3376038074493408, -2.324335813522339]
[-5.963389873504639, 5.725096225738525, 4.997452735900879, -9.545736312866211, -1.4491288661956787, 4.259125709533691, 13.297551155090332, -0.9667825102806091, -5.930034637451172, 3.609873056411743, -5.5182905197143555, -2.4730772972106934, 4.260433197021484, -0.4240363836288452, -0.5446918606758118, 0.7876895666122437, -3.274285316467285, 1.004072904586792, -8.705516815185547, -2.885688066482544, -2.2331058979034424, 11.275710105895996, -4.0590739250183105, 1.2410047054290771, -2.4883079528808594, 3.0488650798797607, 6.557287216186523, 8.45367431640625, -8.396872520446777, -2.5794267654418945, -0.8206703066825867, -0.9636046290397644, -3.856765031814575, -0.38494613766670227, 0.34359416365623474, 0.34633541107177734, -5.140923976898193, 7.659055709838867]
[6.0935959815979, -6.208883285522461, -7.692306995391846, -1.3281137943267822, -0.1091812327504158, -2.050529718399048, 2.4373185634613037, -1.5375393629074097, 0.7515836954116821, 5.561948299407959, 4.281759262084961, 2.179949998855591, -1.7045753002166748, 1.9310745000839233, -1.640343189239502, -5.003976821899414, 2.576995372772217, -1.0066852569580078, 6.469515323638916, 3.112363815307617, -0.0920950397849083, 2.596729040145874, 5.240530014038086, 1.7172012329101562, 1.2669157981872559, 2.5460729598999023, 2.9829261302948, -6.736344814300537, 0.9993417859077454, -0.02441057749092579, -1.0992567539215088, 1.0184085369110107, 1.5755226612091064, 4.180281162261963, -1.4007517099380493, 1.1436457633972168, 1.4752897024154663, -4.290111064910889]
[5.784268379211426, -6.621192932128906, -8.049509048461914, 17.053972244262695, 8.707477569580078, -8.961752891540527, 2.039044141769409, 0.47448787093162537, -8.239858627319336, -7.364813327789307, 6.374964714050293, 5.590560436248779, 2.185237169265747, -1.2509289979934692, 2.9366142749786377, -4.219710826873779, -1.411536455154419, 6.297592639923096, 1.2846972942352295, 9.567201614379883, -0.715236485004425, 12.141044616699219, 13.140935897827148, 8.899051666259766, -1.905853509902954, 7.213115692138672, 0.3868933916091919, 3.615955352783203, -4.720797538757324, 7.4444580078125, -5.236464500427246, -3.254894733428955, -6.295808792114258, -5.060060024261475, -0.8797338604927063, 8.467418670654297, 7.129718780517578, -8.838653564453125]
[-0.3448718190193176, -10.771918296813965, 0.1939900666475296, -5.875418663024902, -0.16058160364627838, -4.354306221008301, -3.97563099861145, -0.5776082873344421, 1.6587952375411987, 0.39901620149612427, 6.941985607147217, 1.4070624113082886, 0.13646352291107178, 3.155390739440918, -1.3483890295028687, 1.333477258682251, -3.079149007797241, -8.255330085754395, 5.693764686584473, -0.6100689172744751, -0.6835728883743286, 4.278709888458252, 4.574458599090576, 5.88402795791626, 0.5431112051010132, -1.8245859146118164, 2.8991761207580566, -0.3848644495010376, 1.9716479778289795, 0.7550843954086304, 4.1584553718566895, 1.1633192300796509, 1.3227590322494507, 7.475689888000488, -3.9493467807769775, -1.5735176801681519, 3.649761199951172, -0.19939103722572327]
[-7.848536491394043, -2.7946622371673584, 5.009445667266846, -5.122509956359863, 0.3122956156730652, -0.39761054515838623, 7.799479961395264, -1.0781668424606323, -2.420584201812744, -1.3313930034637451, 3.6757380962371826, -2.686371326446533, 2.0588653087615967, -2.5691139698028564, -4.0532331466674805, 3.9961259365081787, -4.295757293701172, -6.312405586242676, 2.086743116378784, -4.560013771057129, 0.23253343999385834, 6.584118843078613, -7.607481956481934, 4.512433052062988, 1.9637047052383423, 3.1139001846313477, 7.718878269195557, -0.08895222842693329, -6.6464643478393555, -3.14003849029541, 6.279254913330078, 0.37012675404548645, -1.282164216041565, -0.7482748031616211, 4.076268196105957, -0.3062748610973358, -0.7196628451347351, 1.7666642665863037]
[10.899308204650879, -3.011467456817627, -8.243886947631836, -2.046780586242676, -3.273561477661133, -2.0864250659942627, -5.124250888824463, -0.7257147431373596, 3.3321499824523926, 6.361263751983643, 0.7073462009429932, 2.5510759353637695, -5.686774253845215, 0.4938453137874603, -0.6543322801589966, -6.8180718421936035, 5.747067451477051, -3.4631710052490234, 1.5053797960281372, 2.118966817855835, -1.515775442123413, -3.6062450408935547, 4.473361492156982, 1.282697081565857, 4.60006856918335, 2.332097053527832, -2.084660530090332, 0.685194194316864, 2.6923344135284424, 0.6982011795043945, 5.16655969619751, 3.2326364517211914, 3.4903035163879395, -0.9371863603591919, -1.8335943222045898, -2.60756516456604, 2.398737907409668, 1.9740747213363647]
[1.7878612279891968, 3.121882677078247, -3.248241662979126, 10.58868408203125, 6.163549423217773, -5.790375232696533, -2.932645797729492, 5.083574295043945, -5.796149253845215, -8.616695404052734, -3.178006410598755, 6.839104175567627, 6.738769054412842, -0.10067139565944672, 5.863719940185547, -3.887385129928589, -0.07741137593984604, 8.872511863708496, 2.425717353820801, 4.071738243103027, 4.326882839202881, 13.50542163848877, 6.15131139755249, 7.38416051864624, -9.666584968566895, 2.7334842681884766, 1.6040440797805786, 10.389519691467285, 0.39882713556289673, 1.9553130865097046, 1.7383546829223633, -0.8107426762580872, -2.2320756912231445, -5.160412311553955, -10.502345085144043, 11.853047370910645, -2.395245313644409, -7.00282096862793]
[3.4535577297210693, -8.159904479980469, -4.25007963180542, -5.944540977478027, -1.6019161939620972, -2.086554765701294, 1.163026213645935, -0.8529207706451416, -0.4320595860481262, 7.01093053817749, 4.1167988777160645, 3.3436062335968018, -2.6591169834136963, 1.1797159910202026, 1.131630778312683, 0.2762329876422882, -0.3546890914440155, -6.409129619598389, 0.4866355359554291, 3.045020818710327, 1.0778428316116333, 0.7725627422332764, 2.4037492275238037, 3.743755578994751, 3.2884135246276855, -4.593921184539795, 1.864540457725525, 2.0351314544677734, -0.588175356388092, -0.431764155626297, 5.9397077560424805, 1.6413309574127197, 2.2351584434509277, 3.5087201595306396, -2.2288198471069336, -1.8059006929397583, 1.5493885278701782, 2.1364223957061768]
[7.831741809844971, -7.05501651763916, -7.264950752258301, -9.457260131835938, -0.23536235094070435, 2.764613151550293, 6.065158367156982, -2.9247753620147705, -1.0939137935638428, -0.9350239634513855, 11.562887191772461, -3.1858322620391846, -4.961997985839844, -3.5349724292755127, -3.0570106506347656, 5.782731533050537, -1.3997454643249512, -3.9224765300750732, 3.0434987545013428, -0.4404235780239105, -0.20070311427116394, -1.3253895044326782, -8.247368812561035, -7.417168140411377, -2.4317989349365234, 5.26191520690918, 7.7978196144104, 1.4194834232330322, -7.038621425628662, -4.1835808753967285, 2.9148855209350586, 0.8662365674972534, 1.417894721031189, 1.9494142532348633, 5.824615955352783, -3.147784471511841, 2.757783889770508, -3.1863198280334473]
[0.08778666704893112, -3.6653285026550293, 3.108947277069092, 0.3520325720310211, -4.970345497131348, -3.3091487884521484, -6.540815353393555, -1.5601128339767456, 2.134340763092041, 9.332464218139648, -3.9178569316864014, 7.31456995010376, -3.5973663330078125, 2.575782537460327, 0.7295762896537781, -6.280411243438721, 7.043348789215088, -5.905685901641846, -8.820556640625, -1.327497959136963, -1.1153498888015747, 2.3636460304260254, 3.765484571456909, 9.834748268127441, 7.753600120544434, -6.0219573974609375, 3.349000930786133, -0.5362365245819092, 1.421857237815857, 0.5768729448318481, 9.933703422546387, 2.558093309402466, 4.21030330657959, -2.2688045501708984, -1.4525861740112305, 1.0011951923370361, -4.66084098815918, 7.082115650177002]
[0.20702192187309265, 5.83169412612915, -2.4111435413360596, 8.14626693725586, 5.8724541664123535, -8.496736526489258, -7.114242076873779, 7.526895046234131, -0.6413078308105469, -9.367453575134277, -2.5882580280303955, 1.617334246635437, 5.8199615478515625, 3.2976601123809814, 7.060605525970459, -6.8531174659729, 1.028192400932312, 7.202629566192627, 8.7280912399292, 1.488561749458313, 0.2647207975387573, 12.111346244812012, 13.031989097595215, 7.013060569763184, -11.797284126281738, 0.7618170380592346, 3.7903659343719482, 8.545611381530762, 3.1292707920074463, 1.7351462841033936, 0.24406714737415314, -2.099745512008667, -1.174864411354065, -5.967308044433594, -12.850281715393066, 11.539721488952637, -7.272551536560059, -4.183544158935547]
[3.4299814701080322, -7.0133256912231445, -1.302270770072937, -4.5937018394470215, 1.051501989364624, -1.163268804550171, -3.704219102859497, -1.4757214784622192, 0.7662862539291382, 6.533325672149658, 1.6021302938461304, 5.423378944396973, -3.279447317123413, 1.3465763330459595, -1.873964786529541, -0.658236563205719, 1.6046092510223389, -1.9496533870697021, 0.9765195846557617, 4.063816070556641, 1.9200489521026611, 0.6832164525985718, 2.591603994369507, 3.253196954727173, 6.855527877807617, -6.320778846740723, 2.903676986694336, 2.4831690788269043, 0.8025654554367065, -2.0375847816467285, 5.824099540710449, 0.8556591868400574, 2.2078545093536377, 2.330345392227173, -1.0837424993515015, -1.3997018337249756, -1.0454472303390503, -0.4260317385196686]
[5.185596942901611, 0.22905366122722626, -9.922746658325195, -10.419028282165527, 3.1022937297821045, 5.218438148498535, 1.4632420539855957, -3.727862596511841, -5.480442523956299, 0.4866465926170349, -2.299701690673828, -0.7514897584915161, 0.09746396541595459, 5.673299312591553, -0.41802218556404114, 2.474994421005249, -3.197518825531006, -5.912243843078613, -9.3142728805542, 1.1785045862197876, -1.779998779296875, 3.22408390045166, -9.501047134399414, 6.0388875007629395, 1.788262963294983, -6.531774997711182, -5.203403949737549, 3.5066051483154297, -5.510709285736084, -4.319650650024414, 8.817399978637695, 0.7148162126541138, 2.408860683441162, 0.280758261680603, 7.7862138748168945, -6.700150966644287, 7.875096797943115, -6.479462146759033]
[1.5282624959945679, -11.043335914611816, -1.8764441013336182, -4.271604061126709, -6.1518378257751465, -3.393760919570923, -5.685952663421631, -1.827777624130249, 2.128002882003784, 4.058601379394531, 4.309492111206055, 1.0154976844787598, -9.837492942810059, -11.11728572845459, -6.258980751037598, -3.0078132152557373, 11.142724990844727, -3.5643765926361084, 0.7826749682426453, -0.8174089193344116, -0.38649317622184753, -4.8154754638671875, 2.1908669471740723, -3.5039114952087402, 5.430432319641113, 2.5817246437072754, 9.732583999633789, -6.516173362731934, 1.1983368396759033, -1.1037734746932983, 5.20535135269165, 2.247076988220215, 3.8695597648620605, -1.4051597118377686, 0.011977149173617363, 3.226609230041504, -7.752359390258789, 12.202134132385254]
[-1.6888551712036133, 4.0493879318237305, 4.171475887298584, 6.537413120269775, 5.681570053100586, -8.685629844665527, 0.005130150355398655, 5.80015230178833, -1.7761967182159424, -3.929518222808838, -1.2074344158172607, -1.7255882024765015, 6.231441497802734, 3.8537464141845703, 1.9091894626617432, -2.1982526779174805, -0.3360587954521179, 2.0753283500671387, 8.758872032165527, -3.5422117710113525, 1.392327904701233, 8.371683120727539, 8.922096252441406, 6.709689617156982, -8.848349571228027, -1.1426019668579102, 4.717399597167969, 2.217071294784546, -1.2352625131607056, 5.045370101928711, -1.9029452800750732, 0.8514571189880371, 0.3658859133720398, -2.309647798538208, -7.599479675292969, 8.455902099609375, -2.6246798038482666, -4.6489763259887695]
[3.5305728912353516, -4.3454670906066895, 0.803356945514679, -0.1485411822795868, 0.33448147773742676, 0.7894163131713867, -4.637373447418213, -2.544769287109375, -0.6364504098892212, 5.469428062438965, 1.5768157243728638, 6.687536239624023, -2.900792121887207, -1.7958488464355469, -0.9580389857292175, -0.7315542101860046, 3.5703136920928955, -1.2943590879440308, 4.632612228393555, 0.6409157514572144, 0.5800999402999878, 1.9363226890563965, 3.9781076908111572, 3.5390851497650146, 2.9860434532165527, -4.819248199462891, 1.2199785709381104, 1.8352644443511963, 0.5856724381446838, 0.5054972767829895, 1.3455193042755127, 0.9022400379180908, -0.4654185175895691, 1.2426453828811646, 0.16331061720848083, 0.005322771146893501, 3.998168706893921, 0.20209823548793793]
[-0.6296595931053162, 0.7847149968147278, 2.060112237930298, -9.279169082641602, -0.24058599770069122, 5.86264705657959, -2.3032238483428955, -2.2053916454315186, -0.8518948554992676, 9.060436248779297, 1.6512887477874756, 1.6345521211624146, 2.5682320594787598, 6.296064853668213, 1.3932992219924927, 4.500978946685791, -0.4080645740032196, -4.728485584259033, -9.714254379272461, -0.9265353083610535, -2.256355047225952, 7.059235095977783, -7.928989410400391, 4.445720195770264, 1.3374146223068237, -8.069490432739258, 5.6576104164123535, -1.6325136423110962, -4.043164253234863, -5.076818466186523, 9.433329582214355, -0.2520786225795746, 3.243476390838623, 3.028425931930542, 6.470453262329102, -5.571725845336914, 10.76695728302002, 6.266839981079102]
[4.214564800262451, -8.712838172912598, -5.022228240966797, -1.0052200555801392, -5.648262977600098, -3.237133026123047, -14.405810356140137, -6.768463611602783, 4.736945152282715, 4.247633457183838, -0.7336399555206299, -1.5985207557678223, -10.402484893798828, -7.46271276473999, -7.963878631591797, -5.6388773918151855, 8.883197784423828, 0.48146194219589233, -1.5790104866027832, 1.9241173267364502, 1.3151586055755615, -6.4384894371032715, 2.3376920223236084, -4.004064559936523, 9.466093063354492, -3.9237492084503174, 0.6999875903129578, -0.18633322417736053, 0.31461042165756226, 1.2726937532424927, 0.07911723852157593, 4.103979587554932, 0.9470637440681458, -6.823266506195068, -0.30370795726776123, 2.2966606616973877, -9.85784912109375, -4.687410831451416]
[-1.8318864107131958, -2.271062135696411, 5.268352508544922, 5.781896114349365, 6.517467498779297, -8.628464698791504, 4.578866481781006, 7.53717565536499, -3.3532049655914307, -1.1570119857788086, 1.9617047309875488, -2.671515941619873, 4.437135696411133, 3.0322070121765137, 2.0147552490234375, 2.778242826461792, -6.581547737121582, 5.63222599029541, 6.530524253845215, -13.380701065063477, 2.486985683441162, 7.984170436859131, 9.789261817932129, 5.565430164337158, -2.5931661128997803, -2.4558913707733154, 4.374342441558838, 0.07684362679719925, 10.649791717529297, 2.3061013221740723, -2.1255619525909424, -1.1345733404159546, -7.08487606048584, -6.083979606628418, -4.328439235687256, 10.697336196899414, 3.358719825744629, -6.634675025939941]
[5.152329444885254, -9.521356582641602, 2.7799465656280518, 2.736142158508301, -1.960286259651184, 0.5666911602020264, 2.8288631439208984, -3.176234483718872, 2.932053327560425, 3.5830235481262207, 2.802058458328247, 3.7784390449523926, -4.451150894165039, -3.7288506031036377, 0.6642391085624695, 1.1906222105026245, 0.4578135907649994, 2.1346547603607178, 2.9442880153656006, -1.811506986618042, 1.4879776239395142, 0.40828263759613037, 2.225451707839966, 1.400897741317749, 7.167557716369629, -5.428244113922119, 0.32544639706611633, -5.41176176071167, 6.039280414581299, 0.8745273947715759, 0.6333401799201965, -1.4422527551651, -3.4271111488342285, -1.3825241327285767, 0.559032142162323, 0.3479751646518707, 5.663275241851807, -0.1743861734867096]
[9.034834861755371, 0.7515710592269897, -1.6545008420944214, -8.592053413391113, 3.1157631874084473, 6.294097423553467, 9.3257474899292, 2.5524189472198486, -1.3762160539627075, 3.2276957035064697, 7.6312785148620605, 0.07598250359296799, -5.446391582489014, 4.540278434753418, -1.5604912042617798, 7.0941643714904785, -2.9373369216918945, -0.8936164975166321, -6.541190147399902, -5.095755100250244, 2.0129194259643555, 4.296823978424072, -3.7590842247009277, 8.501794815063477, 0.33120277523994446, -16.557262420654297, 5.085267543792725, -0.414779931306839, -3.5375895500183105, -4.212890148162842, 12.901809692382812, -0.18190442025661469, 2.3885345458984375, 0.18591181933879852, 4.918555736541748, -7.687255859375, 3.620742082595825, 0.2950868606567383]
[3.3149094581604004, -10.679819107055664, 0.4101039469242096, 4.894854545593262, -6.159285545349121, -4.326380252838135, 2.145859956741333, -2.67073130607605, 4.954464912414551, 0.44619885087013245, -1.7183970212936401, -5.798537731170654, -5.125627040863037, -7.416233539581299, -6.262729644775391, -4.859291076660156, 5.237687587738037, 1.043911337852478, 0.6895438432693481, -3.516299247741699, -2.095346689224243, -2.673771619796753, 9.679579734802246, -10.331610679626465, 10.462275505065918, -0.04853569716215134, -0.9080626368522644, -8.963176727294922, -0.5417605042457581, -0.7554084062576294, 1.5005042552947998, 1.0739046335220337, 0.25444597005844116, 3.2068424224853516, -0.8650858998298645, 0.10464451462030411, -0.3273455500602722, -0.2681911289691925]
[-3.5000507831573486, -1.126706838607788, 13.026844024658203, 3.294917106628418, 3.0538690090179443, 1.0169447660446167, 9.003756523132324, 5.806093215942383, -4.382925033569336, -0.6527778506278992, 2.2826945781707764, -4.575850963592529, 5.759402275085449, 2.505983352661133, -1.8712412118911743, 6.604482173919678, -4.162115097045898, 2.4614081382751465, 5.22761869430542, -13.080673217773438, 3.9878427982330322, 7.1295976638793945, 11.429755210876465, 2.313469409942627, -5.6531171798706055, -1.5082173347473145, 1.8558566570281982, -1.3638869524002075, 10.359514236450195, 4.255895137786865, -1.5881816148757935, -4.675180912017822, -4.848875999450684, -3.5918028354644775, -7.880125999450684, 7.8885908126831055, 1.291936993598938, -3.647562026977539]
[2.9873456954956055, 1.943003535270691, 12.238238334655762, 2.694835901260376, -1.6664457321166992, -0.8593046069145203, 0.5714461207389832, -1.1993911266326904, -0.475252240896225, 1.934828519821167, 3.462488889694214, 0.688819408416748, -0.925295889377594, -0.9228775501251221, -0.18692639470100403, -2.263157606124878, 2.2110917568206787, -0.4139828383922577, 1.1663990020751953, -3.3074398040771484, 0.46688833832740784, 0.8816394805908203, 3.251340627670288, -1.1523957252502441, 1.1028165817260742, -1.1272791624069214, -1.988505482673645, -6.36113977432251, 5.354822158813477, -1.321104884147644, -0.4816954433917999, -1.5703071355819702, -0.8890800476074219, -2.6083335876464844, -0.8038325309753418, -0.6619002819061279, 0.5562024116516113, 0.020615240558981895]
[6.494892120361328, -5.821023941040039, 5.017518997192383, 0.48602691292762756, -0.7115908861160278, 4.6719512939453125, 2.35367751121521, 2.060551881790161, 2.634326934814453, -0.3746994137763977, -1.8970650434494019, -1.162986397743225, -0.7355865240097046, -0.9711806774139404, 3.267679452896118, -3.59989857673645, 2.807138204574585, 2.7082467079162598, -8.206729888916016, -2.841580867767334, -0.5438912510871887, 6.126641750335693, -2.113617420196533, 4.191971778869629, 0.23697635531425476, -8.247159957885742, 7.466192722320557, -15.279361724853516, -4.851740837097168, -3.834130048751831, 13.6412935256958, -1.2058608531951904, 1.748764157295227, -3.4166176319122314, 6.291137218475342, -8.9791841506958, -5.426875114440918, -4.38466739654541]
[-1.1399980783462524, 6.460196495056152, 4.99758243560791, -2.8667550086975098, -4.142818927764893, -1.3457387685775757, 0.48156672716140747, -5.080578804016113, -0.8801486492156982, 12.98032283782959, 5.526358127593994, -4.439141273498535, -2.961237907409668, -1.0618199110031128, -11.307583808898926, -6.2486653327941895, 3.1025562286376953, -1.7346982955932617, -1.095246434211731, 1.1816701889038086, -5.499858856201172, -6.096407890319824, 1.0229285955429077, -9.85203742980957, 6.749338626861572, -8.16843032836914, -2.0904150009155273, -7.078255653381348, -2.3856441974639893, 0.5402443408966064, 0.18118925392627716, 0.04473156854510307, 0.7333387136459351, 10.499078750610352, 3.954603672027588, 0.1726633757352829, 6.515377998352051, 7.366939544677734]
[-2.1397101879119873, -3.6034576892852783, 4.224397659301758, 1.8898991346359253, 1.6089597940444946, 9.415124893188477, 8.137641906738281, 4.6963210105896, -3.7958788871765137, -1.1619962453842163, 3.6215696334838867, -2.911317825317383, 6.044516086578369, 5.072616100311279, -2.099513292312622, 6.899209022521973, -4.510668754577637, 1.771119236946106, 5.249572277069092, -14.583108901977539, 4.167367935180664, 5.896076202392578, 6.620002269744873, 4.283689022064209, -4.522706985473633, 1.9712735414505005, 0.6022351980209351, -0.03416150063276291, 10.147019386291504, 7.431633472442627, -4.740520000457764, -2.9509048461914062, -9.034552574157715, -0.993881344795227, -5.748546123504639, 8.57969856262207, 4.4633660316467285, -1.4491864442825317]
[3.132920980453491, -0.5756852626800537, 0.7280693650245667, 0.8754335641860962, -2.1828460693359375, -1.3367685079574585, 0.6090739965438843, -3.8649346828460693, 0.5518431067466736, 2.8697614669799805, 2.853584051132202, 1.7960394620895386, -2.288755416870117, 1.4578739404678345, -1.0601849555969238, -2.871997117996216, 2.5193545818328857, -2.8263707160949707, 0.7571184635162354, 0.29187899827957153, 0.7619896531105042, -0.06582677364349365, 4.639486789703369, 1.7719402313232422, 2.1820597648620605, -0.7644641399383545, -3.955925941467285, -6.875932693481445, 5.997053623199463, -0.22978127002716064, -2.360802412033081, -1.363171935081482, -0.013478772714734077, -1.4482835531234741, -1.2262811660766602, -0.320042222738266, 4.832736015319824, 0.4466765522956848]
[14.549081802368164, -3.2732558250427246, -1.1921175718307495, -1.692711591720581, 2.645367383956909, 1.3372128009796143, 0.4858642816543579, 2.609924793243408, 3.152247190475464, 5.107991695404053, -2.3862721920013428, 0.6886464953422546, 1.5559253692626953, -2.1596224308013916, 3.6533632278442383, -7.496653079986572, 0.3663252294063568, -7.718449592590332, -12.642792701721191, -2.6621687412261963, -1.7842340469360352, 6.812437057495117, 0.8329799175262451, -0.5953577160835266, 1.3449872732162476, -8.038372993469238, 7.601525783538818, -14.23480224609375, -5.763234615325928, -3.4063730239868164, 2.657966375350952, -0.009655704721808434, 6.239251613616943, -7.688209533691406, 6.648477077484131, -7.656729698181152, -8.174656867980957, -10.0223970413208]
[-1.754514455795288, -0.23191314935684204, -1.3165652751922607, -3.7674670219421387, -2.2855663299560547, 2.826545476913452, 0.4409853518009186, -5.397108554840088, -0.05711480230093002, 9.684673309326172, 5.383553981781006, -11.846059799194336, -6.0517578125, 0.07792592793703079, -7.395829200744629, -5.320684909820557, 6.764622211456299, -2.042448043823242, -0.6560760736465454, -4.5705180168151855, -7.685044765472412, -2.002197742462158, -1.3787537813186646, -0.042734723538160324, 5.70041036605835, 2.9205806255340576, -6.959753513336182, -8.551178932189941, -2.455254554748535, 2.041076183319092, -5.873664379119873, -1.2509593963623047, 3.0869662761688232, 9.684898376464844, 5.325613975524902, -3.1147425174713135, 4.773701190948486, 9.676634788513184]
[-1.1041505336761475, -4.364778995513916, 10.990385055541992, -1.5378551483154297, 0.5360646843910217, 4.437307357788086, 8.757980346679688, 2.8332409858703613, -2.341038465499878, -1.532429575920105, 4.68936014175415, -3.44364595413208, 4.41542911529541, 3.9587976932525635, -2.7908804416656494, 5.282229900360107, -6.271237850189209, 5.908283233642578, 4.533129692077637, -8.40826416015625, 0.3280084431171417, 6.746575832366943, 6.484527587890625, 4.818443775177002, -3.7264461517333984, -9.14087963104248, 3.4109439849853516, 0.04522254317998886, 10.012073516845703, -0.5459851026535034, -6.657985687255859, -1.866454839706421, -12.383273124694824, 3.307006597518921, -3.1175708770751953, 5.818418979644775, 0.25765854120254517, -1.1038053035736084]
[1.666942834854126, -6.110503196716309, 11.165797233581543, -0.21440955996513367, 0.8911229372024536, -1.9723284244537354, -1.623939871788025, 1.6877655982971191, 1.9029333591461182, -1.323352336883545, 4.949441432952881, 5.316195011138916, -0.7364512085914612, 0.17973482608795166, -0.5532286167144775, -5.437705993652344, 0.8346462249755859, 2.200862407684326, 0.10003923624753952, 0.034447431564331055, 0.2579336166381836, 1.412660002708435, 3.335108995437622, 0.13128206133842468, 0.9858008623123169, -12.094057083129883, -1.64364755153656, -9.179112434387207, 5.9997758865356445, 2.2265799045562744, 0.42021599411964417, -0.782311201095581, 0.027300948277115822, 2.5212531089782715, 0.26362621784210205, -0.5819182395935059, 2.271867036819458, -0.22613830864429474]
[5.638720512390137, -3.5997848510742188, 10.855552673339844, -1.8064180612564087, 2.106111526489258, 1.6215734481811523, -6.513255596160889, 2.6413588523864746, 0.6668132543563843, 3.6575419902801514, -10.160555839538574, -1.0416141748428345, -0.2951667010784149, -1.9200199842453003, 7.889531135559082, -5.457884311676025, 0.13765700161457062, 0.2290513962507248, -7.11448860168457, 5.41123628616333, 1.0703978538513184, 10.686196327209473, 4.070897102355957, 2.9403064250946045, 3.514312982559204, -6.644918441772461, 7.258368492126465, -12.916980743408203, -4.663671970367432, -3.186378240585327, 14.75927734375, 0.14372077584266663, 4.327601432800293, -2.280398368835449, 4.796253681182861, -3.7150638103485107, -6.681103706359863, -5.717336177825928]
[0.23097318410873413, 0.602073609828949, 8.063199043273926, 0.5424951314926147, -6.6864190101623535, -1.3702830076217651, 0.4484611749649048, -0.18833518028259277, 2.638312816619873, 8.068974494934082, 12.619221687316895, -6.989720821380615, -6.63291597366333, -3.058112144470215, -6.825132369995117, -2.754779577255249, 5.350342750549316, -1.435019612312317, 1.1996852159500122, -6.209883689880371, -6.070650577545166, -7.004448413848877, 3.1628148555755615, -1.9603168964385986, 2.8917620182037354, -5.817270278930664, -6.424562454223633, -8.449542999267578, -2.907172441482544, -0.5350727438926697, -10.954612731933594, 0.02597849816083908, 1.7606961727142334, 2.762845277786255, 2.958735942840576, -4.068199634552002, 6.562504768371582, 9.619083404541016]
[0.6340729594230652, -2.0946292877197266, -0.5312378406524658, 0.22107034921646118, 0.5266855359077454, -0.3201640844345093, -0.07525335997343063, -0.6060722470283508, 1.6889822483062744, 0.27557283639907837, 1.909633994102478, 0.4269249737262726, 0.40131232142448425, -1.3757824897766113, 0.7432746887207031, 0.756428599357605, -1.1877304315567017, -1.4162970781326294, 2.1292192935943604, 0.5297336578369141, 0.562078058719635, 3.895878314971924, 2.798778772354126, 2.5858981609344482, 1.9213738441467285, 2.882190227508545, 1.65134859085083, 0.5354766249656677, 0.3933127522468567, -0.5199657082557678, 2.410916328430176, 0.07837139070034027, -0.3216532766819, 1.1773220300674438, -0.5902774930000305, -0.18116439878940582, -0.44872164726257324, -1.280184268951416]

[-8.22506046295166, -1.175126314163208, -1.214409589767456, 3.206848382949829, -11.847688674926758, -0.3857528269290924, -2.7938859462738037, -2.6613457202911377, -2.829725980758667, 2.1467390060424805, 0.005111617036163807, -0.5882413983345032, 4.647160053253174, -0.9135642051696777, 3.2736542224884033, 3.287327289581299, -7.2060112953186035, 1.1283912658691406, 2.2186474800109863, -5.884237766265869, 8.018595695495605, 5.9749436378479, 1.5708595514297485, 3.2792539596557617, 7.8022308349609375, -4.520373821258545, -2.7484679222106934, 0.2672794759273529]
[-11.34355640411377, 7.511233806610107, -6.956387519836426, 2.664808988571167, -25.34345054626465, -9.381399154663086, -14.287368774414062, 13.0447416305542, 5.050932884216309, 4.937248229980469, -2.5381457805633545, -9.4636812210083, 0.3439146876335144, 15.962759017944336, 6.353298187255859, 9.150962829589844, -3.8200080394744873, 9.156901359558105, -4.917754650115967, -13.014954566955566, -8.778179168701172, -4.129147052764893, 9.587787628173828, 12.888106346130371, -17.787328720092773, 6.966605186462402, 3.803640842437744, -12.865823745727539]
[7.452307224273682, 2.231525182723999, -14.283061981201172, 6.830571174621582, -7.614777565002441, -16.461774826049805, 8.988511085510254, 5.01175594329834, 13.819425582885742, 19.70966911315918, 32.706600189208984, -8.568549156188965, 20.985790252685547, 12.704526901245117, -6.8128814697265625, -5.641664981842041, 4.536940574645996, 3.0706443786621094, 1.3844596147537231, 12.392938613891602, -1.5748502016067505, -41.462947845458984, 0.8997789025306702, 12.319937705993652, 4.0642924308776855, 17.278995513916016, -3.289358615875244, 2.755706787109375]
[4.706996440887451, 0.40850773453712463, 6.916594982147217, -3.643730640411377, 6.012380599975586, -1.0645709037780762, 1.1135495901107788, -3.8906736373901367, 7.761326313018799, 6.0934882164001465, 2.4442102909088135, -14.979153633117676, -1.402464747428894, 8.09829330444336, -1.8144497871398926, 1.537606120109558, -0.8770519495010376, -1.023534893989563, 12.139924049377441, -9.146871566772461, 0.7284952998161316, 5.736618995666504, 2.6976027488708496, 2.591454029083252, 7.876126766204834, -1.977088451385498, 6.045583248138428, 0.19821839034557343]
[-1.444644570350647, -9.177918434143066, 12.821100234985352, -15.29936695098877, 17.38296890258789, 11.88532829284668, -23.87369728088379, -0.07121574878692627, 6.945784568786621, -8.478490829467773, -2.96345853805542, -5.762833595275879, 19.00201416015625, 9.637198448181152, -5.350185871124268, 0.5844056606292725, -3.6212079524993896, 8.431884765625, -2.4885060787200928, -16.25361442565918, -8.814227104187012, 3.2602908611297607, 5.89749002456665, 3.5669384002685547, 5.788072109222412, -1.6358758211135864, -3.254209518432617, 8.601451873779297]
[13.91716480255127, 3.3314287662506104, 2.098640203475952, -13.474943161010742, -53.57441711425781, 10.409544944763184, 2.4557158946990967, -15.164852142333984, 16.063758850097656, -2.3320202827453613, 4.500675678253174, -3.259182929992676, 0.4590669870376587, -9.173432350158691, 16.93804359436035, -17.73662757873535, -6.964083671569824, 0.18035095930099487, -17.478282928466797, 7.117432594299316, -6.1390485763549805, 2.3143322467803955, 20.73981475830078, 0.007771933916956186, -10.720882415771484, -4.364840507507324, -3.9123880863189697, 5.451416015625]
[-12.364384651184082, -12.812522888183594, -28.889774322509766, -29.428682327270508, -3.9513285160064697, 11.841547012329102, -0.5314018726348877, 23.83500862121582, 1.976578712463379, -0.8847156763076782, 30.093812942504883, -8.054780006408691, -15.539609909057617, 24.005937576293945, -1.2252967357635498, 5.966524124145508, 4.16912841796875, 3.4845211505889893, 6.828556537628174, 1.1163357496261597, 14.416009902954102, -5.399385929107666, -0.4705708622932434, 5.417644500732422, 6.600183486938477, 9.85206413269043, 1.779383659362793, 0.5831628441810608]
[-3.298943042755127, -0.8077647089958191, 3.1952364444732666, -0.6448925733566284, -0.5096195936203003, 3.7042088508605957, -0.7052142024040222, -1.7144122123718262, -1.7703241109848022, 0.024559488520026207, 2.456541061401367, -0.9267758131027222, 4.463414192199707, -2.0549683570861816, -9.605310440063477, -0.05868664011359215, -0.9639527201652527, 1.386588454246521, 0.11480510979890823, 3.7607598304748535, 9.589019775390625, 0.09915566444396973, -2.0828771591186523, -7.883184909820557, 6.267660617828369, 1.663251519203186, 7.385136604309082, 2.740199565887451]
[3.6413300037384033, 0.8463314771652222, 1.7041808366775513, -6.070764541625977, -1.3080066442489624, -8.335744857788086, 6.623236179351807, -10.164268493652344, 14.529693603515625, 0.799227237701416, 2.2058348655700684, -1.3468554019927979, 6.341436386108398, -11.149177551269531, -2.4074814319610596, -7.851223945617676, 2.7570993900299072, -0.0023238961584866047, -5.041786193847656, -0.2606465518474579, 1.1155520677566528, -12.04201889038086, 50.140380859375, 4.799106597900391, 5.2020697593688965, 8.998770713806152, 12.382389068603516, 7.377335548400879]
[-75.60987854003906, -8.375112533569336, -4.053620338439941, 15.197027206420898, 20.099348068237305, 9.541559219360352, 3.4228920936584473, 37.51809310913086, -2.1920270919799805, 1.7550017833709717, 4.095335960388184, 2.665458917617798, -16.72311782836914, 21.88960838317871, 16.98931884765625, -9.854460716247559, -19.890966415405273, 3.1093075275421143, -27.9881649017334, -13.102871894836426, 15.631003379821777, -0.38059771060943604, -5.212202072143555, 8.474211692810059, -16.80805015563965, -32.432411193847656, 1.058302640914917, 0.34364286065101624]
[3.866560697555542, -1.5935118198394775, -2.6322450637817383, -4.869948863983154, 13.920753479003906, -13.70113754272461, -4.407012939453125, 3.094038963317871, 0.22312453389167786, 1.8994683027267456, 9.098479270935059, -0.47531893849372864, -6.779275417327881, 6.554605007171631, 15.530342102050781, -3.8553619384765625, -5.435181140899658, 6.401767730712891, -1.6915192604064941, -17.846237182617188, 6.65660285949707, -3.164821147918701, -6.3936238288879395, 4.0273237228393555, 17.623193740844727, -14.86636734008789, 2.1646294593811035, -10.677001953125]
[-3.486549139022827, -1.567697286605835, -5.974762916564941, 0.4444778561592102, -7.931400299072266, -8.046858787536621, 7.317808628082275, 1.9818438291549683, -4.46601676940918, -13.767410278320312, -3.7829082012176514, 20.032577514648438, -2.1072301864624023, -3.0793251991271973, 13.786871910095215, 3.3887829780578613, -34.25400924682617, -2.274571180343628, -4.017042636871338, -3.356332778930664, 7.641045093536377, 7.754245281219482, 2.9514400959014893, 21.178789138793945, 9.91879653930664, -9.273295402526855, 10.66042423248291, -1.264699101448059]
[-12.142086029052734, -4.566616535186768, 8.73084545135498, 11.46617317199707, -5.201011657714844, -0.91936194896698, -13.278630256652832, 15.649904251098633, 6.23709774017334, -23.68489646911621, -4.92029333114624, 15.158903121948242, 14.427650451660156, -0.9950643181800842, 17.46435546875, -5.040556907653809, -2.064890146255493, 4.963002681732178, 2.870765209197998, -0.3009711802005768, -12.621214866638184, 1.42694091796875, 6.006527900695801, 12.325178146362305, 9.25542163848877, -17.99103546142578, -1.9665006399154663, 8.213570594787598]
[9.821084976196289, 7.706899166107178, 10.867502212524414, -28.88562774658203, -18.474096298217773, 5.087954044342041, -3.0640130043029785, -5.348011016845703, 8.583745956420898, -15.857768058776855, 23.033061981201172, -12.535375595092773, 28.228965759277344, -11.847432136535645, 13.612266540527344, 3.8399765491485596, 15.976499557495117, 1.099016547203064, -3.120732307434082, 25.847505569458008, -10.050206184387207, 8.91278076171875, -7.317492485046387, 9.394720077514648, -23.577375411987305, 17.378341674804688, 0.5081837773323059, 23.07355308532715]
[9.890425682067871, 2.3732569217681885, 7.071630477905273, -0.5319852232933044, 2.031257390975952, -10.054963111877441, -5.866705894470215, -3.9538047313690186, -3.7569096088409424, -12.8905611038208, 4.960443496704102, -0.4007056951522827, -9.589581489562988, -18.124353408813477, 5.363440990447998, -10.060893058776855, 8.310505867004395, 0.20621119439601898, -1.922394037246704, 11.179817199707031, -3.267437696456909, -1.4197310209274292, 5.163992404937744, -1.782017469406128, -2.63700008392334, 14.141892433166504, 14.64115047454834, 1.936911940574646]
[1.4293259382247925, 6.814641952514648, 11.184371948242188, -13.704977035522461, -6.650565147399902, -3.274970531463623, -1.2502294778823853, -5.821620941162109, 3.159534215927124, 6.231630325317383, -12.125986099243164, -7.276854038238525, 11.728616714477539, -7.348674774169922, 16.12285041809082, -20.393430709838867, 4.034836769104004, -1.2458337545394897, -3.946568012237549, 0.5130149126052856, -10.796130180358887, -11.649212837219238, 14.05186939239502, -7.842770576477051, -9.680649757385254, 4.082362174987793, -3.2208032608032227, 2.578042984008789]
[0.619958758354187, 6.365586757659912, 8.017419815063477, -2.751555919647217, 0.8023074269294739, -2.9926986694335938, -2.557621479034424, -12.114792823791504, 7.558279037475586, 7.974604606628418, -11.005663871765137, 2.656240463256836, 16.241304397583008, -7.304152488708496, -3.0883452892303467, 8.39907169342041, 1.532570242881775, 1.9625130891799927, 0.7683021426200867, -8.99022388458252, -1.2373899221420288, -5.384927749633789, 16.522167205810547, 8.97532844543457, -8.326054573059082, 2.3814330101013184, 19.64823341369629, -1.6147212982177734]
[1.8398492336273193, -16.8515625, -2.1974706649780273, 6.87161111831665, -9.99517822265625, 8.22015380859375, -4.5919294357299805, 5.991480827331543, -2.6455271244049072, 8.490089416503906, 1.6964930295944214, -5.310551166534424, 4.803689479827881, 3.9035067558288574, -0.9795742630958557, -1.2522826194763184, -8.351858139038086, 2.9308035373687744, 2.802307367324829, -28.57672691345215, 13.108296394348145, 2.77133846282959, 1.4653908014297485, 5.234084129333496, 7.139042854309082, -13.579511642456055, -9.49006462097168, 2.334486246109009]
[-16.481531143188477, 2.7255349159240723, 7.999536991119385, 4.338506698608398, 19.376216888427734, 19.690156936645508, -2.1395726203918457, -1.4324924945831299, -1.9241493940353394, -8.236933708190918, 8.359437942504883, 1.1119555234909058, 12.910191535949707, 11.582473754882812, -3.9768245220184326, -14.910860061645508, -21.225872039794922, 3.49277925491333, 20.147258758544922, -12.252341270446777, -26.833322525024414, 1.5444235801696777, 2.654956817626953, -8.299697875976562, -28.248430252075195, -4.2901458740234375, -4.116411209106445, 5.658971309661865]
[1.7347038984298706, -5.578347682952881, -1.4033622741699219, 10.709685325622559, -0.9210577011108398, 0.4197731018066406, -10.791509628295898, 10.982903480529785, -12.724754333496094, -26.5941104888916, -9.088994026184082, 1.1995837688446045, 10.113460540771484, -8.939876556396484, 1.8238623142242432, 5.888208866119385, -11.704937934875488, 2.1125905513763428, -4.606197357177734, 13.831947326660156, -1.8992141485214233, 15.35472297668457, -4.8745927810668945, 12.694313049316406, 0.7063593864440918, -0.7603185176849365, -5.769059658050537, 8.184779167175293]
[-16.25388526916504, -8.774968147277832, 14.351764678955078, 5.57870626449585, 32.25823211669922, 8.720056533813477, -0.10418711602687836, -1.252626895904541, 4.486750602722168, 18.143545150756836, 2.7632806301116943, 16.793283462524414, -5.346067905426025, 0.5860165357589722, 35.067440032958984, 6.374656677246094, -2.9833884239196777, 2.573404312133789, -15.129791259765625, 13.657124519348145, 14.460587501525879, 7.391608238220215, -10.36982536315918, 20.293319702148438, -13.938520431518555, -7.9068989753723145, 4.801368236541748, -2.9170234203338623]
[-8.050224304199219, -25.018571853637695, 16.645200729370117, 9.541635513305664, 25.62908172607422, -32.454044342041016, -16.533105850219727, 21.62738609313965, 5.598223686218262, 8.947747230529785, -1.0602935552597046, 1.6656066179275513, -16.65190887451172, -14.617837905883789, 5.039633750915527, 9.336251258850098, -21.358585357666016, 3.3679020404815674, -16.836456298828125, -22.926773071289062, -15.251646995544434, 14.333558082580566, -4.569571495056152, 28.086898803710938, 5.273670673370361, -4.42350959777832, 2.0387532711029053, -12.086901664733887]
[10.062666893005371, 11.65027141571045, -3.8556408882141113, 0.21087117493152618, 3.069162368774414, 1.5783947706222534, 2.2998874187469482, -7.544384002685547, 14.020179748535156, -9.366853713989258, 14.383862495422363, -5.676872253417969, 0.40091681480407715, -0.1478571742773056, 3.121457099914551, -20.217103958129883, -1.0716718435287476, 0.25532013177871704, 23.090452194213867, 12.828803062438965, 0.2592207193374634, -4.082828998565674, 11.801145553588867, 2.8699464797973633, -24.922971725463867, 2.097121238708496, -14.251776695251465, 14.192548751831055]
[3.863938808441162, 0.3492638170719147, 7.227813720703125, 9.567316055297852, 9.412788391113281, -3.4272735118865967, -13.867622375488281, 3.7454230785369873, 2.672504425048828, -9.79063606262207, -5.68754243850708, -0.1296331286430359, 8.116332054138184, -5.882538318634033, 2.7838351726531982, -5.571569919586182, -2.2626802921295166, 1.7403630018234253, 3.715672492980957, -4.366561412811279, -1.7241830825805664, 20.345979690551758, 3.564589500427246, 4.833365440368652, -6.439763069152832, 7.390802383422852, -9.48775577545166, -0.7848610877990723]
[7.918912887573242, 1.9476138353347778, 11.08791446685791, -6.458040714263916, 6.6257710456848145, 0.4007023870944977, -0.09768395125865936, -18.04277229309082, 12.681264877319336, -11.158302307128906, -0.884109616279602, -1.3466943502426147, 3.361429214477539, -14.049859046936035, 2.3662009239196777, -13.852588653564453, 1.6978634595870972, -1.5200656652450562, 4.4284749031066895, 12.460150718688965, 15.141948699951172, -5.9546732902526855, 16.746784210205078, -7.42471981048584, 3.304623603820801, 12.145716667175293, 17.038986206054688, 11.980937957763672]
[-32.277976989746094, -15.714798927307129, -29.442106246948242, -4.214998245239258, 4.875056743621826, 22.849971771240234, -1.0539113283157349, 3.52371883392334, -15.796838760375977, 4.887289047241211, 12.277970314025879, -0.709532618522644, -16.53179359436035, 11.981595039367676, 2.2127225399017334, 3.2156968116760254, -6.046560287475586, 2.128767967224121, 9.557326316833496, -12.59814167022705, 8.31600284576416, 4.184173583984375, -23.845897674560547, 5.240494728088379, 21.871286392211914, -12.066033363342285, 19.083023071289062, -5.496368885040283]
[5.954458713531494, 3.590702533721924, -6.068973064422607, -2.9413578510284424, 9.997248649597168, 5.653720378875732, -4.794053554534912, 13.810646057128906, 12.127904891967773, -3.2690045833587646, 8.2306547164917, -11.44002914428711, -10.846576690673828, -10.817429542541504, -3.887040138244629, -0.6119458079338074, 3.6725847721099854, 2.0515224933624268, 14.607003211975098, 1.272218942642212, -1.6977699995040894, 8.58311653137207, 7.135454177856445, 0.7130534052848816, -38.37513732910156, 22.429609298706055, -24.285526275634766, 4.045676231384277]
[-7.334433555603027, 3.9944424629211426, -23.770797729492188, -17.647655487060547, -7.04995584487915, -5.0109453201293945, -4.675863742828369, -1.3091331720352173, -0.28223225474357605, -6.87462043762207, 3.122223138809204, -12.070847511291504, -16.983911514282227, 1.0481642484664917, 5.788135528564453, -7.998405456542969, 5.0133280754089355, 0.5665217638015747, -1.162170648574829, 12.400895118713379, 5.497339725494385, 0.34820571541786194, 7.709919452667236, -5.575224876403809, 8.150274276733398, -8.264481544494629, -18.098365783691406, 5.796615123748779]
[2.9393694400787354, -7.798630714416504, 15.266190528869629, -23.078805923461914, 6.9209394454956055, 26.591327667236328, -6.2017035484313965, 10.405179977416992, 11.173386573791504, -18.79610252380371, 9.845176696777344, 14.706282615661621, 10.96615982055664, 1.976496934890747, 16.226192474365234, 2.958538055419922, 6.908335208892822, 2.5259344577789307, 11.854508399963379, 3.097970724105835, -8.379801750183105, -21.53266143798828, 8.747773170471191, 4.635283946990967, -1.0139573812484741, 10.287735939025879, -13.535319328308105, -0.9078356027603149]
[-2.2259624004364014, 4.166158199310303, 8.09957504272461, 5.727534770965576, 6.942386150360107, -5.222639083862305, -12.214423179626465, 31.558048248291016, 8.279684066772461, -0.647077202796936, -3.331195116043091, -4.937039852142334, 0.33705589175224304, 5.478494644165039, 4.809023857116699, -10.300570487976074, 5.447234153747559, 3.300210952758789, 0.44034308195114136, -9.50616455078125, -20.790576934814453, 18.96455955505371, -1.3537440299987793, 7.32944917678833, 8.118256568908691, -1.968510389328003, -3.2651755809783936, 0.07699137926101685]
[-5.490555286407471, -2.5213849544525146, -0.698501706123352, 15.240034103393555, -6.668287754058838, 1.0662317276000977, -5.135167121887207, -6.743834495544434, -1.8023864030838013, 3.5233442783355713, -14.053812026977539, -4.995038032531738, 7.8504815101623535, -2.195918560028076, 3.5864598751068115, 1.5541977882385254, -5.309759140014648, 3.1321611404418945, 2.623711585998535, -6.139578342437744, 3.225421190261841, 12.633576393127441, 4.726163864135742, 4.181628227233887, 6.152976036071777, -2.1829094886779785, -0.3307182788848877, 10.102616310119629]
[18.002023696899414, 14.00207233428955, -25.97707176208496, 3.28328013420105, -2.178845167160034, 30.591856002807617, 4.107789039611816, -3.491334915161133, 26.78321647644043, 16.224590301513672, -1.6014705896377563, 1.645127296447754, -4.889257431030273, 10.684136390686035, 7.627442359924316, -12.516838073730469, 6.145555019378662, -1.0009557008743286, -2.237053155899048, -1.4000648260116577, 0.6852902770042419, -1.9823521375656128, 9.012934684753418, -7.293407440185547, -3.178947925567627, -15.276808738708496, 11.334156036376953, 11.72640609741211]
[-9.198112487792969, -39.20283508300781, -14.19045352935791, 6.58996057510376, -6.887752056121826, 9.150994300842285, -3.1940128803253174, 8.02389144897461, -4.138713359832764, 7.563526153564453, 1.0991019010543823, 5.751932144165039, -0.4097142815589905, 4.9428486824035645, -1.7190498113632202, 0.7447569370269775, 1.4703857898712158, 5.371757507324219, 5.490106582641602, 3.0837478637695312, 15.490096092224121, -4.211203575134277, -11.074570655822754, -8.181660652160645, 24.97406005859375, -16.64296531677246, 7.335893154144287, 3.2717878818511963]
[-0.6976324319839478, 6.875970840454102, -29.517507553100586, -27.024751663208008, 1.62862229347229, -0.21389399468898773, 4.348356246948242, 5.309798717498779, -1.3401840925216675, 13.244970321655273, 5.746482849121094, 1.3554147481918335, -1.4726399183273315, 6.710248947143555, 5.161395072937012, -13.800420761108398, 8.777264595031738, -0.8147044777870178, 2.2860116958618164, 8.162927627563477, 11.086409568786621, 1.5938249826431274, -3.9853451251983643, -14.656218528747559, 14.27595329284668, -1.2585054636001587, 14.217734336853027, -8.023714065551758]
[-10.45053482055664, -1.1184066534042358, 0.8963816165924072, -0.39204657077789307, -5.41156530380249, 3.2014150619506836, 0.03405908867716789, 1.2725273370742798, -10.02785587310791, -14.08724594116211, -15.434530258178711, 7.010817527770996, -4.73541784286499, 0.4812110364437103, 3.3483073711395264, 4.924613952636719, -5.762986183166504, 1.6105852127075195, 0.1065954864025116, 1.2663003206253052, 10.705573081970215, 6.2964348793029785, -2.0960209369659424, 4.352092742919922, 7.983838081359863, -6.3902764320373535, 3.300942897796631, 4.148200511932373]
[-7.147212982177734, -11.597511291503906, -21.740880966186523, 0.4417163133621216, -0.8609495759010315, 9.094046592712402, -0.8864678144454956, 6.274288177490234, -18.74544334411621, 26.97260093688965, -4.633915424346924, 16.71027183532715, -9.082832336425781, 25.67183494567871, 11.922802925109863, 21.32712173461914, 5.644294261932373, 2.396376132965088, -12.618967056274414, 14.075225830078125, -9.610610008239746, -7.087152004241943, -15.44664192199707, 14.88464641571045, -0.7839414477348328, -5.697010040283203, 32.538082122802734, -20.114051818847656]
[-15.757075309753418, -21.414928436279297, -2.246847629547119, 1.8477141857147217, 14.303750991821289, -6.314098358154297, 0.4472026526927948, 14.4407958984375, -9.864421844482422, -12.670594215393066, -11.477593421936035, 0.5132113099098206, 1.1899266242980957, 34.26151657104492, -12.966517448425293, -0.37580958008766174, -10.305282592773438, 3.355348825454712, -2.2046666145324707, -4.711762428283691, -8.525778770446777, 15.061651229858398, -10.625251770019531, -2.929112434387207, -8.262662887573242, 25.19022560119629, -14.749056816101074, 3.8120429515838623]
[5.7336554527282715, 5.319607734680176, 1.0226436853408813, 1.6561853885650635, -9.713333129882812, -7.710016250610352, -8.104736328125, 7.590424537658691, -9.000469207763672, -7.609166145324707, -4.688292503356934, 8.912115097045898, 13.964555740356445, -1.0082699060440063, 3.424210786819458, 6.089352130889893, -0.6409928202629089, 4.586677074432373, -10.9296875, -4.402544975280762, -5.971005439758301, 8.303399085998535, 2.662365198135376, 13.946941375732422, 6.347568511962891, -5.2270331382751465, 15.29894733428955, -0.8312800526618958]
[1.063051700592041, -19.223222732543945, -9.86014461517334, 3.487204074859619, 7.827426433563232, 11.322837829589844, 5.029705047607422, 4.443660736083984, -0.8488262891769409, -0.8980448842048645, 4.328783988952637, 2.0640008449554443, 0.2976369261741638, 17.96167755126953, -8.938559532165527, 8.323566436767578, 5.793210029602051, 0.9115193486213684, 2.766803503036499, -7.4692888259887695, 22.814048767089844, 3.7825675010681152, -1.0805975198745728, 4.29793119430542, 16.218910217285156, -4.17268705368042, 6.8973188400268555, -0.2593681812286377]

[-8.926497459411621, 0.5940701961517334, 6.093377113342285, 3.7628304958343506, -0.29701700806617737, -3.791134834289551, 0.0022423069458454847, -2.2184953689575195, 1.3980604410171509, -9.891566276550293, -4.071516513824463, -2.9480807781219482, 5.077658176422119, 0.7217717170715332, 6.749784469604492, 4.239509105682373, -0.11956086754798889, -0.9180306792259216]
[0.951956570148468, 7.3726911544799805, 2.9127767086029053, -6.2410359382629395, 2.363495111465454, -3.837985038757324, -2.8945906162261963, -27.91010093688965, 41.59983444213867, 11.239999771118164, 5.249329090118408, -2.0661327838897705, -7.058682441711426, -0.5483217239379883, -18.060535430908203, -6.403083801269531, -3.0047521591186523, 2.3093557357788086]
[2.663116931915283, 5.53702449798584, -12.68445110321045, 27.26714515686035, 15.440556526184082, 9.932374954223633, -7.157444477081299, -6.216421604156494, 6.512673854827881, 5.896060943603516, 11.551523208618164, -2.032829761505127, -7.1145524978637695, 9.377425193786621, -30.870603561401367, -3.6214802265167236, 6.285701751708984, 7.841784954071045]
[28.7705135345459, 0.42724674940109253, -24.431095123291016, -0.366098016500473, -1.4092155694961548, 13.962618827819824, 9.203970909118652, 6.325897216796875, 4.071233749389648, 3.5517795085906982, -1.1779797077178955, -26.210649490356445, -13.928306579589844, -0.32416853308677673, -11.245048522949219, 0.49698013067245483, -7.415143013000488, 8.190492630004883]
[8.040962219238281, 0.2321150004863739, -5.359161376953125, -3.3281502723693848, -7.621480464935303, 3.664323329925537, 1.9406120777130127, 0.12158610671758652, 30.20519256591797, -41.76081466674805, 16.42896842956543, 2.713271379470825, -4.745238304138184, 5.5186076164245605, 2.7080705165863037, 6.4292683601379395, 8.51383113861084, -32.25096130371094]
[1.2204008102416992, 10.098881721496582, 5.143788814544678, -28.637638092041016, 25.710752487182617, -0.08428151160478592, -2.554903507232666, 21.617151260375977, -9.531981468200684, 7.018313407897949, -13.429591178894043, -3.59047794342041, -9.114441871643066, -57.184940338134766, 5.899832248687744, 0.5579497814178467, -2.2726500034332275, 22.710779190063477]
[-5.069250106811523, -10.39594554901123, 13.359808921813965, 2.694096803665161, 2.1978089809417725, 10.306355476379395, -5.018725872039795, 4.183554172515869, -1.8101292848587036, -3.3143255710601807, 3.7284786701202393, 9.108858108520508, -10.406209945678711, 3.7030510902404785, 0.7628107070922852, -14.12399673461914, -0.21352261304855347, -7.34501314163208]
[3.0160036087036133, -1.9906928539276123, 2.546476125717163, 12.0897855758667, 14.316327095031738, -7.1706953048706055, 6.173962116241455, 8.056146621704102, 2.422940254211426, -0.6520203351974487, 2.9055778980255127, -6.183639049530029, -0.337553471326828, 7.414192199707031, -4.5677337646484375, 2.151824474334717, 1.1160492897033691, 2.1237754821777344]
[9.970372200012207, 1.677411675453186, 10.172706604003906, 8.350679397583008, 0.9748196005821228, -0.6488772630691528, 7.6945648193359375, -2.2969303131103516, 1.3391281366348267, -0.07952340692281723, 4.066915512084961, 2.617206335067749, 2.460195779800415, -1.1714280843734741, 6.707150459289551, -8.450040817260742, 4.582314491271973, 0.9187977910041809]
[1.6779699325561523, -17.2764892578125, -13.194113731384277, -10.101644515991211, -5.099391460418701, -6.766580581665039, -17.871990203857422, -10.536107063293457, 4.423050403594971, 13.038803100585938, -9.96418571472168, 2.7996373176574707, 3.534883737564087, 0.5979518890380859, -7.078985691070557, -7.919504165649414, 7.501169204711914, -7.007256984710693]
[8.499162673950195, -23.74250602722168, 21.389108657836914, -12.098004341125488, -9.95913028717041, -4.177618026733398, -4.811438083648682, 8.984436988830566, -16.37824058532715, -12.093515396118164, -14.13134765625, 12.570221900939941, 9.67898941040039, -1.1495872735977173, 14.964841842651367, -37.12771224975586, 5.9946722984313965, 3.6472156047821045]
[-7.9434356689453125, -80.97294616699219, 4.49601936340332, -2.275165319442749, 3.665252685546875, -57.15336608886719, 0.6231752038002014, -0.47654810547828674, 6.556859493255615, 29.414697647094727, 11.464240074157715, 2.6126866340637207, -0.3214089274406433, 2.7822585105895996, 14.173295021057129, -1.3501307964324951, -4.14940881729126, 4.032215118408203]
[4.895606517791748, -0.19399622082710266, 7.63102912902832, 12.527017593383789, 6.805863857269287, -3.276132106781006, -1.5790244340896606, 12.037724494934082, 0.9027327299118042, -1.2124207019805908, 4.801097393035889, -8.15098762512207, 7.258624076843262, -2.4474995136260986, 4.237742900848389, 4.320983409881592, 6.125494480133057, 1.3837761878967285]
[13.925895690917969, -1.385865330696106, -0.8712786436080933, 10.529166221618652, -0.6433678269386292, 10.101216316223145, 7.109515190124512, -1.041155457496643, 23.361215591430664, -5.508114814758301, 3.7777278423309326, -40.98824691772461, -2.632298707962036, -6.862053394317627, -53.6322135925293, -4.791668891906738, 4.866517066955566, 9.32190227508545]
[-14.290369987487793, 11.024669647216797, 3.815734386444092, 1.0667437314987183, 7.1580915451049805, -2.108970880508423, 6.434051990509033, 21.851831436157227, 1.6200634241104126, -17.041427612304688, -5.512203693389893, 3.784731149673462, 18.382999420166016, -6.972174644470215, 9.216805458068848, 0.023085013031959534, 30.628358840942383, -11.69918441772461]
[-4.842955589294434, -1.5890926122665405, 2.7134974002838135, -4.623224258422852, -3.2751200199127197, -5.279250621795654, -0.42048951983451843, -2.6360421180725098, 5.171199798583984, -7.64728307723999, -23.585205078125, -13.288036346435547, 9.434600830078125, -2.317716121673584, 4.41961669921875, 7.835041522979736, -2.752812147140503, -1.543717622756958]
[-3.587724208831787, 8.513137817382812, 9.342130661010742, 11.041791915893555, 0.8956509828567505, -1.6101808547973633, 12.148663520812988, 4.2770094871521, -5.085911273956299, -14.839149475097656, 8.520540237426758, -22.759723663330078, -6.987224578857422, -5.46309232711792, 9.98233413696289, 17.965553283691406, -8.050544738769531, -5.038171291351318]
[-33.893157958984375, -1.0491598844528198, -21.011962890625, -11.954178810119629, 11.890373229980469, -12.054834365844727, -3.317162275314331, -0.6129729151725769, -13.553730964660645, 8.359464645385742, 24.808557510375977, 12.689284324645996, -12.986069679260254, -11.488166809082031, -1.71575927734375, 7.105813980102539, -1.7198842763900757, 2.536210536956787]
[-4.015130043029785, 0.006952677387744188, 5.62696647644043, 3.9030182361602783, -0.8049141764640808, -1.67626953125, -0.8996966481208801, -2.7173261642456055, 0.9581181406974792, -9.768784523010254, -3.776047945022583, -3.404289960861206, 9.630870819091797, 0.572022557258606, 7.2427825927734375, 10.820487022399902, -1.7628793716430664, -5.742955684661865]
[-18.021743774414062, -2.1258230209350586, -0.07216744869947433, 3.9002697467803955, 17.374345779418945, -0.0465279221534729, 0.5056806206703186, 0.7422850728034973, 23.630722045898438, 7.380500316619873, 7.813348770141602, -0.49897894263267517, -8.00813102722168, 27.592742919921875, 1.6253516674041748, 1.5703679323196411, -6.78587007522583, 1.0139853954315186]
[-4.322906970977783, -26.290494918823242, 30.28388214111328, -2.6939189434051514, 0.08146045356988907, 2.8623695373535156, 0.0851365327835083, -4.717358589172363, -2.51507306098938, 13.967905044555664, 1.3172177076339722, -3.3534491062164307, -6.319280624389648, -1.6218252182006836, -21.349750518798828, -1.1402009725570679, -12.841279983520508, -0.6224067211151123]
[-6.738194465637207, -12.364256858825684, -17.274869918823242, -3.1845450401306152, 1.2047359943389893, 3.9020915031433105, 3.7917134761810303, 3.433791160583496, -5.148249626159668, -8.223593711853027, 9.59503173828125, -1.7409788370132446, -5.632818698883057, 35.580448150634766, -12.016684532165527, 0.6147881150245667, 1.986081838607788, -31.178028106689453]
[3.7996654510498047, 5.513031005859375, 1.1153911352157593, 0.3633061945438385, 5.025656700134277, -3.7873077392578125, -8.417216300964355, 0.7814306020736694, -23.483495712280273, -6.743031024932861, -7.551000118255615, 4.365224838256836, 12.428823471069336, -4.05270528793335, 9.508709907531738, 24.131765365600586, 6.532820701599121, 4.364720821380615]
[-1.9953951835632324, 0.5465541481971741, -6.368000030517578, -12.209344863891602, -13.037673950195312, 1.1153281927108765, -6.769948959350586, -19.193359375, 25.698564529418945, 4.894446849822998, -13.314430236816406, -6.195918083190918, -2.3920228481292725, 5.166537284851074, -16.610980987548828, -0.2104727029800415, -6.968942642211914, -8.438061714172363]
[-8.101296424865723, 7.17231559753418, -2.3235504627227783, -10.776498794555664, 5.309589385986328, 2.7864174842834473, -1.2020949125289917, 13.059685707092285, 3.2294797897338867, 4.0226521492004395, 4.229165077209473, -16.034887313842773, 11.62399673461914, 8.180679321289062, -3.1746702194213867, 13.61525821685791, -4.689216613769531, -13.146388053894043]
[-1.4513187408447266, 4.918395519256592, -10.13560962677002, -9.392779350280762, -12.292713165283203, 0.3705602288246155, 14.470924377441406, 2.91525936126709, -12.200439453125, -9.648011207580566, -8.258788108825684, 6.2588396072387695, 16.83295249938965, 18.880598068237305, -1.3650363683700562, -7.3641886711120605, -12.357213973999023, -14.164835929870605]
[1.7450140714645386, 20.226280212402344, 17.53944206237793, 0.6803008317947388, 3.903140068054199, -45.792598724365234, 5.427559852600098, -6.58275842666626, 64.84768676757812, 4.100779056549072, 5.918948650360107, 6.62221622467041, -10.569165229797363, 19.699474334716797, 1.6483114957809448, -3.117037773132324, -20.79503059387207, 0.9606966376304626]
[5.770266532897949, -2.518867254257202, -13.869516372680664, 4.144282341003418, -2.42173433303833, 3.2827816009521484, -2.0774505138397217, -6.766729831695557, -7.8234968185424805, -0.21211151778697968, -3.910433769226074, -6.369080543518066, 22.803539276123047, 7.040060520172119, -7.842960357666016, 0.44511908292770386, 1.3974618911743164, 1.6662160158157349]
[-5.410089492797852, 10.031164169311523, -7.192023754119873, -6.28038215637207, -2.74468731880188, -19.600589752197266, -37.545616149902344, 2.4057798385620117, 25.39472770690918, 14.68408489227295, 13.588763236999512, 1.4914898872375488, -10.291730880737305, 18.149362564086914, -6.055530548095703, 0.7727599740028381, 9.059617042541504, 9.9091215133667]

[-1.2990394830703735, 4.43131685256958, -0.4105234444141388, -4.667681694030762, -0.3789798617362976, -3.4393932819366455, -2.4139440059661865, 3.224931001663208]
[10.164399147033691, 0.9639060497283936, 2.6709954738616943, 6.0563788414001465, 4.147059440612793, -33.416114807128906, 22.929000854492188, -7.068868637084961]
[-6.041715621948242, -6.698361873626709, -12.22036361694336, -44.03485870361328, -1.9150004386901855, -1.8663445711135864, -16.07513427734375, -2.777151346206665]
[-0.36388692259788513, -15.707873344421387, -12.810907363891602, -3.676901340484619, -1.0320543050765991, 9.56069278717041, 5.812997341156006, 10.957266807556152]
[24.480520248413086, 7.3662590980529785, -8.17613410949707, -1.3979758024215698, 8.541474342346191, 11.266555786132812, -23.59092140197754, 0.40185490250587463]
[-51.46913146972656, -2.355487108230591, -2.2679708003997803, 7.943181037902832, -6.6515421867370605, -0.48141083121299744, -8.118256568908691, 9.070704460144043]
[-19.610166549682617, -17.895387649536133, -15.567331314086914, -36.63151168823242, -10.878971099853516, -1.9866541624069214, 14.784790992736816, -1.7839417457580566]
[-3.6417791843414307, -0.3750513792037964, -16.451114654541016, -25.042537689208984, 10.551858901977539, 14.114603996276855, -4.952188968658447, -8.240395545959473]
[-18.224048614501953, 0.07888848334550858, 10.699892044067383, -2.8977770805358887, -57.80491256713867, -46.5330810546875, -16.19952392578125, -53.52509307861328]
[-2.481034517288208, 4.142269611358643, 1.4152157306671143, -3.0909042358398438, 0.1650613397359848, -5.5612077713012695, -0.5131237506866455, 11.337435722351074]
[2.7148029804229736, -3.67460298538208, 5.989964962005615, 3.1791129112243652, -3.210305690765381, -5.983021259307861, -4.230188369750977, 0.6373963952064514]
[8.380423545837402, 12.703454971313477, 4.599254608154297, 10.030694007873535, 2.049900770187378, 4.620080471038818, -10.145084381103516, -18.835147857666016]
[-12.508857727050781, 22.895185470581055, 8.215751647949219, 7.383335590362549, -16.514022827148438, -36.54828643798828, -10.877481460571289, 0.02195902168750763]
[-0.6566659212112427, -2.1084177494049072, -2.301959991455078, 0.5029035806655884, 1.1728423833847046, 6.511504650115967, -1.2271435260772705, -4.906569004058838]
[0.3835451602935791, 0.8758808970451355, -2.3692495822906494, 0.6202495098114014, -12.133338928222656, -2.8478739261627197, 6.093242168426514, 1.3736857175827026]
[11.104042053222656, 57.29952621459961, 4.856376647949219, -0.7002143859863281, -2.3364500999450684, 2.229973554611206, -42.106712341308594, -18.19916534423828]
[-5.8231329917907715, 1.786644458770752, -2.9607365131378174, -7.627593994140625, 4.808683395385742, -2.299529790878296, 4.099295139312744, -9.36738109588623]
[-12.885930061340332, 0.38255807757377625, -2.2198283672332764, 5.979297637939453, -1.3229364156723022, 1.3718734979629517, 10.016386032104492, -22.28299903869629]
[11.57239818572998, -14.767751693725586, 17.579286575317383, 30.587614059448242, 8.524919509887695, -9.195634841918945, 22.941543579101562, 30.069095611572266]

[0.25935277342796326, -6.1014404296875, 3.98087477684021]
[-11.484432220458984, -43.419166564941406, -4.429584980010986]
[14.06146240234375, 6.571052074432373, -85.2049789428711]
[0.7999529838562012, 1.1115578413009644, -12.569744110107422]
[-20.65576934814453, 3.0530781745910645, -15.4871244430542]
[-20.045053482055664, -9.529505729675293, -3.762861728668213]
[-16.367752075195312, -17.600181579589844, -3.94191575050354]
[6.216221332550049, -0.6813757419586182, -53.99540328979492]
[-7.064891815185547, 4.026523590087891, 1.6651875972747803]
