[3.511687755584717, -3.7989747524261475, -4.035646915435791, -1.4056602716445923, 3.8160157203674316, -0.7817057967185974, 2.1926426887512207, -1.2294952869415283, -2.0908491611480713, 2.057400941848755, -1.4544854164123535, -4.207142353057861, 1.0691475868225098, 3.4262874126434326, -3.7402048110961914, 2.3005802631378174, -5.889729976654053, 0.9132504463195801, -0.07513751834630966, -2.6272478103637695, 2.4822545051574707, 3.9799954891204834, 3.306769847869873, -2.9041311740875244, 1.8206567764282227, 8.855926513671875, -1.674908995628357, 7.148677825927734, 4.198911666870117, 2.2516279220581055, 0.23147736489772797, 4.232456684112549, -0.8487394452095032, -6.523458957672119, -1.0317456722259521, 0.022661469876766205, -2.842439889907837, -1.3546651601791382]
[-8.239846229553223, -2.5711629390716553, -13.200460433959961, 26.158945083618164, 18.00349235534668, -33.58470153808594, 8.363333702087402, -7.480349540710449, -1.0979561805725098, 42.51975631713867, 19.40991973876953, -6.927441120147705, -17.06929588317871, 7.447934627532959, -22.161088943481445, 11.1181640625, 5.245022773742676, 19.633333206176758, -6.316082000732422, -7.407527923583984, -2.351832151412964, -0.6313709616661072, -14.034921646118164, -5.370524883270264, 27.492809295654297, 26.162580490112305, -6.904699802398682, 5.278517723083496, 21.33714485168457, 22.072555541992188, -0.3220476508140564, -15.495189666748047, 17.474628448486328, 10.331514358520508, 6.595704555511475, -18.86767578125, 2.3593533039093018, -0.07654107362031937]
[0.1312720775604248, -0.25623640418052673, 0.15197578072547913, 0.23736968636512756, -0.052659809589385986, 0.1484105885028839, 0.17463183403015137, 0.23055046796798706, 0.18635395169258118, -0.13072124123573303, 0.21568483114242554, -0.19064593315124512, 0.21427342295646667, 0.06764981150627136, -0.0013506710529327393, 0.23589614033699036, -0.19062672555446625, 0.09988144040107727, -0.19339698553085327, 0.2610459625720978, -0.18835289776325226, -0.02567613124847412, -0.11564765870571136, -0.24276289343833923, 0.10088998079299927, -0.09930326044559479, 0.26031556725502014, -0.17776961624622345, -0.1793801188468933, 0.1631302535533905, -0.0004942119121551514, -0.16578204929828644, 0.011759668588638306, -0.16544614732265472, -0.10618796944618225, -0.1486494541168213, -0.14978627860546112, 0.02962633967399597]
[6.693017959594727, -8.538476943969727, -7.542729377746582, -0.22044329345226288, 2.7167134284973145, -1.145897388458252, 9.90350341796875, -7.0994768142700195, -1.105971097946167, 4.807983875274658, -6.6168413162231445, -2.7143607139587402, 7.628329753875732, 1.5484782457351685, -2.6490156650543213, 4.877803802490234, -7.743748664855957, -2.0737762451171875, 10.455377578735352, -2.267702102661133, 8.676292419433594, 3.617455005645752, 5.695282459259033, -13.282610893249512, -1.3202964067459106, 14.727197647094727, -0.06052887812256813, 8.808496475219727, 8.519895553588867, -1.613629937171936, -4.070096969604492, 9.734047889709473, 6.160708427429199, -9.798908233642578, -1.7986215353012085, -4.599120140075684, -0.19322308897972107, 1.8712427616119385]
[-0.12126469612121582, 0.08504381775856018, 0.16106769442558289, -0.09402288496494293, 0.20486822724342346, -0.22821597754955292, 0.07936021685600281, 0.13600468635559082, -0.20652426779270172, 0.0022105276584625244, 0.10627725720405579, -0.10553309321403503, 0.20660260319709778, 0.03586167097091675, -0.15144169330596924, 0.03701302409172058, 0.24077799916267395, -0.1540987193584442, 0.16199266910552979, -0.256640762090683, -0.04482114315032959, -0.026012107729911804, 0.15265142917633057, 0.08357349038124084, 0.011503279209136963, -0.08447584509849548, 0.10537239909172058, 0.06502735614776611, 0.16667130589485168, -0.09495730698108673, -0.09571999311447144, -0.04752629995346069, -0.25744110345840454, -0.19867049157619476, 0.14589738845825195, 0.26038816571235657, -0.2323291152715683, 0.040883660316467285]
[0.049939483404159546, 0.23544466495513916, -0.13038571178913116, 0.20710602402687073, -0.24686400592327118, -0.20063291490077972, -0.12455978989601135, 0.07219231128692627, 0.047920823097229004, 0.17749756574630737, 0.030816316604614258, 0.0989137589931488, 0.12151899933815002, -0.006746470928192139, 0.20922601222991943, -0.25669556856155396, -0.03337390720844269, 0.18745136260986328, -0.23486769199371338, -0.021321117877960205, 0.1927260458469391, 0.07446178793907166, -0.04606837034225464, -0.05019327998161316, -0.22644412517547607, 0.0720038115978241, 0.11214986443519592, 0.06737756729125977, 0.03875529766082764, -0.21696963906288147, 0.1362687349319458, -0.1354481279850006, -0.19863662123680115, 0.20724734663963318, -0.22206945717334747, 0.2146669626235962, -0.18899348378181458, 0.1730203628540039]
[-5.925289630889893, -2.023291826248169, 1.7657387256622314, -1.0615061521530151, -3.5442938804626465, 2.2096288204193115, -3.601547956466675, -2.765540361404419, -1.263370156288147, -1.2889710664749146, -2.846730947494507, -2.6962966918945312, 2.6711466312408447, 0.2149382382631302, 3.1253740787506104, -0.031235599890351295, 4.18971586227417, -2.6095023155212402, -3.1450202465057373, -0.7595051527023315, -3.4535858631134033, 0.21630708873271942, -1.3252573013305664, -3.308497667312622, -3.758251428604126, -3.4675590991973877, 1.7388904094696045, -0.788630485534668, -2.5128583908081055, -2.127028465270996, -3.7333314418792725, 0.31519532203674316, 5.622422218322754, 0.8499118089675903, -0.8928143382072449, -1.3156319856643677, 3.134195566177368, 3.9105849266052246]
[3.2587950229644775, -3.9674859046936035, -3.7758660316467285, -1.4973046779632568, 3.7349252700805664, -0.748037576675415, 2.001579523086548, -1.2319899797439575, -2.1502766609191895, 2.0950636863708496, -1.5179433822631836, -3.9532032012939453, 0.9317873120307922, 3.088743209838867, -3.518047571182251, 2.392698049545288, -6.0618696212768555, 0.8338249921798706, 0.05029414966702461, -2.8490102291107178, 2.7027359008789062, 4.110702991485596, 3.3571672439575195, -2.7530083656311035, 2.032689094543457, 8.868432998657227, -1.643211841583252, 6.94080924987793, 4.0851616859436035, 2.0697109699249268, 0.1209525540471077, 4.30232048034668, -0.674017608165741, -6.269132614135742, -1.2194643020629883, 0.19121192395687103, -2.8291876316070557, -1.1644419431686401]
[0.03862687945365906, -0.18119953572750092, -0.21841837465763092, 0.11396870017051697, -0.031430959701538086, -0.13847726583480835, 0.04177102446556091, 0.019924134016036987, -0.04937541484832764, -0.13933604955673218, -0.1289837658405304, 0.25856372714042664, -0.1901264488697052, -0.20749439299106598, 0.1353965401649475, -0.2618686854839325, -0.016394153237342834, -0.19311675429344177, -0.015572905540466309, 0.13129261136054993, -0.17386573553085327, 0.1777609884738922, -0.2635098695755005, -0.22863167524337769, 0.0019328892230987549, -0.12321609258651733, -0.10943873226642609, -0.07240705192089081, -0.08640022575855255, 0.16655021905899048, -0.1687927544116974, -0.14159509539604187, 0.09095463156700134, 0.12921160459518433, 0.2582000195980072, 0.08884087204933167, -0.2536751627922058, -0.022251874208450317]
[0.9776155948638916, 0.22383996844291687, -0.37321141362190247, 2.5435519218444824, -0.33678367733955383, -1.1278150081634521, 2.2912354469299316, 1.6291420459747314, 1.968639850616455, -1.197974681854248, -5.479012489318848, -1.5775412321090698, -2.898385524749756, 0.5852764844894409, -1.8998392820358276, 2.1315929889678955, -0.26369497179985046, -1.9430320262908936, 5.287062644958496, 2.699842929840088, 4.140524864196777, 2.7455079555511475, 0.8413950204849243, -1.321875810623169, 1.7381352186203003, 7.717881679534912, -1.4106333255767822, -2.4453697204589844, 0.5732172131538391, -0.7892806529998779, -3.0013322830200195, 8.695598602294922, -0.2736762464046478, 1.8815661668777466, -0.6727212071418762, 0.657813310623169, -2.2589988708496094, 0.6965035796165466]
[-5.7147297859191895, -2.4903204441070557, 1.6485145092010498, -1.0644208192825317, -3.230508327484131, 2.4724318981170654, -3.6729323863983154, -3.109196424484253, -1.5156277418136597, -1.1060019731521606, -3.338602304458618, -2.7969002723693848, 2.4610536098480225, 0.19451244175434113, 3.130401849746704, -0.18608558177947998, 4.315488338470459, -2.7949843406677246, -3.195847272872925, -0.581974983215332, -3.172306776046753, 0.0507243312895298, -1.4710099697113037, -3.2223284244537354, -3.8505594730377197, -3.1807940006256104, 1.4547133445739746, -0.47452521324157715, -2.5624537467956543, -2.259634494781494, -4.023189544677734, 0.1531251072883606, 5.799925804138184, 0.5232397317886353, -0.8178761601448059, -1.2447842359542847, 3.0351650714874268, 3.527658462524414]
[3.63678240776062, -3.950763702392578, -4.050743579864502, -1.418135404586792, 4.080052852630615, -0.6909750699996948, 1.9426158666610718, -1.4455188512802124, -2.24949312210083, 2.269444465637207, -1.3480312824249268, -4.090523719787598, 1.233801007270813, 3.3127965927124023, -3.9406700134277344, 2.1825997829437256, -6.043581008911133, 0.8836177587509155, 0.04547436162829399, -2.6653740406036377, 2.4727706909179688, 4.132931232452393, 3.3227100372314453, -2.865777015686035, 1.7081679105758667, 8.85116195678711, -1.5754334926605225, 7.1036787033081055, 4.09014368057251, 2.392409563064575, 0.010637646540999413, 4.137404441833496, -0.8947300314903259, -6.684362411499023, -0.8946353197097778, -0.08099553734064102, -2.5763185024261475, -1.409629225730896]
[-3.377336263656616, 4.120937347412109, 7.5227131843566895, -1.033943772315979, -0.979120135307312, 8.72673225402832, -8.73663330078125, 5.664192199707031, -6.704375267028809, 5.846879959106445, 3.0085556507110596, -3.3599777221679688, 1.0826855897903442, 6.315836429595947, -2.395289421081543, 3.2203283309936523, -0.4368911385536194, 2.425217866897583, -3.867960214614868, -7.709017753601074, -1.8465049266815186, 6.865644454956055, 1.5846868753433228, -0.967327892780304, 8.39686393737793, -3.7634334564208984, -9.241365432739258, -3.8493220806121826, -7.167130470275879, 1.581994652748108, 2.222639560699463, -10.462698936462402, 2.121501922607422, 9.051387786865234, -3.5250604152679443, 2.2712745666503906, -3.555356740951538, 4.4492034912109375]
[0.9852485656738281, 0.19436755776405334, -1.7893723249435425, 2.3572778701782227, -0.5867570638656616, -0.13893452286720276, 2.4365766048431396, 1.4951215982437134, -5.3435492515563965, -0.8563576340675354, -2.9724786281585693, -2.7121798992156982, -3.187588691711426, 2.5964694023132324, -1.530394434928894, -1.613102912902832, -0.11087667942047119, -1.6132302284240723, 4.967161655426025, 3.121431589126587, 1.7304250001907349, 3.767385721206665, 1.301987886428833, -0.5514225363731384, 1.6195427179336548, 5.103626728057861, -1.0677826404571533, -1.9792653322219849, -2.435056447982788, -0.340530663728714, -2.0780344009399414, 4.596290588378906, -1.8870196342468262, -0.8421735167503357, -1.2704803943634033, 0.34727853536605835, -1.2495157718658447, 1.2436919212341309]
[-3.1994049549102783, -1.637856125831604, -7.531940937042236, 1.3888992071151733, 0.4476109445095062, 0.06800772249698639, 1.8504544496536255, -7.68458366394043, -0.905085563659668, 0.72914057970047, -1.1809860467910767, -1.6308228969573975, 6.774300575256348, 0.4667886793613434, 6.105179309844971, -2.6085736751556396, 3.0285544395446777, 1.1422865390777588, -3.068587303161621, 2.3625500202178955, -5.584903717041016, -0.9665176272392273, 0.32430410385131836, 1.3529267311096191, -1.3102502822875977, -6.013660430908203, 6.118587493896484, -1.435041904449463, -5.24202823638916, -2.5006120204925537, -1.0067081451416016, -4.896508693695068, 8.129335403442383, 0.6186149716377258, -3.259281873703003, -1.6386219263076782, 1.5928171873092651, 1.456899881362915]
[-0.6667078137397766, 0.5279906988143921, 3.214205503463745, 2.5657601356506348, 0.38259273767471313, 2.767954111099243, 0.8718456029891968, 4.100151062011719, -1.5404434204101562, 1.018134593963623, 4.486374378204346, -3.6664984226226807, 2.9105937480926514, 0.8589394688606262, -1.0475329160690308, 2.937577486038208, 1.8393315076828003, 2.9773521423339844, -0.4868953824043274, 0.2036774456501007, -5.48446798324585, 2.1374738216400146, -0.13613063097000122, 1.160222053527832, 2.355504035949707, -7.153355598449707, 0.19493751227855682, 2.273381471633911, 4.160104274749756, 0.5452513098716736, 2.4924066066741943, -2.7484469413757324, 1.5426735877990723, 1.4461145401000977, -0.7394711375236511, 0.8121567964553833, -1.288520097732544, 0.11948304623365402]
[0.360630601644516, 4.186913013458252, 0.8336068391799927, -3.1160333156585693, -0.858959972858429, 7.54340124130249, -13.134258270263672, 5.9856109619140625, -4.131198406219482, 5.453522205352783, 0.08642856031656265, 1.5600825548171997, 0.8647539019584656, 1.059736728668213, -3.733905792236328, -4.25051212310791, -0.2647345960140228, -0.2236611545085907, 3.3925015926361084, 1.7862236499786377, 3.124011516571045, 4.711892127990723, -1.4106193780899048, -10.278152465820312, 0.5539421439170837, -2.064342737197876, -9.981660842895508, 0.7176794409751892, -4.257504940032959, -3.15909481048584, -3.8690621852874756, 1.1960158348083496, -3.6801841259002686, 6.7087578773498535, -4.160437107086182, 0.37446489930152893, -3.4804584980010986, 6.508547306060791]
[1.6484893560409546, -0.49172770977020264, -1.299419641494751, -0.009418764151632786, -0.5087202787399292, -0.2102278769016266, 1.8106361627578735, -3.229012966156006, -1.4555484056472778, -2.043246030807495, -2.831777334213257, -3.392326831817627, -1.6502504348754883, 2.278291940689087, -1.4927163124084473, -0.1917915940284729, -0.136457160115242, 0.32854151725769043, 1.3751853704452515, -2.405852794647217, 1.5103546380996704, 3.1900691986083984, -0.09656091034412384, -0.295504093170166, 1.2195020914077759, 4.124239444732666, 2.047534227371216, -1.3788257837295532, -1.0415805578231812, -0.45924484729766846, -1.598728895187378, 1.7570260763168335, 0.8915587067604065, -1.589200496673584, -2.361154079437256, 0.27440616488456726, -2.219031810760498, 1.1555873155593872]
[-2.320371389389038, -1.4076231718063354, -3.5557453632354736, -0.9914207458496094, -1.2662233114242554, -0.4965185225009918, -2.656970977783203, -1.9104204177856445, -0.9777304530143738, 2.0288467407226562, 3.4986536502838135, -2.6092934608459473, 3.3936057090759277, -1.7128820419311523, 6.062137126922607, -3.4415736198425293, 2.9461560249328613, 1.3217077255249023, -4.32644510269165, -0.1318347156047821, -4.4617414474487305, 1.0743601322174072, -0.8754046559333801, 1.2010385990142822, -0.05827242136001587, -3.915745973587036, 1.6753228902816772, -3.112640619277954, -0.09347180277109146, -2.9509596824645996, -0.6813892722129822, 0.5097435712814331, 5.147568225860596, 1.0795856714248657, -3.5123791694641113, -1.9560017585754395, 0.8759940266609192, -3.5438549518585205]
[-5.142258167266846, 0.5844541788101196, 4.078782558441162, 3.9026684761047363, -0.46179109811782837, 2.2385196685791016, 9.263859748840332, 3.510462760925293, -1.2102328538894653, -5.964069843292236, 0.8386561274528503, -3.4589505195617676, 2.2131359577178955, 0.5301759243011475, 1.7127180099487305, 3.2566072940826416, 3.3496756553649902, 0.845639705657959, -2.454453229904175, 4.126713752746582, -6.226174831390381, -0.9845851063728333, -1.9110056161880493, -3.4226601123809814, -2.9546988010406494, -6.580895900726318, 3.153928279876709, 5.200085163116455, 12.118919372558594, -1.106142282485962, 2.988123655319214, 2.8636314868927, 3.967655658721924, 2.3757147789001465, -0.6318902373313904, 0.43625420331954956, -3.229748010635376, 1.6326044797897339]
[-1.3023849725723267, -0.14676275849342346, -3.067164421081543, -1.5767613649368286, -3.423060178756714, 3.1472995281219482, -12.843538284301758, -3.147263765335083, -1.3182957172393799, 2.495760440826416, 6.55196475982666, -0.3274826109409332, 4.2051005363464355, 2.3964037895202637, -4.498509407043457, 1.9004969596862793, 0.5043562650680542, -2.885890007019043, 4.590981483459473, -1.1834715604782104, 1.0756556987762451, 3.4612858295440674, -2.0548696517944336, -0.3964146375656128, 5.292093753814697, -3.3539884090423584, -1.6379820108413696, -1.0859867334365845, 2.7368619441986084, 0.9748346209526062, -3.574267625808716, -9.850141525268555, 5.158717632293701, 5.052361488342285, -3.271087646484375, 2.996763229370117, 0.7053981423377991, 6.021989822387695]
[3.5749690532684326, 0.007735602557659149, 1.1236852407455444, 1.1655434370040894, 1.2995511293411255, -1.3503758907318115, 2.7148633003234863, -1.1443781852722168, -1.5689375400543213, 3.033801317214966, -3.395109176635742, -2.8073782920837402, -0.6533676981925964, 2.615980625152588, -3.45540714263916, -1.0912326574325562, 0.5600122213363647, -1.0737086534500122, 0.5303785800933838, 0.17612546682357788, 1.611989140510559, 1.5398633480072021, -0.6072325110435486, 1.1729310750961304, 3.6764087677001953, 6.21001672744751, 1.833061933517456, 3.407592296600342, -0.5171436667442322, 2.0433621406555176, 0.010053770616650581, 0.9341334104537964, 2.9184329509735107, -3.8488259315490723, -2.4599156379699707, 0.40786221623420715, 1.1190978288650513, 1.6959409713745117]
[0.7393057346343994, -0.32308781147003174, 2.1142327785491943, -0.7993733882904053, -2.143789052963257, 0.09560494869947433, -3.194671392440796, -1.6181740760803223, -1.2149673700332642, -0.17058077454566956, -3.6015913486480713, -2.1747450828552246, 5.923189640045166, 1.1276689767837524, 4.944304466247559, -2.7725298404693604, 2.7281839847564697, -1.140979528427124, -3.5666849613189697, 0.7876905798912048, -3.224003314971924, 0.5310768485069275, -2.418579578399658, -0.49481651186943054, 2.0541324615478516, 0.19402861595153809, 3.262754201889038, 0.5403069257736206, 0.26051974296569824, -2.564643621444702, -0.48509401082992554, 6.247751235961914, 1.7965302467346191, -0.4165292978286743, -2.9060451984405518, -1.4236582517623901, 1.0223371982574463, -3.19893217086792]
[2.1283812522888184, -0.8030878901481628, 5.539854049682617, 2.703895092010498, -4.146862030029297, 2.599543333053589, 11.430218696594238, 3.6126325130462646, -1.4194729328155518, -4.563622951507568, 2.992621898651123, -2.138254165649414, -0.5674884915351868, -0.7458512783050537, 7.2709550857543945, 1.24594247341156, 2.17608642578125, -1.5787376165390015, -4.9325127601623535, 3.203465223312378, -6.821399211883545, -1.851067066192627, -1.7460016012191772, 0.4592060148715973, -4.936153411865234, -3.6949729919433594, 3.104884147644043, -0.9440697431564331, 3.8252787590026855, -1.3241829872131348, 1.3145405054092407, 0.8032991290092468, 0.7005800604820251, 2.0579030513763428, -0.9823451042175293, 0.8029311299324036, 0.0054931556805968285, 2.6779820919036865]
[-2.688737392425537, -0.10185445845127106, -0.5547176003456116, -3.892620086669922, 1.9220809936523438, 2.6137232780456543, -8.601629257202148, -6.21205472946167, -1.3907463550567627, 6.2104411125183105, 5.286098957061768, -0.140268474817276, 1.0002148151397705, 3.7439091205596924, -0.6605198979377747, 1.5063880681991577, -1.1998049020767212, -2.8728833198547363, 5.23558235168457, 1.4037295579910278, 1.610357642173767, 1.76729154586792, 1.4089266061782837, 2.879084587097168, -0.2731826901435852, -4.561812400817871, -3.8941967487335205, -0.8707399368286133, -3.683159112930298, -1.6694518327713013, -2.2652251720428467, -1.3891136646270752, 10.657535552978516, -1.2932854890823364, -2.2780942916870117, -2.2718942165374756, -0.11149492859840393, 3.1037096977233887]
[2.7274129390716553, -0.8670311570167542, -0.995733916759491, -1.8694697618484497, -0.29715707898139954, -0.726452648639679, 3.8264336585998535, -2.5087578296661377, -1.9092928171157837, 1.6084741353988647, -4.002326488494873, -2.488297939300537, 0.7687473893165588, 1.496711015701294, -2.5553767681121826, 2.7244865894317627, 0.03509463742375374, -0.5112560987472534, 2.374610662460327, -0.6401745080947876, 2.6892898082733154, 3.103419065475464, 0.19469009339809418, -0.7082354426383972, 1.4437545537948608, 7.23331880569458, 0.7825471758842468, 6.193807601928711, 1.9763052463531494, -0.9254707098007202, 0.46273964643478394, 0.3080666661262512, 1.08354651927948, -2.4258038997650146, -2.5590877532958984, -0.7487162947654724, -0.4981478452682495, 1.8118427991867065]
[-4.278919219970703, -0.30079564452171326, -1.3262939453125, 0.0394706055521965, -1.699569582939148, -0.8848385810852051, 0.25309887528419495, -1.3349357843399048, -0.8370054364204407, 0.6215319633483887, -6.807156562805176, -1.8170017004013062, 0.3717937767505646, 1.3751696348190308, 2.7709555625915527, -1.34821355342865, 3.3844313621520996, -0.5625911951065063, 0.9344327449798584, -0.4857484996318817, -4.19476318359375, 1.403180718421936, -1.7364141941070557, -1.2961571216583252, 1.2214733362197876, -0.6429736018180847, -2.0497748851776123, -1.4535181522369385, -3.444431781768799, -2.159501552581787, -0.33673909306526184, 1.4160174131393433, 4.230170726776123, 0.5033858418464661, -2.352999448776245, -1.1883890628814697, 0.9763575196266174, -2.486751079559326]
[0.9166924953460693, -1.6013902425765991, 1.5597474575042725, 3.5121946334838867, -4.089375972747803, 2.115809917449951, 8.792895317077637, 0.14266711473464966, -1.1764084100723267, -1.5842550992965698, -2.612471342086792, -2.204458236694336, -0.8185828328132629, -2.216005563735962, 8.955032348632812, 1.8603204488754272, 0.7375708222389221, -1.6279147863388062, 10.918936729431152, 6.592220306396484, -3.71566104888916, 1.233703374862671, -1.2462284564971924, 1.3454173803329468, -4.730071067810059, -6.906394958496094, 1.5134518146514893, 4.848073959350586, 10.328495025634766, -1.5317027568817139, 2.188601493835449, 0.8497564792633057, -4.088016986846924, 2.5675201416015625, -0.11253274232149124, 0.5028346180915833, 0.29067057371139526, 0.16620410978794098]
[5.741898059844971, 0.640585720539093, -0.9542133808135986, 7.126572132110596, 2.0195212364196777, 2.3549768924713135, -3.488029956817627, -2.6771459579467773, -3.1836836338043213, 11.327242851257324, -1.9076687097549438, -2.054624557495117, 5.791232109069824, 2.570793390274048, -0.8703916072845459, 1.840287446975708, 1.2277261018753052, 0.7030202746391296, 5.949368000030518, -4.568905830383301, -2.0222420692443848, 0.4052897095680237, -1.3319181203842163, -1.367023229598999, 4.642137050628662, -9.865777015686035, -4.2812323570251465, 1.6200916767120361, 6.716075897216797, 1.91499662399292, -0.24602197110652924, -9.377141952514648, 3.7278690338134766, 2.198415517807007, -2.8630824089050293, -0.555827260017395, 6.764378070831299, -4.836839199066162]
[5.778728008270264, -0.09780488163232803, 1.1699836254119873, 4.008100986480713, -2.590858221054077, -0.09179764240980148, 7.2800116539001465, 0.10823255032300949, -1.397750735282898, -0.48257145285606384, -4.930204391479492, -1.186137080192566, -3.145371198654175, 1.1698670387268066, -3.725167989730835, -2.528691291809082, 0.791375994682312, 2.5907702445983887, -0.5221511721611023, 3.0026023387908936, 0.21261374652385712, 2.5040392875671387, 0.04197390750050545, 3.8044042587280273, 4.099733352661133, -0.27015042304992676, -0.644387423992157, -3.8052220344543457, 2.986258029937744, -0.942927360534668, 2.827831268310547, -4.90618896484375, -1.3414006233215332, -2.5319204330444336, -0.45073822140693665, -1.335190773010254, -1.5375100374221802, -4.476140022277832]
[3.5935909748077393, 1.3520840406417847, -0.8155270218849182, -0.144348606467247, -2.8210091590881348, -2.3349850177764893, 6.152271747589111, -2.7376842498779297, -0.12824633717536926, -2.5172171592712402, -0.75371915102005, -0.9864827990531921, 3.7388272285461426, 1.1549758911132812, 4.679953098297119, -0.4237159788608551, 1.7640432119369507, -0.5411071181297302, -0.9143725633621216, 0.23238162696361542, -2.918959379196167, 0.9821090698242188, -1.6537710428237915, 0.04967737942934036, 5.697653293609619, 0.29192686080932617, -4.181073188781738, -2.7240521907806396, -0.9536867141723633, -3.052727460861206, -1.405710220336914, -4.30725622177124, 0.4681195318698883, 2.427351236343384, -1.8100674152374268, -0.9881138205528259, 1.7360682487487793, -5.7381815910339355]
[6.914963722229004, -1.0412648916244507, 2.1482787132263184, 4.470405578613281, -3.449843645095825, 1.1615855693817139, -2.880857467651367, -0.4805554151535034, -0.9033437371253967, -3.651371717453003, 5.169649124145508, -1.0612016916275024, 2.6332545280456543, -2.396686553955078, 3.0048422813415527, -0.12007519602775574, 0.6529569029808044, -0.5180402398109436, -3.2451484203338623, 6.617220878601074, -13.031463623046875, -1.5708180665969849, -0.4051210284233093, 0.8259013891220093, -1.509014368057251, -8.539673805236816, 2.66867733001709, 11.879790306091309, 9.804341316223145, 0.008251332677900791, 2.2612245082855225, -0.7923901677131653, -3.23506760597229, 0.8506810665130615, 0.9132313132286072, 1.155598759651184, 1.1146526336669922, 0.11887219548225403]
[-3.2082583904266357, 3.2305171489715576, 2.2039406299591064, -3.3924427032470703, -3.0015084743499756, -0.1641865074634552, 1.842444896697998, 2.827458381652832, -3.287943124771118, 16.649309158325195, -0.14078783988952637, -1.6475896835327148, -1.5121004581451416, 2.3130640983581543, -2.0141327381134033, -4.3039021492004395, -2.5775601863861084, 3.1796343326568604, 1.7205461263656616, -1.7398419380187988, 1.1382675170898438, -0.44107362627983093, 0.9508402347564697, -0.03563053533434868, 8.365569114685059, -8.075953483581543, -1.2498328685760498, -4.03768253326416, -5.273451328277588, 0.38089317083358765, -4.460437297821045, 1.3494402170181274, 2.0423073768615723, 1.430071473121643, -3.9642539024353027, -0.003401190508157015, -1.4264343976974487, -12.137340545654297]
[-5.631226539611816, -0.7321243286132812, 6.897475242614746, -1.430617094039917, 4.039736747741699, 0.1770494282245636, 7.046082496643066, 4.289841651916504, -0.8015360832214355, -2.309230327606201, 5.656820297241211, -0.8886333107948303, -4.596972942352295, 0.5823042988777161, 0.053768109530210495, -7.268794536590576, -2.182286262512207, -3.137099027633667, 0.8691210746765137, 1.19782555103302, 5.474851131439209, 1.1041185855865479, -0.6046068072319031, -1.7951385974884033, 1.082743525505066, 2.2195403575897217, -0.7042073607444763, 1.8234686851501465, -0.6827271580696106, -0.10454636812210083, 2.2349202632904053, 5.256490230560303, 0.22609512507915497, -2.943387508392334, -1.1317529678344727, 0.029560796916484833, 0.5998269319534302, -3.155559539794922]
[1.4055631160736084, 3.193244218826294, -1.7500731945037842, -0.909717321395874, 3.3487584590911865, -3.2920289039611816, 19.710742950439453, -3.054466724395752, 0.37904125452041626, -0.07451657950878143, 11.144389152526855, -0.6907491683959961, 0.04008198902010918, -0.024567676708102226, 0.9566514492034912, -0.4035050868988037, 0.8390539884567261, -3.8497066497802734, 0.7247158885002136, -0.872272789478302, 0.3074584901332855, 0.40362393856048584, -1.0465435981750488, -2.878612756729126, 4.875101566314697, 3.2518951892852783, -2.252774953842163, -4.659414291381836, -4.350247859954834, -3.032787322998047, -1.6365119218826294, -2.096564531326294, -1.8314567804336548, 3.6949620246887207, -1.3979729413986206, -0.17370273172855377, 0.028765730559825897, -14.451689720153809]
[-0.8910778760910034, -1.279695987701416, 4.5981597900390625, 6.042910575866699, 5.580265522003174, 0.46015438437461853, 3.2243640422821045, -9.458939552307129, -0.416263222694397, -3.147843599319458, 10.702611923217773, 0.46122920513153076, 8.042914390563965, -0.2832391858100891, 3.3279895782470703, 2.497493267059326, -0.32475000619888306, 1.2393772602081299, -9.833687782287598, 11.606199264526367, 10.021156311035156, -0.6303191781044006, 0.6650828123092651, 2.343475580215454, -4.644527435302734, -7.907785892486572, 5.874923229217529, -0.37425753474235535, 7.735673427581787, 0.15258173644542694, 0.9933514595031738, 6.70332670211792, -4.585610866546631, 1.353501558303833, 0.9769981503486633, 1.0582352876663208, -0.19508971273899078, 6.446045398712158]
[0.00557326665148139, -2.523193597793579, 0.04898500442504883, 0.8092781901359558, -7.289558410644531, -2.950420379638672, -12.706777572631836, 1.088213324546814, -3.4792447090148926, 12.910414695739746, 3.0080854892730713, -1.910907506942749, 1.7873846292495728, 1.5314282178878784, -5.038618564605713, -4.324658393859863, -3.138544797897339, 4.051070213317871, 0.9842644929885864, -5.910013198852539, 3.3420186042785645, 2.475360631942749, -2.122022867202759, 2.4739205837249756, 7.103390693664551, -3.2635514736175537, 3.0443553924560547, -5.550549507141113, -10.79326057434082, 1.4267785549163818, 1.8387340307235718, 6.762959003448486, 1.2122918367385864, -2.334798812866211, -3.4086759090423584, -4.053175449371338, 6.956764221191406, -6.228812217712402]
[4.958120822906494, 0.8694530725479126, 0.30446264147758484, 2.132866382598877, -6.370656490325928, -2.236797332763672, -5.94888162612915, 2.9205093383789062, -1.1444354057312012, -1.7824724912643433, 5.711779594421387, 1.3682602643966675, 0.5007196664810181, 1.0264006853103638, 1.9516690969467163, -4.019543647766113, -2.820587396621704, 0.5494251251220703, 3.341524839401245, -4.479196548461914, 6.419874668121338, 1.7200229167938232, 1.1629894971847534, -0.014360957778990269, -0.31363558769226074, 5.388055801391602, 2.66745662689209, -1.1031641960144043, 0.25147154927253723, 2.727973222732544, -0.777869462966919, 0.6789741516113281, 0.1690039485692978, -2.602973461151123, -1.544959545135498, -0.5239478945732117, 0.6706175208091736, 0.41215601563453674]
[6.080380439758301, 3.162980079650879, -5.455338001251221, 0.41619858145713806, 3.340451240539551, -3.533003807067871, 14.90865707397461, -3.3387298583984375, 0.9715840816497803, 5.735776901245117, 9.887320518493652, 1.398209810256958, 3.3627421855926514, 0.6232112646102905, 4.720264434814453, 1.930106520652771, 0.05132143199443817, -4.224056243896484, 3.7681214809417725, -2.2594106197357178, 1.1733759641647339, 0.11013664305210114, -1.2146426439285278, -0.6352412700653076, 2.997108221054077, 4.010631084442139, -3.49039363861084, 0.5652574896812439, -0.8979833722114563, -1.9244946241378784, 0.5173295140266418, -4.767439365386963, -1.1467725038528442, 3.835218906402588, -1.227944016456604, -0.46592938899993896, -0.3851359486579895, -2.4826009273529053]
[5.584056377410889, 0.4072011709213257, 5.162601470947266, -0.7326918244361877, 3.5467944145202637, 2.1877267360687256, -5.195356845855713, -4.287113189697266, 0.10641153901815414, -7.653023719787598, 19.022838592529297, 4.060992240905762, -0.8327894806861877, 1.9477412700653076, 2.005652666091919, -1.05715012550354, -2.0494704246520996, -0.5550062656402588, 2.8255221843719482, 5.459995746612549, 20.775911331176758, -1.3567174673080444, -0.7203225493431091, 2.5501210689544678, -8.738219261169434, -7.74541711807251, 3.6029646396636963, -4.6602783203125, 7.745646953582764, 0.881949245929718, 0.7970630526542664, 13.730977058410645, -3.0234851837158203, 2.7211384773254395, 1.424528956413269, 1.9640132188796997, -0.7546383142471313, -4.872989654541016]
[-3.223757743835449, 2.690375328063965, 4.888631343841553, -0.6800287961959839, -3.6410257816314697, -0.06892677396535873, 12.524674415588379, 6.063355922698975, -4.161220073699951, 4.515266418457031, -5.6162214279174805, -2.238218307495117, -7.83180570602417, 2.733515501022339, -3.501660108566284, 6.842433929443359, -2.684243679046631, 1.335513710975647, -4.620160102844238, -4.47230339050293, 6.325571060180664, 0.2568491995334625, 2.9606876373291016, -3.9613308906555176, 2.7877373695373535, -1.8696116209030151, 0.5863322019577026, -5.746691703796387, -0.478119432926178, 0.7827713489532471, -2.3362085819244385, 6.489442348480225, -6.4717841148376465, -7.151930809020996, -2.249807357788086, -8.706668853759766, 6.767953872680664, 0.8281288146972656]
[-2.743014335632324, 0.9289942383766174, 1.542448878288269, -0.5683616995811462, -1.2020199298858643, 0.3439866900444031, 14.354110717773438, 13.883285522460938, -1.153306484222412, -1.7298613786697388, -6.232475757598877, -0.12152355164289474, -6.2611799240112305, 2.1162807941436768, -0.008098838850855827, 0.31364676356315613, -3.1811368465423584, 0.6924852728843689, 1.4473788738250732, -2.1572461128234863, 7.12241792678833, 0.49416953325271606, -1.3693318367004395, 1.6181130409240723, -2.8244292736053467, 3.444509267807007, -0.6068638563156128, 0.40212076902389526, -1.3337137699127197, 1.0139350891113281, -0.23868593573570251, 7.543271064758301, 0.40039584040641785, -8.475090980529785, -1.4246668815612793, 0.7894229888916016, 1.0399389266967773, 2.248290777206421]
[5.2804856300354, 3.148024797439575, -7.537352085113525, 0.5848466157913208, 4.224667072296143, -3.6134049892425537, -14.452696800231934, -3.0761542320251465, 1.3702573776245117, -6.221806526184082, 1.1665489673614502, 3.375830888748169, -1.2911330461502075, 1.72758948802948, 1.4646555185317993, 3.787020206451416, -1.3291915655136108, -2.968862771987915, -3.496018886566162, 0.973871111869812, 13.591703414916992, -1.2597559690475464, -1.4048726558685303, 2.999692678451538, 0.5304670333862305, 4.20604944229126, -6.475902080535889, -1.6159324645996094, 4.879067897796631, -1.8103052377700806, -0.824264645576477, -3.2303996086120605, -1.5217430591583252, 4.87514066696167, -0.9493120312690735, 0.5419232845306396, 0.2231057584285736, -12.423604011535645]
[-2.88920521736145, -0.14320357143878937, 14.494047164916992, -0.8115922808647156, 3.0367321968078613, -0.05014977976679802, -8.759760856628418, -1.8063565492630005, 0.17631419003009796, -7.5693745613098145, -3.90289568901062, 6.582847595214844, 11.435369491577148, 1.1173298358917236, 4.691688060760498, 0.4050843119621277, -2.9075727462768555, -2.58980131149292, 2.393174409866333, 0.7995490431785583, 1.8891047239303589, -3.3080968856811523, -0.22371986508369446, -3.5582127571105957, -10.299104690551758, -4.90633487701416, 12.026043891906738, -9.7846097946167, -4.613014221191406, -0.03856150805950165, -0.5937845706939697, 3.5039310455322266, -3.9308364391326904, 4.564823150634766, 2.001622200012207, 1.088005781173706, -0.6519225835800171, -27.397132873535156]
[-3.956500291824341, 4.528544902801514, 0.12839855253696442, -2.759460687637329, -1.2384086847305298, -0.7287384271621704, 4.511847972869873, 9.34409236907959, -2.2393314838409424, 11.446516990661621, 12.527555465698242, -2.709099054336548, -5.877101421356201, 3.506920099258423, -5.664401054382324, 10.734288215637207, 5.068190574645996, 3.0275862216949463, 10.18091106414795, -1.912753701210022, 9.901047706604004, 3.069770574569702, 7.876317977905273, 4.525311470031738, 7.461036205291748, -1.3127548694610596, -2.944045305252075, -7.977431774139404, 1.1322463750839233, 3.146453619003296, -0.33338654041290283, -7.947213172912598, -2.8908398151397705, -13.297662734985352, -1.5873370170593262, -1.2317397594451904, 3.404597282409668, -0.7304842472076416]
[-6.126710414886475, 1.335181474685669, 2.5736277103424072, 0.6675015687942505, 5.803317546844482, -0.5714287757873535, 4.7381720542907715, 7.782102584838867, -0.9024479985237122, 0.7053042650222778, 6.529591083526611, -1.6347508430480957, -0.6133072972297668, 1.699646234512329, 2.617008924484253, -0.7055456042289734, 1.4187495708465576, -0.08800113201141357, 13.609249114990234, 3.111407995223999, 13.292319297790527, 1.4509673118591309, 2.8779191970825195, 2.0278053283691406, -0.1464262753725052, 1.1740953922271729, -3.0690696239471436, -0.04560413584113121, 5.2010931968688965, 0.475130558013916, 1.7169808149337769, -4.174267768859863, -0.21872001886367798, -2.076146364212036, -1.2612028121948242, -0.6980097889900208, -0.12969200313091278, 0.691707968711853]
[12.627219200134277, 4.68405294418335, -1.3802131414413452, -0.5286228656768799, 3.7026429176330566, -2.9394547939300537, 6.528700828552246, -1.626542329788208, 1.2414780855178833, -6.553831577301025, 15.50635814666748, 3.9761033058166504, 7.647265911102295, 1.101349949836731, 3.8321468830108643, 2.3002657890319824, -1.354913353919983, -3.4551846981048584, 10.321097373962402, -4.407883644104004, 5.857667922973633, -0.28942519426345825, -1.6438612937927246, 2.614715814590454, -6.642390251159668, 3.9624853134155273, -4.044095516204834, 1.6420289278030396, 1.8380345106124878, -1.1256529092788696, -0.6037589311599731, -13.311939239501953, 0.7113878726959229, 6.37502384185791, -2.309086322784424, 0.5763993263244629, -0.18991367518901825, -0.1434788703918457]
[12.929845809936523, 2.4114010334014893, 10.458174705505371, 0.8310244679450989, 4.516016960144043, -0.8984272480010986, -8.80318832397461, 16.792322158813477, 0.14877723157405853, -6.585660457611084, 10.794418334960938, 3.938852548599243, -3.7535626888275146, -0.4945158064365387, -2.9710261821746826, -1.5191090106964111, -0.5903964042663574, -1.9896003007888794, 6.108412265777588, 2.5946731567382812, 12.25222396850586, -5.637670516967773, 0.11707749962806702, -1.961937665939331, -12.155214309692383, -2.5250983238220215, 4.560995101928711, -2.0123767852783203, 0.18449777364730835, 1.1398835182189941, 2.324711799621582, -13.758773803710938, 1.992358684539795, 5.400073051452637, -4.154092788696289, 1.3632363080978394, -0.06879759579896927, -4.301277160644531]
[-0.28307878971099854, -0.13258983194828033, -0.38775429129600525, -0.32030731439590454, 0.737848699092865, 0.12308737635612488, 0.6491444706916809, 0.22433017194271088, -1.8859400749206543, -1.467301845550537, -1.8629271984100342, -1.6527405977249146, -0.302301287651062, 1.529256820678711, 0.08614931255578995, -0.5057595372200012, 0.21174612641334534, -0.3523443639278412, -0.19785945117473602, -0.00802032370120287, 0.38914841413497925, 1.5912601947784424, 0.018812311813235283, 0.22786164283752441, 0.2329029142856598, 0.9857510924339294, 0.42371049523353577, 0.6080439686775208, -0.4100285470485687, 0.015971090644598007, -0.20162849128246307, 1.9791796207427979, 0.16638131439685822, -0.5532382130622864, -1.663266658782959, 0.17184798419475555, -0.42160868644714355, 0.14874613285064697]

[-1.8019376993179321, 1.1878398656845093, -1.9208616018295288, -2.8926174640655518, -1.9208394289016724, 4.690361022949219, -2.651188850402832, -12.593345642089844, 3.67812442779541, 0.17579710483551025, -3.1719346046447754, 1.5090279579162598, 2.0953173637390137, -6.3929524421691895, 1.142511248588562, -4.608776092529297, -4.763452529907227, -1.6710104942321777, 2.209092378616333, -1.1465040445327759, -1.606569766998291, 2.7601921558380127, 1.8768950700759888, -0.38008853793144226, -0.548190712928772, -4.051319599151611, 2.181018829345703, 0.46707579493522644]
[-6.101350784301758, -1.0876613855361938, -2.655193567276001, 3.2014195919036865, -0.01411177683621645, -2.0174334049224854, -1.263205647468567, -2.2612829208374023, 4.357670783996582, 2.597259283065796, -4.913589000701904, -1.1049776077270508, 6.102220058441162, -2.1059329509735107, 3.1348588466644287, 4.654204845428467, 8.761995315551758, -2.0838851928710938, 11.552038192749023, -1.968488335609436, 0.09218890964984894, 11.152777671813965, -0.7453104257583618, -20.134151458740234, -8.663461685180664, -4.248965740203857, 5.535900592803955, -0.6991729736328125]
[2.876598596572876, -0.35089460015296936, 1.7568683624267578, -1.4016106128692627, -9.369474411010742, -6.047119617462158, -3.5817699432373047, 25.10605239868164, -10.346293449401855, 1.1028918027877808, 0.29582667350769043, -1.728790283203125, 5.259241580963135, -9.541338920593262, -1.2612464427947998, 1.8452651500701904, -56.43051528930664, -2.933100700378418, -1.822044849395752, -3.264835834503174, -6.786978721618652, -3.686627149581909, -23.55429458618164, -13.948954582214355, 15.756765365600586, 7.2530436515808105, 0.13674938678741455, 0.16751912236213684]
[-0.5470193028450012, 7.954226493835449, -0.33886992931365967, 0.4959193468093872, -3.8355064392089844, -0.639003574848175, 4.47794246673584, -3.888232707977295, 18.964550018310547, -1.351261854171753, 6.536466598510742, 5.380421161651611, 2.998293399810791, 0.1879160851240158, 0.9794571399688721, 0.45725032687187195, -0.5812944769859314, -6.272134780883789, 18.037372589111328, 2.826345205307007, 3.9638376235961914, -5.835757732391357, 1.6966954469680786, -7.448919296264648, 4.7603583335876465, -5.200373649597168, -1.4643805027008057, 0.646377682685852]
[3.318676233291626, 4.962681770324707, -8.638204574584961, 0.04262515902519226, 0.3737681806087494, -1.476119041442871, 16.55725860595703, 0.3866649568080902, 12.733232498168945, 1.2717550992965698, 1.7705258131027222, -3.1446897983551025, 3.258648633956909, 0.07447227835655212, 2.611720085144043, 2.6872026920318604, -4.269149303436279, -0.31590455770492554, 19.832860946655273, 1.3809499740600586, 3.414029359817505, 1.5798817873001099, -2.0880517959594727, 0.14666321873664856, -29.63118553161621, -4.7506794929504395, -0.08156436681747437, -2.3823583126068115]
[-0.4594925343990326, -3.45674991607666, -0.5752082467079163, -0.3562430739402771, -0.5578290224075317, -1.3121637105941772, 2.1348812580108643, 1.9092128276824951, 2.558098316192627, 1.1325271129608154, 5.101069927215576, 8.960270881652832, -5.356289386749268, -0.6084966659545898, -0.9609094262123108, -1.2362152338027954, 2.4678473472595215, 0.30226704478263855, -3.3607702255249023, -0.4229559898376465, 3.814997673034668, 3.3842129707336426, -3.0180270671844482, 2.0386292934417725, 0.022177359089255333, 9.0698881149292, 0.8062830567359924, 0.5931496620178223]
[-0.8688864707946777, -4.1399688720703125, 0.5219103097915649, 0.21855896711349487, 5.58671760559082, 17.214881896972656, -1.4669023752212524, 21.924983978271484, -1.2500150203704834, 0.6667009592056274, 0.5321688055992126, 11.905539512634277, -1.427816390991211, -3.8381619453430176, -0.515891432762146, -4.795156955718994, 4.8299713134765625, -3.170463800430298, -1.8049882650375366, 0.8464168310165405, -1.9712938070297241, -3.7275912761688232, 2.567077159881592, 0.5770245790481567, -2.9692342281341553, -2.374906063079834, -1.3475874662399292, 2.2164785861968994]
[-2.766148090362549, 1.7767565250396729, -11.253020286560059, 5.968797206878662, -3.882674217224121, 1.7679526805877686, -6.87485933303833, 5.68360710144043, 19.291318893432617, -0.353941947221756, -0.3590846359729767, 5.260706901550293, 6.9005889892578125, 2.0659308433532715, 1.0359677076339722, -3.244793653488159, 0.942112386226654, -1.2914239168167114, 2.6010539531707764, -1.9339812994003296, 4.344264984130859, 3.322852373123169, 1.6897996664047241, -0.24128392338752747, -10.828591346740723, -5.586204528808594, 0.8508465886116028, -0.22150026261806488]
[2.669527769088745, 14.975379943847656, 2.356527805328369, 1.763676404953003, -3.06895112991333, 0.23137961328029633, -10.30997085571289, 11.309149742126465, -10.341151237487793, 0.3044615089893341, 1.8758567571640015, -1.5523359775543213, 6.098046779632568, 6.277304172515869, 1.373201608657837, 3.9837539196014404, -0.28836962580680847, -1.0385407209396362, 3.950133800506592, -0.254058837890625, 2.7317495346069336, -3.973963499069214, 2.23152756690979, -0.19587446749210358, 13.37583065032959, -3.2408766746520996, 0.15213392674922943, 6.06406307220459]
[4.546504497528076, -6.264057159423828, 0.5401330590248108, 3.5206539630889893, 1.9203085899353027, -1.6865102052688599, -2.331973075866699, -3.8635668754577637, -5.316654205322266, -0.057192523032426834, 2.11790132522583, -3.681157112121582, 3.509838342666626, 2.6933395862579346, -0.31661340594291687, -1.5273394584655762, 5.62808084487915, -0.9303894639015198, 3.172119140625, -3.704801082611084, 2.319563150405884, -5.824214935302734, 2.4843809604644775, 3.774656295776367, 1.386953592300415, -1.781738042831421, 7.095053195953369, -4.65031623840332]
[4.02926778793335, 0.9604542255401611, 4.057033061981201, -0.03641277924180031, 17.951175689697266, 3.4841816425323486, -6.357386112213135, 0.2165401726961136, -2.7259058952331543, 0.7432239651679993, 1.1094231605529785, 5.059027671813965, 18.571151733398438, 5.999776840209961, -4.770177841186523, -0.6418783664703369, -11.064058303833008, -4.45323371887207, -2.096684455871582, -6.029250621795654, 1.3011130094528198, 6.507388591766357, 22.398698806762695, -11.129085540771484, -4.283132553100586, 27.78214454650879, 0.5390005111694336, 9.000975608825684]
[7.646484375, -18.332416534423828, 0.14106068015098572, 2.2559099197387695, -1.0775338411331177, -16.69331932067871, -4.790886402130127, -6.8639373779296875, -19.537506103515625, 0.238838791847229, -0.8406246900558472, -15.14594841003418, 7.33492374420166, -2.93864107131958, 3.9146533012390137, 0.6246950030326843, 14.992398262023926, -1.3268307447433472, 13.711291313171387, 5.105984687805176, 9.188538551330566, -0.6921288967132568, 3.5149192810058594, 2.497447967529297, 6.228274822235107, -1.8183075189590454, 0.441374808549881, -9.387911796569824]
[-0.21606793999671936, 1.1464616060256958, 1.4724094867706299, 2.029895782470703, -2.170896291732788, -1.6587836742401123, 7.813845157623291, 1.982764482498169, 3.5435757637023926, 4.8132758140563965, 3.678650379180908, 3.5484750270843506, 0.7492742538452148, -1.1699116230010986, -0.7189552187919617, 1.8138853311538696, 6.272526741027832, -2.478814125061035, 4.9920830726623535, -1.4429210424423218, -3.4137284755706787, 8.668975830078125, -0.7053802609443665, 0.27887025475502014, -1.3356742858886719, -3.3458666801452637, 0.8523204326629639, -2.11858868598938]
[0.7168713808059692, -0.8844680786132812, 0.8106254935264587, -0.2080470621585846, -4.913784027099609, 1.7687287330627441, -4.12947416305542, -5.58533239364624, 0.519782543182373, -2.973538398742676, 3.0045688152313232, 5.235022068023682, 5.019984722137451, -0.27576297521591187, 0.963928759098053, 0.4624919891357422, -2.922694206237793, -0.17575645446777344, 7.238225936889648, 1.500267744064331, 2.77115797996521, -0.6922760605812073, 4.110777378082275, 1.833531141281128, -2.142639636993408, 3.8305296897888184, 0.9840807318687439, -0.7242520451545715]
[-2.824918270111084, 0.1832994669675827, 0.6780770421028137, -5.898017406463623, 0.7593949437141418, 2.2113118171691895, -4.982219696044922, -12.466705322265625, 1.6527752876281738, -1.9123270511627197, -2.07216739654541, 1.5263581275939941, 2.441312789916992, -10.40505599975586, -2.1233861446380615, -6.25177001953125, -2.024718999862671, -2.541891574859619, 4.805615425109863, -1.4883352518081665, -1.1284279823303223, 5.264351844787598, -0.8879196047782898, -31.65157699584961, -4.3964643478393555, 1.656422734260559, 1.569162130355835, 5.319865703582764]
[1.3675535917282104, 2.965013265609741, 1.2547955513000488, 0.2769194543361664, -2.7201437950134277, 2.2911853790283203, 1.30610191822052, 5.1251935958862305, -8.951920509338379, -0.677510142326355, 0.2151973396539688, -2.542588472366333, -5.978221893310547, 1.6290357112884521, 0.6080471873283386, 2.105374336242676, -0.13747045397758484, 0.6049636602401733, -13.568939208984375, 0.4518197774887085, -9.221142768859863, 1.1023197174072266, -4.239722728729248, 2.3457107543945312, -10.845020294189453, -4.386620044708252, -2.2939536571502686, -1.9793314933776855]
[1.9647607803344727, 16.087833404541016, 1.6869381666183472, 0.7552708983421326, -2.0744283199310303, 0.3094196915626526, -2.7072761058807373, -12.645454406738281, 3.3943989276885986, 0.7635587453842163, 0.22491788864135742, -8.670109748840332, 3.94250226020813, -1.9035251140594482, -5.8925604820251465, 0.11457540094852448, -7.640356540679932, 1.954458236694336, -4.823528289794922, 0.8466147184371948, 11.733404159545898, 12.429325103759766, -1.1986619234085083, -7.871907711029053, -6.919658660888672, -0.0034750329796224833, 0.30873414874076843, 6.728059768676758]
[2.490842580795288, 11.450653076171875, 2.395878314971924, -67.73681640625, 0.06508412957191467, -0.7093081474304199, -25.219728469848633, -5.1304731369018555, -4.312801837921143, -1.983644723892212, -2.2262163162231445, 5.105071067810059, 20.805267333984375, 3.8689537048339844, -1.7333015203475952, -64.09383392333984, 0.8422619104385376, -2.1237106323242188, -2.4250144958496094, -2.7854247093200684, -4.388670921325684, 10.62464714050293, -0.4559081196784973, 2.3837521076202393, -15.308767318725586, 12.403738021850586, 14.082098007202148, -0.6198694109916687]
[-1.64217209815979, 4.006318092346191, 0.8647698760032654, 0.6461758613586426, 2.4715418815612793, 25.123611450195312, 1.5428833961486816, 11.52911376953125, 27.68181037902832, 0.17586995661258698, 0.5300348401069641, 1.1870410442352295, -12.71909236907959, 3.4670841693878174, -0.34670037031173706, 0.6664745211601257, -11.652892112731934, 2.244447946548462, -6.8033623695373535, -12.600358009338379, 0.9998802542686462, 19.13690757751465, 37.91067123413086, -13.584502220153809, 13.253666877746582, -7.225706577301025, -7.121769428253174, -4.256375789642334]
[2.749382495880127, 3.130178689956665, 1.1528334617614746, -1.7335479259490967, -0.5709112286567688, 2.283189535140991, 1.6806554794311523, -11.963565826416016, 5.035636901855469, -0.2108256071805954, 1.4336016178131104, -7.699966907501221, 1.1311519145965576, -4.932981014251709, 4.867501258850098, -4.195057392120361, -1.0197162628173828, 0.8487973213195801, -1.2049767971038818, 2.180269956588745, -4.742893695831299, 5.435973167419434, 0.050447434186935425, -2.211493730545044, -9.634151458740234, -8.61052417755127, 7.0208234786987305, 2.565138578414917]
[-1.8880789279937744, -1.3850983381271362, -5.036752223968506, 0.7482269406318665, -9.331853866577148, -3.2228922843933105, 4.501588821411133, 10.386284828186035, 3.952326774597168, 1.9569323062896729, 4.118919372558594, 9.375832557678223, -4.398215293884277, 5.420970439910889, 4.377869606018066, 4.069690704345703, 7.852694988250732, 4.5047078132629395, -4.367196083068848, 9.478781700134277, 11.677340507507324, 11.051566123962402, -8.084673881530762, 0.26178714632987976, 9.386070251464844, -13.10946273803711, -4.352579116821289, -5.354426383972168]
[-2.414942979812622, -0.8233753442764282, 0.011337008327245712, -1.8500930070877075, -0.006341319996863604, 11.238279342651367, 3.8786203861236572, -6.283464431762695, 5.227708339691162, 0.06239909306168556, 1.2695157527923584, 0.3209356963634491, -4.871986389160156, 0.4710146188735962, 1.546501636505127, -4.412546157836914, 2.8256542682647705, 1.9469231367111206, -6.559774398803711, -0.827106237411499, 10.331827163696289, 14.330341339111328, 0.23446129262447357, -28.249975204467773, 2.5806169509887695, -5.7615275382995605, 1.7155249118804932, 2.170604705810547]
[-1.786047339439392, 8.50268268585205, 0.4455072581768036, -4.274406909942627, -1.6675716638565063, -0.2789762616157532, 5.155387878417969, -25.620925903320312, 1.6690430641174316, -0.3067288100719452, -5.975523471832275, -6.467584133148193, -1.0172595977783203, -3.210298538208008, 0.47436463832855225, -3.393174171447754, -5.113771438598633, -2.7085087299346924, -1.9741754531860352, -1.0806671380996704, 1.5884754657745361, -4.718477249145508, -0.053761813789606094, -17.362932205200195, -1.5346401929855347, 3.0092456340789795, 1.1639342308044434, 5.174142360687256]
[-0.1465345025062561, 7.495817184448242, 0.7581546306610107, 1.9603776931762695, 10.92275333404541, 2.3221113681793213, -0.253812313079834, -12.462108612060547, -0.3717845380306244, 1.8113492727279663, -1.2727255821228027, 0.32765695452690125, -1.6928706169128418, 1.5323586463928223, -1.8193427324295044, -1.4833060503005981, 3.461660861968994, -7.154745101928711, -1.6441662311553955, -0.8504137396812439, 4.272492408752441, 0.07725784182548523, 3.945348024368286, -7.540233135223389, 2.254459857940674, 7.127063274383545, 0.5168943405151367, -0.11647148430347443]
[19.598194122314453, -5.234494209289551, 28.407625198364258, 5.428014755249023, 7.442721843719482, -25.30851936340332, -11.390438079833984, 15.442752838134766, 12.7069730758667, 0.7693902254104614, -4.564938545227051, -19.705322265625, 15.172250747680664, -45.82532501220703, 5.475154399871826, -4.937682628631592, -44.65751647949219, 2.3738527297973633, 5.561797618865967, 46.386444091796875, -30.314620971679688, 1.0583605766296387, -22.9774169921875, 1.3128196001052856, -18.177841186523438, 4.261356830596924, 30.698516845703125, 2.258725166320801]
[-2.652434825897217, 2.498138666152954, 0.421111524105072, 0.3324492573738098, 8.480851173400879, 1.0266282558441162, -1.9052870273590088, 3.6690492630004883, -3.0108346939086914, -0.059363458305597305, -5.864999294281006, 2.611532211303711, -11.94720458984375, 3.07153582572937, -3.717100143432617, 1.4979649782180786, -5.3722028732299805, -13.356084823608398, 2.4481418132781982, -2.5497829914093018, 1.5644985437393188, -10.074591636657715, -1.3910791873931885, -11.291749954223633, 2.0600013732910156, 13.28002643585205, -1.72964608669281, 4.16193962097168]
[-1.5273184776306152, 1.7907339334487915, -0.18306061625480652, 1.0298054218292236, -10.425066947937012, 0.07723045349121094, -3.2738780975341797, 8.679266929626465, 3.7884628772735596, -0.5809885263442993, -8.336241722106934, 0.2326309084892273, 1.4499075412750244, 3.1250081062316895, -1.3453545570373535, -1.9714170694351196, -0.4677578806877136, -1.0649827718734741, 1.4854567050933838, 0.8853199481964111, 2.2286221981048584, -1.249790072441101, -0.21022473275661469, 0.430418461561203, -33.0225944519043, 21.234020233154297, -3.3222262859344482, 0.47019603848457336]
[-1.274836778640747, 4.159071922302246, -2.404878616333008, 0.5383361577987671, -7.37287712097168, -4.825839519500732, -9.218185424804688, 20.442480087280273, 4.196115016937256, -1.4772801399230957, 5.231106758117676, -10.275635719299316, -7.621480941772461, 0.9782699942588806, 0.7704246044158936, 3.7619268894195557, -2.3563232421875, -1.0310250520706177, -2.3245441913604736, -3.0868022441864014, -1.6660383939743042, -8.333024978637695, -2.832103729248047, -0.7387287616729736, -3.8832130432128906, -6.804867744445801, -0.5313076972961426, 10.84228229522705]
[-0.3383021056652069, -0.1875399649143219, -0.41672345995903015, 1.1827754974365234, 0.9530584216117859, 1.0861188173294067, -4.865163326263428, -7.130342960357666, -6.449326515197754, 0.11594155430793762, 0.0669112503528595, -7.518608570098877, 0.9115027189254761, -2.5374033451080322, 1.5645111799240112, -4.17581033706665, -4.192475318908691, -3.8823976516723633, -7.737545013427734, 2.129849910736084, -6.878841400146484, 1.360651969909668, -1.1387660503387451, -0.24989356100559235, 7.466291904449463, -3.6508522033691406, 0.8422619104385376, 10.355287551879883]
[1.6774334907531738, 4.68307638168335, -0.7698159217834473, -0.4526604115962982, 0.14791500568389893, 2.354276657104492, 4.8745436668396, 1.4368760585784912, 9.827441215515137, -0.04230957478284836, 1.7076683044433594, 0.2513272166252136, 0.01413485873490572, 1.1985300779342651, -1.7481857538223267, 0.33701345324516296, -6.025115966796875, -1.432559847831726, 5.273275375366211, 2.0385000705718994, 1.2773672342300415, -0.8186837434768677, 3.442751884460449, -0.0632784366607666, -25.130887985229492, -4.127071380615234, -1.1764624118804932, -0.8940919041633606]
[-2.270052909851074, 17.47646141052246, -0.7943792939186096, 3.394793748855591, 0.04339318349957466, 2.200282335281372, 4.395153522491455, 7.278661251068115, -1.1737048625946045, 31.991525650024414, -4.677984237670898, -36.014503479003906, -1.4025198221206665, 5.713008880615234, -0.372445285320282, 0.7487692832946777, -2.547330617904663, 0.3206195533275604, 1.6432901620864868, -7.143925189971924, -8.358963012695312, 13.116443634033203, 0.27573448419570923, -13.180008888244629, 10.882218360900879, 16.072744369506836, -1.842578649520874, -0.677202045917511]
[0.5269174575805664, -1.1560770273208618, 7.2741522789001465, -0.08811698853969574, -3.1345834732055664, -0.485265851020813, 1.242339015007019, 16.148115158081055, 7.4282331466674805, 1.3297451734542847, -1.7654786109924316, 2.752955913543701, -9.459980964660645, 4.074769973754883, 1.1725841760635376, 8.536054611206055, -0.9317230582237244, -1.2732865810394287, -0.6840790510177612, 6.1684393882751465, -14.530716896057129, 4.562850475311279, -0.7339162230491638, -0.0027283383533358574, -19.309955596923828, 5.462335586547852, -2.8494017124176025, -0.9341548085212708]
[0.7145448327064514, 10.303691864013672, 0.6365475058555603, 0.22096486389636993, 3.324831485748291, -1.3857654333114624, -2.0054643154144287, -1.1666356325149536, 3.1489169597625732, -0.4677640199661255, -2.1741440296173096, -0.2815283238887787, 0.2564040720462799, -4.206253528594971, 0.4601026475429535, -3.857224464416504, -0.3082127273082733, 0.013753706589341164, -0.32719653844833374, 5.026028156280518, -5.0762739181518555, 3.4309511184692383, 2.183499336242676, -14.828226089477539, -3.0407462120056152, -9.433283805847168, 0.7999527454376221, 4.458263874053955]
[0.6684635281562805, -0.863640308380127, -0.9704915881156921, -2.179529905319214, 11.035123825073242, 0.3092423677444458, -2.066483974456787, -1.845880389213562, -1.0894639492034912, 0.7411803603172302, 1.913891315460205, -1.8377437591552734, -1.408750057220459, 1.8808273077011108, -1.457580804824829, 0.3719109296798706, 4.862621784210205, -2.5558738708496094, -1.4303733110427856, -5.292688846588135, -1.615914225578308, -0.01026809960603714, -0.4718112051486969, 1.2794865369796753, -0.45700374245643616, 0.7705490589141846, -3.9952754974365234, 3.651251792907715]
[5.150514125823975, 1.2524452209472656, 9.64904499053955, -20.78069496154785, -8.541942596435547, -34.50385284423828, -21.759538650512695, 22.98872184753418, 4.501780986785889, -0.6729961633682251, 26.570096969604492, 17.472362518310547, 2.143508195877075, 10.539263725280762, -0.5223454833030701, -3.371882915496826, -2.2979609966278076, -0.8704251646995544, 7.008787155151367, 11.272701263427734, -16.000240325927734, 0.40440118312835693, -47.93927001953125, 1.999950885772705, 16.88910484313965, -7.447806358337402, 30.354032516479492, -1.6952848434448242]
[-1.9310216903686523, -3.330364227294922, -1.475604772567749, 2.8006749153137207, -0.8184193968772888, 1.3546468019485474, -0.06890274584293365, 1.5413774251937866, -0.5785439610481262, 1.1037510633468628, 0.998395562171936, -12.52853775024414, -0.46906936168670654, 1.119034767150879, 5.402778625488281, -0.8956304788589478, -0.41744327545166016, 0.0002966419269796461, -1.1707830429077148, 9.515813827514648, 4.017438888549805, 5.2795491218566895, -2.984834671020508, -12.498797416687012, 2.1352641582489014, 6.655492305755615, -3.118255138397217, 13.866412162780762]
[5.996603965759277, -2.288323163986206, -27.117748260498047, 1.050491452217102, -1.134171724319458, 2.57667875289917, -1.4289543628692627, 3.9155561923980713, -4.35950231552124, 2.103161334991455, 4.3646674156188965, 8.222635269165039, 11.732768058776855, 5.29067325592041, 47.89295196533203, -4.407338619232178, -1.2833869457244873, -4.0849432945251465, -4.836791515350342, -5.077101230621338, -4.726959228515625, -7.109296798706055, -1.1287596225738525, -17.37228012084961, 7.393307209014893, -19.729398727416992, 11.364171981811523, 6.9756364822387695]
[-1.9005935192108154, 6.769358158111572, -0.7781279683113098, -0.8283043503761292, 17.06856346130371, 0.41094905138015747, 7.3871259689331055, 5.616374969482422, 0.5427301526069641, -1.4125347137451172, 3.481584072113037, 3.8616654872894287, 0.0542566180229187, -1.3966037034988403, 0.7873146533966064, 2.522845983505249, 6.74539041519165, -0.4236506223678589, 11.091134071350098, 0.3840356469154358, 8.546836853027344, 2.199289083480835, 2.5056939125061035, -1.90175199508667, 6.121686935424805, 13.979004859924316, -0.062205005437135696, 1.840074896812439]
[-17.09805679321289, 1.0903915166854858, -14.055392265319824, -2.323164701461792, 9.05378246307373, 5.1212897300720215, 16.381242752075195, 41.64981460571289, -9.360468864440918, 27.381641387939453, -30.23136329650879, -10.597280502319336, 20.963457107543945, 0.43215426802635193, -34.27986526489258, 23.50070571899414, 11.087297439575195, 0.26361408829689026, 0.12124111503362656, -21.602563858032227, -14.170692443847656, -2.391624927520752, 15.982024192810059, -1.9355642795562744, 19.74146842956543, -6.973276615142822, -4.54517126083374, -4.735358238220215]

[1.2912611961364746, 0.5027158856391907, -2.411651372909546, -1.8999130725860596, 6.22416877746582, 1.196009635925293, -6.7033562660217285, 1.0130729675292969, -3.1641600131988525, -7.228057861328125, -0.6018697023391724, -0.49435314536094666, -2.7056002616882324, -3.6595256328582764, -3.823556900024414, 0.2561592161655426, -2.4236199855804443, -4.0302958488464355]
[-0.539321780204773, 0.7537670731544495, -6.9983439445495605, 7.602788925170898, -5.698263168334961, -2.079712152481079, 5.0444560050964355, 4.581323623657227, 0.668487548828125, -0.525052547454834, 3.694910764694214, -2.2195918560028076, -0.30789628624916077, 1.4757121801376343, -2.524977684020996, -1.9634169340133667, -5.999579429626465, -0.06451662629842758]
[0.9928296804428101, -0.7163574695587158, -2.9301908016204834, -2.9054455757141113, 4.834321022033691, 14.974947929382324, -4.284599781036377, 4.320662021636963, 2.7187612056732178, -2.1879003047943115, -4.113198280334473, 7.000213623046875, -1.73966383934021, -3.839374303817749, -1.8513388633728027, 0.5376642346382141, -3.3233420848846436, -0.18087589740753174]
[0.41928550601005554, -41.4556884765625, -1.442152738571167, 4.914632320404053, -6.99315071105957, -55.51044845581055, 7.109348297119141, -40.56435012817383, -102.6739730834961, 2.6042115688323975, -4.896592617034912, -7.222136974334717, -0.1139749139547348, -58.354610443115234, -0.5390841364860535, -34.10004425048828, 8.516797065734863, -32.115848541259766]
[1.2118349075317383, 0.8244574666023254, 9.011741638183594, 1.4250693321228027, -2.090341091156006, 0.04740429297089577, 12.136144638061523, 1.4924570322036743, 1.283047080039978, 17.230426788330078, 1.6501139402389526, 5.497598171234131, 1.2461854219436646, -4.742672920227051, -7.222749710083008, -29.019935607910156, -31.672456741333008, -3.8849778175354004]
[-2.473245620727539, -0.9610339403152466, -2.6974527835845947, -1.5212435722351074, -1.3774924278259277, -21.6389102935791, 3.6061081886291504, 3.413733720779419, -0.5265380144119263, -5.982131481170654, -2.758589506149292, -11.591195106506348, -0.041000984609127045, 0.01880578324198723, -1.8730484247207642, 0.8514474034309387, 0.7430967092514038, 0.5131180286407471]
[-1.0195125341415405, 0.28260117769241333, -0.6954663395881653, -3.5798239707946777, 1.7572945356369019, 0.5792515277862549, -2.004694938659668, -0.4797729551792145, -0.35987991094589233, 0.9284183382987976, -3.4230234622955322, -12.237460136413574, 0.031077971681952477, -0.9329814910888672, -2.5473880767822266, -1.817148208618164, 1.060660719871521, -0.9693120718002319]
[16.33570671081543, 27.656633377075195, -2.5820863246917725, -10.076058387756348, 7.588451862335205, 10.682733535766602, -26.367155075073242, -22.504379272460938, 7.100895404815674, 19.786548614501953, -4.836353778839111, 5.059129238128662, 6.031657695770264, 14.240601539611816, 1.8435628414154053, 0.9457730054855347, 22.35445213317871, -0.13059720396995544]
[40.28681945800781, -4.0477070808410645, -25.845417022705078, -23.4014949798584, -21.52782440185547, -26.730838775634766, -3.6037185192108154, -29.95802879333496, -2.2030463218688965, -47.22368240356445, -1.1635135412216187, 0.08659740537405014, 25.162450790405273, 13.753273963928223, 9.117411613464355, 9.082094192504883, 9.725831985473633, 13.62895679473877]
[0.9499191045761108, 2.4456872940063477, -7.937296390533447, -5.304869651794434, -0.2722344398498535, -7.698352336883545, -5.82390832901001, 11.538839340209961, 0.1489259898662567, 0.5428121089935303, 0.4941028654575348, 0.05794227495789528, -1.4511547088623047, -11.290242195129395, 0.24300865828990936, 1.8006449937820435, -1.0832695960998535, -2.829864740371704]
[0.973553478717804, -0.29512903094291687, 1.407663106918335, -5.529904365539551, -3.166431188583374, -0.11516983807086945, -3.419065475463867, -2.0521597862243652, 4.4550981521606445, -7.961078643798828, -2.246180295944214, -20.291929244995117, 4.769102096557617, -3.097203254699707, 0.3807061016559601, -4.38521146774292, 7.160256862640381, 0.11839596927165985]
[-0.3784433603286743, -2.7726104259490967, 9.101383209228516, 0.34142348170280457, -12.663865089416504, 6.18364953994751, 15.636221885681152, -7.308281421661377, 0.7769384980201721, -2.1487622261047363, -1.6556651592254639, -8.492937088012695, -3.381734848022461, 4.54190731048584, -5.695650577545166, 1.1247386932373047, 5.601001739501953, 11.554766654968262]
[-8.759967803955078, -13.55202579498291, -2.758913516998291, -10.516178131103516, 0.4206323027610779, -15.274772644042969, -2.194200038909912, 28.55788230895996, -31.01354217529297, -0.5114452838897705, -1.7483116388320923, -4.704099178314209, -56.62008285522461, 12.797481536865234, -1.8927435874938965, 17.11448860168457, -2.0086543560028076, -27.241947174072266]
[-2.2294211387634277, 3.434204578399658, -4.470108985900879, -3.2600364685058594, 4.435821056365967, 0.5981820225715637, -19.437639236450195, 9.907632827758789, -1.3703317642211914, -6.930450916290283, -1.3065366744995117, -0.3108794689178467, 2.150646448135376, -0.040712352842092514, -2.6556081771850586, -0.49607327580451965, -3.0086755752563477, -3.132992744445801]
[-3.8722360134124756, 20.071311950683594, 3.9377496242523193, 6.644560813903809, -7.092136859893799, -8.07554817199707, 28.984195709228516, -3.013615846633911, 2.698988199234009, -4.062725067138672, 2.4064443111419678, -20.695974349975586, -0.2692960202693939, 2.3579280376434326, 2.373094320297241, 15.291470527648926, -4.420411109924316, -54.471458435058594]
[-0.5576730370521545, 1.6003926992416382, 2.5464820861816406, -0.7859929203987122, 3.0317623615264893, -1.8169305324554443, 8.60019588470459, -6.797749996185303, 8.084810256958008, 0.9301453232765198, -0.1613699048757553, 4.4550580978393555, 0.6412690877914429, 10.046210289001465, -6.678304195404053, 0.5677061080932617, -4.708359718322754, 2.1821725368499756]
[98.27734375, 11.49055290222168, -0.7340465784072876, -16.94145965576172, -9.238794326782227, 36.31277084350586, 35.93320846557617, -5.096917152404785, 17.977094650268555, 1.893715500831604, 2.071373462677002, 13.801815032958984, 30.022369384765625, -25.15737533569336, 6.412424564361572, 15.267189025878906, 25.391300201416016, -3.928201913833618]
[-1.5459492206573486, -2.6780178546905518, -7.94068717956543, 10.025500297546387, -1.5436606407165527, 5.724369049072266, 7.713286876678467, 9.6837797164917, 0.3556077480316162, -2.436671495437622, 1.4465062618255615, 4.742519855499268, 3.351367950439453, 1.0666474103927612, -23.092775344848633, 2.340660572052002, -11.246481895446777, 17.751924514770508]
[-0.15217110514640808, 13.095558166503906, -13.980628967285156, -6.68326997756958, 11.528223991394043, -5.000823974609375, -3.188091993331909, 9.777449607849121, -4.189859390258789, 4.754088401794434, 3.5220916271209717, 3.5529778003692627, 12.618902206420898, 0.9828323125839233, 0.27001914381980896, 8.861857414245605, -12.668047904968262, -2.6789684295654297]
[3.721174955368042, 1.9614439010620117, -1.9158592224121094, 0.5493074059486389, 3.8517978191375732, 2.2189462184906006, -5.415158748626709, -2.3115320205688477, -1.5872610807418823, -4.946201324462891, -0.3936617374420166, -0.4244580566883087, 2.9834561347961426, -0.8606325387954712, -8.289946556091309, 0.4213623106479645, -10.45872688293457, -4.905523300170898]
[-5.926486015319824, 16.641849517822266, -13.687917709350586, -11.088927268981934, -11.691742897033691, -1.5601792335510254, 10.388006210327148, -18.827486038208008, -0.3835104703903198, 11.463154792785645, 1.7826086282730103, 1.5765559673309326, -1.0077012777328491, 0.10532718896865845, 10.824604988098145, -0.15696388483047485, 14.787753105163574, 5.692855358123779]
[2.085975408554077, 1.6873903274536133, -2.162656784057617, -3.3711626529693604, 2.17508864402771, 4.1100897789001465, -4.619866371154785, 7.087771415710449, -2.6916396617889404, 8.34542465209961, -1.7324362993240356, -3.046499490737915, 3.9275643825531006, 4.592682838439941, -0.2569214999675751, -4.064599990844727, -4.276778221130371, -16.12451934814453]
[-0.3694190979003906, 0.16042454540729523, -0.4609872102737427, -4.739090442657471, 4.2163896560668945, 2.1149656772613525, -6.040170192718506, 3.19990873336792, -5.769263744354248, -5.601142883300781, -0.4804824888706207, -1.6589726209640503, -3.8968963623046875, -2.8473966121673584, -3.4116263389587402, -2.055903434753418, -3.4192590713500977, -4.892749786376953]
[-2.8154985904693604, -0.25371894240379333, -3.4905037879943848, -1.201821208000183, -1.9818336963653564, -5.167748928070068, -2.2264907360076904, 1.4198179244995117, 0.26300057768821716, 1.6677778959274292, -0.7758274674415588, -14.715768814086914, 5.347060680389404, 0.4887571632862091, -4.391381740570068, 2.450956106185913, 1.5688904523849487, 5.84226131439209]
[34.916446685791016, 2.050913095474243, -13.205534934997559, 4.3136725425720215, -0.26288262009620667, -0.19538119435310364, -1.3785654306411743, -5.117458820343018, -8.824859619140625, -2.2294411659240723, 7.345943927764893, 4.216070175170898, -6.87206506729126, 5.705788612365723, -0.6685071587562561, 0.6817857623100281, -6.230452060699463, -21.473142623901367]
[11.467730522155762, -14.685269355773926, -1.35515296459198, 11.974268913269043, 2.1262874603271484, -46.220638275146484, 3.9281394481658936, -11.158114433288574, -38.74375915527344, -1.7560148239135742, 5.131211280822754, -43.508056640625, 35.63393783569336, -6.192955493927002, -3.1766390800476074, 6.428051948547363, 0.6520555019378662, 3.620741605758667]
[5.184417724609375, -4.857804298400879, -2.458702802658081, 4.188927173614502, -11.70016860961914, -3.266064167022705, 6.8935933113098145, 0.09725680202245712, 0.5356647968292236, 0.7837380170822144, -8.63155460357666, 5.6274542808532715, 1.551079511642456, 1.324733853340149, -2.1304070949554443, 3.375858783721924, 1.5773471593856812, 13.970122337341309]
[1.2641843557357788, -0.6058372259140015, 0.18360531330108643, 4.096309661865234, 3.529290199279785, 2.2985479831695557, 0.301236629486084, -3.5443785190582275, 2.0098235607147217, -0.07363365590572357, -7.89850378036499, -10.47081184387207, -10.864273071289062, -0.08633998036384583, 2.077486276626587, -4.238578796386719, 7.210115909576416, -3.5562291145324707]
[-0.8802170753479004, -3.0756640434265137, -4.867905616760254, -0.30145004391670227, 8.764854431152344, 2.0403387546539307, -5.164500713348389, -1.0431342124938965, -8.584141731262207, -3.917926549911499, -16.013797760009766, -7.955875873565674, -1.8500566482543945, 1.1437286138534546, -1.6231567859649658, 0.7223772406578064, -4.61345911026001, -6.197691440582275]

[-3.694603443145752, -7.144777774810791, 2.050718069076538, 0.341254860162735, -6.086448669433594, -0.47630688548088074, 0.38219475746154785, -5.684556007385254]
[2.475510597229004, 1.449489712715149, -5.216035842895508, 2.959117889404297, -2.2419307231903076, -0.0649147778749466, -0.9146422743797302, 4.9862565994262695]
[3.608100175857544, -11.116573333740234, 8.892194747924805, -2.9916768074035645, 5.541629791259766, 7.063513278961182, -4.889047145843506, 3.500840902328491]
[20.706844329833984, 12.70139217376709, -3.7324416637420654, -0.0672990158200264, -0.2800264358520508, 2.931382656097412, 10.557527542114258, 1.6689127683639526]
[3.505549430847168, -2.7403223514556885, 32.53699493408203, -4.591589450836182, -59.08267593383789, 21.503000259399414, 69.5008316040039, -13.216276168823242]
[-0.1685226857662201, -2.052251100540161, 5.061914443969727, 0.22381922602653503, -5.252132415771484, 5.885401248931885, 4.150428295135498, -6.458716869354248]
[-0.737204909324646, 9.968925476074219, -7.817047595977783, -12.283682823181152, 0.012828262522816658, -8.967761993408203, 1.481425166130066, 11.319806098937988]
[-20.902090072631836, -14.43059253692627, -6.871975898742676, -9.00196361541748, -2.177964210510254, -8.037595748901367, -2.9668385982513428, 1.4689645767211914]
[-0.4384070634841919, -3.142242908477783, -0.43196430802345276, -1.5696828365325928, -3.761523962020874, 4.972062110900879, -0.7831537127494812, -4.11022424697876]
[-45.05025100708008, 16.12670135498047, -13.860328674316406, -13.963647842407227, 18.962867736816406, 4.267154216766357, 6.4532294273376465, 8.808937072753906]
[-21.257427215576172, -19.449922561645508, -0.844893217086792, -51.07555389404297, 1.9579648971557617, -0.21937163174152374, -4.088462829589844, 6.072851657867432]
[3.3892500400543213, 0.09043800830841064, 1.3734869956970215, 13.92420768737793, 5.079875469207764, 0.02711486630141735, 0.7444485425949097, -1.4480323791503906]
[10.876777648925781, 9.241434097290039, -11.818897247314453, -5.969668388366699, 8.035446166992188, -5.301723003387451, 6.628664493560791, -3.9440994262695312]
[-7.551451683044434, -2.504671096801758, -11.175874710083008, 0.19479507207870483, 7.027881622314453, 3.2655436992645264, -4.811122894287109, -17.56119155883789]
[-1.458423376083374, 1.2004976272583008, -4.148304462432861, -50.900089263916016, -16.47410774230957, -14.793811798095703, 8.47894287109375, -0.6557275056838989]
[8.316060066223145, -6.298884391784668, -2.8260557651519775, -14.250319480895996, -14.104172706604004, 2.9345433712005615, 15.162940979003906, 9.152066230773926]
[22.207483291625977, -4.198601722717285, 42.352848052978516, -3.0481536388397217, 8.984721183776855, 1.6418901681900024, -3.0275022983551025, -6.585045337677002]
[8.6655912399292, 8.481264114379883, -12.337246894836426, 16.464860916137695, 5.132569789886475, -7.812398433685303, 0.4063056707382202, 10.599607467651367]
[-16.62921142578125, -3.9075353145599365, 41.19491195678711, -38.081905364990234, 27.106264114379883, -9.165682792663574, 7.581686973571777, -20.022226333618164]

[-0.12428773939609528, 1.9661365747451782, -1.396865963935852]
[-4.744791030883789, -1.0671813488006592, 2.9317877292633057]
[-2.1219398975372314, -36.75371170043945, -33.40217208862305]
[-0.8816166520118713, -0.17142632603645325, -6.818379878997803]
[2.069593906402588, -4.253002166748047, 1.2724913358688354]
[58.47178268432617, -2.0051143169403076, 6.308749675750732]
[2.7751448154449463, -0.7963227033615112, -2.8966023921966553]
[-3.438167095184326, 0.5409334301948547, -3.1073155403137207]
[-0.3953058123588562, 3.447573184967041, 8.030804634094238]