[1.4154330152393868e-08, 6.140888908490183e-10, -5.87517590133757e-09, 3.275737725516592e-08, 3.2906157798606728e-09, -2.9995625983048058e-09, 1.8805538459787385e-08, 2.339944016327422e-09, -7.105653843098025e-09, -6.615060055281674e-09, 5.401494806989149e-09, -2.447675306882502e-08, -7.71151231759859e-09, -1.0557827501145312e-08, 3.3949348221540276e-08, -7.229516096884936e-09, -1.3715361291133377e-08, -1.0125446259223736e-08, 1.1861078341723896e-08, 1.8386272060411102e-08, 4.345338755484818e-09, -1.0836373576239566e-08, 4.597280778284585e-09, 1.659623194427695e-08, 7.497289011837438e-09, -5.440690564739725e-09, -5.2223164459519467e-08, 2.782382102495262e-09, -7.61702789731089e-09, -1.5498130778723862e-08, -1.6311449968497982e-08, -2.964783973880003e-09, -2.261621112609191e-09, -1.045994135751016e-08, -1.6719438056256308e-09, -1.1064169580521366e-09, 3.40252270802921e-08, 5.382485568361517e-09, -2.7858048312623396e-08, -1.3285157862696906e-08, -5.218514509408578e-09, 3.3368647844866928e-09, 2.313341296300564e-09]
[0.09664300084114075, -0.08523321151733398, -0.17540296912193298, -0.21400539577007294, -0.20005017518997192, 0.18013045191764832, 0.0859716534614563, -0.23800905048847198, -0.22786779701709747, -0.21666266024112701, -0.23956944048404694, 0.02426433563232422, 0.1899736225605011, 0.18898767232894897, -0.09954239428043365, 0.25309374928474426, 0.183871328830719, 0.08776375651359558, 0.1315155327320099, -0.17323026061058044, -0.20088057219982147, -0.01802898943424225, 0.15237265825271606, -0.19884279370307922, -0.06697040796279907, 0.13340893387794495, -0.12645278871059418, -0.14684531092643738, 0.1084124743938446, 0.10930213332176208, 0.1536218523979187, 0.005512207746505737, -0.24686278402805328, -0.2359410971403122, 0.1494419276714325, 0.12907975912094116, -0.04347194731235504, 0.1725485622882843, 0.16701236367225647, 0.1365717053413391, 0.12582248449325562, 0.007075637578964233, -0.14851278066635132]
[-0.05083055794239044, 0.10722130537033081, -0.13589778542518616, -0.06480927765369415, 0.1686440110206604, 0.18191289901733398, -0.23999357223510742, 0.12168073654174805, -0.12072007358074188, 0.16382697224617004, -0.23526069521903992, -0.15609881281852722, -0.07191553711891174, 0.09207388758659363, -0.15220656991004944, -0.19204288721084595, -0.17221204936504364, 0.03762871026992798, -0.05312705039978027, 0.16577699780464172, -0.09419995546340942, -0.12514281272888184, -0.05908316373825073, -0.037275418639183044, 0.03503409028053284, 0.18716216087341309, 0.23970669507980347, -0.008320018649101257, -0.1442662924528122, 0.0867525041103363, -0.21803447604179382, -0.15367650985717773, 0.15572991967201233, -0.17480827867984772, -0.07310327887535095, -0.2388772815465927, -0.0889628678560257, -0.20033222436904907, -0.16223473846912384, -0.18286700546741486, -0.011968433856964111, 0.14636945724487305, -0.21562999486923218]
[0.22733622789382935, -0.15599064528942108, 0.2232643961906433, 0.23698043823242188, -0.16311350464820862, 0.10980567336082458, 0.0993218719959259, -0.15067856013774872, -0.11750264465808868, 0.06796646118164062, -0.1975819617509842, 0.17707416415214539, -0.012596681714057922, -0.08702689409255981, -0.08387613296508789, -0.07988262176513672, 0.005464881658554077, 0.17776325345039368, 0.15029776096343994, -0.029488742351531982, 0.11067259311676025, -0.08181749284267426, 0.18510553240776062, -0.047218382358551025, -0.2517416775226593, 0.09609398245811462, 0.021748006343841553, 0.10774058103561401, 0.25078216195106506, -0.0677480399608612, -0.03628590703010559, 0.03272417187690735, -0.06332437694072723, 0.16020357608795166, 0.14877113699913025, 0.07623320817947388, 0.0784810483455658, -0.19080671668052673, -0.018132328987121582, -0.2462550550699234, -0.216861754655838, 0.15928974747657776, -0.011251479387283325]
[0.1649453341960907, 0.08628955483436584, 0.1268686056137085, 0.026020079851150513, 0.13468965888023376, -0.17325249314308167, -0.011046767234802246, -0.08577243983745575, 0.16133958101272583, -0.1796373873949051, 0.15363752841949463, -0.04870779812335968, 0.18806105852127075, 0.07276412844657898, 0.13627061247825623, 0.09694764018058777, -0.1390598714351654, -0.08479958772659302, -0.22994022071361542, 0.16698616743087769, 0.048168957233428955, -0.1938573122024536, 0.06880709528923035, -0.13144224882125854, -0.12680554389953613, 0.1039435863494873, 0.0020259618759155273, -0.004115104675292969, -0.09555095434188843, -0.014415904879570007, 0.012337088584899902, -0.1529042273759842, -0.05707177519798279, -0.036776408553123474, 0.2032674252986908, 0.16008657217025757, 0.0053338706493377686, 0.1685945987701416, -0.020458757877349854, -0.07691667973995209, -0.08951660990715027, -0.08978511393070221, -0.15511640906333923]
[-0.24583955109119415, 0.11322402954101562, -0.11209474503993988, 0.1734541356563568, -0.03778085112571716, 0.068661630153656, 0.17249205708503723, -0.0165555477142334, -0.1220550388097763, 0.13997194170951843, -0.046893730759620667, -0.07922853529453278, -0.1722383201122284, -0.0938836932182312, -0.1582450270652771, -0.24587970972061157, -0.17825093865394592, -0.18745894730091095, -0.1373780369758606, 0.14004233479499817, 0.019465267658233643, -0.13266664743423462, 0.19355329871177673, 0.21616041660308838, -0.051258787512779236, 0.07458093762397766, 0.12819817662239075, -0.12156227231025696, -0.1571258008480072, 0.1873464286327362, 0.17529705166816711, -0.10977469384670258, -0.05742935836315155, -0.20998071134090424, 0.07851171493530273, 0.060470402240753174, 0.1991041898727417, -0.08011665940284729, -0.15142440795898438, 0.06443235278129578, -0.22834965586662292, 0.06065279245376587, -0.15049827098846436]
[0.09034198522567749, 0.23602283000946045, -0.05515699088573456, 0.17864438891410828, -0.10934264957904816, 0.07530444860458374, 0.11550784111022949, 0.0586797297000885, 0.22022780776023865, -0.015036121010780334, 0.12187284231185913, 0.07529324293136597, 0.13255932927131653, 0.12508508563041687, 0.24764111638069153, -0.1388368010520935, -0.13168130815029144, 0.12736931443214417, 0.24554958939552307, 0.18490111827850342, -0.11648400127887726, -0.10427196323871613, -0.18419554829597473, 0.17174139618873596, 0.08169475197792053, 0.116241455078125, -0.04643316566944122, 0.09453359246253967, 0.12003183364868164, 0.19444000720977783, 0.20321017503738403, -0.025180861353874207, -0.01307988166809082, -0.1549854725599289, -0.10011346638202667, -0.24752195179462433, -0.15592992305755615, 0.030088037252426147, -0.00987580418586731, 0.041955649852752686, 0.19336798787117004, 0.05960279703140259, -0.1108994334936142]
[-0.11427003145217896, -0.024455219507217407, -0.17171622812747955, 0.039633482694625854, -0.03436592221260071, -0.05779343843460083, 0.23858103156089783, 0.09034466743469238, 0.15528735518455505, 0.020705968141555786, 0.2285732924938202, 0.08695673942565918, -0.22535642981529236, 0.029121309518814087, -0.13728608191013336, -0.024998128414154053, -0.07511711120605469, -0.10116571187973022, 0.18102526664733887, -0.17090395092964172, 0.027845412492752075, 0.0055551230907440186, -0.1220170259475708, -0.16174057126045227, -0.20971551537513733, 0.18644985556602478, -0.24825432896614075, -0.10984006524085999, 0.182282954454422, -0.18966391682624817, 0.1043194830417633, 0.22340074181556702, -0.1787479817867279, -0.015490308403968811, -0.01802869141101837, 0.15493258833885193, 0.026467233896255493, -0.029753103852272034, -0.10691031813621521, 0.16262495517730713, -0.15708202123641968, 0.012763500213623047, 0.23468106985092163]
[-0.10844540596008301, -0.052779555320739746, -0.10991580784320831, 0.12023881077766418, -0.10097764432430267, 0.13203907012939453, -0.2269255518913269, 0.1646549105644226, -0.11236026883125305, 0.19219470024108887, -0.16699522733688354, 0.17195254564285278, -0.04166442155838013, 0.107384592294693, -0.22296112775802612, -0.09645169973373413, -0.1287982016801834, -0.1240105926990509, -0.044129207730293274, -0.24171961843967438, 0.023239076137542725, -0.06452919542789459, 0.11543381214141846, 0.07833343744277954, 0.21531495451927185, -0.15120261907577515, 0.11160436272621155, 0.05240580439567566, 0.23516744375228882, 0.07551699876785278, -0.07692286372184753, 0.14051911234855652, 0.194259911775589, -0.12991350889205933, 0.16989591717720032, -0.09465904533863068, -0.05650903284549713, -0.10083109140396118, -0.20196913182735443, -0.18472278118133545, 0.014939814805984497, 0.1618865728378296, 0.1253770887851715]
[0.19702613353729248, 0.11553159356117249, -0.1591791808605194, -0.029408305883407593, 0.017377853393554688, 0.22543901205062866, 0.057516902685165405, 0.1408419907093048, 0.044688016176223755, 0.09670791029930115, -0.17638751864433289, 0.11450737714767456, -0.15326352417469025, 0.1877187192440033, 0.14724436402320862, 0.022247612476348877, -0.21725429594516754, -0.14914193749427795, -0.17650750279426575, 0.02242356538772583, 0.1785135567188263, 0.039409369230270386, -0.010595574975013733, -0.19254115223884583, -0.20639510452747345, 0.2289704978466034, 0.05860528349876404, -0.18295136094093323, 0.13370996713638306, 0.023866355419158936, -0.04838554561138153, 0.06669676303863525, -0.2533336579799652, -0.010913550853729248, 0.102938711643219, -0.19033831357955933, -0.06680089235305786, -0.13743723928928375, 0.15217581391334534, 0.14141690731048584, 0.10662031173706055, 0.1970166563987732, 0.13539555668830872]
[-0.17497700452804565, 0.05706602334976196, -0.20638799667358398, 0.0907055139541626, 0.19687363505363464, 0.1479235291481018, -0.020371213555336, 0.2314414083957672, 0.02278989553451538, 0.14156115055084229, 0.09314942359924316, 0.24842527508735657, 0.1055716872215271, -0.0018564462661743164, 0.08676964044570923, -0.22755637764930725, -0.17759856581687927, -0.1230253130197525, 0.22749605774879456, -0.046401143074035645, 0.2406030297279358, 0.057412952184677124, -0.13889488577842712, 0.2135658860206604, -0.1432551145553589, 0.11984491348266602, -0.1740998923778534, 0.11494633555412292, 0.24437710642814636, 0.005523175001144409, 0.10501861572265625, 0.1503523886203766, -0.14028263092041016, 0.03237602114677429, 0.15989404916763306, 0.05168524384498596, 0.17254748940467834, 0.07755410671234131, 0.12776309251785278, -0.008622318506240845, 0.1675001084804535, -0.15165001153945923, 0.03468745946884155]
[-0.10614603757858276, -0.11488774418830872, 0.07231462001800537, 0.18932512402534485, -0.045145705342292786, 0.14702549576759338, 0.18954434990882874, 0.2473069131374359, -0.1024319976568222, -0.1683008074760437, 0.1495000123977661, 0.014946013689041138, 0.04502308368682861, 0.07259631156921387, -0.05399172008037567, 0.23402521014213562, 0.035734623670578, -0.119148850440979, 0.22812873125076294, -0.18104287981987, 0.0021438514813780785, -0.22769343852996826, 0.18616798520088196, -0.23656144738197327, -0.2422860860824585, 0.23984172940254211, 0.1605600118637085, -0.02838873863220215, 0.16208168864250183, 0.006090134382247925, -0.17743316292762756, 0.0401034951210022, 0.17095354199409485, 0.25003018975257874, 0.08738350868225098, -0.08678153157234192, 0.25150880217552185, -0.04925517737865448, 0.01457977294921875, -0.05581681430339813, -0.13536670804023743, -0.21224506199359894, -0.07654458284378052]
[0.03197672963142395, 0.24015101790428162, 0.07122650742530823, -0.21041323244571686, -0.11231832206249237, -0.22436746954917908, 0.09808671474456787, -0.020823031663894653, -0.025588959455490112, 0.11271265149116516, -0.0945809930562973, 0.1099032461643219, -0.23817306756973267, 0.05876654386520386, -0.07846052944660187, 0.17750000953674316, -0.016322419047355652, -0.11595296859741211, -0.24295400083065033, 0.0045757293701171875, -0.17438775300979614, -0.1863701492547989, 0.1855904459953308, 0.08076420426368713, -0.19736450910568237, 0.08458542823791504, -0.19303715229034424, -0.1806127429008484, -0.07042966783046722, 0.04774528741836548, 0.12165728211402893, 0.005554884672164917, 0.09027603268623352, 0.25302860140800476, -0.23719488084316254, -0.23509442806243896, -0.0025738179683685303, -0.2280743569135666, -0.16597150266170502, -0.04955637454986572, -0.23743265867233276, 0.017722517251968384, 0.08605203032493591]
[-0.1149863600730896, -0.056310251355171204, -0.09164394438266754, -0.08880724012851715, -0.22253625094890594, 0.10346722602844238, 0.1516328752040863, 0.05716729164123535, -0.18097597360610962, 0.022384822368621826, 0.09543275833129883, -0.1347317397594452, 0.22207391262054443, 0.16837120056152344, -0.018460959196090698, 0.11664122343063354, 0.09653759002685547, -0.07493601739406586, -0.23950637876987457, 0.130894273519516, 0.032845646142959595, -0.22975894808769226, 0.1594792902469635, -0.07387189567089081, 0.18761378526687622, 0.21306559443473816, 0.05508163571357727, 0.07575514912605286, 0.2285771667957306, 0.16080138087272644, 0.09384727478027344, -0.11646629869937897, 0.08069366216659546, 0.16230490803718567, -0.16062059998512268, -0.12517212331295013, -0.21887730062007904, -0.23027749359607697, -0.17866159975528717, -0.08548495173454285, 0.07373279333114624, 0.08153936266899109, 0.22750476002693176]
[-0.04086989164352417, 0.10601159930229187, 0.13249683380126953, 0.1278356909751892, 0.11462149024009705, -0.06806392967700958, -0.08727160096168518, -0.12704430520534515, -0.2251857966184616, 0.03613880276679993, 0.13343465328216553, -0.0561225563287735, 0.17614403367042542, 0.08077356219291687, 0.03099513053894043, 0.11638385057449341, 0.08181393146514893, -0.2018529325723648, 0.12761685252189636, -0.2200314849615097, -0.07764409482479095, -0.23239466547966003, 0.09977325797080994, -0.11099761724472046, -0.13401415944099426, 0.02744615077972412, -0.027012765407562256, -0.12487336993217468, -0.25478652119636536, -0.19886299967765808, 0.24201872944831848, -0.1201830506324768, -0.21356748044490814, -0.16056931018829346, -0.07572442293167114, 0.031037509441375732, -0.1412513256072998, 0.16606560349464417, -0.16076397895812988, 0.016939759254455566, 0.10089161992073059, 0.024929016828536987, -0.15335431694984436]
[-0.08870244026184082, 0.08089232444763184, 0.24245396256446838, 0.21717384457588196, 0.19272008538246155, 0.03142473101615906, 0.2166082262992859, -0.011529669165611267, 0.05783990025520325, -0.21754974126815796, 0.004297912120819092, 0.18135374784469604, 0.22125566005706787, 0.09333533048629761, 0.014043748378753662, -0.23625802993774414, 0.18791088461875916, -0.22666709125041962, -0.19466763734817505, 0.08168083429336548, -0.10263903439044952, -0.10309317708015442, 0.16648361086845398, 0.11829894781112671, 0.23744526505470276, 0.2018962800502777, -0.2256498485803604, -0.14990584552288055, -0.2144300788640976, 0.2213616669178009, -0.2445249706506729, -0.09971748292446136, -0.004980206489562988, 0.15829190611839294, -0.1806298941373825, -0.08039124310016632, -0.06493477523326874, -0.06336325407028198, -0.15976908802986145, -0.023022547364234924, 0.017816990613937378, 0.10235968232154846, 0.18763098120689392]
[0.11393967270851135, -0.23088864982128143, -0.01368260383605957, 0.21754196286201477, -0.12932053208351135, 0.16574186086654663, 0.09507906436920166, 0.035977303981781006, 0.18666020035743713, -0.19652928411960602, 0.13551750779151917, 0.17425808310508728, 0.10651218891143799, 0.19822508096694946, 0.1725931465625763, 0.20271503925323486, -0.13008113205432892, -0.10418400168418884, -0.012740671634674072, -0.05311419069766998, 0.14894959330558777, 0.1009376049041748, 0.04602298140525818, -0.03294646739959717, 0.02708989381790161, -0.13397395610809326, -0.12289589643478394, 0.13580891489982605, 0.04313400387763977, -0.1965780109167099, 0.05764767527580261, 0.023573637008666992, 0.17680349946022034, 0.09522190690040588, 0.1337105929851532, 0.2528630197048187, 0.0525951087474823, -0.025769129395484924, 0.1632385551929474, 0.04519394040107727, -0.0978606790304184, -0.08183230459690094, -0.217652827501297]
[0.0332716703414917, -0.11057116091251373, 0.11887580156326294, -0.060268089175224304, -0.19021061062812805, 0.09874886274337769, 0.2454611361026764, -0.1135302484035492, 0.17176049947738647, 0.07609209418296814, 0.0821007490158081, 0.006401419639587402, -0.24875804781913757, -0.15474706888198853, -0.0060149431228637695, -0.24402131140232086, -0.016151368618011475, -0.23686209321022034, 0.03044220805168152, 0.15546977519989014, 0.0013401207979768515, 0.06609433889389038, 0.04791390895843506, 0.031360238790512085, -0.02987988293170929, -0.043132469058036804, -0.1048753559589386, -0.037088751792907715, -0.09709517657756805, -0.20840325951576233, 0.05511045455932617, 0.23663467168807983, -0.2279176265001297, -0.19657360017299652, 0.02338692545890808, -0.19770079851150513, 0.24978497624397278, 0.2265438437461853, -0.049621641635894775, 0.004062026739120483, -0.1158839762210846, -0.061853811144828796, 0.025702208280563354]
[-0.08626556396484375, -0.12051211297512054, -0.21474070847034454, -0.004009366035461426, -0.020518019795417786, -0.19707708060741425, 0.2320539653301239, -0.12476947903633118, -0.25208592414855957, -0.0902860164642334, -0.001624613651074469, 0.15774887800216675, 0.12774771451950073, 0.22653049230575562, 0.197275310754776, 0.20130953192710876, -0.14949046075344086, 0.0036444365978240967, -0.07965114712715149, -0.19530750811100006, -0.17676866054534912, -0.1117081493139267, 0.12071070075035095, -0.13903123140335083, -0.074405238032341, -0.24914085865020752, -0.2265038788318634, -0.0475064218044281, 0.12297987937927246, -0.23432695865631104, -0.060676366090774536, -0.15727859735488892, 0.19660022854804993, -0.13696981966495514, 0.22573837637901306, -0.06969305872917175, -0.003278583288192749, 0.10629963874816895, 0.15343508124351501, -0.02405153214931488, -0.2206326723098755, -0.11610002815723419, -0.25036555528640747]
[-0.23496615886688232, 0.16894790530204773, 0.07640177011489868, 0.09019419550895691, -0.24875657260417938, 0.17122375965118408, -0.19485104084014893, 0.009030342102050781, 0.09087184071540833, -0.20885512232780457, 0.25250259041786194, -0.17950962483882904, 0.15407684445381165, 0.1746368110179901, -0.12180593609809875, -0.05204467475414276, -0.18000298738479614, -0.151789590716362, 0.01711699366569519, -0.017097651958465576, 0.17499279975891113, -0.061328545212745667, 0.0904184877872467, 0.002966106403619051, 0.00442957878112793, 0.05312502384185791, 0.04211267828941345, -0.16757798194885254, 0.1756998896598816, -0.020808205008506775, -0.0857679694890976, 0.06691157817840576, -0.19581061601638794, 0.013612866401672363, -0.09453079104423523, -0.24433298408985138, 0.15988829731941223, 0.2492457926273346, -0.16494128108024597, 0.04388877749443054, 0.243072509765625, 0.13560417294502258, -0.05773986876010895]
[0.2524275481700897, -0.03454364836215973, -0.10245709121227264, -0.1593445986509323, -0.016311705112457275, 0.0042986273765563965, -0.12721779942512512, -0.04211437702178955, -0.09145796298980713, 0.25347933173179626, -0.07792100310325623, -0.15466472506523132, -0.21339643001556396, 0.05652648210525513, -0.20634141564369202, 0.10526704788208008, -0.012605428695678711, -0.17503993213176727, 0.06485122442245483, -0.10108458995819092, -0.0941210389137268, -0.018086597323417664, 0.027006208896636963, 0.12596657872200012, -0.22564072906970978, -0.24419279396533966, -0.24679666757583618, 0.06543475389480591, -0.16246578097343445, -0.24155756831169128, -0.08757169544696808, 0.16858536005020142, -0.010203585028648376, 0.19739645719528198, -0.1995217204093933, -0.014781743288040161, 0.12770333886146545, 0.2450646460056305, 0.10866054892539978, -0.06772679090499878, -0.11881348490715027, -0.1779361367225647, -0.11415371298789978]
[0.11177664995193481, -0.197336345911026, 0.06476318836212158, 0.17730605602264404, 0.07884904742240906, -0.0675884336233139, 0.1780184805393219, 0.0016397833824157715, -0.16140735149383545, -0.053427889943122864, -0.1975623071193695, 0.21935665607452393, -0.23908720910549164, -0.24942050874233246, 0.2558901607990265, -0.16657814383506775, -0.1529817283153534, -0.13638454675674438, 0.022336512804031372, -0.04267264902591705, -0.06697335839271545, 0.19202762842178345, -0.037777841091156006, 0.16751763224601746, 0.25451895594596863, -0.2544151544570923, 0.0663096010684967, -0.04351620376110077, -0.24206973612308502, -0.051242440938949585, -0.09781207144260406, 0.1658354103565216, -0.03626790642738342, -0.22649340331554413, -0.14977359771728516, -0.1381104737520218, -0.18594202399253845, -0.20267543196678162, 0.03344210982322693, -0.15921112895011902, 0.081358402967453, 0.013483196496963501, -0.08289337158203125]
[0.10161355137825012, 0.12309199571609497, 0.033806294202804565, -0.18101203441619873, -0.25472909212112427, 0.2565556466579437, -0.04352433979511261, 0.20447364449501038, -0.1120414286851883, -0.24178683757781982, 0.1133590042591095, -0.24983111023902893, -0.24137891829013824, 0.03399136662483215, -0.16299167275428772, 0.2391522228717804, 0.11584082245826721, 0.06018903851509094, 0.15383806824684143, 0.1534145474433899, 0.1606558859348297, -0.038254693150520325, -0.15582957863807678, 0.23705488443374634, -0.1197812557220459, 0.1041216254234314, -0.250299870967865, -0.21934735774993896, -0.09121748805046082, -0.08423231542110443, -0.2359279990196228, 0.04977530241012573, 0.10388877987861633, -0.22521212697029114, 0.03297194838523865, -0.03667809069156647, 0.1869911551475525, -0.17427852749824524, -0.2299017757177353, 0.15618747472763062, 0.24648550152778625, 0.0017853670287877321, 0.1677379012107849]
[0.013908684253692627, -0.16281388700008392, -0.24151219427585602, 0.12485292553901672, -0.19381967186927795, 0.12549537420272827, 0.23286306858062744, 0.14228564500808716, -0.0651770830154419, 0.20267415046691895, 0.07106560468673706, 0.08479443192481995, -0.19267448782920837, 0.03963354229927063, 0.14309418201446533, -0.08418138325214386, -0.09158805012702942, 0.2462007701396942, 0.1130201518535614, 0.241531103849411, -0.16933268308639526, -0.061178550124168396, -0.013684377074241638, -0.1182512491941452, -0.11985735595226288, -0.03094664216041565, 0.11914438009262085, -0.21384334564208984, -0.22796177864074707, 0.05984589457511902, 0.23195859789848328, 0.2404983937740326, 0.07041007280349731, 0.06526342034339905, 0.1018424928188324, 0.08015742897987366, 0.1403905749320984, -0.09902691841125488, 0.0226115882396698, 0.019398868083953857, -0.02108161151409149, 0.1582520604133606, -0.008447781205177307]
[-0.22432810068130493, 0.162245512008667, 0.03692767024040222, 0.00271683931350708, -0.19110645353794098, -0.19325301051139832, -0.17592892050743103, -0.012147501111030579, -0.2462322860956192, -0.07303880155086517, -0.10177314281463623, -0.05509117245674133, -0.22121083736419678, 0.05907753109931946, -0.24070324003696442, -0.05161374807357788, 0.033146053552627563, 0.1280958354473114, -0.2059764862060547, -0.23807621002197266, -0.15174783766269684, 0.23263686895370483, 0.12475576996803284, -0.12171532213687897, 0.11001136898994446, -0.06359565258026123, -0.14347630739212036, 0.04924550652503967, -0.044180259108543396, -0.0956689864397049, -0.09700855612754822, 0.20505139231681824, 0.10189485549926758, 0.04795044660568237, 0.13405635952949524, -0.2373846024274826, 0.007649540901184082, 0.1986926794052124, -0.1032683253288269, 0.15538737177848816, 0.0798194408416748, -0.22337105870246887, -0.0047934954054653645]
[-0.09749886393547058, 0.07282081246376038, 0.20696359872817993, -0.04137784242630005, -0.17635273933410645, -0.24943575263023376, -0.08718068897724152, -0.15354710817337036, 0.21090617775917053, 0.11703962087631226, -0.23483380675315857, 0.18220099806785583, -0.1273004561662674, 0.0932152271270752, 0.0039019882678985596, 0.22562175989151, -0.15894991159439087, 0.10307466983795166, 0.21663039922714233, -0.12713705003261566, 0.07492929697036743, 0.179947167634964, -0.16289836168289185, -0.13533824682235718, 0.13757595419883728, -0.030319571495056152, -0.12718339264392853, -0.06995582580566406, -0.20039117336273193, -0.2505621910095215, -0.10128821432590485, 0.05708751082420349, -0.15735971927642822, -0.24667422473430634, 0.1732025444507599, -0.176839679479599, -0.2523534595966339, -0.1491146981716156, 0.16263794898986816, -0.10992136597633362, 0.08624455332756042, 0.10878095030784607, 0.1444416344165802]
[-0.22176824510097504, -0.17131394147872925, -0.20546481013298035, 0.24867233633995056, 0.19622349739074707, 0.05696463584899902, 0.22608095407485962, -0.19567911326885223, -0.07658480107784271, -0.07910475134849548, -0.20063820481300354, 0.1626882553100586, 0.14989280700683594, 0.1851261556148529, -0.1975099742412567, -0.25280052423477173, -0.23093298077583313, 0.17027559876441956, 0.0025776922702789307, 0.22247198224067688, 0.08404046297073364, -0.048135146498680115, 0.10477977991104126, -0.006245255470275879, -0.20762501657009125, 0.04174920916557312, 0.2080494463443756, 0.0073203444480896, -0.12549665570259094, 0.23772388696670532, -0.12642580270767212, -0.0010929075069725513, -0.18951734900474548, -0.2524423897266388, -0.19706538319587708, 0.13569051027297974, -0.010901615023612976, 0.15783503651618958, -0.021343275904655457, 0.23929288983345032, -0.2315773218870163, 0.02200835943222046, -0.23558351397514343]
[-0.09489339590072632, -0.14081335067749023, 0.05362635850906372, 0.06726905703544617, 0.014809608459472656, -0.13102558255195618, -0.17722538113594055, -0.18495240807533264, -0.10177761316299438, -0.11294099688529968, -0.21482102572917938, -0.08656150102615356, -0.10816337168216705, -0.04861168563365936, -0.01034267246723175, -0.17641621828079224, 0.08799877762794495, 0.1241154670715332, -0.02992488443851471, 0.07281053066253662, 0.044304221868515015, -0.13654330372810364, 0.034809231758117676, -0.020772084593772888, -0.06890705227851868, -0.18908850848674774, 0.10775625705718994, -0.23861514031887054, -0.016923055052757263, 0.17826470732688904, -0.19148381054401398, -0.11512956023216248, 0.22768628597259521, 0.16118192672729492, -0.20658911764621735, -0.13885498046875, 0.08771464228630066, 0.16133785247802734, -0.08291137218475342, 0.057286232709884644, -0.2114492654800415, 0.23564282059669495, -0.08667004108428955]
[0.09914666414260864, -0.08141709864139557, -0.03657792508602142, 0.2546962797641754, 0.21612465381622314, -0.18482059240341187, -0.12032219767570496, 0.008336901664733887, 0.1687738001346588, 0.16867229342460632, 0.22314250469207764, 0.21233126521110535, 0.24993637204170227, 0.14087682962417603, 0.08863300085067749, -0.10126414895057678, 0.24997779726982117, -0.1569143384695053, 0.10526007413864136, 0.23802417516708374, 0.1611185073852539, 0.2063077986240387, 0.056193143129348755, -0.1809227168560028, 0.1725946068763733, 0.11377948522567749, -0.17433536052703857, 0.1944742500782013, -0.10640959441661835, -0.13958442211151123, -0.08233001828193665, -0.06268450617790222, -0.10563644766807556, -0.12132234871387482, 0.07383376359939575, -0.15368086099624634, 0.19437119364738464, 0.20504558086395264, 0.2081310749053955, -0.1043265163898468, -0.14948917925357819, 0.18327215313911438, 0.024448901414871216]
[0.05713820457458496, 0.018018275499343872, -0.15531422197818756, 0.09246447682380676, -0.0857791155576706, 0.21010726690292358, 0.2117849886417389, -0.17916837334632874, -0.07629431784152985, 0.1449759602546692, 0.22242623567581177, -0.15829196572303772, -0.07922498881816864, -0.039983853697776794, 0.21415141224861145, -0.22303622961044312, 0.19022279977798462, 0.021987318992614746, 0.22187012434005737, 0.18925079703330994, -0.10130156576633453, 0.01770108938217163, -5.10780191689264e-05, -0.2334471046924591, -0.14810970425605774, -0.2370365709066391, -0.030877351760864258, 0.11662748456001282, 0.06595489382743835, 0.23151835799217224, -0.0997694581747055, -0.0772630125284195, 0.20546910166740417, 0.1127120852470398, -0.06731079518795013, 0.1597021222114563, 0.21621227264404297, 0.1180693507194519, 0.15274426341056824, -0.16060033440589905, -0.16645367443561554, -0.2486812174320221, 0.08183750510215759]
[0.17381346225738525, 0.0013862848281860352, 0.12766367197036743, 0.06913986802101135, -0.16518206894397736, 0.0839303731918335, -0.043543264269828796, 0.0032619237899780273, -0.11928389966487885, 0.2451755702495575, 0.25136759877204895, 0.12970176339149475, -0.17171010375022888, -0.17026016116142273, 0.2284553349018097, -0.2018871009349823, -0.07986842095851898, -0.10407495498657227, -0.07375973463058472, 0.004315465688705444, 0.04336163401603699, 0.17693960666656494, -0.07925976812839508, -0.10457518696784973, 0.19233617186546326, -0.14932027459144592, 0.19049009680747986, 0.15581244230270386, -0.05356299877166748, 0.04501262307167053, -0.19932985305786133, 0.2221013307571411, 0.15615785121917725, -0.2068737894296646, 0.043546199798583984, -0.24956633150577545, 0.20435768365859985, -0.1652185618877411, 0.050165385007858276, 0.16141152381896973, 0.16070306301116943, 0.14493483304977417, 0.1617063581943512]
[-0.008199721574783325, -0.2535814642906189, -0.1006351113319397, 0.15548330545425415, 0.12035182118415833, -0.20268313586711884, 0.09155908226966858, 0.1887759268283844, 0.16561776399612427, -0.13639789819717407, 0.10491973161697388, 0.20876291394233704, -0.1260918378829956, -0.09737153351306915, -0.04260745644569397, 0.10519957542419434, 0.004969567060470581, -0.05063323676586151, 0.1806151270866394, 0.14243704080581665, -0.0540565550327301, 0.08460888266563416, 0.11221572756767273, -0.24364781379699707, -0.2401607632637024, -0.10564690828323364, -0.0261346697807312, -0.16350480914115906, -0.25096067786216736, -0.11468400061130524, 0.035064637660980225, 0.06212231516838074, 0.02570343017578125, -0.24559706449508667, 0.029463768005371094, -0.24103878438472748, -0.22101272642612457, 0.20374396443367004, 0.16444039344787598, 0.24567291140556335, -0.023589134216308594, 0.1031842827796936, -0.24509793519973755]
[-0.025913789868354797, 0.17530220746994019, -0.20083342492580414, 0.15259090065956116, -0.06988798081874847, -0.08937408030033112, 0.005144655704498291, -0.04715758562088013, -0.2167879194021225, 0.15099230408668518, 0.1702064871788025, 0.20221197605133057, -0.12563513219356537, 0.0677490234375, -0.13414640724658966, -0.23330090939998627, -0.05882523953914642, 0.19492360949516296, -0.0916958600282669, -0.1694668084383011, -0.08042049407958984, 0.24417242407798767, -0.12870551645755768, -0.13868123292922974, 0.17817556858062744, 0.08822596073150635, -0.03093758225440979, 0.19212955236434937, 0.14934083819389343, -0.1205894947052002, 0.23713910579681396, -0.16015325486660004, 0.024038314819335938, -0.007123961113393307, -0.005943864583969116, -0.13477304577827454, 0.11073815822601318, 0.19364649057388306, -0.10249106585979462, -0.22736713290214539, -0.1447378695011139, 0.07051035761833191, 0.08460289239883423]
[-0.16155347228050232, -0.055654898285865784, 0.24990704655647278, 0.13019150495529175, 0.20100441575050354, -0.01148785650730133, 0.1530633270740509, 0.103923499584198, -0.15334011614322662, -0.11411367356777191, -0.09833629429340363, 0.19919052720069885, -0.1718316376209259, 0.16072413325309753, -0.13586638867855072, -0.12651322782039642, -0.17380891740322113, 0.0403083860874176, 0.2524302899837494, 0.23330530524253845, 0.14942416548728943, 0.16613546013832092, 0.0965527594089508, -0.19950948655605316, -0.18617841601371765, -0.10835622251033783, -0.1285047084093094, -0.1646042764186859, 0.1496395468711853, -0.027188211679458618, 0.0022617876529693604, -0.13801416754722595, 0.15259027481079102, 0.14402803778648376, -0.21109774708747864, -0.1162591427564621, -0.13416177034378052, 0.08199936151504517, 0.04238516092300415, 0.06226086616516113, -0.11040353775024414, -0.24374955892562866, 0.11699703335762024]
[-0.07782310247421265, 0.016080856323242188, 0.2540930211544037, 0.028845995664596558, -0.20365023612976074, 0.21721169352531433, -0.06041225790977478, -0.12585259974002838, 0.06454658508300781, 0.016552984714508057, -0.03618741035461426, 0.10419005155563354, 0.15393444895744324, 0.2109578549861908, -0.12327374517917633, -0.17057549953460693, 0.04105943441390991, 0.010153919458389282, 0.20784124732017517, 0.04058852791786194, -0.08868376910686493, -0.004056096076965332, -0.205563485622406, -0.08217255771160126, 0.04147174954414368, 0.09173247218132019, -0.21575218439102173, 0.11755749583244324, -0.02866227924823761, -0.03287331759929657, 0.05876922607421875, -0.0014945617876946926, 0.09461227059364319, -0.10180099308490753, 0.11680018901824951, 0.014309972524642944, 0.1084083616733551, -0.24559926986694336, -0.07616133987903595, -0.14471811056137085, -0.21481956541538239, 0.2531450092792511, -0.12840589880943298]
[0.12675508856773376, 0.17707812786102295, -0.02490316331386566, 0.004581242799758911, -0.25335514545440674, 0.03127202391624451, -0.09977534413337708, 0.21593528985977173, 0.01095658540725708, 0.12135222554206848, -0.15995293855667114, -0.039753541350364685, 0.13116320967674255, 0.10479748249053955, -0.17363891005516052, 0.19130021333694458, -0.2249220609664917, -0.10868515074253082, -0.0834859162569046, 0.11253616213798523, 0.12985387444496155, 0.09601330757141113, -0.18253053724765778, 0.07419028878211975, 0.04104951024055481, -0.24408014118671417, -0.04832431674003601, -0.18144723773002625, 0.16216334700584412, 0.1024027168750763, -0.16433973610401154, 0.24708780646324158, 0.03310203552246094, -0.07758116722106934, -0.1432364583015442, -0.19186937808990479, -0.17012351751327515, -0.04874594509601593, 0.2291533648967743, 0.07313591241836548, 0.249973326921463, -0.2419697642326355, -0.1673891842365265]
[-0.21132327616214752, -0.12898021936416626, -0.013917326927185059, -0.016885221004486084, -0.1423904448747635, 0.08025741577148438, 0.21021518111228943, -0.09009765088558197, -0.2102445662021637, -0.14983457326889038, -0.05449599027633667, -0.02817024290561676, -0.20732614398002625, -0.18433120846748352, -0.1855776607990265, 0.24912884831428528, 0.23462516069412231, -0.24824048578739166, 0.22656846046447754, 0.18928846716880798, -0.11350005865097046, 0.1640385389328003, 0.08959496021270752, -0.231915682554245, -0.1443673074245453, 0.21465769410133362, 0.21838900446891785, -0.18768957257270813, 0.20491209626197815, 0.11637294292449951, -0.014002904295921326, 0.03534141182899475, 0.005968362092971802, 0.2486867606639862, -0.028069719672203064, 0.21418747305870056, -0.019020766019821167, 0.002366037108004093, -0.04236765205860138, 0.19884958863258362, 0.15281942486763, 0.1153503954410553, -0.09282910823822021]
[0.09402120113372803, -0.06549966335296631, 0.024320781230926514, 0.10323190689086914, -0.17790088057518005, 0.20771893858909607, -0.14665021002292633, 0.11855930089950562, -0.03329530358314514, -0.2164226770401001, 0.16252902150154114, 0.14470341801643372, 0.0012520825257524848, 0.18613401055335999, -0.0712435245513916, -0.22062207758426666, 0.12755665183067322, -0.09530980885028839, 0.1804909110069275, 0.07611194252967834, 0.06381097435951233, 0.07003337144851685, 0.088503897190094, 0.16345375776290894, -0.0055408477783203125, -0.007044926285743713, -0.20486955344676971, -0.14400072395801544, -0.011308789253234863, -0.026258155703544617, -0.18712761998176575, 0.05302989482879639, -0.1270611435174942, -0.15815415978431702, -0.11462670564651489, -0.10867156088352203, -0.04147493839263916, -0.10178342461585999, -0.23730991780757904, -0.01440519094467163, -0.15455558896064758, -0.23277822136878967, 0.039094507694244385]
[0.21328526735305786, -0.08928115665912628, 0.06202632188796997, 0.15364015102386475, -0.09687687456607819, -0.24070899188518524, 0.14411765336990356, -0.056796953082084656, -0.016907989978790283, -0.09901890158653259, 0.012209653854370117, -0.24384242296218872, -0.013169631361961365, 0.11327925324440002, -0.023461684584617615, -0.10986395180225372, 0.17452606558799744, 0.07059979438781738, 0.1358955204486847, 0.22923314571380615, 0.11468362808227539, 0.03162840008735657, 0.030953019857406616, -0.03399983048439026, -0.11686833202838898, -0.016697511076927185, 0.06938180327415466, 0.1918424367904663, 0.13874667882919312, -0.08643080294132233, 0.1160302460193634, -0.14932388067245483, -0.13720913231372833, 0.2083415985107422, 0.223202645778656, -0.019467487931251526, 0.2056613266468048, 6.996284582783119e-07, 0.18572530150413513, 0.13329863548278809, 0.16198673844337463, -0.09101632237434387, 0.1060643196105957]
[-0.08897291123867035, -0.2453247457742691, 0.06044960021972656, -0.12421880662441254, -0.23116059601306915, -0.13893523812294006, 0.1976231038570404, 0.02202361822128296, -0.20687097311019897, 0.16542181372642517, -0.10131710767745972, 0.20994073152542114, -0.058177649974823, -0.1296398639678955, -0.014442533254623413, -0.03317977488040924, -0.0820753425359726, -0.20590288937091827, 0.09526529908180237, 0.047081977128982544, 0.2393900752067566, -0.25552165508270264, -0.06532983481884003, -0.24461355805397034, 0.04921230673789978, -0.19634512066841125, 0.06270116567611694, 0.18118572235107422, 0.03193444013595581, -0.2527538239955902, -0.14499279856681824, 0.0630122721195221, -0.014885768294334412, -0.23217953741550446, 0.02700558304786682, 0.010272443294525146, -0.17738020420074463, -0.16668778657913208, -0.1039898693561554, -0.09858240187168121, -0.057904183864593506, -0.2074051797389984, 0.022034645080566406]
[-0.1538732796907425, 0.1356978416442871, 0.18204757571220398, -0.030576080083847046, -0.09773983061313629, 0.15759766101837158, -0.0008601158042438328, -0.1899278461933136, -0.05008561909198761, -0.11294619739055634, 0.20190614461898804, 0.013042241334915161, 0.00911673903465271, 0.15891554951667786, 0.07689863443374634, -0.06427022814750671, 0.17968341708183289, -0.21887680888175964, 0.1681044101715088, -0.11929498612880707, -0.06967200338840485, 0.06111866235733032, 0.005291461944580078, 0.2236606776714325, -0.11525917053222656, 0.04016652703285217, 0.15276122093200684, 0.20975059270858765, -0.03706273436546326, -0.14101390540599823, 0.11532381176948547, 0.20582258701324463, -0.0537743866443634, -0.026387080550193787, -0.25369784235954285, -0.0520746111869812, 0.21700596809387207, 0.02666911482810974, -0.1697264462709427, 0.10910996794700623, 0.07489487528800964, -0.09047169983386993, -0.19257891178131104]
[-0.012076735496520996, -0.20164436101913452, -0.15989503264427185, -0.09732279181480408, 0.18643981218338013, 0.24438586831092834, 0.2399703562259674, 0.11240869760513306, -0.10588879883289337, 0.050295233726501465, 0.18382719159126282, 0.06957709789276123, 0.12475618720054626, -0.22960400581359863, 0.03502863645553589, -0.2163209319114685, 0.16659632325172424, -0.1124514788389206, -0.01407422125339508, -0.09661772847175598, -0.0835355669260025, -0.0882532000541687, -0.0686575174331665, 0.1576583981513977, -0.12581506371498108, -0.04765157401561737, -0.043927475810050964, -0.1972113996744156, 0.07838889956474304, -0.10473418235778809, 0.22371432185173035, 0.0643375813961029, -0.18895885348320007, -0.03190767765045166, 0.13782572746276855, -0.246822327375412, -0.17165690660476685, -0.03163336217403412, -0.05573399364948273, 0.2402966022491455, 0.09345704317092896, -0.13659465312957764, 0.19718226790428162]
[-0.09527792036533356, -0.18184316158294678, -0.032868847250938416, 0.0406399667263031, -0.09814786911010742, 0.15727853775024414, -0.24671806395053864, 0.02935001254081726, 0.21136337518692017, 0.1933567225933075, 0.14869314432144165, -0.15621201694011688, -0.12299899756908417, -0.19017529487609863, 0.21459287405014038, 0.1700315773487091, -0.24184860289096832, 0.12947645783424377, -0.14448313415050507, 0.16306594014167786, -0.24025478959083557, 0.25065872073173523, -0.04162070155143738, -0.1855819970369339, -0.05778902769088745, 0.042933136224746704, 0.22998961806297302, -0.13752403855323792, 0.0632055401802063, -0.23089343309402466, -0.05171586573123932, 0.0016716032987460494, -0.045154765248298645, 0.004339158535003662, -0.1849757432937622, -0.10039134323596954, -0.0591287761926651, -0.06895101070404053, -0.014948815107345581, -0.17282167077064514, 0.1527138352394104, -0.1563168168067932, -0.042870208621025085]
[0.04975214600563049, -0.022410213947296143, -0.20728468894958496, 0.018063634634017944, 0.11437124013900757, -0.041505247354507446, 0.18490803241729736, -0.20596839487552643, 0.2172178030014038, 0.21102312207221985, 0.04414188861846924, -0.21850183606147766, 0.09352812170982361, -0.20527875423431396, 0.21966588497161865, -0.2052628993988037, 0.17644768953323364, 0.24686643481254578, -0.19504426419734955, -0.1391524374485016, -0.08726474642753601, 0.04938402771949768, 0.24403807520866394, -0.2007731944322586, -0.07968640327453613, -0.10953672230243683, 0.010738104581832886, -0.02187056839466095, -0.007128909230232239, 0.08915215730667114, -0.001810651388950646, 0.009874582290649414, -0.1968402862548828, 0.012105375528335571, -0.23740297555923462, 0.02723821997642517, -0.16826793551445007, 0.09211644530296326, 0.021799802780151367, 0.2137349247932434, 0.16163620352745056, 0.13939541578292847, 0.024555861949920654]
[-0.06726904213428497, -0.1649032086133957, 0.1784227192401886, 0.16867738962173462, 0.07998338341712952, -0.21394258737564087, -0.2333143800497055, -0.008515313267707825, 0.16300684213638306, -0.10507713258266449, 0.18123102188110352, 0.21997633576393127, -0.032312169671058655, -0.08103477954864502, -0.18702177703380585, -0.2399425059556961, 0.1407070755958557, 0.23452544212341309, 0.19593104720115662, 0.2152031660079956, 0.22484546899795532, 0.18920490145683289, 0.2531449496746063, -0.06773211061954498, -0.0409402996301651, 0.2005278766155243, -0.18538805842399597, -0.21702654659748077, 0.09059804677963257, -0.23483650386333466, -0.2002967745065689, 0.08935332298278809, 0.2563922107219696, -0.18291249871253967, 0.12091580033302307, 0.11816424131393433, 0.24444147944450378, -0.12119495868682861, -0.13180191814899445, -0.14297449588775635, 0.15663424134254456, 0.14828217029571533, -0.14816319942474365]
[-0.06212213635444641, 0.0983075201511383, 0.08823582530021667, -0.006146639585494995, 0.015895456075668335, 0.13252094388008118, 0.09916681051254272, 0.09620118141174316, -0.23842191696166992, 0.013755887746810913, -0.19315506517887115, -0.030226215720176697, 0.015211820602416992, 0.010495156049728394, -0.1955232471227646, -0.1069774180650711, 0.24936023354530334, 0.11393344402313232, 0.031216204166412354, 0.017037421464920044, -0.053900688886642456, -0.08514492213726044, -0.036972492933273315, -0.2188500612974167, 0.17483985424041748, -0.038447052240371704, 0.09357023239135742, 0.10644394159317017, -0.017130345106124878, 0.09917470812797546, -0.006989330053329468, -0.017335250973701477, 0.18180164694786072, 0.15023085474967957, 0.17237845063209534, 0.12279567122459412, 0.03908422589302063, 0.15110906958580017, -0.2076558768749237, 0.13912472128868103, 0.22545748949050903, 0.18758323788642883, -0.15340372920036316]
[-0.2562962770462036, -0.21430501341819763, 0.23194897174835205, -0.10325290262699127, 0.19408807158470154, -0.061699897050857544, -0.04283042252063751, -0.14285559952259064, 0.18837693333625793, -0.21533069014549255, -0.02114081382751465, 0.09367313981056213, -0.18059700727462769, -0.1953875869512558, -0.2364867478609085, 0.147993803024292, 0.0937010645866394, 0.18309596180915833, 0.22304663062095642, 0.18612372875213623, 0.19134962558746338, 0.050874024629592896, -0.15456849336624146, 0.1840415894985199, 0.08766677975654602, 0.20956501364707947, -0.04479093849658966, -0.038433581590652466, 0.14289215207099915, -0.18386195600032806, 0.11983299255371094, -0.08478611707687378, -0.11357302963733673, -0.12761132419109344, 0.23069587349891663, -0.12312719225883484, -0.18645046651363373, 0.2553023397922516, 0.137688547372818, 0.20889851450920105, 0.19402414560317993, -0.04232718050479889, 0.25669434666633606]
[-0.013837859034538269, 0.1976374387741089, -0.1444108933210373, -0.22532641887664795, 0.13967612385749817, 0.008034110069274902, -0.20238107442855835, 0.14769384264945984, 0.13384735584259033, -0.19434121251106262, 0.10009902715682983, -0.16640977561473846, -0.16251787543296814, -0.11801064014434814, 0.24347075819969177, -0.15916815400123596, 0.24545618891716003, -0.1266523152589798, -0.13651108741760254, -0.18916425108909607, 0.2055642306804657, -0.08530214428901672, 0.17055290937423706, 0.17025238275527954, -0.12392255663871765, -0.06396658718585968, 0.034996867179870605, -0.14712241291999817, 0.06047391891479492, 0.08025765419006348, 0.1630013883113861, -0.11509013175964355, -0.23654301464557648, 0.051212698221206665, -0.06652258336544037, 0.02483975887298584, -0.2504015564918518, -0.1808951497077942, -0.013083681464195251, 0.18835073709487915, 0.2224678099155426, -0.2073243111371994, 0.15409532189369202]
[0.16374889016151428, 0.005708247423171997, -0.08007387816905975, -0.029608070850372314, 0.1933077573776245, 0.10058462619781494, -0.24011129140853882, -0.050256550312042236, 0.24930784106254578, -0.07263211905956268, -0.0010565519332885742, 0.1260371208190918, 0.09316018223762512, 0.17666631937026978, -0.10645103454589844, -0.06842041015625, 0.1603107750415802, 0.1701730489730835, 0.0031188130378723145, 0.16720795631408691, 0.0410405695438385, 0.1728464663028717, -0.03506633639335632, -0.11895079910755157, -0.1854330599308014, 0.12436249852180481, 0.14929169416427612, 0.05441132187843323, 0.2366376519203186, 0.10020089149475098, -0.1774081140756607, 0.09836083650588989, 0.08756557106971741, -0.1343066692352295, -0.15697795152664185, -0.12062469124794006, 0.00824776291847229, -0.16613465547561646, -0.19415253400802612, -0.005720615386962891, 0.13787803053855896, 0.19397395849227905, 0.04956710338592529]

[3.057982951304439e-07, 1.8018602077063406e-07, 2.404010217560426e-07, -2.413470383544336e-07, -4.547420928702195e-08, -3.8569854154957284e-07, -1.782288592266923e-07, -2.458998835663806e-07, -4.605920977951428e-09, -2.2622812512196333e-09, -6.1487028801821e-09, -1.75228706211783e-07, 8.827976927250347e-08, 9.511444432064309e-08, -1.8042776162019436e-07, 6.40199715462586e-08, 8.559818098774485e-08, -6.180740541594787e-08, 7.848154126577356e-08, -1.5569348477129097e-08, 1.653374503973737e-08, -2.397360958639183e-07, -2.904247153878714e-08, -1.736055139645032e-07, -8.119013727991842e-08, -1.3550176447552076e-07, 2.336971789418385e-07, 2.709438717829471e-07, -8.706133769464941e-08, 2.1540942896081106e-07, -2.3733407772397186e-07, -3.4227937817377097e-07, -8.849560195756112e-09, -1.390155404124016e-07, -1.2975722540886636e-07, 1.1284627987606655e-07, -7.499512122421947e-09, -1.794957995571167e-07]
[0.11175030469894409, -0.024338845163583755, -0.00048336037434637547, -0.1010175496339798, -0.004763132426887751, 0.1603793501853943, -0.15336987376213074, 0.06009743735194206, -0.042468830943107605, -0.23563745617866516, -0.1078958809375763, 0.14870646595954895, 0.23984503746032715, 0.03191918134689331, 0.1286289393901825, -0.15739703178405762, -0.0973658412694931, -0.05088759586215019, -0.12702934443950653, -0.09128330647945404, -0.17565013468265533, 0.1642477810382843, 0.2479223608970642, 0.04509633779525757, 0.11944162845611572, -0.1478099524974823, 0.2417517900466919, 0.07597339153289795, 0.21238163113594055, 0.24084395170211792, -0.2551259398460388, 0.14382848143577576, 0.06173524260520935, 0.22293996810913086, -0.09639087319374084, -0.13187827169895172, 0.0325588583946228, -0.0536416620016098]
[0.18715593218803406, 0.02703840471804142, 0.200894296169281, 0.1450679898262024, -0.10812948644161224, 0.1934514045715332, 0.19984450936317444, 0.2433282732963562, 0.14754220843315125, 0.07232224941253662, 0.25754058361053467, -0.06409299373626709, 0.14999672770500183, -0.2609231472015381, 0.17436188459396362, -0.03588581085205078, 0.18398302793502808, 0.040866777300834656, -0.003366950899362564, 0.1895601451396942, -0.062263697385787964, 0.19504424929618835, -0.04443971812725067, -0.10746638476848602, -0.1373152732849121, 0.007388494908809662, -0.026009397581219673, 0.1798672378063202, 0.00022039799659978598, -0.1176852136850357, -0.17903943359851837, -0.046603187918663025, 0.14275586605072021, 0.03106147050857544, -0.17920061945915222, -0.12662793695926666, 0.13668644428253174, -0.21612542867660522]
[-0.26543378829956055, 0.1558055579662323, 0.20763260126113892, -0.2572816014289856, -0.0422251895070076, -0.26334428787231445, -0.04190266877412796, 0.022349540144205093, -0.2099684774875641, -0.12432651221752167, -0.1463133543729782, 0.11170202493667603, -0.2163858413696289, 0.07482945919036865, 0.025259844958782196, -0.12704116106033325, -0.08183400332927704, 0.036659110337495804, 0.16288933157920837, 0.1349007487297058, 0.09353730082511902, 0.10067012906074524, -0.07745890319347382, 0.2663279175758362, -0.11380353569984436, -0.03791937232017517, -0.19341430068016052, 0.22291311621665955, 0.04494175314903259, -0.08086429536342621, -0.03868610039353371, 0.25431162118911743, -0.13405433297157288, 0.09992462396621704, 0.1360352635383606, -0.13459549844264984, -0.15303874015808105, 0.04195237159729004]
[-0.11185432970523834, -0.128119096159935, 0.003938424866646528, -0.23747532069683075, 0.14300936460494995, 0.24856579303741455, 0.0031424500048160553, -0.0661163181066513, -0.2602255642414093, 0.15046873688697815, -0.13895457983016968, 0.17198964953422546, 0.17821234464645386, 0.2419843077659607, -0.05302463471889496, -0.2046661078929901, 0.09665840864181519, -0.02984580211341381, -0.27152812480926514, -0.25004497170448303, -0.09595170617103577, 0.22166094183921814, -0.05998809635639191, -0.06735894083976746, 0.02609161101281643, 0.22777780890464783, -0.06587304174900055, 0.029330501332879066, 0.01411732193082571, 0.03800832852721214, 0.0547095388174057, -0.007934830151498318, 0.007940317504107952, 0.20881545543670654, 0.17840072512626648, -0.1973293423652649, -0.261294424533844, -0.21362575888633728]
[-0.19569218158721924, -0.057845521718263626, 0.1671258807182312, 0.11972701549530029, 0.1476486325263977, -0.045059993863105774, -0.22152234613895416, -0.15502792596817017, -0.003521842649206519, -0.12966813147068024, 0.02209424041211605, 0.18581685423851013, -0.10983873903751373, 0.18554919958114624, -0.06983692944049835, 0.19843068718910217, -0.21348430216312408, 0.26949542760849, -0.14201605319976807, 0.13971826434135437, -0.18563725054264069, 0.10062509775161743, -0.1918431967496872, 0.14163166284561157, 0.005322381854057312, 0.1427297592163086, -0.18397289514541626, -0.04657593369483948, -0.17260727286338806, 0.06706687808036804, 0.12318477034568787, 0.20614182949066162, 0.2197321653366089, 0.11589562892913818, -0.17832253873348236, 0.17164835333824158, 0.10458368062973022, 0.10461592674255371]
[-0.2683761417865753, 0.17473110556602478, 0.16810110211372375, 0.009729716926813126, -0.20688959956169128, 0.13032954931259155, 0.2151276171207428, 0.10869935154914856, 0.11581635475158691, -0.22690874338150024, -0.2568284869194031, 0.0732201337814331, 0.009618226438760757, -0.007819472812116146, -0.1271074116230011, -0.09413577616214752, 0.20712974667549133, 0.13568896055221558, 0.08082112669944763, -0.19093462824821472, 0.022562097758054733, -0.08153913915157318, -0.11075446009635925, -0.11903251707553864, -0.017188064754009247, -0.19149695336818695, 0.19572857022285461, -0.0005345299723558128, -0.13498444855213165, -0.07728856801986694, -0.03915906324982643, -0.04623383283615112, 0.07537445425987244, -0.18604189157485962, -0.0726119875907898, -0.21465452015399933, 0.09209176898002625, 0.22919493913650513]
[0.18937253952026367, -0.19272997975349426, 0.09140029549598694, 0.08574500679969788, -0.20845511555671692, 0.26711946725845337, 0.1621943712234497, 0.054532431066036224, -0.023068604990839958, 0.02204623632133007, 0.1380007565021515, 0.15254154801368713, 0.08770707249641418, -0.16715216636657715, -0.17899465560913086, 0.18651443719863892, -0.15549707412719727, 0.18175387382507324, 0.074759840965271, 0.0205097496509552, 0.05999821424484253, 0.04988482594490051, -0.017011702060699463, -0.18924307823181152, 0.02951338328421116, 0.09307745099067688, -0.23785218596458435, 0.2659342288970947, -0.04469408094882965, -0.10239081084728241, -0.14419379830360413, 0.05776442959904671, -0.12564246356487274, 0.06978166103363037, -0.05327613651752472, 0.12231200933456421, 0.1810915470123291, 0.25713688135147095]
[-0.2626136243343353, -0.006993282586336136, 0.015833038836717606, -0.02081524021923542, 0.16080307960510254, -0.06087366119027138, 0.12589573860168457, -0.013398267328739166, -0.056563302874565125, -0.07248499989509583, 0.059479355812072754, -0.0880814790725708, -0.04972994327545166, -0.06865634024143219, 0.24152672290802002, 0.1812644898891449, -0.19592337310314178, -0.18670609593391418, -0.027085760608315468, 0.08798441290855408, 0.10544365644454956, 0.21501627564430237, 0.2694319486618042, 0.16579759120941162, 0.09572985768318176, 0.029762255027890205, -0.23155078291893005, -0.11347299814224243, -0.0075882901437580585, 0.008346945978701115, -0.1418275535106659, -0.17548194527626038, -0.18166303634643555, -0.23630322515964508, 0.16188329458236694, 0.06797143816947937, 0.17319205403327942, 0.05879983305931091]
[0.20390838384628296, -0.13820569217205048, -0.0849628895521164, -0.09420605003833771, 0.13514265418052673, 0.085781991481781, -0.03363719582557678, 0.19920864701271057, -0.10312256217002869, 0.235448956489563, 0.12005576491355896, -0.0594613216817379, 0.24344569444656372, -0.07400718331336975, -0.1067916601896286, -0.0917801707983017, -0.06519228219985962, 0.07717105746269226, 0.031175706535577774, -0.21451540291309357, 0.20933586359024048, -0.04406173527240753, -0.04927188158035278, -0.027688343077898026, 0.10604193806648254, -0.06269274652004242, 0.034561336040496826, 0.24641740322113037, -0.27068138122558594, -0.05636882781982422, 0.2502284646034241, 0.06776145100593567, -0.25140535831451416, 0.23337411880493164, 0.14700084924697876, -0.23943030834197998, -0.15222209692001343, -0.05770108103752136]
[-0.14412236213684082, 0.1705092191696167, -0.1048516035079956, 0.19680994749069214, -0.22186684608459473, -0.19103363156318665, -0.022267773747444153, -0.015702012926340103, 0.06724700331687927, 0.05861899256706238, 0.0328601598739624, -0.06784483790397644, 0.1667638123035431, -0.21326187252998352, -0.2034652680158615, -0.22613337635993958, -0.1097428947687149, -0.0325591117143631, 0.03945297747850418, -0.24968664348125458, 0.10949891805648804, 0.015712350606918335, 0.2647428512573242, -0.20463502407073975, -0.14575360715389252, 0.13767120242118835, 0.03437575697898865, 0.10350963473320007, 0.06605753302574158, 0.14463454484939575, -0.0028558785561472178, -0.0820927768945694, -0.05602388083934784, 0.03733265399932861, 0.03637000918388367, -0.13578006625175476, 0.03901645541191101, 0.19408473372459412]
[-0.03581060469150543, -0.11463230848312378, 0.0727856457233429, -0.02199297398328781, 0.0716751217842102, -0.19073793292045593, -0.1890421211719513, -0.08713299036026001, 0.22544613480567932, -0.06373143196105957, -0.06100653111934662, -0.07139518857002258, 0.09142410755157471, -0.08303354680538177, -0.012956022284924984, 0.22266316413879395, 0.19172483682632446, 0.18506887555122375, 0.15135595202445984, 0.2588045597076416, 0.14905881881713867, 0.14686167240142822, -0.07751937210559845, 0.06551244854927063, -0.12795083224773407, -0.1972489356994629, -0.22281299531459808, 0.005139596294611692, -0.10233889520168304, -0.09138499200344086, 0.005375842563807964, -0.008077637292444706, 0.06178593635559082, 0.24108058214187622, -0.19774092733860016, 0.26008284091949463, 0.1637127697467804, -0.1582987904548645]
[0.07199028134346008, 0.12079614400863647, 0.1707431972026825, -0.08790576457977295, 0.10842752456665039, -0.0021640032064169645, -0.19900718331336975, 0.09685322642326355, -0.17887714505195618, 0.182545006275177, 0.05877947807312012, -0.23995856940746307, -0.18297386169433594, 0.08906993269920349, 0.15234583616256714, 0.2683519721031189, 0.14357423782348633, 0.07965508103370667, -0.1457718461751938, 0.005123252514749765, -0.10908296704292297, -0.1755809634923935, -0.09876744449138641, -0.1906977742910385, -0.003278401680290699, -0.0544920414686203, -0.162541002035141, -0.191515251994133, -0.08802035450935364, -0.07223725318908691, -0.15375590324401855, 0.2697671055793762, 0.21742814779281616, -0.1622740477323532, 0.02495228499174118, 0.22448661923408508, -0.07835982739925385, 0.13053026795387268]
[-0.05388025939464569, -0.22684839367866516, 0.11297404766082764, 0.2638603448867798, -0.032339464873075485, -0.1644592583179474, 0.22961431741714478, -0.10087725520133972, -0.025287119671702385, -0.12773163616657257, 0.2194632887840271, -0.17387691140174866, -0.046908482909202576, 0.15091082453727722, -0.16554206609725952, 0.04280143976211548, -0.17903995513916016, -0.2250855416059494, 0.1532324254512787, -0.21181555092334747, -0.09063214063644409, -0.11899702250957489, -0.23732328414916992, -0.25577041506767273, 0.2542319893836975, -0.1619873046875, 0.26553380489349365, 0.1339811384677887, -0.1576850712299347, 0.2719995975494385, 0.12803390622138977, 0.11532798409461975, -0.020365241914987564, -0.1973678171634674, 0.0028498799074441195, -0.06035304069519043, 0.049912720918655396, 0.24703937768936157]
[-0.07923835515975952, -0.16520917415618896, 0.2416764497756958, 0.19623756408691406, -0.022958312183618546, 0.09105223417282104, -0.17656773328781128, 0.12627053260803223, -0.16401198506355286, 0.1302800476551056, -0.0899580717086792, -0.22585701942443848, -0.018007228150963783, -0.11303868889808655, -0.010412491858005524, 0.11217859387397766, 0.26282769441604614, -0.006276109721511602, 0.23284518718719482, 0.00302122556604445, -0.2556353807449341, 0.22204333543777466, 0.16180741786956787, -0.11466391384601593, 0.03670781850814819, 0.008915642276406288, 0.16122004389762878, 0.03459671139717102, -0.19968079030513763, 0.23537445068359375, 0.18945851922035217, 0.018581174314022064, 0.10111930966377258, 0.029647141695022583, 0.2674097418785095, 0.1972215473651886, -0.1374092996120453, -0.268454909324646]
[-0.2258775234222412, -0.2440064251422882, -0.06105169653892517, 0.06390273571014404, -0.2417268604040146, -0.1619442105293274, 0.25545746088027954, -0.1639575958251953, -0.06495563685894012, -0.2319665402173996, -0.2263520509004593, -0.2244023233652115, -0.06581690907478333, 0.05249401926994324, -0.008260448463261127, -0.08309109508991241, -0.06845960021018982, -0.14735662937164307, 0.10618337988853455, -0.02397504448890686, -0.1337815374135971, -0.26424652338027954, 0.16198647022247314, 0.15573275089263916, 0.24849480390548706, -0.09602977335453033, -0.2320941686630249, -0.23670384287834167, -0.1432163119316101, 0.008994085714221, 0.2613181471824646, 0.22536274790763855, 0.2678643465042114, 0.12904655933380127, -0.19914856553077698, -0.12544487416744232, 0.08679193258285522, -0.2509321868419647]
[0.2446238398551941, -0.05145527794957161, 0.04472076892852783, -0.24660134315490723, -0.008823185227811337, 0.08248847723007202, -0.05884220823645592, -0.14666946232318878, -0.09798073768615723, 0.07727175951004028, -0.11674445867538452, -0.10929535329341888, 0.048721373081207275, 0.03182750940322876, -0.20852163434028625, 0.07854288816452026, -0.20584514737129211, 0.17458438873291016, -0.22751480340957642, -0.07139882445335388, 0.23460757732391357, 0.0721409022808075, -0.18365266919136047, -0.22494174540042877, -0.1334177702665329, 0.09792375564575195, 0.1746821105480194, 0.18750092387199402, 0.22685661911964417, -0.17521077394485474, 0.06384661793708801, -0.19425448775291443, -0.06158975511789322, -0.09215937554836273, 0.20816656947135925, -0.0006200210191309452, -0.06603066623210907, 0.2165699303150177]
[0.049709320068359375, 0.2578037977218628, 0.13405048847198486, -0.1774553656578064, 0.19236186146736145, -0.03859889134764671, -0.20688799023628235, -0.23970387876033783, 0.031059298664331436, -0.25650468468666077, -0.21936899423599243, 0.23557329177856445, 0.09315043687820435, -0.14126093685626984, 0.25431740283966064, -0.1578277051448822, -0.2550986111164093, -0.00644534220919013, -0.24024765193462372, -0.16515570878982544, -0.10971285402774811, -0.013451565988361835, 0.23338204622268677, -0.08317974209785461, 0.012592194601893425, 0.19288396835327148, -0.01682347245514393, 0.09790247678756714, 0.026692360639572144, 0.0793076753616333, -0.09732139110565186, 0.1675693392753601, -0.18350926041603088, -0.044881805777549744, 0.24786633253097534, -0.27128687500953674, -0.22730112075805664, -0.10846243798732758]
[0.2298855185508728, -0.2606275677680969, 0.09791383147239685, 0.029815737158060074, -0.16076108813285828, -0.026745684444904327, -0.08523102104663849, -0.04210110008716583, 0.07726061344146729, 0.11880093812942505, 0.07369941473007202, -0.13446266949176788, 0.1466367542743683, -0.08314788341522217, 0.11298990249633789, 0.01564207673072815, 0.10797050595283508, 0.18800446391105652, 0.20273125171661377, -0.040131255984306335, 0.15828749537467957, -0.26408472657203674, 0.2354326844215393, -0.15119677782058716, -0.12921331822872162, 0.11951184272766113, -0.021488159894943237, -0.07360823452472687, 0.21233224868774414, 0.15667948126792908, -0.2097577154636383, 0.11335945129394531, -0.0165519118309021, -0.1007130891084671, 0.15303483605384827, 0.14497512578964233, -0.12048675119876862, -0.26369547843933105]
[-0.0024529907386749983, -0.10111507773399353, 0.039139240980148315, 0.06893265247344971, 0.25263792276382446, 0.011205432936549187, -0.22777462005615234, 0.18642443418502808, -0.007709995377808809, -0.21413683891296387, -0.04095606505870819, 0.09555420279502869, 0.04421117901802063, -0.0692889392375946, -0.004252982325851917, -0.1418667435646057, -0.07648076117038727, -0.14486436545848846, -0.014069155789911747, -0.019150257110595703, -0.08015713095664978, -0.1398192197084427, 0.12635916471481323, 0.21765786409378052, -0.09835773706436157, 0.07752704620361328, -0.036177486181259155, 0.23319107294082642, -0.2325890213251114, -0.026310112327337265, -0.2641829252243042, 0.13194593787193298, -0.228970468044281, -0.1861630380153656, -0.22891342639923096, 0.268552303314209, 0.09451285004615784, 0.010689581744372845]
[0.2645885944366455, 0.05898016691207886, -0.17085358500480652, 0.054409682750701904, 0.14059439301490784, 0.0802423357963562, 0.25708431005477905, -0.036229461431503296, -0.14363886415958405, 0.1534920036792755, 0.022650601342320442, -0.04379594326019287, -0.1450522243976593, 0.1428402066230774, 0.06802600622177124, 0.19533443450927734, 0.14410576224327087, -0.23946261405944824, 0.08522829413414001, 0.13822177052497864, -0.1848573386669159, -0.09612873196601868, -0.0168570876121521, 0.2524077296257019, -0.004047943279147148, -0.09600913524627686, -0.06527885794639587, 0.03905746340751648, -0.20227259397506714, 0.04720348119735718, 0.19500890374183655, -0.20226266980171204, 0.2687675356864929, 0.01909083127975464, 0.2299162745475769, -0.17026834189891815, -0.15315936505794525, -0.06072932481765747]
[0.17425230145454407, -0.26832064986228943, 0.20037952065467834, 0.16134190559387207, 0.24155795574188232, 0.08544594049453735, 0.10979312658309937, 0.19928762316703796, 0.0033876090310513973, -0.1872498095035553, 0.05219423770904541, 0.21721965074539185, -0.0731797069311142, -0.24631570279598236, -0.014942336827516556, -0.04765763878822327, 0.01184418797492981, -0.26686108112335205, -0.2702513039112091, 0.08026140928268433, 0.2594865560531616, 0.2620950937271118, 0.06622201204299927, -0.2484186440706253, 0.16327613592147827, 0.09860321879386902, 0.13650551438331604, 0.1730133593082428, 0.19930598139762878, -0.13580776751041412, 0.2192978858947754, -0.014733213931322098, -0.2694436311721802, 0.06784075498580933, 0.199436753988266, -0.1649506688117981, -0.11639516055583954, 0.2606315016746521]
[0.19935426115989685, 0.21122947335243225, -0.15394316613674164, -0.05123355984687805, 0.17943045496940613, 0.11831355094909668, -0.1428602635860443, 0.11657717823982239, -0.12487001717090607, 0.18188905715942383, -0.23845818638801575, 0.25689494609832764, 0.25659894943237305, 0.2159201204776764, -0.08324359357357025, 0.15191835165023804, -0.23246793448925018, 0.1096373200416565, 0.1322694718837738, -0.19979344308376312, -0.016445647925138474, 0.08178460597991943, 0.16367027163505554, -0.1320909708738327, -0.19880887866020203, -0.023747408762574196, 0.13702458143234253, -0.12786272168159485, -0.17768675088882446, 0.15147599577903748, 0.24500370025634766, 0.020149968564510345, -0.2374522089958191, -0.07337820529937744, 0.04862409830093384, -0.2634923756122589, -0.17820113897323608, -0.16507752239704132]
[-0.16725663840770721, -0.033085569739341736, 0.07862263917922974, -0.2632729113101959, 0.2698172926902771, 0.18275246024131775, -0.1191055178642273, 0.036065876483917236, 0.22423148155212402, -0.0536109060049057, 0.23963314294815063, -0.2341788113117218, -0.024890437722206116, -0.07472057640552521, 0.12391212582588196, -0.1559210568666458, -0.22648826241493225, 0.1791084110736847, -0.1576746255159378, -0.1410037726163864, 0.0770266056060791, 0.1675375998020172, -0.040693655610084534, 0.14377805590629578, -0.04596304893493652, 0.23264950513839722, 0.11344137787818909, 0.25744718313217163, -0.09292545914649963, -0.23021602630615234, -0.2680943012237549, 0.23807448148727417, 0.16733002662658691, 0.22901803255081177, -0.07540236413478851, -0.2584717571735382, -0.2611876130104065, 0.10205492377281189]
[-0.25167906284332275, 0.16015547513961792, -0.16496655344963074, -0.017418095842003822, -0.1240953803062439, 0.10526156425476074, -0.04211097210645676, 0.19363966584205627, 0.12667536735534668, -0.1942812204360962, -0.09071533381938934, 0.1824745535850525, 0.06887450814247131, -0.10174515843391418, 0.10011571645736694, -0.009704959578812122, -0.1925877332687378, -0.15301920473575592, 0.07028844952583313, 0.1342250406742096, -0.008936180733144283, -0.23932459950447083, 0.2191544771194458, -0.13892512023448944, 0.04860463738441467, -0.16763760149478912, -0.05881646275520325, 0.10452035069465637, 0.05887147784233093, 0.16569605469703674, -0.12153853476047516, 0.17570841312408447, 0.14082929491996765, -0.03518526256084442, -0.08391597867012024, 0.020525336265563965, 0.07698526978492737, 0.03400316834449768]
[-0.19657181203365326, 0.16758570075035095, -0.18750035762786865, -0.11883920431137085, -0.2554416060447693, 0.16226625442504883, 0.170953631401062, -0.2562369108200073, 0.011829350143671036, -0.20539377629756927, -0.17617899179458618, -0.25899383425712585, -0.10842719674110413, -0.1604541540145874, -0.18466222286224365, -0.09714463353157043, 0.14088445901870728, 0.00991426594555378, -0.09297420084476471, -0.031030461192131042, 0.05807790160179138, 0.21879568696022034, 0.09881502389907837, -0.08238555490970612, -0.18470576405525208, -0.09321655333042145, -0.2362707108259201, 0.1005563735961914, 0.11080235242843628, 0.07908546924591064, 0.060092709958553314, -0.10086162388324738, -0.245449498295784, -0.006727279629558325, -0.16608057916164398, 0.09484294056892395, -0.1496688425540924, 0.20168781280517578]
[0.26075035333633423, -0.04036155343055725, 0.19894495606422424, -0.26956236362457275, -0.10003526508808136, 0.006104090251028538, 0.039864882826805115, -0.055999353528022766, -0.2468540370464325, -0.10567595064640045, 0.022667596116662025, 0.03557607904076576, -0.04235053062438965, 0.2462294101715088, -0.07571792602539062, 0.18159589171409607, -0.07942070066928864, -0.2303086817264557, 0.07450118660926819, 0.251587450504303, 0.18637457489967346, -0.13515615463256836, -0.16076576709747314, -0.1156054437160492, 0.2494388222694397, -0.1661210060119629, -0.038962796330451965, -0.15801846981048584, -0.2406643033027649, -0.13965168595314026, 0.24647486209869385, -0.1728639155626297, 0.2278938889503479, 0.12965127825737, 0.056436508893966675, 0.24809253215789795, -0.06016401946544647, 0.25465863943099976]
[-0.2384875863790512, -0.1729700118303299, -0.06830905377864838, 0.23038357496261597, 0.10720300674438477, 0.26298028230667114, -0.14316712319850922, 0.06508705019950867, -0.21081547439098358, -0.1321776658296585, 0.07412001490592957, 0.24516618251800537, -0.05799567699432373, -0.25614649057388306, 0.0015538895968347788, 0.042074501514434814, -0.011715561151504517, -0.17799827456474304, 0.22613215446472168, 0.26173126697540283, 0.19522541761398315, -0.04790070652961731, 0.2369213104248047, -0.21232286095619202, 0.09710395336151123, -0.19385594129562378, 0.23711293935775757, -0.13747742772102356, -0.2065531611442566, 0.07658511400222778, -0.22750909626483917, -0.2195422500371933, 0.18494722247123718, 0.21869409084320068, 0.017865968868136406, 0.017941325902938843, 0.20770317316055298, 0.09061494469642639]
[0.0430530309677124, 0.13345715403556824, 0.16058537364006042, 0.0490095317363739, 0.06280702352523804, 0.26620757579803467, -0.21405372023582458, -0.13253936171531677, -0.13513395190238953, 0.20212146639823914, -0.19111359119415283, -0.18026027083396912, -0.23463764786720276, 0.06781744956970215, 0.258864164352417, 0.05246034264564514, -0.02225269377231598, -0.05179596692323685, 0.10413697361946106, 0.06284824013710022, 0.0697709321975708, -0.06611910462379456, 0.06298801302909851, 0.24980074167251587, 0.17053529620170593, -0.09342829883098602, 0.22625264525413513, -0.26421529054641724, -0.19608306884765625, -0.2559044659137726, 0.12713298201560974, 0.021956916898489, -0.14822232723236084, 0.03962641954421997, -0.0850612074136734, -0.08919757604598999, -0.17088115215301514, -0.015396246686577797]
[0.07511445879936218, -0.10928867757320404, 0.09756511449813843, 0.21557575464248657, -0.07314589619636536, 0.2189958691596985, 0.13971605896949768, 0.003917011432349682, 0.02367561124265194, 0.19491097331047058, 0.11031413078308105, 0.10236874222755432, -0.04059183597564697, -0.16380329430103302, 0.21757757663726807, -0.22998708486557007, 0.1789664328098297, 0.1553550362586975, -0.21787342429161072, 0.19301173090934753, 0.03896206617355347, -0.09956565499305725, -0.24483363330364227, 0.04723396897315979, -0.08979189395904541, -0.043131545186042786, 0.06459477543830872, 0.052101463079452515, -0.13089467585086823, -0.23337769508361816, -0.06695923209190369, 0.004824562463909388, 0.13829809427261353, 0.15559017658233643, 0.24267995357513428, 0.2287839651107788, -0.201302632689476, 0.1969926357269287]
[0.13279235363006592, -0.08392824232578278, -0.13440875709056854, -0.1732003092765808, 0.24766260385513306, -0.13253013789653778, 0.21555259823799133, 0.060889482498168945, 0.10994988679885864, 0.1911965012550354, 0.11792835593223572, -0.21593472361564636, -0.04412752389907837, 0.009171761572360992, -0.04878450930118561, -0.1914309561252594, -0.18618400394916534, -0.20048347115516663, 0.2564048767089844, -0.2400711476802826, 0.26105034351348877, -0.09966273605823517, -0.2311558723449707, 0.26675325632095337, 0.17047345638275146, 0.14113906025886536, -0.009856524877250195, -0.09825444221496582, 0.2075275182723999, -0.010007803328335285, -0.26528143882751465, 0.04724222421646118, 0.2113240659236908, 0.023001760244369507, -0.22787079215049744, 0.11916351318359375, -0.2067393958568573, -0.18832334876060486]
[0.043392717838287354, 0.0006361394771374762, 0.09136843681335449, -0.21404799818992615, 0.15964627265930176, 0.06946960091590881, -0.042384400963783264, -0.27074679732322693, 0.02800770103931427, -0.09360544383525848, -0.0020746346563100815, 0.21336907148361206, -0.11622819304466248, 0.033388346433639526, 0.26328009366989136, -0.1631486862897873, -0.1914571076631546, 0.07384094595909119, -0.010142866522073746, 0.03753748536109924, 0.22580251097679138, 0.18881547451019287, 0.026449531316757202, -0.26863256096839905, 0.15450042486190796, 0.18613728880882263, -0.26195228099823, 0.19699788093566895, -0.09828266501426697, -0.18426387012004852, 0.18430352210998535, -0.23508401215076447, 0.16213104128837585, -0.1670069396495819, -0.26984846591949463, 0.10950690507888794, 0.21946042776107788, -0.009619075804948807]
[-0.07810403406620026, 0.19647252559661865, 0.10971629619598389, 0.0786033570766449, -0.10926057398319244, 0.16623923182487488, -0.1376391351222992, -0.13190175592899323, -0.054620638489723206, 0.2526055574417114, 0.06435871124267578, 0.17222267389297485, -0.16232505440711975, -0.002617236925289035, -0.07198269665241241, -0.0814521312713623, 0.1979433298110962, -0.16698428988456726, 0.2329651117324829, -0.14671799540519714, -0.21877460181713104, 0.07799074053764343, -0.25799331068992615, -0.23107151687145233, 0.030312085524201393, 0.055091992020606995, 0.048866331577301025, -0.08713577687740326, -0.10713610053062439, 0.19168642163276672, 0.008276824839413166, 0.21310997009277344, 0.18185660243034363, 0.05740460753440857, 0.21386253833770752, 0.21121007204055786, -0.23646077513694763, 0.26696646213531494]
[0.09093952178955078, 0.209110826253891, 0.17370259761810303, 0.19384834170341492, -0.25542059540748596, 0.20054757595062256, 0.11338064074516296, -0.23688027262687683, 0.044625818729400635, 0.1306379735469818, -0.0962311178445816, 0.23673802614212036, 0.23934519290924072, 0.17313003540039062, -0.19602765142917633, -0.2578250765800476, 0.22873759269714355, -0.0557774156332016, -0.19784033298492432, 0.23349541425704956, -0.2402103990316391, 0.01350040826946497, -0.18185770511627197, 0.09656524658203125, -0.16313746571540833, -0.0674433708190918, 0.023434696719050407, 0.22189617156982422, -0.04036290943622589, -0.09860002994537354, 0.002655161777511239, 0.1413813829421997, 0.17760467529296875, 0.13048872351646423, -0.06485843658447266, -0.20911407470703125, -0.20136959850788116, -0.043715283274650574]
[0.16688761115074158, 0.20466500520706177, -0.17191985249519348, 0.0873568058013916, -0.2319808155298233, -0.09806294739246368, 0.05338627099990845, -0.020672177895903587, 0.1656355857849121, -0.05301418900489807, -0.25750696659088135, 0.046554338186979294, 0.07685905694961548, -0.10152706503868103, -0.17563456296920776, 0.15068748593330383, 0.03904247283935547, -0.18347904086112976, -0.19508475065231323, 0.2301144003868103, 0.14788368344306946, 0.18235144019126892, 0.096703439950943, 0.14676296710968018, 0.031973034143447876, -0.013282477855682373, -0.11683127284049988, 0.08036625385284424, 0.03089401125907898, -0.20734331011772156, -0.04485766962170601, -0.1813700646162033, -0.23678995668888092, -0.022193387150764465, -0.10107588768005371, 0.19930702447891235, -0.2477082908153534, -0.07513637840747833]
[0.2173519730567932, -0.21479228138923645, -0.25400424003601074, 0.04053974151611328, 0.21388059854507446, -0.2667989432811737, 0.048165254294872284, -0.21750342845916748, -0.107937291264534, -0.15180298686027527, -0.230949267745018, 0.13385149836540222, -0.19232513010501862, 0.2035622000694275, 0.07334733009338379, -0.11929363012313843, -0.15011073648929596, -0.15688732266426086, -0.23738589882850647, -0.07429353892803192, 0.148807555437088, -0.06769663095474243, 0.12007749080657959, 0.21121740341186523, -0.12685434520244598, -0.10824401676654816, 0.23617678880691528, 0.26365208625793457, -0.08391506969928741, 0.21541184186935425, 0.24248158931732178, -0.19452080130577087, 0.1489276885986328, -0.17406612634658813, -0.16498751938343048, 0.09125429391860962, 0.07507747411727905, 0.0029898721259087324]
[-0.23802784085273743, 0.10518798232078552, -0.25074997544288635, -0.14247891306877136, -0.049081962555646896, -0.24528396129608154, 0.14377960562705994, 0.1675649881362915, 0.04714066535234451, -0.22537831962108612, 0.2341185212135315, 0.02130306139588356, 0.03831318020820618, -0.1765410602092743, -0.2666197717189789, 0.22892862558364868, -0.004553274717181921, 0.22374531626701355, 0.021566694602370262, 0.18838828802108765, 0.1695249080657959, 0.09653300046920776, 0.26018768548965454, -0.1877037137746811, 0.17818212509155273, 0.10137572884559631, -0.12849467992782593, -0.038680195808410645, -0.16929298639297485, -0.027282971888780594, -0.09699006378650665, 0.004372023046016693, 0.21211034059524536, 0.19025477766990662, 0.10530582070350647, -0.004979376681149006, 0.2142668068408966, -0.1552722305059433]
[0.21554896235466003, 0.10325384140014648, -0.15266789495944977, 0.17640084028244019, 0.1133643090724945, -0.05794145539402962, 0.18888074159622192, 0.07919353246688843, -0.15639455616474152, 0.17700853943824768, 0.035853952169418335, -0.20056270062923431, 0.021665990352630615, 0.028211675584316254, 0.2635043263435364, 0.22552135586738586, 0.1546679139137268, -0.05167772248387337, 0.035681452602148056, -0.17907492816448212, -0.23436816036701202, 0.2050240933895111, 0.19505488872528076, -0.17134258151054382, 0.10037878155708313, -0.15040571987628937, -0.016269221901893616, -0.14323149621486664, -0.1634100079536438, 0.15382468700408936, 0.19799008965492249, -0.12329846620559692, -0.10204190015792847, -0.20141541957855225, -0.16504481434822083, 0.2562386989593506, 0.028297122567892075, 0.11882570385932922]
[-0.09493029117584229, -0.169685959815979, 0.22336208820343018, -0.09659223258495331, 0.22838634252548218, -0.14347191154956818, -0.13871780037879944, 0.18904361128807068, 0.03310886025428772, 0.09385713934898376, -0.07197660207748413, -0.2036437690258026, 0.025856822729110718, 0.18931758403778076, -0.01481388509273529, -0.09904263913631439, -0.23587054014205933, 0.02696492336690426, 0.012870308011770248, -0.1811746060848236, 0.07285505533218384, 0.1286701261997223, 0.03676900267601013, -0.2272159308195114, 0.034059375524520874, 0.05445343255996704, -0.06363461911678314, -0.10252811014652252, -0.16356872022151947, -0.2716904878616333, 0.16998645663261414, 0.20718121528625488, 0.035640716552734375, -0.04440486431121826, 0.19515767693519592, 0.1578979790210724, -0.04931478202342987, 0.03525981307029724]
[-0.18527543544769287, 0.0599629282951355, 0.17901191115379333, 0.04278048872947693, 0.22289177775382996, 0.15438920259475708, 0.1724727749824524, -0.16550448536872864, -0.23236119747161865, -0.15939730405807495, 0.15634816884994507, 0.1972825527191162, -0.18999339640140533, -0.26705503463745117, -0.1779744029045105, 0.11382558941841125, -0.04587811231613159, 0.017676565796136856, 0.10927394032478333, 0.2695004940032959, 0.13348278403282166, 0.04175958037376404, 0.09391975402832031, -0.04912562668323517, 0.08499801158905029, -0.238446906208992, -0.07997596263885498, 0.23429065942764282, -0.06892290711402893, 0.1654161810874939, -0.11821140348911285, -0.23243802785873413, -0.18838000297546387, -0.07338404655456543, -0.10286663472652435, 0.11190077662467957, -0.023614579811692238, 0.04822990298271179]
[-0.2576640844345093, -0.24893373250961304, -0.10191737115383148, -0.1762489378452301, 0.16045746207237244, 0.17297852039337158, -0.13159872591495514, -0.23308704793453217, 0.08033603429794312, -0.07695178687572479, -0.019832411780953407, -0.22677746415138245, 0.21699708700180054, -0.17915597558021545, 0.07948040962219238, -0.20160599052906036, -0.19731435179710388, 0.1680344045162201, 0.22002586722373962, 0.036914438009262085, 0.23901671171188354, -0.1232004165649414, 0.23118740320205688, 0.05562552809715271, 0.22190362215042114, -0.09812608361244202, 0.11667120456695557, -0.21564213931560516, 0.04311978816986084, 0.2019997537136078, -0.19437122344970703, -0.049348827451467514, 0.008114063180983067, -0.06214196979999542, -0.23829837143421173, -0.166990727186203, -0.1298246532678604, 0.13296392560005188]
[0.11529552936553955, -0.15036652982234955, -0.18771280348300934, 0.19167980551719666, 0.11558708548545837, -0.14909911155700684, -0.07489895820617676, 0.05387681722640991, -0.17912651598453522, 0.21097463369369507, 0.03177902102470398, -0.05882333219051361, 0.11542662978172302, -0.09476527571678162, 0.07915985584259033, 0.010788253508508205, -0.0064523229375481606, 0.17270150780677795, 0.01049413438886404, -0.11852812767028809, 0.1876421868801117, -0.032569631934165955, 0.1424783170223236, 0.22367873787879944, 0.22047176957130432, 0.14066526293754578, -0.1666860580444336, 0.17660847306251526, 0.18566098809242249, -0.22892796993255615, 0.19422438740730286, 0.22371113300323486, 0.07024893164634705, 0.11775866150856018, 0.19632503390312195, -0.18499821424484253, 0.1879402995109558, 0.22754159569740295]
[0.19940149784088135, -0.18301422894001007, -0.22850313782691956, 0.18325009942054749, -0.1480116993188858, 0.10776033997535706, 0.2473732829093933, 0.15769046545028687, -0.029613928869366646, 0.053777337074279785, 0.2657569646835327, 0.021095100790262222, -0.039209768176078796, 0.03926724195480347, 0.22042793035507202, -0.08464169502258301, -0.20843319594860077, 0.1779395043849945, -0.07113713026046753, -0.11152267456054688, -0.13783568143844604, -0.24183082580566406, -0.1867959201335907, -0.19056254625320435, -0.04424549639225006, -0.005292386282235384, -0.16829025745391846, -0.1298537254333496, -0.18764850497245789, 0.08569666743278503, -0.19521082937717438, 0.06285056471824646, 0.20877256989479065, 0.18953412771224976, 0.09309813380241394, -0.011198341846466064, -0.0774531215429306, -0.11705534160137177]
[0.2360011339187622, -0.23712660372257233, 0.2711140513420105, -0.04807324707508087, -0.0872357040643692, -0.14736858010292053, 0.13971605896949768, -0.20627284049987793, -0.1749572455883026, -0.0050269486382603645, -0.2671804130077362, -0.21791526675224304, -0.05797237157821655, -0.17076468467712402, -0.1091451346874237, -0.10204896330833435, 0.20027083158493042, -0.2088431715965271, -0.2354150116443634, 0.02255195379257202, -0.2515903115272522, -0.09792576730251312, 0.23606330156326294, -0.26511555910110474, 0.01864445209503174, 0.07821193337440491, 0.1522999107837677, 0.1982593834400177, 0.10864859819412231, 0.15085294842720032, -0.22749099135398865, -0.0015375424409285188, -0.2612621784210205, 0.2635614275932312, 0.15082544088363647, -0.2689127027988434, -0.15882699191570282, -0.17248885333538055]

[1.1378319442201246e-07, 3.539936699326063e-07, -1.4432104933348455e-07, -3.4701002959991456e-07, 5.079858738099574e-07, 7.04705428233865e-07, -3.28208287214693e-08, 4.93883817398455e-07, 7.138360729186388e-07, 6.747732328449274e-08, -5.686519557457359e-07, 3.9851227029430447e-07, 1.1960730716964463e-06, -6.936049317118886e-07, -3.8976642713350884e-07, -1.652598911050518e-07, -9.059397143573733e-07, -1.6366551847113442e-07, 7.507333634748647e-07, -7.498636591662944e-07, -1.573663754861343e-09, 4.992765525457799e-07, -8.45280510475277e-07, -1.7499100977147464e-06, 1.2988147091164137e-06, 9.898604957925272e-07, 6.120820899013779e-07, 1.7137155055024778e-06, 3.756107105346018e-07, 1.2230781294420012e-06, -5.191456580178055e-07, -6.97500752266933e-07, -1.3259293609735323e-06]
[-0.17165595293045044, -0.11403115838766098, 0.02350953035056591, -0.13963085412979126, -0.07588255405426025, 0.1094149500131607, -0.052431534975767136, 0.22250482439994812, -0.014442182146012783, -0.04115840047597885, 0.0075127664022147655, 0.27490755915641785, 0.07619649916887283, 0.1818200647830963, 0.03570181503891945, 0.00029686526977457106, -0.22943651676177979, -0.26874256134033203, -0.2535957992076874, 0.2887851297855377, -0.06697403639554977, 0.09750942140817642, -0.16755470633506775, -0.27920031547546387, 0.16424015164375305, -0.17448395490646362, 0.048850033432245255, 0.09925901889801025, -0.11210373044013977, 0.11227194219827652, 0.19524423778057098, -0.08332386612892151, -0.1603807508945465]
[0.23154428601264954, -0.26836204528808594, -0.11396391689777374, -0.09438886493444443, 0.17637193202972412, 0.15198016166687012, 0.15973317623138428, -0.11911456286907196, -0.1414787620306015, -0.16182371973991394, 0.045042507350444794, -0.11301647126674652, -0.00852407980710268, 0.0693233385682106, -0.286331444978714, -0.2831559479236603, -0.06511908769607544, 0.12389656901359558, -0.2180950939655304, -0.06209679692983627, -0.16063673794269562, 0.090139240026474, 0.13394111394882202, -0.20799189805984497, -0.0340486615896225, -0.2765924334526062, -0.17249825596809387, 0.17343315482139587, 0.1187620759010315, 0.17273101210594177, -0.23145782947540283, -0.16913770139217377, -0.1321948915719986]
[0.2329002320766449, 0.26836422085762024, 0.21125823259353638, 0.15191516280174255, 0.2792074382305145, 0.24693888425827026, -0.0704246312379837, 0.2664016783237457, 0.10201311856508255, -0.15977522730827332, -0.005837937816977501, 0.06183977052569389, 0.18951837718486786, -0.09608687460422516, -0.2620584964752197, -0.18209333717823029, -0.006686140317469835, 0.15125048160552979, 0.2348262369632721, 0.13786259293556213, 0.25730642676353455, -0.19267913699150085, -0.014667500741779804, 0.2726950943470001, 0.09106778353452682, -0.17914964258670807, 0.11592566967010498, 0.2532159388065338, 0.2685357630252838, 0.09546425938606262, -0.05494746193289757, 0.03991560637950897, 0.17540013790130615]
[-0.04566609859466553, -0.09780696034431458, -0.11677705496549606, -0.04306723549962044, 0.19114163517951965, 0.056555233895778656, -0.11835920810699463, -0.1902308464050293, -0.2816231846809387, 0.08197873830795288, -0.087852343916893, 0.1283980906009674, 0.1812702864408493, 0.16570866107940674, -0.16354089975357056, -0.14784356951713562, 0.03294467553496361, -0.05226091295480728, -0.23881451785564423, 0.051465727388858795, -0.2508613169193268, 0.24244096875190735, 0.0707697793841362, 0.24489516019821167, -0.11301334202289581, 0.04428386315703392, 0.03830723091959953, -0.12362313270568848, 0.21856185793876648, 0.08588649332523346, 0.03322535753250122, 0.058204732835292816, 0.24989120662212372]
[0.14877334237098694, -0.09695602208375931, 0.06322437524795532, -0.1521630734205246, 0.19955477118492126, 0.18173299729824066, 0.14883309602737427, 0.13838696479797363, 0.09478453546762466, 0.2906523644924164, 0.03189358115196228, -0.21782387793064117, 0.15805856883525848, 0.26620689034461975, 0.23124387860298157, -0.22783972322940826, 0.1884860098361969, -0.21182003617286682, -0.04952606186270714, -0.280241459608078, -0.16544640064239502, 0.007595425471663475, 0.18138569593429565, -0.052623894065618515, -0.24989287555217743, -0.06702420860528946, -0.04890614002943039, 0.012280450202524662, 0.2834338843822479, 0.21953263878822327, 0.2736406922340393, -0.09665869176387787, 0.19667880237102509]
[0.2813458740711212, 0.2609197199344635, -0.2230006754398346, -0.2601030468940735, -0.014245770871639252, 0.1744474321603775, 0.0031653428450226784, -0.029294444248080254, 0.18207763135433197, 0.24347934126853943, -0.10138469934463501, -0.06549301743507385, -0.28018108010292053, -0.2535896897315979, 0.1654646396636963, 0.06824572384357452, 0.24193421006202698, -0.10118426382541656, 0.13105863332748413, 0.03735736012458801, 0.08127031475305557, -0.2604576349258423, 0.055167391896247864, 0.22260689735412598, -0.22361619770526886, -0.27939701080322266, -0.024026790633797646, -0.09369933605194092, 0.03270890936255455, -0.1155964732170105, 0.0740700364112854, 0.24702633917331696, 0.13474681973457336]
[-0.15767519176006317, 0.1900278478860855, -0.2591794431209564, -0.18812225759029388, -0.10848447680473328, 0.2530827820301056, -0.2654891312122345, 0.27473095059394836, 0.08066945523023605, 0.03105340711772442, -0.20845559239387512, -0.23898334801197052, 0.22743171453475952, 0.19874992966651917, -0.20517472922801971, 0.03794059157371521, 0.20937380194664001, 0.10035225749015808, 0.19705551862716675, 0.05465758964419365, -0.13004334270954132, 0.089121513068676, -0.05320725962519646, 0.2892223298549652, 0.15592950582504272, -0.2710994482040405, -0.20393778383731842, -0.27886950969696045, -0.1271497756242752, 0.05588557571172714, 0.1196749359369278, -0.017033828422427177, 0.1605333536863327]
[0.26768824458122253, -0.1537008434534073, 0.013545363210141659, 0.1472369134426117, -0.1364198625087738, -0.24891020357608795, -0.08199717104434967, -0.09695810079574585, 0.22261831164360046, 0.2231740653514862, 0.1360032558441162, -0.14011476933956146, -0.08611448109149933, -0.15897347033023834, -0.1296512633562088, 0.16842743754386902, 0.10013976693153381, -0.08204206824302673, -0.14541569352149963, -0.005048347171396017, -0.1472897231578827, 0.28379711508750916, -0.04087818041443825, 0.1370481252670288, 0.05984903872013092, -0.1513674259185791, 0.27241644263267517, -0.25168225169181824, -0.04446819797158241, -0.10293765366077423, -0.28588545322418213, 0.12776634097099304, 0.008200251497328281]
[-0.18326839804649353, 0.08538131415843964, 0.14955008029937744, -0.2629752457141876, 0.05078308284282684, -0.05963795632123947, -0.16088424623012543, 0.19150114059448242, -0.22991716861724854, 0.11212784051895142, 0.028821898624300957, -0.04335343465209007, 0.27523842453956604, -0.10095217823982239, -0.2715851068496704, -0.029719002544879913, -0.05449623987078667, -0.2859598994255066, -0.27465206384658813, 0.25334474444389343, -0.08104568719863892, 0.03846173360943794, 0.06755781918764114, -0.2108139842748642, 0.07136466354131699, 0.15715473890304565, -0.2650131285190582, -0.031617436558008194, -0.11162155866622925, -0.1742250919342041, 0.2124413102865219, 0.13194924592971802, 0.07415987551212311]
[-0.07982660830020905, 0.005823047831654549, 0.21836575865745544, -0.23552285134792328, 0.003349385457113385, 0.13017010688781738, -0.16041190922260284, -0.008704529143869877, 0.07910967618227005, -0.01950385421514511, -0.07818810641765594, -0.28884389996528625, 0.04702569544315338, -0.15053315460681915, -0.11699524521827698, -0.042294956743717194, 0.23433801531791687, -0.06376819312572479, 0.15742415189743042, 0.23737844824790955, -0.12340553104877472, -0.17404764890670776, 0.1040596067905426, 0.12299001961946487, 0.2518290579319, 0.2575964033603668, -0.12913712859153748, 0.03310767933726311, 0.00025818042922765017, -0.1391395926475525, 0.03047109767794609, -0.09839130192995071, 0.0811389833688736]
[-0.16264066100120544, -0.21814903616905212, 0.20137274265289307, 0.2655039131641388, 0.11597853899002075, 0.09688526391983032, -0.1009407788515091, -0.09820425510406494, 0.11198222637176514, 0.17876166105270386, -0.2721720039844513, -0.12929771840572357, -0.05703757330775261, -0.07861550152301788, -0.18088272213935852, -0.12162837386131287, 0.25289180874824524, -0.237470343708992, 0.1227857694029808, -0.2054438591003418, -0.04570739343762398, -0.2888771593570709, -0.20729605853557587, -0.20491021871566772, -0.19265568256378174, -0.24031656980514526, 0.15659549832344055, -0.10353978723287582, 0.0586300753057003, 0.2364390790462494, 0.07274160534143448, 0.2419126331806183, 0.10457386076450348]
[0.11643867194652557, -0.1995377391576767, 0.029221098870038986, -0.09676895290613174, -0.2698577344417572, -0.08055634796619415, 0.10990425199270248, -0.28402701020240784, -0.07735402882099152, 0.2685033977031708, -0.09716310352087021, -0.1954287737607956, -0.009555595926940441, 0.11147213727235794, -0.21600127220153809, -0.16306066513061523, -0.07399136573076248, 0.058207325637340546, -0.21701359748840332, 0.13153189420700073, -0.09609856456518173, -0.21031354367733002, -0.2865297496318817, -0.23834195733070374, -0.08568685501813889, 0.0428406298160553, -0.2686574459075928, 0.03455822169780731, 0.26146432757377625, -0.24791257083415985, 0.1131879985332489, -0.06705379486083984, 0.18482466042041779]
[-0.2331215888261795, -0.10732896625995636, 0.09018342941999435, -0.1993282586336136, -0.12203547358512878, 0.16757802665233612, -0.15329669415950775, 0.10137739777565002, -0.18398289382457733, 0.06357690691947937, 0.1358790397644043, -0.009243023581802845, -0.05810535326600075, -0.23076306283473969, 0.06405892968177795, -0.06090482696890831, 0.2686730921268463, 0.15646854043006897, 0.08039233088493347, -0.26582929491996765, 0.12654423713684082, 0.0173619594424963, 0.16398698091506958, 0.04478226602077484, 0.1679229438304901, -0.17538367211818695, -0.07355399429798126, -0.10825894773006439, 0.12050461769104004, 0.22709253430366516, -0.28137826919555664, -0.15781566500663757, -0.16655972599983215]
[0.19058910012245178, 0.03613894060254097, -0.17557522654533386, -0.04717693477869034, 0.010427277535200119, 0.24100998044013977, -0.2118823379278183, 0.06733918190002441, -0.10824312269687653, -0.036508381366729736, 0.03798426315188408, 0.20032626390457153, 0.274689644575119, 0.1443362832069397, -0.04054582118988037, 0.04683033376932144, -0.051162730902433395, -0.009337392635643482, -0.08383418619632721, 0.03116649016737938, 0.27602776885032654, -0.2204909324645996, 0.23315563797950745, 0.1525939255952835, 0.05501510947942734, 0.21832802891731262, -0.1988147795200348, 0.24003037810325623, 0.06922408938407898, -0.09610272198915482, 0.07609973847866058, -0.1798422634601593, 0.03502091392874718]
[0.00034038189915008843, 0.17484672367572784, -0.2602726221084595, 0.1456439197063446, -0.02026822231709957, -0.10075543820858002, -0.24888920783996582, -0.06492362916469574, 0.004617851227521896, 0.15589630603790283, 0.05556638166308403, -0.048468295484781265, 0.06403109431266785, -0.18184348940849304, 0.025540409609675407, 0.1301439106464386, 0.28930196166038513, -0.18592096865177155, -0.051440559327602386, -0.16665063798427582, 0.17911243438720703, -0.11336857080459595, 0.10591942816972733, 0.0759381651878357, 0.17227911949157715, -0.17179451882839203, -0.2349918782711029, -0.009377126581966877, 0.15683066844940186, -0.17838305234909058, 0.2679803669452667, 0.20408521592617035, -0.12952926754951477]
[0.20882666110992432, -0.010206091217696667, 0.23062819242477417, -0.12458297610282898, 0.2096109688282013, -0.08073396235704422, 0.10514220595359802, 0.020935561507940292, 0.06475838273763657, 0.07842937111854553, 0.0748644769191742, -0.195187509059906, 0.01124416571110487, -0.1842411458492279, -0.1927887499332428, 0.054289769381284714, -0.05528155714273453, -0.15053343772888184, 0.2305704653263092, 0.03448694571852684, 0.028404852375388145, 0.19484677910804749, 0.14173546433448792, 0.2225339710712433, -0.2805478572845459, 0.027599211782217026, 0.23614832758903503, 0.0414520725607872, -0.10328395664691925, 0.24194470047950745, -0.2487192153930664, 0.09217175841331482, -0.017718611285090446]
[-0.25379636883735657, -0.19228342175483704, -0.22860412299633026, 0.09704665839672089, 0.12702849507331848, -0.15605516731739044, -0.07240098714828491, 0.2210460603237152, 0.19679749011993408, -0.24468404054641724, -0.0941610038280487, 0.15480712056159973, -0.013740124180912971, 0.02501402050256729, -0.22508789598941803, -0.04335968568921089, 0.16788357496261597, 0.23404929041862488, -0.11033186316490173, -0.16835251450538635, 0.22353485226631165, -0.26001542806625366, 0.16125324368476868, -0.09444086253643036, -0.21858876943588257, -0.2532534897327423, -0.12435781955718994, 0.2117716372013092, 0.24283823370933533, 0.2839648425579071, 0.04500085115432739, 0.057869136333465576, -0.1932847797870636]
[0.031998537480831146, 0.1113462895154953, 0.2733740508556366, -0.25664156675338745, -0.13197164237499237, -0.25011423230171204, -0.21504336595535278, -0.2518060505390167, -0.25053438544273376, -0.195553258061409, -0.03392989933490753, -0.184291809797287, -0.13828864693641663, 0.07216576486825943, -0.1949499249458313, 0.11177346855401993, -0.11645855009555817, 0.18775016069412231, 0.17090147733688354, 0.2621195614337921, 0.1320571005344391, 0.12601089477539062, -0.2620404064655304, -0.01034834235906601, 0.032624997198581696, -0.03549846261739731, -0.07665126025676727, 0.21608474850654602, -0.2464412897825241, -0.09092748910188675, 0.04245861619710922, 0.0034006075002253056, -0.010672051459550858]
[0.18969669938087463, -0.217184379696846, 0.2169942706823349, -0.18305133283138275, 0.09759578108787537, 0.06826697289943695, -0.17991724610328674, 0.051328133791685104, -0.13071919977664948, -0.16290347278118134, -0.177938774228096, 0.2819003164768219, 0.2389652281999588, -0.20283591747283936, 0.03473454713821411, -0.09095622599124908, -0.2802799344062805, -0.17236915230751038, 0.288661926984787, -0.20288825035095215, 0.11078044772148132, 0.1647140085697174, 0.1236572191119194, -0.11442770063877106, -0.2543189525604248, -0.21621274948120117, -0.19376260042190552, -0.0025217202492058277, -0.0914008617401123, -0.19042019546031952, 0.06161380186676979, -0.26657500863075256, 0.28585705161094666]
[0.23741737008094788, 0.04202577471733093, 0.14670689404010773, 0.014102339744567871, -0.21389491856098175, 0.23951435089111328, 0.044389743357896805, 0.26913467049598694, -0.212767094373703, -0.020631486549973488, 0.149431973695755, -0.082251638174057, 0.17857523262500763, -0.28966596722602844, -0.1348893940448761, 0.14721307158470154, 0.1643529236316681, 0.1837005317211151, 0.23783919215202332, 0.023135941475629807, -0.18362976610660553, -0.10095081478357315, -0.06320546567440033, 0.13470174372196198, 0.23866596817970276, -0.1402599811553955, -0.06322696805000305, -0.20915575325489044, 0.2453049123287201, 0.017594387754797935, 0.28177693486213684, -0.26895254850387573, 0.08966444432735443]
[0.1751297116279602, 0.01703072339296341, 0.11499109119176865, 0.20110729336738586, -0.17448610067367554, -0.1785580813884735, -0.13282954692840576, 0.22829696536064148, 0.1274184137582779, 0.20829561352729797, 0.030675407499074936, -0.04953679442405701, 0.09857127070426941, -0.14921171963214874, -0.11854429543018341, 0.15433847904205322, 0.0022964016534388065, -0.03271808475255966, 0.1426248550415039, 0.15378662943840027, -0.19920194149017334, 0.06539309769868851, 0.08294711261987686, 0.10714450478553772, -0.08164509385824203, 0.117780402302742, -0.26481732726097107, -0.18641811609268188, 0.28859391808509827, 0.18865415453910828, -0.2673330307006836, 0.18118661642074585, -0.21245095133781433]
[0.2673596441745758, 0.25789740681648254, -0.1863655149936676, -0.2602537274360657, 0.09945991635322571, 0.11227887123823166, -0.14095132052898407, 0.12735694646835327, 0.2367129921913147, -0.0010627483716234565, -0.11997256428003311, -0.17712607979774475, 0.04841182753443718, -0.22841665148735046, -0.274257093667984, 0.2379259169101715, 0.15453454852104187, -0.14618799090385437, -0.23505190014839172, -0.200022891163826, 0.09285864233970642, 0.030108166858553886, 0.1939757913351059, 0.24911893904209137, -0.1973395049571991, -0.1339339017868042, -0.2739214301109314, -0.25993967056274414, -0.08729170262813568, 0.2790581285953522, 0.020113997161388397, 0.03312510997056961, 0.2738565504550934]
[0.2409011423587799, 0.21038301289081573, -0.23941238224506378, -0.002199302427470684, -0.12377624958753586, -0.23484458029270172, 0.0824771523475647, 0.14162686467170715, -0.12890028953552246, -0.1436215043067932, 0.27005305886268616, -0.22160406410694122, -0.05482662841677666, -0.18482273817062378, 0.15233531594276428, -0.20092853903770447, 0.03714973106980324, 0.18965190649032593, -0.22730576992034912, 0.26404616236686707, -0.13079914450645447, 0.11839395016431808, -0.1533348709344864, -0.27936843037605286, -0.05542614683508873, -0.10144242644309998, -0.14199747145175934, 0.053850095719099045, 0.06313955783843994, -0.10213339328765869, -0.0443132258951664, 0.07748736441135406, -0.18673847615718842]
[-0.17173774540424347, 0.21038588881492615, 0.10129592567682266, 0.14055174589157104, -0.1844639629125595, -0.11771418154239655, 0.031018521636724472, 0.017085321247577667, 0.1568315625190735, 0.1355711817741394, 0.27105745673179626, 0.060469407588243484, 0.027565570548176765, 0.023078814148902893, -0.09190134704113007, 0.02860732190310955, -0.1521538645029068, -0.22922644019126892, -0.13107708096504211, 0.2757069766521454, 0.21239551901817322, -0.17785122990608215, 0.02454746887087822, 0.17954140901565552, -0.15615005791187286, -0.08289050310850143, -0.018892083317041397, 0.247113436460495, -0.05644838511943817, 7.248314068419859e-05, -0.1094195768237114, -0.08294311165809631, 0.27575454115867615]
[-0.23191997408866882, -0.28129759430885315, 0.04489581659436226, 0.004231193568557501, 0.1043245792388916, -0.2850865423679352, -0.20116981863975525, 0.2889827787876129, -0.11030260473489761, -0.1333201825618744, 0.24322029948234558, 0.11490325629711151, -0.10505116730928421, -0.16480129957199097, -0.06938473880290985, -0.168491393327713, -0.22356504201889038, 0.175004243850708, 0.04781825840473175, 0.15360942482948303, -0.010345063172280788, 0.25912418961524963, 0.1607794612646103, 0.046442896127700806, 0.1720789670944214, -0.061411358416080475, -0.1182023286819458, -0.2613230049610138, 0.09809398651123047, -0.16059516370296478, -0.19271855056285858, -0.004740877542644739, -0.1072920560836792]
