[-4.639175891876221, -9.343524932861328, -5.772616386413574, -19.639087677001953, 0.8288666009902954, -0.08865903317928314, -3.253066301345825, 0.9121716022491455, 4.536174297332764, -18.082643508911133, -4.262482643127441, -3.2222070693969727, 4.966800212860107, 5.701117038726807, 6.214742660522461, 3.92242693901062, -4.563658237457275, -7.528739929199219, -3.809810161590576, -1.8411284685134888, -3.9459264278411865, 3.802952527999878, -7.4246826171875, -8.558095932006836, 8.668240547180176, -1.13783597946167, -7.59173583984375, -2.054605722427368, 0.18101947009563446, -6.635185718536377, 19.57562255859375, 8.485668182373047, -13.92807388305664, -3.9974524974823, 7.395574569702148, 6.468592166900635, 6.440449237823486, -9.47606086730957]
[-78.82798767089844, 15.534574508666992, 55.618927001953125, -5.991525650024414, -12.977468490600586, 17.214265823364258, 6.498805999755859, 56.25263214111328, -7.576182842254639, 41.48139572143555, 13.715801239013672, -67.0755615234375, 83.38967895507812, 12.009038925170898, 2.8645529747009277, -37.22975158691406, -1.9663481712341309, 23.457429885864258, 58.13783264160156, -16.262298583984375, -5.620904445648193, 43.63277053833008, 0.9975482821464539, 124.69082641601562, 5.959125995635986, -16.493606567382812, 33.94142150878906, 11.378450393676758, -14.421904563903809, 23.864948272705078, -41.24269104003906, -45.376914978027344, 2.1704652309417725, -32.31572341918945, 4.853527545928955, -14.866358757019043, -42.21104049682617, 75.31587982177734]
[-0.199079692363739, 0.22429940104484558, 0.2340589165687561, 0.0882851779460907, 0.20002716779708862, -0.06362244486808777, -0.13685932755470276, -0.10833559930324554, -0.07289007306098938, 0.16943219304084778, 0.17181086540222168, 0.13187500834465027, 0.21887752413749695, -0.02241756021976471, -0.12696951627731323, -0.13910575211048126, 0.25078651309013367, -0.21965399384498596, -0.16379627585411072, 0.21448403596878052, 0.17354726791381836, -0.04195265471935272, -0.05935691297054291, 0.162641704082489, -0.11129534244537354, 0.19204026460647583, -0.21824033558368683, 0.12179192900657654, -0.10968142747879028, 0.14164534211158752, -0.23088201880455017, 0.019737541675567627, 0.05125325918197632, -0.10246767103672028, 0.1725417673587799, -0.09426690638065338, -0.20308369398117065, 0.22016730904579163]
[-3.8503763675689697, 23.612625122070312, -34.565711975097656, -38.03847885131836, 7.5774760246276855, -5.248857021331787, -8.69925308227539, -15.91511344909668, 6.927089691162109, -22.31991195678711, -7.003028869628906, -2.7049384117126465, -2.39546275138855, 15.06638240814209, 1.8556938171386719, 6.037912845611572, -8.169387817382812, -7.879594326019287, -7.165947437286377, 1.29392671585083, -29.81357765197754, 14.27421760559082, 6.303735256195068, -23.036495208740234, 3.9471590518951416, 6.93942403793335, 19.69638442993164, 11.873612403869629, 5.094551086425781, -28.076213836669922, 23.90576934814453, 25.087865829467773, -21.627138137817383, -5.094735145568848, 27.627775192260742, 26.811500549316406, 29.06553840637207, -5.062820911407471]
[19.32701873779297, 2.0226175785064697, -24.13648223876953, -49.81721496582031, -16.178218841552734, -5.364205360412598, -10.583967208862305, -3.0363662242889404, 4.472835063934326, -9.074403762817383, 11.731405258178711, 3.033686876296997, -20.65827751159668, -10.504250526428223, -3.6579513549804688, 19.51075553894043, -19.740859985351562, -27.545259475708008, -19.165639877319336, 30.257036209106445, 8.788124084472656, 5.98666524887085, 11.68847942352295, 3.585737466812134, 3.607740640640259, -4.096429347991943, 4.64303731918335, -29.401611328125, 15.564223289489746, -0.1640971302986145, 27.02936553955078, -4.2762556076049805, 10.314116477966309, -14.894576072692871, 4.3433837890625, -8.051338195800781, 5.641916751861572, -17.358808517456055]
[11.369502067565918, -8.872268676757812, 4.843110084533691, -54.163116455078125, 10.462381362915039, 0.043531451374292374, 6.644418239593506, -1.2537388801574707, -0.5712860822677612, -38.968868255615234, 1.8296860456466675, 25.614938735961914, 7.252166271209717, 1.8585764169692993, 0.1708519011735916, -2.6430418491363525, 25.285423278808594, 3.0139365196228027, -21.434892654418945, -21.039003372192383, -1.2790273427963257, -1.8206310272216797, -3.2073512077331543, -1.3628734350204468, -7.789696216583252, 4.13835334777832, -1.9599634408950806, 14.857122421264648, 0.2508695423603058, 0.004456821829080582, -4.392742156982422, 1.4360387325286865, -12.315009117126465, 11.683942794799805, -1.6542980670928955, 1.3787347078323364, 5.153728008270264, -3.724383592605591]
[8.984597206115723, 2.1951534748077393, 2.5919079780578613, -15.570978164672852, 4.287417888641357, 1.1014972925186157, -11.689432144165039, -3.1886556148529053, 2.032763957977295, -3.381300210952759, 1.8664209842681885, -3.146472692489624, 1.2054649591445923, 1.8186532258987427, 1.150052785873413, -3.026573657989502, -6.435920715332031, -7.381634712219238, -4.734408378601074, -2.200859546661377, 1.480625867843628, -2.4776458740234375, -3.380980968475342, -0.45887455344200134, -1.1798027753829956, -0.619116485118866, -0.9255480170249939, -3.7943594455718994, -8.24937915802002, 0.06311848014593124, -0.6191784739494324, -1.7133727073669434, 2.4776270389556885, -0.6186185479164124, -1.1654011011123657, 0.5477779507637024, -0.5670456886291504, 7.533966064453125]
[-8.270564079284668, -7.344060897827148, 3.731647491455078, -14.74881362915039, -6.751272201538086, 0.37666329741477966, 3.335286855697632, 10.023900985717773, 0.9435306191444397, -9.81432056427002, 10.690037727355957, -1.2899353504180908, 10.822338104248047, 7.6441569328308105, -1.003334879875183, -0.6156736016273499, -3.6377434730529785, -15.112184524536133, -16.556379318237305, -3.0410685539245605, 5.418684959411621, 0.07502403855323792, -10.915231704711914, 2.5000436305999756, -0.9013929963111877, -0.7987759113311768, -4.5548624992370605, 0.42275965213775635, -0.4627765417098999, 5.194140911102295, 11.996294021606445, -0.6523052453994751, 1.9371081590652466, 2.1672396659851074, -3.6715762615203857, -1.9962830543518066, -6.194361686706543, -6.628962516784668]
[-0.1878412961959839, -0.015196621417999268, -0.1927194446325302, -0.043324559926986694, 0.029968619346618652, 0.24660983681678772, 0.11542177200317383, 0.11037766933441162, -0.25817030668258667, 0.12490609288215637, 0.04622119665145874, -0.09294846653938293, 0.006364047527313232, 0.07197612524032593, -0.06732429563999176, -0.06680494546890259, -0.18027128279209137, -0.06699077785015106, 0.18044617772102356, -0.11686640977859497, 0.25569167733192444, 0.25590065121650696, 0.12696900963783264, 0.020406603813171387, -0.224690780043602, -0.22134077548980713, 0.02823731303215027, 0.031554460525512695, 0.20358988642692566, 0.14899298548698425, 0.05470666289329529, 0.06429135799407959, 0.041384875774383545, -0.045385465025901794, 0.2311018705368042, 0.028781801462173462, -0.21044853329658508, 0.04728856682777405]
[4.793906211853027, -3.9036684036254883, 0.320301353931427, -18.608497619628906, -3.6979169845581055, -0.8009602427482605, 1.118166446685791, -1.8393539190292358, 0.8529131412506104, -4.2381205558776855, -4.971577167510986, -1.9831976890563965, -1.0572832822799683, 5.333493232727051, 3.1814217567443848, -9.888809204101562, -4.6690144538879395, -6.708708763122559, -4.847358226776123, -1.4524269104003906, 0.05184900760650635, 1.1610583066940308, -8.053309440612793, -1.774760365486145, 2.011775016784668, -5.531681537628174, 3.375321865081787, -3.627054214477539, -5.861928939819336, 3.15948486328125, -0.5932080745697021, -0.8499136567115784, -6.526712417602539, 2.26833176612854, -0.7334502935409546, -1.1250046491622925, -6.006258964538574, -6.835444450378418]
[9.0917329788208, 2.1055796146392822, 2.552795886993408, -15.597822189331055, 4.367332458496094, 1.0110353231430054, -11.780061721801758, -3.2730510234832764, 1.5918784141540527, -3.3409416675567627, 2.157463788986206, -2.8781778812408447, 1.295601725578308, 1.470861554145813, 1.2100801467895508, -3.3145480155944824, -6.585330963134766, -7.135683059692383, -4.598597526550293, -1.927911400794983, 1.422374963760376, -2.650392532348633, -3.546910285949707, -0.2772127091884613, -1.0920048952102661, -0.5045117139816284, -1.2661285400390625, -4.080297470092773, -8.381020545959473, 0.43946290016174316, -0.8820423483848572, -1.5388813018798828, 2.611102819442749, -0.27156421542167664, -1.0903470516204834, 0.4196301996707916, -0.5037826299667358, 7.270321846008301]
[-8.371493339538574, -7.532467842102051, 3.528158187866211, -14.595815658569336, -6.649492263793945, 0.07606557011604309, 3.2995002269744873, 10.160303115844727, 0.9395628571510315, -9.791855812072754, 10.415152549743652, -1.212228536605835, 10.60728645324707, 7.729254245758057, -1.3535178899765015, -0.4955800771713257, -3.4479451179504395, -15.069391250610352, -16.66586685180664, -2.9562931060791016, 5.252523422241211, 0.3310697078704834, -11.046512603759766, 2.476991891860962, -0.6807519793510437, -0.845105767250061, -5.01684045791626, 0.3530426621437073, -0.20784065127372742, 5.27837610244751, 11.720911026000977, -0.5810900926589966, 2.2276124954223633, 2.2830042839050293, -3.5042507648468018, -2.0402753353118896, -5.909929275512695, -6.581426620483398]
[3.6946451663970947, 11.155920028686523, 0.5392981767654419, 20.229290008544922, -38.11533737182617, 3.9855360984802246, 10.54124927520752, 7.232738018035889, 0.4438924491405487, -18.838701248168945, 5.003401279449463, 6.412210464477539, -0.12666772305965424, -12.785588264465332, 5.215754508972168, -29.347688674926758, 1.0818767547607422, -12.768717765808105, -21.496492385864258, 5.2516374588012695, 5.623454570770264, 2.0857067108154297, 10.960994720458984, -7.1569623947143555, -1.8697547912597656, 3.1926462650299072, 4.9866414070129395, -10.60111141204834, 1.3241441249847412, 170.4253387451172, -6.431150436401367, 6.304047584533691, 4.375499248504639, -17.385013580322266, 5.216801643371582, -3.9171204566955566, -12.129207611083984, -3.534745454788208]
[0.6492770910263062, -3.312591314315796, 0.6191627979278564, -6.5834641456604, -5.654555320739746, -1.155381441116333, 2.463735342025757, -0.7131593227386475, 1.1447497606277466, 0.06981868296861649, -3.43564772605896, 0.3021738827228546, 1.6145431995391846, 1.1930172443389893, 1.5956357717514038, -9.229753494262695, -1.7389626502990723, -0.181837797164917, -11.180408477783203, 1.7992596626281738, 1.4179922342300415, 0.08308614045381546, -15.790434837341309, -0.42554500699043274, 3.1167571544647217, -3.874380350112915, 4.550492286682129, -1.4934580326080322, -4.064022541046143, 14.587241172790527, -0.14584894478321075, -1.6752432584762573, -3.6850311756134033, -6.1545562744140625, -0.5229214429855347, -3.0375280380249023, -5.7992472648620605, -5.918989658355713]
[5.829568386077881, -0.20497488975524902, 0.9997167587280273, -4.4904351234436035, 4.468393802642822, -0.021726859733462334, -8.073532104492188, 0.006580894812941551, 1.406298041343689, -8.430245399475098, 0.6352987885475159, -1.2159461975097656, -2.247622013092041, -1.4812636375427246, 2.6773455142974854, -2.360671043395996, -8.75575065612793, -0.025976868346333504, 0.2592785656452179, -6.002758026123047, -0.1694899946451187, -0.24935930967330933, -0.4407604932785034, 2.233949899673462, 0.7167075872421265, -4.962526798248291, -1.0481491088867188, -2.1505472660064697, -2.021453619003296, 1.6664987802505493, 4.279791831970215, -0.9401737451553345, -2.1396896839141846, -1.5478919744491577, -1.1875555515289307, 1.222409725189209, -1.6967369318008423, 2.230221748352051]
[-0.8651086091995239, 2.7130014896392822, -0.19484999775886536, -16.15114974975586, -5.788447856903076, 1.6676028966903687, 7.508304119110107, 1.0554405450820923, 1.2686450481414795, -2.692656993865967, 2.797834634780884, 1.738386631011963, -0.53485506772995, -0.29686665534973145, 0.04616833105683327, -1.3623363971710205, -3.888767719268799, -6.770005702972412, -10.96973705291748, 2.14132022857666, 1.3190739154815674, 5.498424530029297, 2.0069034099578857, 0.6654930114746094, 0.203595370054245, 4.05606746673584, -1.483160138130188, 4.773706912994385, 2.647085189819336, 2.8844287395477295, 2.0526974201202393, -0.07355719059705734, 0.749480128288269, 3.670366048812866, 1.3662805557250977, 1.2323790788650513, -4.783915042877197, -2.7556750774383545]
[-2.3374195098876953, 5.7433037757873535, -3.0196428298950195, 15.617258071899414, -12.9507474899292, 0.5648770928382874, -0.834433376789093, 2.132883310317993, 1.2892305850982666, 20.334245681762695, 2.2199435234069824, 1.8775821924209595, -1.3852773904800415, -0.2387995719909668, -2.3941383361816406, 11.835912704467773, 21.67591667175293, 7.031607151031494, -7.9569926261901855, 2.563192367553711, 4.5412421226501465, -11.304222106933594, 6.298261642456055, -6.178312301635742, -1.2106572389602661, 3.622785806655884, 13.183281898498535, -2.2249157428741455, -3.228085517883301, 50.430511474609375, -7.164375305175781, 2.1211578845977783, 12.452235221862793, 12.767440795898438, -0.6658068299293518, -3.084117889404297, 1.1735001802444458, 2.116168260574341]
[-0.5625259876251221, -3.1092188358306885, 2.4670603275299072, -9.036410331726074, -2.2434937953948975, -1.4381481409072876, 1.322457194328308, -0.03950328752398491, 2.1257176399230957, -1.190096139907837, -3.7078542709350586, -1.509174108505249, -0.7405610680580139, -10.107036590576172, -0.2205226570367813, 0.00733256246894598, -4.015327453613281, -0.6313958764076233, 1.1718283891677856, 1.9058399200439453, 1.0018725395202637, -0.42847228050231934, -15.1978120803833, -0.3789322078227997, 1.8417311906814575, -2.1183061599731445, -1.0922701358795166, -6.385607719421387, 3.07210636138916, -0.19833596050739288, 1.7186217308044434, -1.8920155763626099, 3.4445509910583496, -4.895148277282715, -1.8129910230636597, 0.5248910188674927, -1.7047981023788452, -2.096916913986206]
[5.085822105407715, 1.0077539682388306, -0.011273665353655815, 1.0744417905807495, 4.269977569580078, 0.4389480650424957, -6.922245502471924, 0.9691694378852844, 1.3713504076004028, 1.5973905324935913, -3.2293307781219482, -3.328427314758301, -2.934119462966919, 2.7672247886657715, 1.4615994691848755, -4.323216438293457, -2.565253496170044, -7.372436046600342, -7.554479122161865, -6.878596782684326, 0.32150161266326904, -4.888540267944336, -0.8982797861099243, 2.880183696746826, 0.1392652690410614, 0.676815927028656, -0.5961781740188599, 0.3396247625350952, -1.198006510734558, -3.6201698780059814, 2.172151803970337, -0.621344804763794, -1.6904199123382568, -3.76412296295166, -2.7890636920928955, 3.102037191390991, -3.40436053276062, 5.174063205718994]
[-0.20914627611637115, 1.8946176767349243, 1.5960781574249268, -4.6615095138549805, -5.362847328186035, 5.732062339782715, 2.1087021827697754, -0.5768328905105591, 1.1233303546905518, -5.817625045776367, 3.951209545135498, -12.174782752990723, -2.302527666091919, 2.8100368976593018, 0.3844746947288513, 2.53080677986145, -12.408598899841309, -2.4666659832000732, 5.9218668937683105, 1.9376920461654663, 0.25277072191238403, -1.554839015007019, 1.7673771381378174, -0.35904163122177124, -0.4481634795665741, 4.225179672241211, 1.0237008333206177, 9.085484504699707, -4.464474201202393, 7.586632251739502, -4.39495849609375, 0.6001834273338318, -1.4155802726745605, 0.8113283514976501, 0.012515481561422348, 3.4673678874969482, -2.5453882217407227, 1.9113835096359253]
[5.5384111404418945, 1.596219778060913, -1.8588920831680298, 11.941123008728027, -20.158584594726562, -0.44304466247558594, 6.115391254425049, 1.533986210823059, 1.4386606216430664, 18.787378311157227, 2.912820816040039, -1.5856571197509766, 0.7794201970100403, 1.4720633029937744, 0.6684266328811646, 7.504311561584473, 22.3465518951416, 8.90987491607666, 19.64056396484375, -0.5078015923500061, 1.6864255666732788, -13.009221076965332, 18.57733154296875, 12.534933090209961, -0.9489088654518127, 1.9493987560272217, 16.55789566040039, -1.4830355644226074, -4.175705909729004, 5.980372905731201, -7.413780689239502, -3.983422040939331, 6.5866851806640625, 4.626979351043701, -1.787276029586792, -3.343662977218628, -1.9857882261276245, 6.877082347869873]
[-3.3027443885803223, -3.3167099952697754, 4.0947394371032715, -9.915507316589355, -1.894396424293518, -2.282059907913208, 1.6939506530761719, 0.2915652096271515, 2.30568265914917, 0.7232560515403748, -3.1323604583740234, -2.1450867652893066, -1.5072726011276245, -9.246706008911133, 0.15985621511936188, 0.5368343591690063, -4.09709358215332, 2.505977153778076, 0.2657018005847931, -0.6357826590538025, 0.9828761219978333, -5.233036994934082, -14.443102836608887, -1.8481626510620117, 0.19959628582000732, -3.2706382274627686, 3.2811670303344727, -0.9881107807159424, 1.9867010116577148, -1.1796362400054932, 0.1823841780424118, 0.30779048800468445, 2.347722291946411, -4.124475479125977, -0.6988131999969482, -0.7307934165000916, -1.6748145818710327, -1.8647315502166748]
[0.6923399567604065, 1.7290711402893066, 0.604267954826355, 3.928957223892212, 4.390974044799805, 4.862855911254883, -3.2192721366882324, -0.24824275076389313, 1.531191110610962, 1.860174298286438, -3.873810052871704, -5.362944602966309, -2.703428030014038, 0.3149264454841614, 1.261921763420105, -5.313443660736084, -5.025148868560791, 3.7406980991363525, -4.328912258148193, -2.1733791828155518, -0.5498116612434387, -0.28795480728149414, 5.347093105316162, 2.0933995246887207, 0.8888182044029236, -1.8310056924819946, -0.628359854221344, -4.7175421714782715, -0.9499544501304626, -0.990247905254364, -5.180293560028076, -1.70426607131958, -1.768080472946167, -1.7773585319519043, -2.4094860553741455, -0.04852693900465965, -3.959120273590088, 3.926525115966797]
[0.5213316679000854, 4.063542366027832, 2.1640961170196533, 1.09525728225708, -4.385789394378662, 3.8045454025268555, 0.6245973110198975, 0.18164995312690735, 1.815201759338379, -4.269680500030518, 2.0075151920318604, -10.506853103637695, -1.483939290046692, 5.543482303619385, 0.031539127230644226, 3.224370241165161, -9.576083183288574, -1.0734758377075195, 8.556049346923828, 2.7685112953186035, -0.9633176922798157, 1.0375856161117554, 1.5783720016479492, 0.5052573084831238, -1.7613551616668701, 1.4383093118667603, 3.213887929916382, 5.114862442016602, -4.428147792816162, 4.1487932205200195, -8.021355628967285, -0.536704957485199, 0.8324927687644958, 1.7183619737625122, 0.8141860365867615, 4.181051254272461, -2.6442372798919678, 3.4921669960021973]
[-0.2766784429550171, -5.2356486320495605, -6.326781749725342, 3.7609801292419434, -28.045127868652344, 0.17890886962413788, -8.170341491699219, 2.224670648574829, 2.2715983390808105, 2.61222505569458, -2.00032114982605, -1.3186877965927124, -4.304022789001465, 9.187196731567383, 0.11223602294921875, 1.1072499752044678, 13.914787292480469, 4.432490825653076, 6.886689186096191, -2.1689364910125732, 2.1639020442962646, 9.324652671813965, 4.181119918823242, -1.1574312448501587, 1.174912452697754, 6.67700719833374, -11.05772876739502, -0.14933711290359497, -3.870030641555786, 6.401247024536133, 2.706049680709839, 0.02303299680352211, -5.925446033477783, -1.3392335176467896, -3.263901948928833, -0.5434032082557678, 9.808650016784668, -2.0533905029296875]
[-1.8808377981185913, -0.5640676617622375, -0.21487678587436676, -20.100120544433594, 0.7093786001205444, -3.1194300651550293, -5.301070690155029, 2.838130235671997, 3.6156506538391113, -15.207419395446777, -1.1765079498291016, -1.1536333560943604, -7.825839042663574, -3.816096305847168, 1.731788992881775, 2.433757781982422, -4.375117778778076, -2.2433011531829834, -3.6317434310913086, 0.6242376565933228, -0.1128854975104332, 1.6552376747131348, -6.404281139373779, -1.6259970664978027, -0.27909889817237854, -0.821927547454834, -6.729735374450684, -3.08040452003479, -1.935600996017456, -6.243456840515137, 12.23281478881836, 3.486802816390991, -14.222073554992676, -4.11979866027832, -2.2143051624298096, -1.317740559577942, 3.124478340148926, -3.422128915786743]
[-1.3434786796569824, 3.389519214630127, -0.5230198502540588, 1.69180166721344, 1.851449728012085, 2.1068437099456787, 0.9481433033943176, -0.29307663440704346, 1.3871972560882568, 6.6170430183410645, -6.7456793785095215, -3.2631654739379883, -1.5344899892807007, -1.6629829406738281, 1.7752948999404907, -6.551379680633545, 3.6438562870025635, -0.970802366733551, -4.344541072845459, -3.8239054679870605, -0.6476730108261108, -0.8074873089790344, 4.180359363555908, 0.7719022631645203, 0.15397387742996216, -2.7266266345977783, 0.9195476174354553, 0.897088348865509, 2.1125378608703613, 1.0951831340789795, -1.5328819751739502, -1.1476047039031982, -7.001714706420898, -4.7053351402282715, -3.5101211071014404, 0.6763104796409607, -1.190712332725525, 2.7601592540740967]
[1.1210060119628906, 0.23913533985614777, 6.229625701904297, 10.932019233703613, -0.40819641947746277, 1.7493760585784912, -0.18430091440677643, 1.107692003250122, -0.7049949169158936, -5.013563632965088, -1.149638295173645, -4.6015448570251465, -1.2794848680496216, 4.4921793937683105, -1.105536937713623, 4.275424957275391, -4.360857963562012, 1.5337555408477783, -0.3486766219139099, 2.6485164165496826, -0.44396549463272095, -1.9181610345840454, -3.0926897525787354, 0.8787871599197388, -1.1965903043746948, 6.975574493408203, 1.7787563800811768, 5.1947021484375, 5.680882453918457, 1.4425162076950073, -8.453459739685059, -0.27836596965789795, 5.193049430847168, 0.5660095810890198, 0.7043492794036865, 3.2297632694244385, 0.6904661059379578, 4.717373371124268]
[-0.34645435214042664, 5.0545430183410645, -2.9254448413848877, 5.184330463409424, -2.2984681129455566, -0.5469134449958801, 0.5729010701179504, 2.715296745300293, -0.47553858160972595, 2.6431939601898193, 6.7104034423828125, -2.773083209991455, 4.666830062866211, 0.6640163064002991, 0.814409613609314, -2.8016512393951416, 3.3733603954315186, 4.691713333129883, 1.3536080121994019, 2.570780038833618, 1.9207974672317505, 6.064046859741211, -18.02707290649414, -1.5960289239883423, -2.774423360824585, 14.944286346435547, -1.1500420570373535, -1.7375755310058594, -4.463802337646484, 3.161989688873291, -4.206822872161865, -0.0704614520072937, 8.991902351379395, 1.7984048128128052, -4.867917537689209, 1.812776803970337, 5.455440044403076, 3.9790804386138916]
[-2.160127639770508, -2.1222901344299316, -1.0754204988479614, -14.61878776550293, 1.5885368585586548, -6.149678707122803, 0.1656467318534851, -0.8005447387695312, 2.6344590187072754, -13.859020233154297, -2.1454012393951416, -4.400661945343018, 1.6898918151855469, -1.4691753387451172, 3.270319938659668, 1.8405280113220215, -10.338719367980957, -5.209118366241455, -4.219674110412598, -6.069458961486816, -0.09547113627195358, 10.196514129638672, -3.162013530731201, 0.5833146572113037, 2.856471061706543, 8.050690650939941, -3.0905721187591553, -4.297862529754639, -2.910081624984741, -7.1664862632751465, 15.427092552185059, 0.8699011206626892, -10.977524757385254, -4.622396945953369, -2.183366537094116, 1.7336276769638062, 3.104477882385254, -4.4423418045043945]
[-3.1244447231292725, 3.995492458343506, -0.5401960015296936, 0.29673680663108826, 3.1945853233337402, -2.36560320854187, 4.993641376495361, -1.8757140636444092, 1.193353533744812, 5.409841537475586, -5.786836624145508, -5.531198501586914, -2.1501641273498535, 5.458198070526123, 0.7375780344009399, -4.0236124992370605, -0.07543866336345673, -1.08854079246521, -2.543074607849121, -6.343177318572998, -1.7649080753326416, -1.848496437072754, 6.314537048339844, 1.7847574949264526, -0.5889061689376831, -0.9453310966491699, 2.317572593688965, -2.2184290885925293, 2.6507728099823, 0.8929423689842224, 0.12358328700065613, -1.728124976158142, -0.8530467748641968, -4.720966815948486, -3.201472043991089, -0.703027069568634, 0.1434604376554489, 2.710352659225464]
[5.071679592132568, -1.156524658203125, 2.570596933364868, 19.54174041748047, 1.775582194328308, 2.635328531265259, 0.8521679043769836, -0.563068151473999, 0.5977939963340759, 4.243603229522705, 3.9532744884490967, 1.7426230907440186, 5.174090385437012, 3.910274028778076, -1.9536515474319458, 2.702038526535034, 2.440560817718506, 5.402853965759277, 5.433942794799805, 2.6969451904296875, 0.22695647180080414, 0.6648666858673096, 0.4313157796859741, -0.9631009101867676, -2.219111919403076, 13.423293113708496, 2.1823859214782715, 11.480929374694824, 6.997645378112793, 2.253635883331299, -4.485348701477051, 0.03339983522891998, 9.356968879699707, 3.031435251235962, 3.151730537414551, 3.998255968093872, -0.8625248074531555, 3.1466245651245117]
[-2.222075939178467, -0.8217662572860718, 0.14683091640472412, 6.649067401885986, -9.006853103637695, -1.5658140182495117, -1.6680055856704712, 1.0375628471374512, -0.546898603439331, 1.1999647617340088, 7.622179985046387, -0.8807011842727661, 0.8571224808692932, -5.147534370422363, -2.4364984035491943, -1.2534934282302856, -9.87706184387207, 4.544569969177246, 12.323450088500977, -0.9248358011245728, 2.570815324783325, 3.7713496685028076, -3.213745594024658, 8.318077087402344, 2.4862380027770996, -0.9677858948707581, -2.2269396781921387, 2.9495835304260254, -0.2078929990530014, 8.159920692443848, -2.21271014213562, 0.7385706305503845, 5.17038106918335, 0.00477196928113699, -0.4559982717037201, -2.1884069442749023, 6.707427024841309, 6.813229084014893]
[-0.14270667731761932, 1.0025383234024048, -1.130772352218628, -17.643146514892578, 1.1572377681732178, -7.12441873550415, -2.172065019607544, -3.042729139328003, 2.940274477005005, -11.186986923217773, -2.2193033695220947, -2.6304869651794434, -0.41939154267311096, 4.644768238067627, 1.762321949005127, 7.475800037384033, 1.7323182821273804, -1.5105363130569458, -2.9721245765686035, 2.955098867416382, -1.7715017795562744, 4.85484504699707, -3.5264673233032227, -2.50722074508667, -2.849764823913574, -1.1371294260025024, -5.308337211608887, 1.3114376068115234, 2.1055972576141357, -7.601003170013428, 13.57989501953125, 3.7380871772766113, -3.013052225112915, -2.8010857105255127, -1.5634304285049438, -5.984743595123291, 5.025028705596924, -2.670952558517456]
[-3.4881575107574463, 2.6276166439056396, -0.2955871522426605, 3.931575298309326, -4.239851474761963, -9.507153511047363, 5.162906646728516, -1.1730190515518188, 1.1014124155044556, 2.024688243865967, -5.425573348999023, -1.0880815982818604, 1.1754878759384155, 7.04631233215332, -0.6660869717597961, -1.9934149980545044, 2.754293203353882, 0.08766821771860123, -1.8615541458129883, -6.837008476257324, -3.271298408508301, -3.6416358947753906, 6.257976055145264, 2.6652612686157227, 0.5652233958244324, -6.429062843322754, 2.6567702293395996, -4.4247727394104, 4.187758922576904, 0.5553769469261169, -4.289891719818115, -2.76263427734375, 3.2642769813537598, -0.02624199353158474, -1.0791096687316895, -0.8433265686035156, 1.2827478647232056, 3.0439951419830322]
[3.3006653785705566, 3.0318949222564697, -0.06259279698133469, -3.2751801013946533, 1.1718372106552124, -2.777519702911377, 1.0071845054626465, -2.575634479522705, -0.7828889489173889, 1.4919008016586304, 0.28573644161224365, 4.042638301849365, 2.1846704483032227, -1.9870928525924683, -3.2188560962677, 3.4396800994873047, -4.031634330749512, 4.23895788192749, -1.1527940034866333, 4.650290012359619, -1.4744664430618286, 0.9411486983299255, -2.0974700450897217, 0.16113035380840302, -4.4736175537109375, 12.564404487609863, 3.2883200645446777, 4.805034160614014, 7.990008354187012, 1.3812775611877441, -7.923027992248535, -0.3246985077857971, 10.803509712219238, 1.3998425006866455, 1.5183849334716797, 2.2773852348327637, -0.8043637275695801, 1.1310851573944092]
[0.1796392947435379, -2.1457977294921875, 0.3822336196899414, 2.7364439964294434, -5.259432792663574, 2.2555112838745117, 1.7264889478683472, 1.1433192491531372, 0.19645555317401886, -0.36969488859176636, 6.356352806091309, 3.823751449584961, 4.017082691192627, -0.17830722033977509, -4.481847763061523, -4.318090438842773, -2.950615406036377, 1.038143277168274, 8.708833694458008, 3.0558102130889893, 2.7734787464141846, 4.169513702392578, 3.2642982006073, 3.3202812671661377, 1.9939182996749878, -3.436649799346924, -4.74855899810791, 7.024688720703125, -0.5531822443008423, 5.552250385284424, -3.126793622970581, -2.9194257259368896, 22.363725662231445, -12.192174911499023, 0.2375374287366867, 4.061932563781738, -8.724746704101562, -5.948004722595215]
[4.046451091766357, 4.654550552368164, -2.2947347164154053, -16.87787628173828, 1.2077324390411377, -3.307154893875122, -0.5160102248191833, -0.48462608456611633, 3.121610403060913, -11.102927207946777, -6.190467357635498, -0.642116367816925, 1.222776174545288, 1.105364441871643, -1.2378251552581787, 6.285355091094971, 1.4667357206344604, -1.8681586980819702, -2.2638893127441406, 2.4293930530548096, -3.0128581523895264, 2.5374159812927246, -3.617499828338623, -2.9529922008514404, -0.8821256160736084, -6.389822483062744, -4.62752103805542, -0.6646350026130676, 2.9704740047454834, -6.571547031402588, 16.837038040161133, 1.708103895187378, 4.767851829528809, -0.7089383602142334, -2.026498317718506, 2.8094635009765625, 1.604479193687439, -1.7191020250320435]
[-4.660912036895752, 5.576809406280518, -4.570847034454346, 1.1291512250900269, -2.331312417984009, -11.60025405883789, 2.112231492996216, -0.5536368489265442, 0.8028744459152222, -0.48118361830711365, -7.023733139038086, -4.711158275604248, 2.5855674743652344, 6.760471343994141, 0.01981165260076523, -3.8694024085998535, 3.21745228767395, 1.3710811138153076, -2.9092624187469482, -3.05727481842041, -2.843327760696411, -2.582227945327759, 5.371270656585693, 3.1277077198028564, 0.8959567546844482, -7.407167434692383, 3.2560133934020996, -0.5714244842529297, 4.882820129394531, 0.6191546320915222, -7.566185474395752, -2.9617936611175537, 3.3650944232940674, -4.222194194793701, -2.1499276161193848, -0.8708750605583191, 3.117979049682617, 4.980928897857666]
[3.6759872436523438, 4.4059858322143555, 6.391197681427002, 1.4469084739685059, 7.470830917358398, -22.56373405456543, 3.3845832347869873, -3.217320442199707, 0.3863612413406372, -16.171207427978516, 5.980887413024902, 2.818328857421875, -1.1650689840316772, -3.5006871223449707, -2.396959066390991, 7.410919666290283, -5.850923538208008, 1.312681794166565, 6.484496593475342, 6.593804836273193, -2.0808043479919434, 0.9649249911308289, 0.9154067635536194, 1.4481971263885498, -3.3627562522888184, 7.593255996704102, 2.1121978759765625, 12.95150089263916, 5.916478633880615, 2.2822821140289307, -8.681581497192383, -1.4949820041656494, 11.089597702026367, -0.4620777368545532, 3.113304376602173, 2.4368765354156494, -1.4542438983917236, -1.3619590997695923]
[-1.8571065664291382, 5.812669277191162, 2.792695999145508, 1.5015051364898682, -11.152816772460938, 6.474637508392334, 0.798430323600769, -4.809453964233398, 0.5855399966239929, 0.6037281155586243, 7.996142387390137, 3.585273027420044, 2.362529993057251, -0.7423595786094666, -10.10350227355957, -10.095115661621094, -3.569420337677002, 2.6902198791503906, 7.5120720863342285, 9.859785079956055, 1.0174782276153564, -0.7913105487823486, 1.1007227897644043, 2.9498629570007324, -3.2673563957214355, 2.3347556591033936, -13.56747055053711, 5.317637920379639, -3.493435859680176, 3.5671966075897217, -13.84399127960205, 3.5138468742370605, 21.55955696105957, -6.859313011169434, -0.9684687256813049, 0.5867258310317993, -14.361472129821777, 1.0257508754730225]
[4.780078411102295, -2.1628494262695312, -3.17486834526062, -16.07950782775879, 2.1714694499969482, 2.0244500637054443, -3.7223477363586426, -0.7805250287055969, 3.2746174335479736, -11.194767951965332, 5.496866703033447, 0.8002991676330566, -3.823082685470581, 1.4441092014312744, -1.8377553224563599, 8.241166114807129, 1.6294082403182983, -5.129703998565674, -2.417093515396118, -1.6091363430023193, -1.5419107675552368, 0.11184971779584885, -2.8174333572387695, -1.479326605796814, 3.888627529144287, -3.973970413208008, -1.7896056175231934, 0.2067042589187622, 0.5115919709205627, -6.797293186187744, 15.412656784057617, 2.342822790145874, 6.64510440826416, -0.010671558789908886, -0.18828614056110382, -1.5053495168685913, 6.466530799865723, -11.653220176696777]
[-3.627119779586792, 7.6476640701293945, -2.0339369773864746, 10.351482391357422, 3.0129573345184326, -3.8287360668182373, 4.538736820220947, -0.9969775676727295, 0.8244611024856567, 7.412720680236816, -6.727505207061768, -9.307289123535156, -0.4696667790412903, 6.1141228675842285, -0.27990132570266724, 0.7254062294960022, -0.9916430115699768, 5.765171527862549, 2.1734938621520996, -6.551329135894775, -0.19993087649345398, -2.89534330368042, 5.6529316902160645, 0.5960816144943237, 1.4331305027008057, -5.312469482421875, 4.58266019821167, 1.5789505243301392, 3.5139479637145996, 0.7377987504005432, -10.123162269592285, -1.3529258966445923, -0.9630511403083801, -2.9440317153930664, 2.407069683074951, 0.5250241160392761, 2.6755495071411133, 3.905513286590576]
[6.4481000900268555, 8.861732482910156, 3.5873985290527344, -0.22860538959503174, 3.5944671630859375, -16.3166561126709, 0.47365802526474, -4.8132147789001465, -0.9228165149688721, 4.826907634735107, 4.563822269439697, 4.204981803894043, -2.6813836097717285, -4.408369541168213, -2.9443936347961426, 6.765988826751709, -7.972850322723389, -1.357262372970581, 4.893168926239014, 5.144227027893066, -0.24497604370117188, 1.914825439453125, -1.5967090129852295, 2.0863382816314697, -2.1574795246124268, 6.087386131286621, 2.272538900375366, 15.49311351776123, 6.575610637664795, 1.8643221855163574, -11.662683486938477, 1.3719184398651123, 3.063429832458496, 0.6244013905525208, 4.628165245056152, 1.2021106481552124, -0.37474948167800903, -2.156116485595703]
[-9.970602989196777, 0.15947891771793365, -1.1001564264297485, 9.216370582580566, -13.430075645446777, -17.36614418029785, 7.400548934936523, 7.979348182678223, -0.6912752389907837, 4.448150157928467, -5.10037899017334, 6.462890148162842, 3.787280797958374, -3.574748992919922, -10.786423683166504, -12.89913558959961, -8.595452308654785, 4.7265944480896, 8.6362886428833, 8.289685249328613, -0.19920004904270172, 8.834874153137207, 2.5937371253967285, 5.003954887390137, 7.948437690734863, 23.416357040405273, 6.181722640991211, 0.23623479902744293, 15.447447776794434, 15.793322563171387, -14.324288368225098, -10.238503456115723, 14.797891616821289, -6.4655656814575195, -1.7442032098770142, -3.4672048091888428, -14.100187301635742, 0.7209892272949219]
[3.3475942611694336, -1.174120306968689, -4.5228071212768555, -9.65153694152832, 1.7547897100448608, -18.430727005004883, -0.33706510066986084, 1.3309553861618042, 3.915247678756714, -8.524332046508789, -5.035007476806641, 0.47409844398498535, -1.7200100421905518, 0.31543856859207153, -7.569233417510986, 8.946476936340332, -6.668851375579834, -7.213845729827881, 0.8172361254692078, 1.6594207286834717, -6.5927228927612305, -0.6369404792785645, -1.668015956878662, -2.71409010887146, 2.8805582523345947, 12.013374328613281, 0.8648201823234558, 5.301540851593018, 13.602752685546875, -4.220946788787842, 6.613245487213135, -1.4807777404785156, 6.528994560241699, 1.1939889192581177, -2.832334280014038, -3.667858839035034, 8.359200477600098, -4.711508274078369]
[-1.8690471649169922, 3.9345717430114746, -2.0392651557922363, 3.553800582885742, 4.2621846199035645, -17.987443923950195, 5.505168914794922, -0.3878757357597351, 0.43597936630249023, 8.90908432006836, -6.261637210845947, -8.31531810760498, -0.4285857677459717, 2.8770201206207275, 0.026801366358995438, -1.0770235061645508, -1.028249979019165, 3.426302671432495, -1.6995431184768677, -14.511482238769531, 0.21302281320095062, -3.1873433589935303, 3.8732845783233643, 0.9085954427719116, 1.4302730560302734, -4.5392303466796875, 2.9762673377990723, 0.12666963040828705, 6.466756820678711, 0.25443243980407715, -6.837002277374268, -0.6409276723861694, -3.420097827911377, -2.602160930633545, 0.08970442414283752, 1.393662929534912, 2.3088178634643555, 1.4011499881744385]
[2.769641160964966, 4.413586616516113, -0.47993478178977966, 10.980769157409668, 3.45292329788208, -16.259479522705078, 2.425855875015259, -2.057490825653076, -0.6316719055175781, -35.58695983886719, 1.9036471843719482, 8.233304977416992, -2.8653361797332764, -4.515296459197998, -2.5125765800476074, 4.342101573944092, -0.07314103096723557, 1.3043004274368286, 3.3431050777435303, -5.365852355957031, -1.600720763206482, 2.9006524085998535, -0.6527764797210693, 1.1172012090682983, -1.2776525020599365, 1.4951109886169434, 3.0539231300354004, 12.939797401428223, 5.0336127281188965, 2.0660877227783203, -14.148208618164062, 2.322049379348755, 2.8969128131866455, 1.379635214805603, 3.2176733016967773, 0.7045851349830627, 0.3296864926815033, -0.11876954138278961]
[0.31450071930885315, 0.18641524016857147, 0.9360274076461792, 3.066690683364868, -0.06554112583398819, 0.5745782852172852, 0.11663687974214554, 0.28947705030441284, 1.9580446481704712, 1.0013185739517212, 0.8833001852035522, 0.7916620373725891, -0.5096992254257202, 1.096619963645935, 0.7363381385803223, 0.6852730512619019, -2.715794801712036, 0.010924559086561203, 0.9445955753326416, 0.6136316061019897, -0.23928233981132507, 0.13445661962032318, -0.005587906576693058, 0.06806477159261703, -0.7104700803756714, -0.01420338824391365, -0.01259604375809431, -1.6886234283447266, -0.34243300557136536, 0.2525421977043152, -0.7593261003494263, -0.12869054079055786, 0.6395376324653625, 0.29143357276916504, -0.4615339934825897, 0.18873581290245056, 0.2021695375442505, -0.8250448703765869]

[-17.291833877563477, -6.803922653198242, -6.469000816345215, 5.009370803833008, 0.6229066848754883, 4.240029335021973, -8.93466567993164, -18.708507537841797, 0.406985878944397, -5.094798564910889, 1.9746087789535522, 16.894519805908203, -8.027710914611816, -19.767780303955078, 9.308446884155273, -8.621254920959473, -2.086958408355713, -2.453211784362793, -22.322975158691406, -10.73613452911377, 0.9467819929122925, -14.623536109924316, 1.046251654624939, -11.473771095275879, 0.5140042304992676, -13.771292686462402, 3.8939292430877686, 10.9689359664917]
[8.021280288696289, -4.113151550292969, -4.860585689544678, -12.151705741882324, -6.690125942230225, -2.186162233352661, -2.098205327987671, 5.047701835632324, -1.460989236831665, -2.0273168087005615, 6.042926788330078, -12.294788360595703, 9.33554458618164, 8.566007614135742, 0.8764821290969849, -6.755662441253662, 0.09292993694543839, 3.6135637760162354, 17.301435470581055, -0.30275169014930725, 6.1774139404296875, -8.439528465270996, 4.129418849945068, -9.085922241210938, 1.2194753885269165, 11.322649002075195, -2.4729597568511963, 5.103200435638428]
[-17.453168869018555, -0.31590452790260315, -0.673636257648468, 5.679077625274658, -2.095930576324463, 0.5760738253593445, -11.058351516723633, -5.291593074798584, -1.4160823822021484, -1.6490405797958374, 17.422330856323242, 11.92220401763916, -1.5520488023757935, 4.122288703918457, 30.538135528564453, 0.22133640944957733, 7.944333076477051, 4.351175785064697, 2.2646727561950684, 9.196162223815918, 2.2522029876708984, -1.329404592514038, -0.0648970901966095, -4.158183574676514, 0.8140941262245178, 2.702636480331421, -3.594825267791748, -0.658744215965271]
[-4.631351470947266, 8.805198669433594, -1.0420193672180176, 23.39870834350586, 0.7555336952209473, -9.169289588928223, 9.497442245483398, -2.9315664768218994, 1.6755865812301636, 0.44553664326667786, 8.53709602355957, 0.8131570219993591, -16.993669509887695, 5.458168029785156, -6.71460485458374, -4.321166515350342, -13.767951965332031, -1.3893558979034424, 0.9488372206687927, 1.2177420854568481, 5.415652275085449, 3.550945281982422, 0.06068788096308708, -3.671218156814575, 0.4572058916091919, 21.951580047607422, 4.100903034210205, -2.097119092941284]
[18.561279296875, 7.052937030792236, 2.16121244430542, 4.319166660308838, 1.1831154823303223, 82.6002197265625, -5.171058177947998, 43.60836410522461, -25.097721099853516, 2.3225433826446533, 8.410771369934082, -17.046106338500977, -0.4658253788948059, 6.749260902404785, 3.8622875213623047, 0.0492752306163311, 12.30748462677002, 22.260601043701172, 31.18389129638672, -3.045184850692749, -23.283376693725586, -78.70221710205078, 3.671049118041992, 25.471315383911133, -11.977893829345703, -56.17927169799805, -34.93849182128906, -32.00113296508789]
[13.948884963989258, -10.649664878845215, -17.183897018432617, 15.24675178527832, -4.887400150299072, -2.655348539352417, -0.3632987439632416, 24.94841766357422, -11.782148361206055, -0.7602772116661072, -6.326698303222656, 8.000316619873047, 31.23776626586914, 14.799674034118652, -2.2951130867004395, -54.32394027709961, 7.191524505615234, -5.5507988929748535, 14.79191780090332, 0.8293182849884033, -5.484108924865723, 19.21483039855957, 4.236196041107178, 9.97620964050293, 0.491438627243042, 26.236066818237305, -3.0747742652893066, -19.670347213745117]
[-13.320231437683105, -4.558202266693115, 28.091794967651367, 7.617839336395264, 2.211259365081787, -18.210556030273438, 18.95989227294922, 10.855377197265625, 20.16240692138672, 1.1110535860061646, 4.752373695373535, 18.467830657958984, -13.514315605163574, 10.516157150268555, -21.82146644592285, 19.68008041381836, 3.105620861053467, -2.7144720554351807, -6.681942462921143, 10.747265815734863, 21.872962951660156, 16.413185119628906, 3.1527702808380127, 27.400012969970703, -2.4751851558685303, 14.261958122253418, -6.647221088409424, -1.4917925596237183]
[9.037528038024902, 4.239864826202393, -4.088416576385498, 21.981172561645508, 12.963899612426758, -0.06092657148838043, 0.8476283550262451, 5.423106670379639, 2.7016260623931885, 1.7627767324447632, -3.8844101428985596, -10.261143684387207, -8.866959571838379, 14.391152381896973, 3.0598795413970947, 9.585330963134766, -1.0232309103012085, -3.621277093887329, 14.636503219604492, 10.385358810424805, -6.429938793182373, -1.592255711555481, -1.7973031997680664, 3.8132431507110596, -1.0891690254211426, 3.7602195739746094, -2.6254770755767822, -4.997232437133789]
[0.5586219429969788, 3.7376503944396973, -9.9470796585083, 2.0063624382019043, 5.382621765136719, 2.4936468601226807, 3.2055490016937256, -10.720842361450195, 0.5527023673057556, 0.8871884346008301, -6.581737995147705, -1.3162145614624023, -2.802769422531128, 3.009199380874634, -2.689344882965088, -9.759284019470215, -7.1447882652282715, 14.688570022583008, -3.7118866443634033, 2.006882905960083, -0.6895287036895752, 2.623063087463379, 2.6882574558258057, -0.019483359530568123, -0.35890594124794006, -5.816383361816406, -0.3661220371723175, 2.914353132247925]
[-18.556440353393555, -8.108793258666992, -5.274622917175293, 2.766692876815796, 2.7393736839294434, 9.12957763671875, -3.982774257659912, -18.768081665039062, 7.602309226989746, -7.344126224517822, -0.7996194958686829, 14.951557159423828, -9.675695419311523, -15.636580467224121, 9.488584518432617, -6.195136070251465, -5.333858489990234, -6.374563217163086, -13.014110565185547, -12.353034019470215, 0.16973091661930084, -19.087797164916992, 6.616191387176514, -8.48786449432373, -0.7462484836578369, -20.249746322631836, 2.9358394145965576, 14.773833274841309]
[32.3984489440918, 3.8727121353149414, 36.766178131103516, 10.44769287109375, -0.6932705044746399, 32.42172622680664, 6.60533332824707, 31.695343017578125, -22.782812118530273, -77.24445343017578, 13.591434478759766, -55.58794021606445, -3.1584129333496094, 6.417782783508301, 31.705202102661133, -11.128937721252441, -4.377140045166016, -5.188628673553467, 36.890167236328125, -50.222660064697266, 29.66305160522461, -64.1991958618164, 0.634895920753479, 58.359474182128906, 1.3049031496047974, 13.061690330505371, -19.244701385498047, -27.027395248413086]
[-2.8006880283355713, 11.507932662963867, -19.177934646606445, 1.0435935258865356, 46.174625396728516, 0.2513713240623474, 22.3499813079834, -8.695111274719238, -4.043121814727783, 1.325732946395874, -5.54083776473999, -8.414214134216309, -5.506284236907959, 10.943982124328613, -16.688005447387695, 2.07751202583313, 1.8675456047058105, 2.0342283248901367, 2.1846282482147217, 2.1473195552825928, -0.6903207302093506, -1.1178088188171387, 0.6102764010429382, 1.4861347675323486, -1.093653678894043, 0.6170951724052429, 0.5866339802742004, -4.408984661102295]
[21.09336280822754, -11.80433464050293, 13.489437103271484, 32.944190979003906, 8.643819808959961, 9.226919174194336, 22.04728126525879, -28.756210327148438, 17.436811447143555, 5.582653045654297, 34.73012924194336, -16.026073455810547, 9.903541564941406, -6.577242851257324, -22.446165084838867, 7.545414924621582, -12.477620124816895, -6.890514373779297, 64.45297241210938, -4.672605991363525, -35.25053024291992, 10.689724922180176, 5.134391784667969, 14.83717155456543, -14.503572463989258, 8.393869400024414, 2.153465986251831, -13.06495475769043]
[-1.9175257682800293, 13.659256935119629, -5.695414066314697, 9.066658020019531, -2.6245386600494385, 1.4026806354522705, -4.425065994262695, -7.18375301361084, 5.626648426055908, 1.9976816177368164, -9.503680229187012, 7.636974334716797, -18.377939224243164, -12.000804901123047, 32.18534851074219, 3.2154393196105957, -7.005577087402344, 11.508502006530762, -1.2002726793289185, 1.0633023977279663, -0.22245247662067413, -2.8454935550689697, 2.286958932876587, -8.505452156066895, -0.9357978105545044, 5.855658531188965, 0.5044944882392883, -7.549352645874023]
[-10.455668449401855, -0.6240493059158325, -12.54599666595459, 5.30010986328125, 5.661850452423096, 2.163433074951172, -10.722893714904785, -14.746065139770508, 1.5104199647903442, -2.2119569778442383, 2.4614133834838867, 10.082077980041504, -5.668796539306641, -7.798689365386963, 12.397924423217773, -0.8468504548072815, -0.6392179727554321, -1.1020240783691406, -5.721294403076172, -8.525419235229492, 2.826673746109009, -13.793331146240234, 2.607619524002075, -5.401930332183838, -0.4491662383079529, -7.789709091186523, -6.281885623931885, 4.8449225425720215]
[22.35791015625, -22.036794662475586, 10.714659690856934, -4.367562770843506, -6.304599761962891, 9.406566619873047, -1.2685891389846802, 11.986743927001953, -2.1811816692352295, -38.086910247802734, 0.34558501839637756, -7.38432502746582, 3.2827656269073486, 32.18857192993164, 13.74732780456543, 22.40931510925293, 3.1713638305664062, -10.964143753051758, 10.399589538574219, -11.412618637084961, 5.359903335571289, -1.5855201482772827, 1.3086663484573364, 2.2690048217773438, 0.3378608524799347, -28.85696792602539, 0.3137657642364502, 80.3382339477539]
[10.93637466430664, 26.202598571777344, 5.343212127685547, -1.6380164623260498, 2.669839382171631, -4.202057361602783, 1.5406783819198608, 1.2676656246185303, -3.7589352130889893, 0.5411862134933472, 10.294798851013184, -14.291862487792969, 6.525942802429199, 30.702056884765625, 0.9324500560760498, 8.506940841674805, 2.9149136543273926, 6.514976501464844, -29.935047149658203, 4.557380676269531, 4.3103718757629395, -28.63868522644043, 5.666813373565674, -20.800329208374023, -1.272984504699707, 9.618657112121582, -4.040894031524658, -2.0457334518432617]
[17.403209686279297, -24.416242599487305, -21.675933837890625, -17.598556518554688, 4.383360862731934, -14.053316116333008, 36.524417877197266, -110.52574157714844, -19.056739807128906, -4.380693435668945, -3.310433864593506, 19.616275787353516, -5.870520114898682, 16.263656616210938, -41.861724853515625, 9.075766563415527, -5.573770523071289, 13.507654190063477, -2.9132561683654785, 2.106196403503418, -13.295487403869629, -17.461158752441406, 3.6207618713378906, 43.022613525390625, -73.5382080078125, -1.260500431060791, -16.405826568603516, -16.498939514160156]
[18.62376594543457, -102.77739715576172, 2.828153371810913, -37.23123550415039, 8.322112083435059, -1.6863311529159546, 14.535846710205078, -3.465045928955078, -19.47123908996582, -117.75265502929688, 17.220457077026367, -0.9544182419776917, 37.99774932861328, -32.3855094909668, -41.66269302368164, 12.736920356750488, -3.974273443222046, -14.76160717010498, -9.576457023620605, -77.14107513427734, -2.619873046875, -19.964712142944336, 0.6703040599822998, -3.4987215995788574, -14.1906156539917, 7.185490131378174, 15.113560676574707, 18.176530838012695]
[-17.57176971435547, -4.150696277618408, 15.706742286682129, -9.021489143371582, -0.145366370677948, 9.544425964355469, 110.26640319824219, -220.9342041015625, 24.198713302612305, -46.22577667236328, 4.15868616104126, -39.73471450805664, -1.9201576709747314, -3.2800939083099365, -15.674927711486816, 2.8464372158050537, 27.41499900817871, 4.463709831237793, -38.446434020996094, -22.126012802124023, -2.6007301807403564, -66.91749572753906, 3.1974968910217285, -40.935386657714844, -156.5723419189453, 22.616863250732422, 84.87653350830078, 34.71744155883789]
[3.7573561668395996, 7.225580215454102, -11.312861442565918, -9.987405776977539, 8.634085655212402, 4.086178779602051, 14.711698532104492, -10.220370292663574, 2.9201161861419678, 0.6899435520172119, -4.078437328338623, -10.880382537841797, 6.646331787109375, 19.395980834960938, -11.027331352233887, 13.262089729309082, 12.098867416381836, 13.796060562133789, 10.879892349243164, 4.562324047088623, -1.0381803512573242, 0.7524825930595398, -0.3545334041118622, 2.7986772060394287, -1.0056289434432983, 8.34428882598877, 2.2055182456970215, -16.025915145874023]
[6.10644006729126, -19.78325843811035, 19.828428268432617, -10.977989196777344, 1.7667350769042969, 6.05610990524292, 21.62528419494629, -11.824373245239258, -3.597968816757202, 2.9740028381347656, -4.787831783294678, -13.630924224853516, -6.4434895515441895, 16.798654556274414, 2.462095022201538, 6.905549049377441, -8.782793045043945, 17.332399368286133, 1.4090853929519653, -0.3691376745700836, -3.0387630462646484, -5.742541790008545, 0.7502447366714478, 21.23276710510254, 1.0754956007003784, 0.5045321583747864, 9.443264961242676, 2.56852388381958]
[18.38218116760254, 0.524511992931366, 5.197036266326904, 10.717117309570312, 1.2254809141159058, -0.18716472387313843, 0.020394837483763695, -17.792306900024414, 0.8906546831130981, 0.2759488523006439, -4.242197513580322, -11.630146026611328, -2.018197774887085, -15.873956680297852, 7.955989360809326, 5.029151439666748, -3.8303141593933105, -9.732231140136719, 3.6334095001220703, -5.445154666900635, -3.271672010421753, 8.262688636779785, 1.8922860622406006, 11.724970817565918, 0.013051693327724934, 0.07846666127443314, 5.882600784301758, 3.8978793621063232]
[-15.137343406677246, -4.289303779602051, 3.6798009872436523, -4.936290264129639, 0.3152669370174408, -2.2976155281066895, -18.163022994995117, 27.348299026489258, -26.528837203979492, -46.93104934692383, -1.4610176086425781, -7.546276569366455, -5.420158863067627, -1.374704122543335, 17.72720718383789, -0.020805180072784424, -16.81507110595703, 4.338556289672852, 22.902162551879883, 2.183053493499756, 24.990320205688477, 9.367436408996582, 1.8049535751342773, 5.80713415145874, 13.305024147033691, -12.180023193359375, -33.271121978759766, 63.175209045410156]
[-39.30546951293945, -6.109230995178223, -3.346669912338257, 12.217309951782227, -1.9785125255584717, -2.4142637252807617, -2.8751368522644043, 16.242494583129883, -8.884105682373047, 0.47723329067230225, -6.0047383308410645, 16.12799072265625, -6.404173374176025, 3.4113848209381104, 0.9366148114204407, 8.212861061096191, 4.968404769897461, 19.940044403076172, -3.6430857181549072, 3.867964267730713, -2.4502854347229004, 12.064555168151855, -0.4413291811943054, 15.599745750427246, 2.268362283706665, -0.4875012934207916, -0.28613635897636414, -7.1399006843566895]
[12.603631019592285, -4.452415943145752, 14.96547794342041, 22.356203079223633, 1.1643413305282593, 4.024758338928223, -1.3661891222000122, -22.398258209228516, 1.6971619129180908, 1.2166800498962402, -4.52044677734375, 0.46062105894088745, 11.451272010803223, -42.87349319458008, 3.735985279083252, -8.665277481079102, -5.136176109313965, -16.199880599975586, 13.824324607849121, -4.928673267364502, 0.13266852498054504, 9.651642799377441, 6.958835124969482, -4.461718559265137, 0.03431838005781174, -0.7410839796066284, 2.2635879516601562, 0.12602724134922028]
[-17.093469619750977, -0.7786930203437805, -6.352275371551514, 2.597975254058838, 8.057720184326172, 6.2871246337890625, -2.2365355491638184, -4.912729740142822, 19.36686134338379, -3.425104856491089, 3.360542058944702, 15.865006446838379, -5.683584690093994, -10.728424072265625, 11.616304397583008, -15.194205284118652, 0.13580773770809174, 2.772399425506592, -14.883329391479492, 5.627045154571533, -6.833035469055176, -13.360929489135742, 4.169271945953369, -11.844189643859863, -0.34171921014785767, -10.865169525146484, 9.949831008911133, 5.278253555297852]
[-10.118535041809082, -1.394051194190979, 10.35263729095459, 6.940664291381836, 1.2301247119903564, -5.9765777587890625, 3.918060779571533, 5.183252811431885, -3.3829212188720703, 0.2919299900531769, 7.860107421875, 24.638586044311523, 15.246596336364746, 30.844097137451172, 23.315046310424805, -41.87222671508789, 36.99109649658203, 13.847246170043945, 11.966412544250488, 3.7231192588806152, 34.74857711791992, 40.64537048339844, 6.071342945098877, -14.88906478881836, 0.9448997378349304, -1.721590518951416, -14.600576400756836, 25.336442947387695]
[-3.447997808456421, 6.0005340576171875, 1.7231333255767822, 8.934297561645508, -2.2678945064544678, -5.338824272155762, 6.713205814361572, 2.4294216632843018, 9.593277931213379, 2.0273423194885254, 21.090072631835938, 0.3266131579875946, 4.618888854980469, 17.327783584594727, -9.340112686157227, -13.414311408996582, 2.910956621170044, 3.6835100650787354, 1.8631563186645508, 11.387398719787598, 2.9485902786254883, -14.713513374328613, 3.956338405609131, 4.374238967895508, 0.4943365752696991, 10.358790397644043, -10.184576034545898, -2.8208892345428467]
[-15.280752182006836, 1.372277855873108, 2.8265914916992188, 1.8156147003173828, -0.4156647324562073, -3.4271345138549805, -3.169398546218872, -1.8447121381759644, 3.1669466495513916, 6.531667232513428, 4.225874900817871, 1.8132400512695312, -1.743628740310669, -1.9940204620361328, -0.37692978978157043, -7.281038761138916, 1.2411872148513794, -0.9970262050628662, 10.654402732849121, 11.531343460083008, -6.390725612640381, -11.786616325378418, 4.284886360168457, -11.67834758758545, 0.5459204316139221, -15.304965019226074, 2.7928459644317627, 8.14448070526123]
[3.157421112060547, 3.4717905521392822, 9.916906356811523, 6.828266620635986, 2.1596317291259766, -10.70559024810791, 48.775421142578125, 34.536067962646484, -15.250402450561523, 5.009871482849121, -17.26482391357422, -15.230277061462402, -9.870376586914062, 11.49156665802002, 0.8813737630844116, -2.1177010536193848, -3.3724117279052734, 78.47233581542969, 10.050653457641602, 17.482446670532227, -7.031864643096924, 35.453372955322266, 0.10193638503551483, 41.94325256347656, 0.6533553004264832, 14.819308280944824, -6.213375091552734, -4.879551410675049]
[-13.962363243103027, -1.4893978834152222, -4.9247145652771, -3.2397804260253906, 2.3418478965759277, 1.7563077211380005, 3.5614500045776367, -24.014219284057617, 4.890384674072266, -0.7172372341156006, 0.5661611557006836, 12.190949440002441, -3.166841745376587, -23.329700469970703, 7.1026506423950195, -3.9478812217712402, 0.9146454930305481, -10.73080062866211, -12.223974227905273, -10.269458770751953, 2.2867324352264404, -14.292941093444824, 6.106667995452881, 0.6597163081169128, -1.8330316543579102, -12.354860305786133, 1.8152728080749512, 2.7396912574768066]
[9.380571365356445, -0.9950312376022339, 10.492050170898438, -20.56991958618164, 11.091696739196777, -1.0265552997589111, -1.2900866270065308, -6.1259684562683105, -1.1883317232131958, -0.9253522753715515, 5.333311080932617, -10.265971183776855, 31.548500061035156, -113.07841491699219, -1.5227102041244507, -0.8111767172813416, 0.7592743039131165, -10.35097885131836, 2.9355573654174805, 0.6969478130340576, 0.9752191305160522, -2.703883409500122, 2.8531618118286133, 2.5231292247772217, -1.7684338092803955, -0.2250589281320572, 0.6049031615257263, 0.9676027297973633]
[1.2450850009918213, -4.987130165100098, -17.796979904174805, 15.153339385986328, -3.2089779376983643, -9.46309757232666, 11.742393493652344, 2.8737428188323975, -7.017163276672363, -1.7053030729293823, -3.493950128555298, 5.7398786544799805, -5.534341812133789, 4.920713424682617, 4.573747634887695, 2.2209198474884033, 0.5047941207885742, 15.134969711303711, 2.7905633449554443, 8.30947494506836, -4.214768409729004, 9.8081636428833, 1.2015568017959595, 2.6288678646087646, 0.34427958726882935, -7.458073616027832, 0.4762260913848877, 2.411219835281372]
[9.955719947814941, 7.127843856811523, 8.829638481140137, 7.644432067871094, -0.1774108111858368, 16.962072372436523, -0.046336736530065536, 19.958839416503906, -10.53848934173584, -6.148156642913818, 28.491470336914062, -10.668408393859863, 13.617594718933105, 16.53954315185547, -5.547347068786621, 12.142704963684082, 9.454462051391602, -14.556503295898438, -12.816527366638184, 6.077338695526123, -10.861266136169434, 34.94601821899414, 1.9959052801132202, 11.454327583312988, 0.45001110434532166, -24.59848403930664, 2.713728189468384, -1.0889809131622314]
[1.4540536403656006, 8.106317520141602, -11.6217041015625, -9.79827880859375, -5.192159175872803, 1.4591118097305298, 2.7233633995056152, -11.621806144714355, 22.756126403808594, 0.28109461069107056, 53.103816986083984, -5.319818019866943, 3.045342206954956, -3.829096794128418, 78.87992095947266, 28.71336555480957, 6.98800802230835, -6.264538764953613, 5.595943927764893, -0.4751037657260895, 2.2624590396881104, 14.054503440856934, 1.274872064590454, -49.71049880981445, -0.8846070170402527, 9.648009300231934, -1.4471523761749268, 2.090439796447754]
[-4.210021495819092, 2.7017416954040527, -4.910430431365967, 6.51910400390625, -2.9726109504699707, -5.946753025054932, 2.5821585655212402, -1.9052269458770752, -4.806946754455566, 1.6549944877624512, 8.220414161682129, -8.851405143737793, -3.2267072200775146, -0.023739613592624664, 2.2668583393096924, -0.03372873365879059, -0.6844872236251831, 0.9385548830032349, -22.20922088623047, 2.440640687942505, 14.050256729125977, 14.200233459472656, 3.527449369430542, -22.795719146728516, 1.3840374946594238, -11.049580574035645, -1.970007300376892, -8.436347961425781]
[13.343416213989258, 5.752140998840332, 10.642215728759766, -66.78913879394531, 0.37840962409973145, 14.533516883850098, -4.380954742431641, 0.77901291847229, 8.117664337158203, 3.512472629547119, 8.876327514648438, -8.562362670898438, 40.4814338684082, 1.785196304321289, -20.429061889648438, -26.5582275390625, 25.05559730529785, -16.50189971923828, -48.85304260253906, 3.3842780590057373, 5.295541286468506, 1.6515498161315918, 2.8168206214904785, -29.675336837768555, -0.6362224817276001, -4.675543785095215, -2.7667436599731445, -1.3627007007598877]
[-11.513961791992188, -6.528617858886719, 9.413104057312012, 2.4648730754852295, -2.752200126647949, -0.6074330806732178, -6.445240020751953, 8.72024154663086, -4.311572074890137, -2.3142459392547607, 7.654318332672119, 9.388233184814453, -2.8531763553619385, -10.07342529296875, 40.750465393066406, 3.959911823272705, 6.652495861053467, 12.468341827392578, 15.407188415527344, 1.777203917503357, 0.17468656599521637, 3.7000179290771484, -0.6035608053207397, 5.4495110511779785, 1.4615269899368286, 15.198643684387207, -0.8376370072364807, 11.395452499389648]

[10.31174373626709, -6.378627777099609, -3.9325108528137207, -14.63817024230957, -25.16429901123047, -7.280949592590332, 12.991947174072266, -0.46225300431251526, -4.612971305847168, -1.5510438680648804, -1.9256722927093506, -8.835037231445312, -18.249692916870117, 3.034386157989502, -5.516384124755859, -17.925067901611328, -16.53617286682129, 0.5244851112365723]
[1.0272084474563599, 7.3729071617126465, -169.0255584716797, 0.023818960413336754, 34.73155975341797, 9.2504243850708, -5.170495510101318, -13.924768447875977, -18.660146713256836, 0.27622267603874207, -0.5203952193260193, 0.6278807520866394, 63.26986312866211, 9.648807525634766, -12.092061996459961, 13.885454177856445, -30.875104904174805, 1.6623228788375854]
[11.979549407958984, 16.771453857421875, 1.8625167608261108, 14.254755973815918, 7.562660217285156, 0.6517912149429321, -1.2328236103057861, 10.81385612487793, 44.16640090942383, 0.7901061177253723, 0.36375993490219116, 16.604156494140625, 50.57475662231445, 48.74858474731445, 3.6266777515411377, -45.69514846801758, -47.26513671875, 0.20856499671936035]
[-2.856619358062744, -1.6938732862472534, -2.8206210136413574, -6.57433557510376, -4.039407730102539, 8.120109558105469, -4.342538833618164, -28.579172134399414, -15.531868934631348, -0.17726819217205048, 0.8940050005912781, 16.58578109741211, -10.583356857299805, -10.252351760864258, 1.4776387214660645, 11.08438777923584, 2.7466750144958496, 0.15253378450870514]
[0.7805165648460388, 7.731492519378662, 2.5530381202697754, -0.14790883660316467, 23.63355827331543, 1.1725937128067017, -2.354576587677002, -2.6677799224853516, -7.817525863647461, 0.8560891151428223, -0.8655052781105042, -29.40410804748535, 12.21196174621582, -2.7871789932250977, 12.821825981140137, 14.723352432250977, 1.3239450454711914, -0.5846448540687561]
[11.243111610412598, -7.8262939453125, -4.597934722900391, -12.415891647338867, -23.990747451782227, -9.409886360168457, 13.348780632019043, -3.7456653118133545, -5.2626543045043945, -4.508218288421631, -1.3029590845108032, -8.509461402893066, -18.742277145385742, 1.2137396335601807, -5.1156182289123535, -17.887083053588867, -17.330322265625, -0.2081691324710846]
[-1.0588172674179077, 4.985231399536133, 0.468832790851593, -1.171972632408142, -4.511083602905273, 3.424356698989868, -19.843454360961914, -4.339130401611328, -3.5469908714294434, 1.157488465309143, -6.200099468231201, 23.376493453979492, 8.19353199005127, -35.85052490234375, -3.5343568325042725, 18.827980041503906, -8.733466148376465, 2.0268332958221436]
[-5.309774398803711, -1.5127716064453125, 0.5519199371337891, 6.443678855895996, -21.757598876953125, 2.375732421875, 5.096182346343994, -0.8267632722854614, 26.66878318786621, -2.7840566635131836, -0.5583088994026184, -15.12320613861084, -0.7675704956054688, -6.900674819946289, 1.8250014781951904, 11.792821884155273, 6.352265357971191, -1.007825493812561]
[58.84894943237305, 3.29642915725708, 16.579294204711914, -6.220583915710449, -23.233448028564453, -57.904945373535156, -29.796613693237305, -17.511634826660156, -32.40901184082031, -9.901857376098633, 51.219058990478516, 12.041610717773438, -5.1008992195129395, 4.191532135009766, -10.597054481506348, 21.069683074951172, -8.61010456085205, -2.2089860439300537]
[11.732582092285156, -21.449039459228516, -6.185589790344238, -10.690759658813477, 2.235708236694336, 1.1681427955627441, 18.909780502319336, 3.977789878845215, 4.801266193389893, -11.61217975616455, -4.422624588012695, -2.2519607543945312, -0.6058899164199829, 4.703017234802246, 9.044804573059082, -2.062983751296997, -20.328908920288086, -1.3602367639541626]
[7.0482001304626465, 6.767556667327881, -1.9309842586517334, 15.8692626953125, 30.93540382385254, -1.2390722036361694, -6.975207805633545, 1.2483280897140503, 24.44655418395996, -0.9735760688781738, -0.9977996945381165, 27.945335388183594, 9.722156524658203, 0.3738853931427002, 2.933488368988037, -74.66920471191406, -0.38457897305488586, -1.4184958934783936]
[1.829920768737793, -18.903589248657227, 0.3803761601448059, -2.9936513900756836, 3.7138099670410156, -2.35996150970459, -12.146286964416504, 2.7085940837860107, -0.6113250851631165, 0.28798389434814453, 0.6744053363800049, 12.082239151000977, 6.773874282836914, 25.087339401245117, -0.9752865433692932, 9.454476356506348, 3.954977512359619, 0.8688175678253174]
[-2.724970579147339, -6.648655414581299, 1.1574147939682007, -1.5708701610565186, 18.869333267211914, -2.9363250732421875, 6.990292549133301, 0.019826220348477364, -20.0360050201416, -0.8264103531837463, 0.6428987979888916, -8.971551895141602, -12.214322090148926, 0.6013238430023193, -3.153909683227539, -8.302112579345703, -1.0942453145980835, -0.9747403860092163]
[-1.4367085695266724, -4.481863021850586, -5.443501949310303, 19.286808013916016, 33.79050827026367, 7.4169745445251465, 12.127143859863281, 6.515815258026123, 16.796079635620117, 1.345168948173523, -1.8210804462432861, 61.8494873046875, 55.83304214477539, 54.4190559387207, -1.136817455291748, -49.231510162353516, 45.15475082397461, -0.26626893877983093]
[3.266645908355713, 19.87999153137207, 105.93024444580078, -1.9084092378616333, 16.321218490600586, 9.122187614440918, -8.179091453552246, 37.434852600097656, 11.618165016174316, 3.533390998840332, 9.208518981933594, -18.87261962890625, -6.26528787612915, -21.72641944885254, -2.171968698501587, 30.09323501586914, -0.0020673766266554594, -12.61740493774414]
[3.0333502292633057, -2.5088789463043213, 4.930285453796387, -5.3078765869140625, -34.59880065917969, -12.577587127685547, 8.06574535369873, 2.1527085304260254, -5.253720283508301, -9.493066787719727, 7.530095100402832, 4.013661861419678, 1.9003833532333374, 15.330001831054688, -4.245367050170898, -10.541399002075195, -2.9842417240142822, -2.0162103176116943]
[-0.3729532063007355, 18.873584747314453, -5.029072284698486, 45.299869537353516, 38.04645919799805, 0.7181321978569031, -15.005168914794922, -0.062486641108989716, 23.551105499267578, -6.5986433029174805, -2.0982606410980225, 12.282767295837402, 10.946335792541504, -35.32036209106445, -3.723071575164795, -26.634418487548828, -24.608455657958984, 17.16015625]
[-10.804558753967285, 7.064220428466797, 5.5253520011901855, 9.43629264831543, 20.298519134521484, -0.629942774772644, 22.62359046936035, 1.7560734748840332, 11.201088905334473, -3.3954052925109863, 1.1248745918273926, 21.809337615966797, 42.90076446533203, 3.2913918495178223, -1.7154362201690674, 25.444108963012695, 10.86072826385498, -4.738246440887451]
[-1.667428970336914, 7.114080429077148, 5.6419548988342285, 18.111083984375, -4.995429515838623, -0.6348399519920349, 1.6000347137451172, 2.017035961151123, 1.8765623569488525, -3.9659512042999268, -0.022550854831933975, -15.702048301696777, 3.6948766708374023, -29.325098037719727, 2.7138664722442627, 6.000253677368164, 0.362229585647583, 1.3269696235656738]
[112.797119140625, -1.0172237157821655, -15.040804862976074, -0.7351948022842407, -2.41648530960083, 19.49931526184082, 7.354424953460693, 8.421049118041992, -3.1185073852539062, -5.845114231109619, -9.038870811462402, 23.270414352416992, 42.69765090942383, -5.066222190856934, 9.898706436157227, 8.352967262268066, 27.837383270263672, 26.204030990600586]
[8.775498390197754, -12.125089645385742, -0.654582142829895, -7.537785053253174, -19.178647994995117, 6.616244792938232, -1.2568765878677368, 4.146110534667969, 3.3457577228546143, -0.7622123956680298, -0.9378496408462524, 3.8920607566833496, 4.296478271484375, -4.314806938171387, 5.993164539337158, 9.048928260803223, 4.47763204574585, -4.46085262298584]
[13.389235496520996, 9.3275728225708, -0.08891252428293228, 8.16232681274414, -2.480598211288452, 8.205085754394531, 3.5088839530944824, -1.001298427581787, 0.5432329177856445, -12.32177734375, 3.1684458255767822, -9.06399917602539, 48.28157424926758, 17.726333618164062, -3.8112339973449707, 10.947258949279785, -19.514856338500977, 1.4647847414016724]
[6.212413787841797, -1.7741527557373047, 2.1857173442840576, 16.821985244750977, -3.4250779151916504, -0.6980692148208618, -14.37078857421875, -23.15294075012207, 8.504035949707031, -10.862685203552246, -4.127806186676025, 22.697267532348633, -27.869998931884766, 11.554738998413086, 3.3273696899414062, -10.759851455688477, -12.5908842086792, -10.589174270629883]
[7.550289154052734, -8.487234115600586, 1.3033400774002075, -15.115898132324219, -26.785400390625, -5.902727127075195, 12.186637878417969, 1.7856682538986206, -7.069182395935059, 1.5290619134902954, -1.1460354328155518, -7.1318769454956055, -22.196626663208008, 1.0365533828735352, -6.014298439025879, -19.913848876953125, -11.76350212097168, 7.134548187255859]
[3.2247872352600098, 13.394481658935547, 1.4294090270996094, 5.925146579742432, 44.14018630981445, -3.8603732585906982, -4.8651628494262695, -8.672033309936523, -0.5525259375572205, -6.0612053871154785, -4.031408786773682, -3.377716541290283, 14.379217147827148, -37.902103424072266, 9.137028694152832, -1.6620005369186401, 33.198707580566406, 1.216041088104248]
[-11.225064277648926, 2.6821999549865723, 2.430163860321045, -3.7743871212005615, -17.25606346130371, 8.336844444274902, -1.9372543096542358, 0.8346706628799438, -4.758426189422607, 3.2503530979156494, 4.052820205688477, -4.132148742675781, -9.474875450134277, -7.243947505950928, -9.114163398742676, 0.39623352885246277, 13.754216194152832, -3.088883876800537]
[-54.490692138671875, -0.45672208070755005, 5.441046714782715, -34.16492462158203, 3.604586124420166, 12.969444274902344, -4.243465423583984, -235.23135375976562, 1.2978719472885132, 0.7929372787475586, -7.486143589019775, 16.269468307495117, 11.209089279174805, 16.44704818725586, 18.11925506591797, 16.674821853637695, 4.928021430969238, -14.98847484588623]
[-16.62893295288086, 6.365837574005127, -0.5132306218147278, -0.6874520182609558, 9.845751762390137, 2.0879478454589844, 0.047719381749629974, 1.81056547164917, 9.569475173950195, -1.125259518623352, -1.1946280002593994, 1.3479509353637695, 0.8176273703575134, -14.980292320251465, -8.086487770080566, -0.5080345273017883, 7.376417636871338, 1.1305193901062012]
[5.20686149597168, 2.652780771255493, -4.3044209480285645, -3.1231167316436768, -17.630462646484375, -7.710083484649658, 13.548046112060547, -1.233498215675354, -13.317172050476074, -2.8090004920959473, 5.59583854675293, -13.158588409423828, -16.223346710205078, 5.364616870880127, 0.21497035026550293, -13.784382820129395, -1.4097492694854736, -0.281608521938324]

[18.332548141479492, -0.2359083592891693, 1.5564205646514893, 1.6623951196670532, 5.24383020401001, -9.887347221374512, -1.7202008962631226, 3.1840555667877197]
[0.2769794762134552, -0.3223952353000641, 0.42537689208984375, -2.250231981277466, -2.0410213470458984, -11.233755111694336, 0.851698637008667, 0.4824845790863037]
[-1.6492834091186523, 24.98775291442871, 10.876500129699707, -0.15443821251392365, -5.026863098144531, -103.21942138671875, -4.5430378913879395, 81.94670867919922]
[7.883316516876221, -1.4884405136108398, -1.7000579833984375, 8.983585357666016, -0.8555941581726074, -28.57652473449707, 1.175831913948059, -2.7646210193634033]
[13.16620922088623, -24.731781005859375, -1.7419227361679077, -5.904694080352783, 3.43015718460083, -12.784869194030762, -0.42492520809173584, 0.6550814509391785]
[0.8054865002632141, 68.2815933227539, 71.92293548583984, 0.9207411408424377, -12.678750991821289, -2.694946765899658, 7.757618427276611, 0.019092481583356857]
[-15.691163063049316, -63.24016571044922, 8.88027286529541, -2.445354461669922, -15.849546432495117, 5.856051921844482, 14.884663581848145, 19.514514923095703]
[7.8369317054748535, 4.869477272033691, 3.5319581031799316, 5.366968631744385, 6.850759506225586, -1.0337990522384644, 0.8516364693641663, 3.445561647415161]
[28.976680755615234, 29.65684700012207, -0.5072031617164612, -1.8949288129806519, 1.3440455198287964, -3.06510066986084, -1.2127208709716797, 2.053039312362671]
[17.18731689453125, 1.6203172206878662, -0.6397476196289062, 0.813118577003479, -0.6555909514427185, 38.94153594970703, 1.9188404083251953, 9.052597999572754]
[-0.7923390865325928, -10.051961898803711, -2.329347610473633, -6.847853183746338, 6.845334529876709, -0.11851847171783447, 5.410312652587891, 1.9276427030563354]
[1.0335153341293335, -3.9747698307037354, -1.9252476692199707, -4.132292747497559, 22.18964195251465, -16.85964012145996, -4.958664894104004, -1.4667638540267944]
[-19.87918472290039, 1.4614994525909424, 0.8417155146598816, 24.252901077270508, -3.695189952850342, 29.643903732299805, 7.208048343658447, -5.375567436218262]
[-32.28913116455078, -24.194122314453125, -1.5850931406021118, -0.5578384399414062, -6.653663635253906, -204.3784637451172, -0.26686787605285645, -0.7498838901519775]
[21.85706329345703, 16.760757446289062, -2.9922170639038086, 3.1834094524383545, -1.0808522701263428, 17.731969833374023, 1.7826157808303833, -12.452999114990234]
[3.0294172763824463, -0.44857439398765564, -4.702078342437744, -3.374912977218628, -2.677414894104004, -11.941296577453613, 1.4132651090621948, -0.7169588208198547]
[-10.383051872253418, -15.808160781860352, -106.42871856689453, 28.189882278442383, 1.5233746767044067, -55.96490478515625, -164.60076904296875, -7.867745399475098]
[-27.6127872467041, -15.557439804077148, 4.851305961608887, -3.959831953048706, 22.424684524536133, -62.0457763671875, -4.685747146606445, 41.95121765136719]
[-4.726499080657959, -4.683133602142334, 1.754040241241455, -1.7809442281723022, 4.866799354553223, -15.29531478881836, 1.162950038909912, -1.192634105682373]

[-3.7276742458343506, -4.386573314666748, -4.558218479156494]
[0.10874832421541214, 2.8610832691192627, 1.4100000858306885]
[-0.5283938646316528, 1.6729730367660522, 2.010096311569214]
[-2.1788203716278076, -0.6216937899589539, 4.102224349975586]
[1.8339871168136597, -0.15837542712688446, -39.341407775878906]
[5.814018726348877, -0.28242698311805725, 0.04834078252315521]
[-0.8819290995597839, 0.030275702476501465, -19.29166030883789]
[-4.842784881591797, 0.3145199716091156, 1.7479878664016724]
[-1.3697606325149536, -3.5486247539520264, -3.6712534427642822]

[-1.6254841089248657, 4.441147804260254, -2.3664305210113525, 41.89162826538086, -13.930807113647461, 82.06865692138672, -12.511763572692871, 8.36129379272461]
[-65.86780548095703, -6.793887615203857, 0.4264737665653229, -0.7435334324836731, 5.144760608673096, -2.2512764930725098, -1.9090474843978882, -2.3182661533355713]
[2.3381247520446777, 72.84966278076172, -3.3560495376586914, -21.76730728149414, -5.458755970001221, 9.058419227600098, 0.7022743225097656, 16.196701049804688]