[-0.03344285115599632, 0.0, -0.03175312280654907, 0.0, 0.0, 0.006739483680576086, -0.04717402160167694, -0.03231967240571976, 0.02975315973162651, 0.0, 0.0006659687496721745, 0.036425016820430756, -0.019199935719370842, 0.030034320428967476, -0.021113066002726555, 0.030869489535689354, 0.0037035425193607807, 0.009712851606309414, 0.0710136890411377, -0.07699918746948242, 0.0, 0.0, 0.0, 0.0, 0.007447739597409964, -0.10610036551952362, -0.036454830318689346, 0.0660235658288002, 0.06404436379671097, -0.0003813095681834966, 0.0, 0.06889177858829498, -0.04300199821591377, 7.878327896499182e-30, 0.0, -0.03760361671447754, 0.0232408344745636, 0.002965862164273858]
[-0.23473672568798065, 0.10211160778999329, 0.11055762320756912, -0.02286091446876526, 0.020942330360412598, -0.07467226684093475, 0.09834569692611694, 0.018312426283955574, 0.19400662183761597, 0.12196987867355347, -0.09317460656166077, -0.14645862579345703, 0.18028651177883148, -0.1969878226518631, 0.06536520272493362, 0.00851509626954794, 0.045696381479501724, 0.20372538268566132, 0.18237051367759705, 0.0030867350287735462, -0.045821309089660645, -0.16500651836395264, -0.12763509154319763, -0.13447774946689606, -0.12096560001373291, -0.4218026399612427, 0.1495002657175064, 0.20000144839286804, 0.07274768501520157, -0.13439202308654785, 0.048880934715270996, 0.16096574068069458, 0.035899240523576736, 0.04497554898262024, -0.16963592171669006, -0.04918864369392395, 0.1567477136850357, -0.17150817811489105]
[-0.036179184913635254, -0.027791261672973633, -0.20712649822235107, 0.13262727856636047, 0.1960994303226471, -0.10512565076351166, -0.1430986076593399, -0.20607776939868927, -0.23648084700107574, 0.11426877975463867, -0.17341774702072144, 0.23794099688529968, 0.019709140062332153, -0.10120213031768799, -0.07315053045749664, 0.07306405901908875, 0.12532839179039001, -0.21143460273742676, -0.051666632294654846, 0.08022290468215942, -0.0604788213968277, 0.061407119035720825, -0.1929011344909668, 0.12757891416549683, -0.2147921621799469, 0.004847168922424316, 0.036435991525650024, -0.250823050737381, 0.12712562084197998, -0.0643521398305893, 0.06613796949386597, -0.19662430882453918, 0.13105159997940063, -0.2627745270729065, 0.06425842642784119, -0.24770697951316833, -0.21636426448822021, 0.2316722273826599]
[0.057789865881204605, -0.010816723108291626, 0.18426933884620667, 0.10185045003890991, -0.004167288541793823, -0.08729615807533264, -0.1369703859090805, -0.0006304687121883035, -0.05296230688691139, -0.17740139365196228, 0.15210884809494019, 0.052768271416425705, -0.036986999213695526, -0.17189215123653412, -0.05800110474228859, 0.08419569581747055, 0.13156715035438538, -0.0931578055024147, -0.055937509983778, -0.24006535112857819, -0.08341731131076813, -0.14070147275924683, 0.2101978361606598, -0.19352640211582184, 0.24519342184066772, -0.25077441334724426, 0.2398315966129303, 0.19119301438331604, 0.1242828369140625, -0.11241600662469864, -0.21430277824401855, 0.19725880026817322, 0.2488977611064911, 0.006842583417892456, 0.005133956670761108, -0.16996504366397858, -0.13149036467075348, 0.042955800890922546]
[0.0020005106925964355, -0.13568484783172607, 0.1922721266746521, 0.020177602767944336, -0.056863874197006226, -0.19881683588027954, -0.13316760957241058, -0.04959923028945923, 0.13848835229873657, -0.23415645956993103, -0.14852634072303772, 0.032265692949295044, -0.23944047093391418, 0.10396841168403625, -0.12764190137386322, -0.049099400639534, -0.2256990671157837, -0.018821895122528076, -0.2556813359260559, -0.24476152658462524, -0.06834115087985992, 0.14957764744758606, 0.2545836865901947, 0.20010966062545776, 0.0007951259613037109, -0.220742329955101, -0.06043265759944916, -0.17299512028694153, -0.026766657829284668, -0.042798519134521484, -0.05493432283401489, -0.1380351185798645, -0.13544510304927826, -0.15198680758476257, 0.017751187086105347, -0.21947866678237915, -0.015724360942840576, -0.2599808871746063]
[0.10892534255981445, -0.20638559758663177, -0.09645894169807434, -0.1593770682811737, -0.0003940463066101074, -0.0847063958644867, -0.10478048026561737, -0.16687503457069397, -0.07890333235263824, -0.14312228560447693, -0.13690787553787231, 0.1664614975452423, 0.005634278059005737, 0.2163865566253662, 0.19257459044456482, -0.07011502981185913, -0.15625253319740295, 0.1562366485595703, 0.1184990406036377, 0.10907807946205139, -0.011080145835876465, 0.024843841791152954, 0.10095956921577454, 0.09018823504447937, 0.16422191262245178, 0.09940299391746521, -0.033885642886161804, -0.13663853704929352, -0.2550434172153473, -0.014758393168449402, -0.13340075314044952, 0.058786749839782715, 0.19243493676185608, 0.2425079643726349, -0.20911315083503723, -0.25614994764328003, 0.2633282244205475, 0.23511973023414612]
[0.06785019487142563, -0.17699047923088074, 0.22672012448310852, 0.13059523701667786, 0.24721691012382507, -0.2437833547592163, 0.015284883789718151, 0.20441031455993652, -0.15094956755638123, 0.019396156072616577, 0.062067050486803055, 0.018268747255206108, -0.08664185553789139, 0.22031956911087036, 0.005129451397806406, 0.13220302760601044, 0.24669316411018372, -0.008745552971959114, -0.008044106885790825, 0.08602412790060043, -0.18333342671394348, -0.25537049770355225, -0.09796227514743805, -0.1372663974761963, -0.06356657296419144, 0.05231170728802681, -0.10175136476755142, -0.12124460935592651, -0.15741300582885742, -0.008440529927611351, 0.005736678838729858, 0.19896386563777924, -0.0854191780090332, -0.17561763525009155, 0.0870186984539032, -0.08926694840192795, -0.004264978226274252, 0.04292130097746849]
[-0.1276717185974121, 0.1464253067970276, -0.13955017924308777, 0.07413697242736816, -0.06147602200508118, -0.17654621601104736, 0.20243652164936066, 0.16844506561756134, 0.14422249794006348, 0.19313696026802063, -0.08510393649339676, -0.21704718470573425, 0.1508355438709259, -0.149945467710495, -0.2187017798423767, 0.11860086768865585, -0.19773578643798828, 0.19300755858421326, 0.12290395796298981, -0.1597795933485031, -0.03383678197860718, 0.06583142280578613, 0.20222383737564087, 0.15323925018310547, 0.005457982886582613, 0.08968791365623474, 0.2008756548166275, -0.12849432229995728, -0.14836688339710236, 0.09605736285448074, -0.05024787783622742, 0.12109104543924332, -0.09278135746717453, 0.08718526363372803, 0.01711893081665039, 0.0163703765720129, -0.0732836052775383, 0.24355551600456238]
[0.20887145400047302, 0.19442793726921082, 0.2609216272830963, 0.2518232762813568, 0.03616175055503845, 0.025356978178024292, 0.0238649845123291, 0.20524689555168152, -0.18922780454158783, -0.18981119990348816, 0.06372743844985962, 0.0049377381801605225, -0.2560228705406189, -0.19105923175811768, -0.053982213139534, 0.08671441674232483, -0.24021998047828674, -0.1899523288011551, -0.2472582310438156, 0.24845007061958313, 0.2136729657649994, -0.2540871500968933, -0.20444464683532715, 0.15585768222808838, 0.17015299201011658, -0.2337016463279724, -0.18449386954307556, -0.13131584227085114, 0.04183205962181091, 0.1931610107421875, -0.17572349309921265, 0.11177974939346313, -0.12716184556484222, -0.1677985042333603, 0.22278428077697754, 0.16097834706306458, 0.2036389410495758, -0.234739288687706]
[-0.09560561925172806, -0.0016196370124816895, 0.11716598272323608, 0.23928192257881165, 0.19178012013435364, 0.1503051370382309, -0.19064536690711975, -0.0002489547186996788, 0.026893317699432373, 0.10772901773452759, -0.08293668925762177, -0.16541025042533875, 0.24799320101737976, -0.0999184176325798, -0.16857683658599854, 0.31509336829185486, -0.045315682888031006, -0.12090447545051575, -0.11284036934375763, -0.07975063472986221, 0.09714189171791077, 0.06052333116531372, -0.09515082836151123, 0.26095834374427795, 0.17197787761688232, 0.39387011528015137, 0.2499641329050064, -0.130926713347435, -0.24410584568977356, 0.1472981721162796, -0.0033663809299468994, -0.2747679650783539, 0.0043357438407838345, 0.17023292183876038, 0.002776235342025757, -0.18533805012702942, 0.018455833196640015, -0.1585928499698639]
[-0.18038184940814972, 0.19330957531929016, -0.2184079885482788, 0.04625582695007324, -0.08139599859714508, 0.21676771342754364, -0.09967844933271408, -0.18623584508895874, -0.04536571353673935, -0.13102754950523376, 0.040520116686820984, -0.16072355210781097, -0.1949099451303482, -0.15257948637008667, -0.25186923146247864, -0.256500244140625, 0.13142992556095123, 0.21081945300102234, 0.2786974608898163, -0.1533202826976776, -0.2150340974330902, -0.1755978763103485, 0.11102324724197388, -0.24648621678352356, 0.16870234906673431, -0.2025265246629715, -0.2340175211429596, 0.2626512944698334, -0.04570412263274193, 0.04484543949365616, 0.25919046998023987, -0.017799435183405876, -0.01368201244622469, -0.16481570899486542, 0.22458064556121826, 0.12427622079849243, -0.13691698014736176, -0.14831280708312988]
[0.1356433779001236, -0.153795063495636, -0.1829012632369995, 0.1306144893169403, -0.009945660829544067, -0.14472654461860657, 0.05487727001309395, -0.0707361176609993, 0.18040074408054352, -0.11723563075065613, 0.007522018160670996, -0.15480192005634308, -0.1768260896205902, 0.03343059867620468, 0.22857965528964996, -0.017374565824866295, 0.04933949559926987, 0.13431090116500854, 0.07882185280323029, 0.12084759026765823, -0.25799667835235596, 0.07135286927223206, 0.17533418536186218, -0.22795110940933228, -0.07108888030052185, -0.2156144082546234, -0.12306147068738937, -0.10018890351057053, -0.08697175979614258, -0.2154281586408615, -0.039291903376579285, 0.29612717032432556, 0.0003817299730144441, -0.05558554828166962, -0.16776549816131592, 0.12117703258991241, -0.10636628419160843, 0.09769315272569656]
[-0.14823463559150696, 0.017359942197799683, 0.23204649984836578, 0.05305013060569763, -0.07634896039962769, 0.20850270986557007, 0.16922339797019958, 0.02576829120516777, -0.19147637486457825, 0.020833998918533325, 0.20592550933361053, 0.2948850095272064, -0.04513394832611084, 0.2837648093700409, -0.10838767886161804, -0.07946830242872238, -0.02935321442782879, -0.12152312695980072, -0.08096826821565628, -0.2220636010169983, -0.07119226455688477, 0.00977247953414917, 0.20027434825897217, -0.1537565290927887, 0.0038099519442766905, -0.22315487265586853, -0.2722213864326477, 0.2023860365152359, -0.17021574079990387, -0.07487038522958755, 0.19005107879638672, -0.0028423217590898275, 0.19069094955921173, 0.1547306776046753, 0.24391737580299377, -0.01892988756299019, 0.14006944000720978, 0.22157230973243713]
[0.015698064118623734, 0.2568926513195038, -0.09885331243276596, -0.17826981842517853, -0.12557223439216614, 0.25535210967063904, -0.014129502698779106, 0.12054845690727234, 0.15874117612838745, -0.0920867919921875, -0.025185905396938324, 0.2781792879104614, 0.15588966012001038, 0.1846766471862793, -0.26804423332214355, -0.09938862174749374, -0.07180187106132507, 0.15806712210178375, 0.048362962901592255, -0.22944249212741852, 0.09260746836662292, 0.16387802362442017, -0.0941411554813385, -0.25467318296432495, 0.0788964256644249, -0.10383578389883041, -0.10190025717020035, 0.23823855817317963, 0.1789177805185318, 0.16741426289081573, 0.04245114326477051, 0.30046114325523376, -0.05575208365917206, 0.09757944941520691, 0.06857049465179443, 0.03989703208208084, -0.19662290811538696, 0.013010098598897457]
[-0.03160446509718895, -0.24967361986637115, 0.23244690895080566, 0.2265625298023224, 0.2468838393688202, 0.20513804256916046, -0.03710655868053436, -0.25848567485809326, 0.17542265355587006, -0.11623017489910126, 0.11363374441862106, 0.2036384642124176, -0.18474715948104858, -0.045461252331733704, -0.21809643507003784, 0.12763486802577972, 0.12179214507341385, -0.10730497539043427, 0.02809240110218525, -0.32279545068740845, 0.16873356699943542, -0.21703267097473145, 0.2102191150188446, -0.10545626282691956, -0.010334734804928303, 0.05153081566095352, 0.21049700677394867, 0.18490086495876312, 0.2586126923561096, 0.1491769403219223, -0.18338236212730408, 0.33723872900009155, -0.01687089540064335, -0.0348295122385025, 0.01817074418067932, -0.03310016915202141, 0.058351218700408936, 0.12508995831012726]
[-0.1852549910545349, -0.18427956104278564, -0.10004016757011414, -0.23131704330444336, -0.05648419260978699, 0.2427591234445572, 0.07276467978954315, -0.023524560034275055, -0.2118009477853775, 0.14546966552734375, -0.11867020279169083, 0.20223189890384674, 0.0748048946261406, -0.045272085815668106, -0.037052854895591736, -0.03475353121757507, 0.014211300760507584, -0.037825807929039, -0.16892075538635254, -0.13787761330604553, -0.1584661602973938, 0.08016636967658997, 0.1719856858253479, -0.026626035571098328, -0.03768093138933182, 0.03854092210531235, 0.040958862751722336, -0.2049095332622528, -0.037756551057100296, 0.14695268869400024, 0.06697320938110352, 0.0694117397069931, 0.2102528214454651, -0.022244378924369812, -0.06795568764209747, -0.1798328459262848, 0.2343032956123352, -0.12105176597833633]
[-0.040623705834150314, -0.08233463764190674, -0.09782376140356064, -0.24626019597053528, 0.09090733528137207, -0.15219026803970337, -0.32698312401771545, -0.2404656857252121, 0.006081074010580778, -0.0010167360305786133, -0.22047030925750732, 0.287467360496521, 0.015106777660548687, 0.23172950744628906, -0.044671300798654556, 0.07363295555114746, 0.25702011585235596, -0.20156919956207275, 0.31813448667526245, -0.33750778436660767, -0.05914752185344696, 0.1313033103942871, 0.20731806755065918, 0.04760029911994934, -0.07904217392206192, -0.377605140209198, -0.0865238830447197, 0.3479883372783661, 0.12754133343696594, 0.003545198356732726, 0.014402836561203003, 0.062262315303087234, 0.04651473090052605, -0.1813725233078003, -0.1953963041305542, 0.24792665243148804, -0.04865448176860809, 0.1435503512620926]
[-0.05579541251063347, 0.03198966383934021, -0.05622386932373047, -0.22262974083423615, -0.03599435091018677, 0.12919464707374573, -0.30099907517433167, 0.0011512087658047676, -0.17040084302425385, -0.015631094574928284, 0.22089436650276184, 0.27217456698417664, -0.14020729064941406, 0.0964142382144928, 0.006429134402424097, -0.1582968384027481, 0.20702876150608063, 0.01183266844600439, -0.03487785905599594, -0.016871824860572815, -0.02252480387687683, -0.2114604115486145, 0.0016181468963623047, 0.02039077877998352, -0.15500235557556152, -0.21307124197483063, 0.0940370187163353, -0.04705517739057541, 0.117987260222435, -0.052872441709041595, 0.041332781314849854, 0.21465431153774261, -0.061120472848415375, 0.2250574827194214, -0.1689627766609192, 0.18528126180171967, 0.14947327971458435, 0.21674446761608124]
[-0.16060446202754974, 0.16793647408485413, -0.12323388457298279, 0.03493618965148926, 0.21387574076652527, -0.23199521005153656, 0.1889989823102951, 0.07517589628696442, 0.23987501859664917, 0.047487884759902954, 0.034898076206445694, 0.11691492050886154, 0.06058886647224426, 0.12068457901477814, -0.07609422504901886, 0.21581491827964783, 0.05270087718963623, -0.14565521478652954, -0.22346562147140503, 0.10715752094984055, -0.012141585350036621, 0.16682320833206177, -0.11198008060455322, -0.12211504578590393, -0.0130375437438488, 0.22242584824562073, -0.06659150123596191, 0.27597716450691223, 0.06420011073350906, -0.2641530930995941, 0.17250096797943115, 0.26885780692100525, 0.11529805511236191, -0.1383363902568817, -0.08060818910598755, -0.14044681191444397, 0.07608205825090408, 0.1638154834508896]
[-0.20543688535690308, -0.01764136552810669, -0.18879163265228271, 0.16795727610588074, 0.002128094434738159, 0.2733490467071533, -0.06952978670597076, -0.12331818044185638, 0.16400708258152008, -0.16997408866882324, 0.085905522108078, -0.09682489186525345, 0.12431354075670242, 0.047028567641973495, -0.1804681271314621, 0.25696098804473877, 0.05576850473880768, 0.20650339126586914, 0.2853439748287201, -0.20246882736682892, 0.11502233147621155, 0.13544321060180664, 0.12343809008598328, 0.18737104535102844, -0.12031912803649902, 0.04791952669620514, -0.11583157628774643, -0.2059129923582077, -0.16142907738685608, -0.2168523073196411, 0.1572812795639038, -0.0910753458738327, -0.0060257697477936745, -0.1362788826227188, -0.19184610247612, 0.15164333581924438, -0.0416443757712841, -0.008231141604483128]
[-0.20829083025455475, 0.2534730136394501, 0.17005303502082825, 0.048953622579574585, -0.18580065667629242, -0.21322502195835114, -0.07363103330135345, -0.145615816116333, -0.1148463636636734, -0.09239725768566132, -0.1762523055076599, 0.08168786764144897, 0.05656732991337776, 0.19317270815372467, -0.07953383028507233, -0.24202300608158112, -0.017814647406339645, -0.09425235539674759, 0.3756270706653595, -0.00672400277107954, -0.15760445594787598, 0.03661295771598816, -0.18865612149238586, 0.03883036971092224, -0.004644842818379402, -0.4749737083911896, -0.00230013788677752, 0.38921937346458435, -0.07816201448440552, 0.22582635283470154, 0.13084542751312256, 0.08552809804677963, 0.18638956546783447, 0.12782302498817444, -0.245648592710495, -0.20641115307807922, 0.280752032995224, -0.21809320151805878]
[-0.09743794798851013, 0.01948106288909912, 0.07487647235393524, 0.25129464268684387, 0.12994098663330078, 0.047117799520492554, 0.11674244701862335, -0.26126450300216675, -0.09326037019491196, 0.034992605447769165, 0.22477015852928162, 0.2912542223930359, 0.10966881364583969, -0.10725253075361252, -0.24758459627628326, -0.07826167345046997, 0.21035219728946686, 0.14779429137706757, -0.03838777169585228, 0.03497591242194176, -0.12371611595153809, -0.1394783854484558, 0.24702760577201843, 0.12662440538406372, 0.22094857692718506, -0.3239721953868866, -0.09348954260349274, 0.15099380910396576, 0.07388603687286377, -0.13624338805675507, 0.16971620917320251, 0.16322584450244904, 0.059966761618852615, 0.01855608820915222, 0.06312087178230286, -0.20913733541965485, -0.021910326555371284, -0.04480421915650368]
[-0.007263049948960543, -0.23641863465309143, -0.2641339898109436, 0.25627651810646057, -0.2595042288303375, -0.041997019201517105, -0.045065250247716904, 0.2732885181903839, -0.07556014508008957, 0.06159946322441101, 0.22646258771419525, 0.14204098284244537, -0.3162826597690582, -0.07948867976665497, 0.10700303316116333, -0.18680547177791595, -0.09762351214885712, 0.15552759170532227, -0.16161397099494934, 0.13587640225887299, -0.2591232359409332, -0.15982098877429962, 0.22675824165344238, 0.03358733654022217, -0.07490448653697968, -0.3174024522304535, -0.1267670840024948, 0.06137162074446678, -0.09296437352895737, -0.031097350642085075, 0.14157336950302124, -0.15937137603759766, 0.0107565401121974, -0.1110382229089737, -0.23069560527801514, 0.14749294519424438, 0.22760891914367676, 0.0668969601392746]
[-0.08039648085832596, -0.1467083841562271, -0.23793989419937134, 0.23774299025535583, 0.1435970664024353, -0.10926246643066406, -0.1569589078426361, 0.13568466901779175, 0.24386177957057953, -0.052059903740882874, -0.23102933168411255, 0.008442399092018604, 0.003504981519654393, -0.11827421933412552, -0.020570458844304085, 0.04756053164601326, -0.050341442227363586, 0.18106073141098022, -0.02016887255012989, 0.1563851237297058, -0.057049646973609924, 0.14306390285491943, 0.21474453806877136, -0.08204111456871033, 0.22957713901996613, 0.1736784130334854, 0.21931849420070648, 0.19510085880756378, 0.20830532908439636, 0.08922149986028671, 0.21844348311424255, -0.14235283434391022, 0.02318767085671425, 0.18041321635246277, 0.07386264204978943, -0.1045379713177681, 0.16207070648670197, 0.10913893580436707]
[-0.2317364364862442, -0.18934664130210876, -0.2131109982728958, 0.1717679798603058, -0.176549032330513, -0.1915433704853058, -0.30806493759155273, 0.08367238938808441, -0.03505510091781616, 0.24969592690467834, -0.17718951404094696, 0.23610113561153412, -0.15802884101867676, -0.20539191365242004, -0.07310698926448822, -0.09055767208337784, 0.10329349339008331, -0.0917767584323883, 0.10294090211391449, -0.3204200863838196, -0.1940142661333084, -0.24596378207206726, -0.05008426308631897, 0.08796396851539612, 0.18155361711978912, -0.5232135653495789, -0.10825981199741364, 0.12032242864370346, 0.1420310139656067, 0.08181384950876236, 0.12396851181983948, 0.14882926642894745, -0.16403193771839142, -0.1373624950647354, 0.05712074041366577, -0.19282281398773193, 0.1527842879295349, -0.18044821918010712]
[-0.1775532215833664, -0.12571606040000916, -0.09564441442489624, -0.15055595338344574, -0.14730028808116913, 0.05507292598485947, -0.1638077348470688, 0.1635795533657074, -0.19531843066215515, -0.16398128867149353, 0.2187921404838562, 0.06869471818208694, 0.20119218528270721, 0.16676802933216095, -0.27684253454208374, -0.09929820150136948, -0.133824422955513, 0.22389817237854004, 0.2666252851486206, -0.1594296246767044, -0.02738073468208313, -0.05714978277683258, -0.015727564692497253, 0.015778332948684692, -0.06442435085773468, -0.22885552048683167, -0.14533159136772156, 0.1634434312582016, -0.02435443177819252, 0.09082477539777756, 0.20779484510421753, 0.02234695293009281, -0.0017882379470393062, -0.07672686874866486, -0.026232317090034485, -0.15922078490257263, -0.03350207209587097, 0.20360426604747772]
[0.12171090394258499, 0.1555211842060089, -0.0993325337767601, 0.08237546682357788, 0.1221725344657898, -0.07979463040828705, -0.19048748910427094, 0.04988692328333855, 0.2753313183784485, -0.22466665506362915, 0.24119673669338226, 0.09757775068283081, -0.2178134024143219, 0.1288679987192154, -0.16043543815612793, 0.06493241339921951, -0.07174255698919296, -0.21825069189071655, 0.08494430035352707, -0.20835015177726746, -0.03050805628299713, 0.15456122159957886, -0.07210905849933624, -0.1806582659482956, 0.23786236345767975, -0.116281658411026, -0.1876080334186554, -0.2246284931898117, 0.09587681293487549, -0.07160593569278717, 0.16484838724136353, -0.03276347368955612, 0.03335752338171005, 0.1382443904876709, -0.2347867637872696, -0.06784157454967499, -0.03855554386973381, -0.12076036632061005]
[0.05522983521223068, -0.04769003391265869, -0.11109234392642975, -0.24173282086849213, 0.0660492479801178, 0.08611541986465454, -0.2867598235607147, 0.04894256964325905, 0.09050668030977249, -0.21539261937141418, 0.05868624523282051, -0.04924631491303444, -0.2028738111257553, -0.16645419597625732, -0.004378523211926222, 0.14498136937618256, -0.019699031487107277, 0.1807585209608078, -0.13421911001205444, 0.13433974981307983, 0.22654646635055542, 0.10252150893211365, -0.0033782124519348145, -0.10141341388225555, 0.24696552753448486, -0.23221249878406525, -0.03575577214360237, 0.1252480447292328, -0.13312625885009766, 0.20952208340168, 0.24554845690727234, -0.1232151910662651, -0.12611694633960724, -0.12201094627380371, -0.09248107671737671, 0.08186085522174835, 0.22723044455051422, -0.1648307740688324]
[0.12103953957557678, 0.1393193006515503, -0.07566402852535248, 0.13381952047348022, 0.20988687872886658, 0.07536769658327103, -0.2993680536746979, 0.22769519686698914, 0.04674776643514633, 0.24979349970817566, 0.03945264220237732, 0.10398180037736893, 0.11568916589021683, 0.10362125933170319, -0.1566656082868576, -0.26457852125167847, 0.22342589497566223, 0.09478357434272766, 0.16421326994895935, -0.23173418641090393, -0.11832793056964874, 0.029251456260681152, -0.002422511577606201, 0.08748370409011841, 0.1824152171611786, -0.39128994941711426, -0.13719415664672852, -0.0007798424339853227, 0.0035240419674664736, 0.10445360094308853, -0.10437461733818054, 0.16812629997730255, -0.1071389764547348, -0.14410904049873352, -0.18850605189800262, -0.054806698113679886, -0.22252990305423737, 0.1862507164478302]
[0.14921963214874268, 0.13135620951652527, 0.019282005727291107, -0.012123405933380127, 0.019797682762145996, 0.22870613634586334, -0.13108396530151367, 0.20080485939979553, 0.2521943747997284, -0.21639323234558105, 0.15150555968284607, 0.21875064074993134, -0.09665694832801819, -0.19609245657920837, 0.16176185011863708, 0.27149930596351624, -0.16657981276512146, 0.008181953802704811, 0.297420471906662, -0.02767939120531082, 0.23014119267463684, -0.25593647360801697, -0.26060062646865845, -0.047801047563552856, 0.16310401260852814, -0.24083587527275085, 0.04424130171537399, 0.23421822488307953, 0.2979812026023865, -0.0827740803360939, 0.261600524187088, -0.13283215463161469, -0.211166650056839, 0.09081199765205383, -0.0018035471439361572, -0.09919501096010208, -0.03630688786506653, 0.015031038783490658]
[0.03683970868587494, -0.03468894958496094, -0.18936631083488464, 0.11109855771064758, 0.08576437830924988, -0.017419729381799698, 0.08943850547075272, 0.134691521525383, 0.198619544506073, 0.017467498779296875, -0.08099227398633957, 0.25222691893577576, -0.08574333041906357, -0.07417576760053635, -0.21265718340873718, 0.05086177587509155, -0.1833973079919815, 0.12874244153499603, 0.21685589849948883, -0.17161820828914642, 0.011204540729522705, 0.12998071312904358, -0.024038344621658325, 0.1889439821243286, -0.23206886649131775, -0.007905449718236923, 0.13439787924289703, 0.2875939607620239, 0.31728750467300415, -0.19288180768489838, -0.036940932273864746, 0.11173693835735321, -0.26857757568359375, -0.16292545199394226, -0.06645625829696655, -0.11063425987958908, -0.14352035522460938, 0.03574824705719948]
[0.035846952348947525, -0.2593381702899933, 0.18701854348182678, -0.2022310197353363, 0.24188944697380066, -0.0012761844554916024, -0.008923121728003025, -0.17839613556861877, 0.22483065724372864, 0.12996616959571838, -0.1353113204240799, -0.17480017244815826, -0.17982740700244904, -0.14798270165920258, 0.2077823132276535, 0.3172546923160553, -0.10644769668579102, -0.0025130207650363445, -0.0396525040268898, 0.1408621221780777, 0.23033136129379272, 0.21371856331825256, -0.2612268328666687, -0.23422464728355408, -0.19686958193778992, -0.09647515416145325, 0.2437688410282135, 0.14620934426784515, 0.2683984041213989, 0.037613727152347565, 0.1720321774482727, -0.033076006919145584, -0.08263984322547913, 0.1251668632030487, -0.222804993391037, -0.041606638580560684, 0.0862661749124527, -0.004370072856545448]
[-0.057137083262205124, 0.03936859965324402, 0.1532851755619049, 0.23219341039657593, -0.25462374091148376, -0.17734597623348236, 0.007497018668800592, -0.09313075989484787, -0.025691619142889977, -0.22847644984722137, -0.1232624277472496, -0.172580286860466, -0.07061789184808731, -0.03799158334732056, 0.17984676361083984, -0.20526418089866638, 0.11416127532720566, -0.12981468439102173, 0.08136559277772903, 0.043603260070085526, -0.1564282774925232, 0.2269754409790039, 0.10827627778053284, -0.23474684357643127, 0.10217036306858063, -0.3765488564968109, -0.21527324616909027, 0.46675992012023926, -0.0551036037504673, -0.1351354718208313, -0.2612181603908539, 0.33983662724494934, -0.24210521578788757, 0.0662570595741272, -0.19008496403694153, -0.020872648805379868, 0.09336303919553757, -0.13862764835357666]
[0.21043513715267181, 0.18203887343406677, -0.2724245488643646, -0.1841983199119568, -0.19871476292610168, -0.25286248326301575, -0.24145352840423584, -0.09794546663761139, -0.07073154300451279, -0.26368802785873413, -0.11409008502960205, -0.003491995157673955, 0.19393911957740784, 0.2487107813358307, -0.22432143986225128, -0.03159693256020546, -0.011999346315860748, -0.09057382494211197, 0.07168781012296677, -0.17733511328697205, 0.15641072392463684, -0.2074528932571411, 0.18292126059532166, -0.24230054020881653, 0.020487673580646515, -0.19630873203277588, 0.07142743468284607, 0.06772412359714508, 0.20758171379566193, 0.059423767030239105, 0.026825040578842163, 0.3008458614349365, -0.009090859442949295, 0.2303164303302765, -0.03329715132713318, 0.08881115913391113, 0.00178681337274611, -0.17090831696987152]
[-0.12529286742210388, -0.24775812029838562, -0.16471542418003082, -0.11071623861789703, 0.1039610505104065, -0.04625870659947395, 0.043882571160793304, -0.12583158910274506, -0.046842485666275024, -0.1229993999004364, 0.07032135874032974, 0.25748321413993835, 0.08945640176534653, -0.0022606155835092068, 0.02579132281243801, -0.0641358271241188, 0.02008909545838833, -0.07241512835025787, 0.0392322801053524, 0.08128650486469269, -0.19199919700622559, 0.14810818433761597, 0.03295379877090454, -0.09751534461975098, 0.0985403060913086, -0.18176458775997162, -0.12863390147686005, -0.012087258510291576, 0.14027626812458038, -0.048036374151706696, 0.17981195449829102, -0.025013837963342667, -0.19831645488739014, 0.2572745978832245, -0.06398418545722961, -0.28313323855400085, -0.16896241903305054, 0.22574426233768463]
[-0.20479337871074677, -0.12467767298221588, 0.03222382813692093, 0.17355799674987793, 0.09602528810501099, -0.13522645831108093, -0.2594797909259796, -0.178288996219635, -0.13694627583026886, -0.07321186363697052, -0.18997538089752197, -0.023873262107372284, 0.1843191236257553, -0.036682285368442535, 0.16081765294075012, 0.11070049554109573, 0.19510819017887115, 0.14889852702617645, 0.10796059668064117, 0.12201133370399475, 0.15225300192832947, 0.22641289234161377, 0.23858210444450378, 0.04976662993431091, 0.13242484629154205, -0.06206544488668442, -0.030068842694163322, -0.19645021855831146, 0.1641012579202652, 0.24937765300273895, 0.1919124722480774, -0.05653536692261696, 0.10339613258838654, -0.07505683600902557, -0.05215795338153839, -0.18105003237724304, 0.058748193085193634, 0.10977549850940704]
[-0.3238694369792938, -0.23347488045692444, -0.05054181069135666, 0.19979584217071533, 0.027350693941116333, 0.15839353203773499, 0.1595970094203949, -0.28981083631515503, -0.10641710460186005, 0.044131696224212646, 0.05088231340050697, -0.10348809510469437, -0.09145200997591019, -0.07341288030147552, 0.03787783905863762, -0.19014695286750793, -0.09236006438732147, 0.024103909730911255, 0.3492591977119446, -0.32136866450309753, 0.09199157357215881, 0.18240347504615784, -0.08064119517803192, -0.09298373758792877, 0.252153605222702, -0.25276803970336914, -0.19235478341579437, 0.21674586832523346, 0.24551820755004883, -0.061027150601148605, 0.11019650101661682, 0.27843421697616577, -0.2556421160697937, -0.00600925087928772, -0.16695785522460938, -0.23372209072113037, 0.059513237327337265, 0.006314994767308235]
[-0.16488716006278992, -0.20493453741073608, 0.04123762622475624, 0.13106754422187805, -0.25911402702331543, 0.1276378482580185, -0.09107865393161774, -0.26476559042930603, 0.1851952075958252, -0.18406739830970764, 0.19334951043128967, 0.24235080182552338, -0.1093987450003624, 0.170652836561203, -0.21435794234275818, -0.2212393879890442, 0.12263741344213486, -0.1169239729642868, -0.07656927406787872, -0.3289816975593567, -0.11765095591545105, 0.25027987360954285, -0.08589901030063629, -0.23677048087120056, 0.04181487485766411, -0.2704877555370331, -0.05417843535542488, 0.27153804898262024, 0.07954800873994827, -0.12398124486207962, 0.2334396243095398, 0.04690404236316681, 0.2082485556602478, -0.0620424747467041, 0.1339440941810608, -0.0009830781491473317, 0.2248450517654419, 0.053545162081718445]
[-0.2939048111438751, 0.16117671132087708, 0.2343166321516037, -0.1268858164548874, -0.013795137405395508, 0.07895449548959732, 0.017158465459942818, -0.09778928011655807, 0.15035521984100342, -0.07716548442840576, -0.05417992174625397, -0.18782763183116913, 0.08027835190296173, 0.18364444375038147, 0.2352747619152069, -0.0762418583035469, 0.17627134919166565, -0.044516921043395996, 0.021465878933668137, -0.22924476861953735, 0.1285073459148407, 0.22049030661582947, -0.07469026744365692, 0.22104108333587646, 0.18492098152637482, 0.22380885481834412, -0.0843256488442421, -0.011913450434803963, 0.1434565633535385, -0.2361273616552353, 0.13679534196853638, 0.3110772371292114, -0.08655679225921631, -0.03862689435482025, 0.032551348209381104, -0.09375156462192535, 0.238300159573555, -0.13599304854869843]
[-0.002620857208967209, -0.06824304163455963, -0.19394424557685852, -0.14005932211875916, 0.18797990679740906, 0.11843862384557724, 0.13678039610385895, -0.15800121426582336, 0.07570172846317291, 0.030012816190719604, 0.11305607855319977, -0.03609812632203102, -0.026001447811722755, 0.2834157347679138, 0.036302365362644196, 0.2905868589878082, 0.09426841884851456, 0.19841690361499786, -0.1358165293931961, -0.10218026489019394, -0.05975070595741272, 0.16771039366722107, 0.21217554807662964, -0.022392183542251587, 0.18225784599781036, -0.31185394525527954, 0.12551559507846832, -0.1728462278842926, 0.1523592621088028, -0.041095539927482605, 0.14001518487930298, 0.021419042721390724, 0.10615825653076172, 0.25216802954673767, 0.009734272956848145, -0.3348008096218109, 0.27456098794937134, 0.2180662453174591]
[-0.05411757156252861, -0.004262685775756836, -0.030172225087881088, -0.051673367619514465, -0.25296252965927124, 0.16312557458877563, -0.27604448795318604, -0.12176094949245453, 0.10048072040081024, -0.15774276852607727, 0.20617415010929108, 0.1610027402639389, 0.08018908649682999, 0.0767170861363411, 0.016841946169734, 0.01941184140741825, -0.2392483353614807, -0.2192758321762085, 0.09179025888442993, -0.12454243749380112, 0.1626870334148407, -0.19786876440048218, 0.19484496116638184, -0.18769612908363342, 0.1392177939414978, -0.039019789546728134, 0.12239634990692139, 0.34592896699905396, 0.3071720004081726, -0.11125019192695618, -0.2543105185031891, 0.27491581439971924, -0.14792944490909576, 0.23107874393463135, -0.1898137927055359, -0.2232390195131302, 0.19461946189403534, 0.08587194234132767]
[0.22282570600509644, -0.15386155247688293, -0.28591325879096985, -0.09495750069618225, -0.17116765677928925, -0.20550504326820374, -0.27923935651779175, 0.05117209628224373, -0.17411091923713684, -0.16616696119308472, -0.10627036541700363, 0.04211748391389847, 0.08857875317335129, 0.2664714753627777, 0.21974462270736694, 0.28227874636650085, -0.057037677615880966, 0.1601162999868393, -0.15339700877666473, -0.13555198907852173, 0.08244428038597107, -0.07806502282619476, 0.2224273383617401, 0.06392592191696167, -0.08767926692962646, -0.3417609930038452, 0.02493000030517578, -0.14700168371200562, -0.1851692646741867, 0.12348514795303345, 0.1407063901424408, 0.171699658036232, 0.03563433513045311, -0.141156405210495, 0.06333661079406738, -0.1449654996395111, 0.033035844564437866, -0.02836141362786293]
[0.199402317404747, -0.1624341905117035, 0.14494407176971436, -0.009683996438980103, 0.2204265594482422, 0.239402636885643, -0.08048874884843826, -0.13271859288215637, -0.22575461864471436, 0.04021146893501282, -0.14393731951713562, 0.20953266322612762, 0.05214453488588333, -0.2855628728866577, -0.003686902578920126, 0.2260148674249649, 0.07953903824090958, 0.13345833122730255, -0.16450881958007812, -0.028796309605240822, -0.1363338679075241, 0.0296747088432312, -0.0667172223329544, -0.013908535242080688, -0.037473056465387344, 0.22918178141117096, -0.11049579083919525, 0.14786860346794128, -0.13772332668304443, 0.0774153545498848, 0.18365177512168884, 0.3423805832862854, -0.1923365443944931, -0.23557433485984802, -0.15118256211280823, -0.2543879449367523, 0.14148135483264923, 0.17065618932247162]
[-0.2011844366788864, 0.002943366765975952, -0.28669077157974243, 0.04004514217376709, -0.10677823424339294, -0.16277773678302765, -0.0953323021531105, 0.13655394315719604, -0.2085530012845993, 0.11904308199882507, 0.22501909732818604, -0.07959364354610443, -0.2389853447675705, -0.07334482669830322, 0.057731084525585175, -0.002943876199424267, 0.17895229160785675, 0.21773740649223328, 0.09888659417629242, 0.07515190541744232, 0.01684468984603882, 0.2263396978378296, -0.07245919108390808, -0.01176556944847107, 0.2650063931941986, 0.0617530457675457, -0.19833339750766754, -0.050816867500543594, -0.0685529112815857, -0.23003706336021423, -0.11195097863674164, -0.11373907327651978, -0.07383779436349869, -0.12024664878845215, -0.19224265217781067, -0.0788012146949768, 0.21355286240577698, 0.26328185200691223]
[-0.2266637235879898, -0.15769873559474945, 0.03615773469209671, -0.09835177659988403, 0.0567096471786499, -0.12830039858818054, -0.1796536147594452, 0.00555868074297905, -0.1206202507019043, 0.0973488986492157, -0.05329388752579689, 0.1293005794286728, 0.15734431147575378, 0.2750130295753479, 0.0538647323846817, 0.1690283715724945, 0.05074954032897949, 0.024171127006411552, 0.23489919304847717, -0.015339422971010208, -0.07979808747768402, 0.25519463419914246, 0.21595963835716248, 0.11365067958831787, 0.03232258930802345, -0.3938709795475006, -0.2561604082584381, 0.28302520513534546, 0.1104632019996643, 0.006185045465826988, -0.0430869460105896, -0.11464124917984009, -0.029281841591000557, 0.18009087443351746, -0.07973894476890564, 0.20867876708507538, 0.2439248412847519, -0.05759824812412262]
[-0.0567338690161705, 0.08501729369163513, -0.2599847614765167, 0.03176376223564148, -0.26351019740104675, -0.049752797931432724, -0.18206839263439178, 0.07898104190826416, 0.12520945072174072, 0.047118157148361206, 0.26442214846611023, 0.14542467892169952, -0.14792945981025696, 0.2478485256433487, -0.22320924699306488, -0.056497275829315186, -0.06562075763940811, -0.06452054530382156, -0.11115086823701859, -0.02523501217365265, 0.07721459865570068, -0.03984570503234863, -0.23858238756656647, -0.2605867087841034, 0.0696340799331665, -0.3634876310825348, -0.09865231812000275, 0.06600321829319, 0.32264280319213867, 0.03381400555372238, -0.07951407134532928, -0.10558158904314041, -0.08537481725215912, -0.1886153221130371, -0.07912525534629822, -0.08940692991018295, -0.0635383352637291, -0.1386849731206894]
[0.21598196029663086, -0.2048357129096985, -0.11912074685096741, 0.0907999575138092, -0.22246450185775757, 0.18689247965812683, -0.18978643417358398, -0.17586056888103485, -0.11876045912504196, -0.22963958978652954, 0.08326192945241928, 0.09262524545192719, 0.05175912752747536, 0.12049628049135208, -0.19519852101802826, 0.02130630612373352, 0.18501928448677063, -0.024653594940900803, 0.13190941512584686, -0.1274251639842987, -0.147945836186409, 0.012881040573120117, 0.05854889750480652, -0.13065524399280548, -0.2532625198364258, -0.1398717314004898, 0.08334222435951233, -0.16019539535045624, 0.14981821179389954, -0.26019495725631714, 0.06635040044784546, 0.09811464697122574, -0.3009139895439148, 0.08138686418533325, 0.1770978569984436, -0.10809601098299026, 0.2864777445793152, 0.04040566086769104]
[0.05621841549873352, -0.214626282453537, -0.0958181768655777, 0.2146933376789093, 0.12246423959732056, -0.14570552110671997, 0.2158358097076416, -0.10588998347520828, -0.10620933026075363, -0.02986980974674225, 0.1741252839565277, 0.16214293241500854, -0.346091628074646, -0.18691128492355347, 0.1143980473279953, 0.17940105497837067, -0.07325959950685501, 0.18059031665325165, 0.12335117161273956, 0.1372259110212326, 0.009143233299255371, 0.24916061758995056, 0.21945828199386597, 0.03431639075279236, -1.675190787864267e-06, -0.19614572823047638, -0.15198718011379242, -0.1862514764070511, -0.06470324844121933, -0.10333932191133499, -0.0814136415719986, -0.1584235429763794, -0.09820020198822021, -0.1867704689502716, -0.24350076913833618, -0.04705936461687088, 0.10907161980867386, 0.18386735022068024]
[0.07673411816358566, 0.10886400938034058, 0.21274292469024658, -0.03689149022102356, 0.1867738664150238, -0.10571456700563431, 0.0333813801407814, -0.011814779601991177, 0.23227281868457794, -0.039568230509757996, 0.21267689764499664, 0.2583042085170746, -0.22964462637901306, 0.11849133670330048, -0.20277367532253265, 0.2207295000553131, -0.05949375778436661, -0.19695277512073517, 0.035530973225831985, -0.2505466938018799, 0.20045596361160278, 0.14119789004325867, -0.2102305144071579, -0.13540850579738617, 0.25273871421813965, -0.3267216086387634, -0.12049403041601181, -0.027762336656451225, -0.13568471372127533, 0.25923389196395874, -0.03613951802253723, -0.12171700596809387, 0.1820526272058487, -0.020316287875175476, -0.06661620736122131, 0.11975079774856567, -0.025849567726254463, 0.020784471184015274]

[-0.34657561779022217, -0.03558025136590004, -0.06549641489982605, -0.2552652955055237, -0.03471430763602257, 0.006376896519213915, -0.0083583053201437, -0.053067244589328766, -0.274019330739975, -0.07265539467334747, -0.06664349883794785, -0.42265060544013977, -0.10668003559112549, -0.2829672694206238, 0.056380100548267365, -0.06264441460371017, -0.07465982437133789, 0.03296389430761337, 0.44203031063079834, -0.05112006142735481, -0.14180988073349, -0.10110198706388474, -0.007732607424259186, -0.3948398232460022, 0.008876778185367584, -0.46133002638816833, -0.08184496313333511, -0.06443137675523758]
[0.466207891702652, -0.032949298620224, -0.1346604973077774, 0.5402299761772156, 0.30931222438812256, -0.5452917814254761, 0.2185572385787964, 0.053764842450618744, 0.14506928622722626, 0.5759286880493164, -0.39723914861679077, -0.17372174561023712, 0.06745119392871857, 0.5094943046569824, -0.46062347292900085, 0.28248074650764465, 0.49882206320762634, -0.07289490848779678, 0.002339995000511408, -0.27318549156188965, 0.15532653033733368, 0.5242447853088379, 0.45664575695991516, 0.18035396933555603, 0.03730882704257965, 0.32897379994392395, -0.340719610452652, 0.11098519712686539]
[0.16793876886367798, 0.08164110779762268, 0.019544929265975952, -0.1411866545677185, -0.08642080426216125, 0.26856040954589844, 0.17301371693611145, 0.24234867095947266, -0.022126108407974243, -0.08193002641201019, -0.25445353984832764, -0.008847057819366455, 0.13077965378761292, -0.26108142733573914, 0.17295095324516296, -0.07306648790836334, -0.09104953706264496, -0.07416044175624847, -0.23031820356845856, -0.07389920949935913, 0.1816481351852417, 0.010815173387527466, 0.16332513093948364, -0.16765475273132324, -0.0014472007751464844, -0.09941698610782623, -0.1781252920627594, -0.198504239320755]
[-1.1891489028930664, 0.7200675010681152, 0.7566553354263306, -0.858528196811676, -0.9123486876487732, 1.0102125406265259, 0.759973406791687, -0.7497115731239319, -0.8285011053085327, -1.0837982892990112, 0.7499572038650513, -0.0596589632332325, -1.1713650226593018, -0.8852964043617249, 0.5510298013687134, -0.6102293729782104, -0.8337804079055786, 0.7743027210235596, 0.7286866903305054, 0.8297827839851379, -1.0250561237335205, -0.970253586769104, -1.0409266948699951, -0.9742932319641113, -1.1047115325927734, -1.2298684120178223, 0.8700038194656372, -0.7877584099769592]
[-0.368719220161438, -0.06053142249584198, 0.1778145581483841, -0.30750006437301636, -0.07938901335000992, 0.2222769856452942, 0.28215155005455017, 0.05727798491716385, -0.1099613606929779, -0.12525776028633118, 0.055935587733983994, -0.394180029630661, -0.12128417193889618, -0.42927980422973633, 0.22122296690940857, -0.32413798570632935, 0.17991705238819122, -0.03681520000100136, 0.4369702935218811, 0.10597942769527435, -0.3104199469089508, 0.12462705373764038, 0.07655475288629532, -0.1814872920513153, -0.23394180834293365, -0.5271614789962769, 0.05043042078614235, -0.29712921380996704]
[0.9570184946060181, -1.756003737449646, -1.5928106307983398, 1.0450961589813232, 1.569873332977295, -1.6168278455734253, -1.3876770734786987, 1.1930482387542725, 1.2604442834854126, 1.221160650253296, -1.2082267999649048, 0.027234802022576332, 1.512865662574768, 0.9886381030082703, -1.2853240966796875, 1.5687817335128784, 1.5975723266601562, -1.4289641380310059, -0.573143720626831, -1.6808314323425293, 1.222200870513916, 1.5156939029693604, 1.4576258659362793, 0.9986075758934021, 1.302036166191101, 0.811654269695282, -1.4619109630584717, 1.177058219909668]
[-0.6032137870788574, -0.05052262544631958, -0.20555861294269562, -0.2148282527923584, 0.10672908276319504, 0.08409875631332397, 0.035537052899599075, -0.2410440891981125, -0.26123932003974915, -0.36224365234375, -0.20324155688285828, -0.6792469620704651, -0.1901945322751999, -0.4614003598690033, 0.19555571675300598, -0.3582999110221863, -0.29130157828330994, -0.20972266793251038, 0.49397262930870056, -0.00978511106222868, -0.1692080944776535, -0.18102797865867615, -0.1296689808368683, -0.2945181727409363, 0.0002234482381027192, -0.258357971906662, -0.14679017663002014, -0.22384242713451385]
[0.17803697288036346, -0.3763914108276367, 0.19246749579906464, 0.18681016564369202, -0.09284882992506027, -0.10701879113912582, -0.29224538803100586, -0.021511411294341087, -0.00030423791031353176, -0.014593812637031078, 0.10551486909389496, -0.2934548854827881, -0.1704982966184616, 0.31944984197616577, -0.11044175922870636, 0.028551144525408745, -0.04079383611679077, 0.10311457514762878, 0.2684374749660492, 0.3546324670314789, -0.03385899215936661, 0.25794875621795654, 0.34895187616348267, -0.20407888293266296, 0.01988031342625618, -0.1233828067779541, 0.19330473244190216, 0.2864280939102173]
[-0.099640391767025, 0.36271098256111145, -0.025125987827777863, 0.4335806667804718, -0.07148714363574982, -0.26005250215530396, 0.24363429844379425, 0.3388438820838928, 0.4574260413646698, 0.3788427710533142, -0.4768519401550293, -0.15053367614746094, 0.35571175813674927, 0.3882790207862854, -0.21369704604148865, -0.09859806299209595, 0.3203839063644409, -0.020668724551796913, -0.23928438127040863, -0.17673340439796448, 0.11244930326938629, 0.2958241105079651, 0.2186613380908966, 0.47514358162879944, 0.5813543200492859, 0.06998591125011444, 0.1523561179637909, 0.1809125393629074]
[-0.17631182074546814, -0.11295704543590546, 0.07726307958364487, -0.5588595867156982, 0.19317308068275452, -0.043855536729097366, -0.19375979900360107, -0.3284672796726227, -0.257001668214798, -0.35905778408050537, -0.23219022154808044, -0.49023550748825073, 0.025952009484171867, -0.05617063120007515, -0.10200129449367523, 0.03377847000956535, 0.035787999629974365, 0.017917079851031303, 0.42471230030059814, 0.1606777012348175, -0.1349194198846817, -0.2846086919307709, -0.21887028217315674, -0.6345866918563843, -0.1570720374584198, -0.6086798906326294, -0.3310108184814453, 0.008106734603643417]
[0.2596774101257324, -0.2231631875038147, -0.14371933043003082, 0.06655311584472656, 0.2776048183441162, -0.2661001980304718, 0.19891375303268433, 0.20196384191513062, 0.016603201627731323, 0.028915107250213623, 0.010294139385223389, -0.21728664636611938, 0.245608389377594, 0.0746547281742096, 0.023349851369857788, -0.2398882359266281, -0.08810746669769287, 0.07619538903236389, 0.137485533952713, -0.263197660446167, -0.14829574525356293, -0.15829873085021973, -0.2643866539001465, -0.16130585968494415, -0.0890064686536789, -0.08078581094741821, 0.0027790963649749756, 0.0613551139831543]
[-0.3666841387748718, 0.15138106048107147, -0.17330212891101837, 0.008196871727705002, -0.017711888998746872, -0.06380350142717361, 0.1266394704580307, -0.041855961084365845, -0.26588109135627747, -0.3370360732078552, -0.0949304923415184, -0.5380939841270447, 0.1643040031194687, -0.4155818223953247, 0.009446232579648495, -0.20602579414844513, -0.029550718143582344, -0.1089579239487648, 0.5918468236923218, -0.17705482244491577, -0.37432822585105896, -0.3738228380680084, -0.028811778873205185, -0.10366640985012054, 0.14049407839775085, -0.7121258974075317, -0.01733512245118618, -0.022950340062379837]
[0.7775073647499084, -0.6560808420181274, -0.698948860168457, 0.9811380505561829, 1.0564299821853638, -1.076701045036316, -1.0884466171264648, 0.802358865737915, 0.8567321300506592, 1.2119981050491333, -0.8134417533874512, -0.14099907875061035, 1.0302919149398804, 0.9035404920578003, -1.1946653127670288, 0.7252464294433594, 0.9999643564224243, -1.0564759969711304, -0.4309254586696625, -0.6405697464942932, 1.1186637878417969, 0.7154518365859985, 1.3039205074310303, 0.6148244738578796, 1.26986825466156, 0.7119347453117371, -0.5559324622154236, 0.9755201935768127]
[0.167471244931221, -0.06937572360038757, -0.02859336882829666, 0.022162241861224174, 0.23347164690494537, 0.10750755667686462, 0.03173496946692467, 0.09100262820720673, -0.13772456347942352, 0.20258133113384247, -0.309828519821167, -0.0678563266992569, -0.20310233533382416, 0.055816132575273514, -0.31174084544181824, -0.13004763424396515, 0.03074449487030506, 0.020839322358369827, 0.11329159140586853, 0.09226357191801071, -0.009046891704201698, 0.010492156259715557, 0.1854303777217865, -0.26029232144355774, 0.07443234324455261, -0.18294493854045868, -0.1606501340866089, -0.20650985836982727]
[-1.2844092845916748, 4.350435256958008, 4.5659966468811035, -2.4700729846954346, -4.0250349044799805, 4.248210906982422, 4.1292853355407715, -3.9578518867492676, -2.3629682064056396, -3.881788969039917, 4.442205429077148, -0.04484931379556656, -3.502089738845825, -1.8320189714431763, 3.878789186477661, -4.046887397766113, -4.148436069488525, 4.4702582359313965, 1.1776725053787231, 4.6980814933776855, -3.3239336013793945, -3.915229558944702, -4.2153167724609375, -1.3714268207550049, -3.9448416233062744, -1.3669750690460205, 4.644338130950928, -3.367208242416382]
[-0.09116121381521225, 0.2484341561794281, -0.08837761729955673, -0.20593830943107605, -0.1747274547815323, 0.09917512536048889, -0.19794823229312897, 0.0028270783368498087, -0.20947574079036713, 0.2783782184123993, -0.04202211648225784, -0.2621490955352783, 0.24986551702022552, -0.0534757561981678, -0.20926043391227722, -0.2725130021572113, 0.10027957707643509, -0.06717190146446228, -0.08029733598232269, -0.016625767573714256, -0.14950482547283173, -0.2588835656642914, 0.03771265596151352, -0.16030195355415344, -0.015046877786517143, -0.07454800605773926, 0.18789727985858917, 0.0371815487742424]
[1.0231376886367798, -1.584657073020935, -1.7029064893722534, 1.4484397172927856, 1.8779566287994385, -1.8367270231246948, -1.392495036125183, 1.8162189722061157, 1.2486225366592407, 1.5828150510787964, -1.8436084985733032, 0.1539900004863739, 1.6682206392288208, 1.167066216468811, -1.4611670970916748, 1.7249587774276733, 1.5565696954727173, -1.4707914590835571, -0.7641865015029907, -1.6554046869277954, 1.6108962297439575, 1.8272745609283447, 2.0025389194488525, 1.0460009574890137, 1.9470819234848022, 0.9071244597434998, -1.8706674575805664, 1.7877976894378662]
[-0.4224715232849121, -0.12729328870773315, -0.07774677872657776, -0.026185698807239532, -0.23393526673316956, 0.28751540184020996, 0.2726500332355499, 0.1429443508386612, -0.5590308904647827, 0.09949232637882233, -0.06526009738445282, -0.39748886227607727, -0.06692326813936234, -0.266154944896698, 0.18684044480323792, 0.04953274875879288, -0.2620449960231781, 0.20133738219738007, 0.580036997795105, -0.2030867636203766, -0.2590174376964569, 0.02018163539469242, -0.11316724866628647, -0.6421287059783936, 0.037716206163167953, -0.47436100244522095, -0.06988273561000824, -0.19524960219860077]
[-0.40139394998550415, -0.2801678478717804, 0.05391571670770645, -0.29359233379364014, -0.15074217319488525, 0.029835956171154976, -0.10675618052482605, -0.3040447533130646, -0.23314222693443298, 0.16323138773441315, -0.3339032530784607, -0.6461134552955627, -0.3574989438056946, -0.5398051142692566, 0.2900104224681854, 0.18470822274684906, 0.2206561118364334, 0.09277645498514175, 0.5718510150909424, 0.19583958387374878, 0.009583598002791405, -0.2509000599384308, -0.16377615928649902, -0.38716942071914673, -0.15589138865470886, -0.26998355984687805, 0.17639029026031494, 0.07175632566213608]
[-1.346143126487732, -0.6102163195610046, 0.31810852885246277, -1.259164810180664, -1.70463228225708, 1.2219319343566895, 0.3510098159313202, -1.8996509313583374, -1.9332058429718018, -1.6914712190628052, 1.300490140914917, -0.9438742995262146, -1.4162838459014893, -2.019908905029297, 0.8109758496284485, -1.631799578666687, -1.6474064588546753, 0.7748516798019409, 1.1876345872879028, 0.27296018600463867, -1.3681081533432007, -1.5012106895446777, -1.830941915512085, -1.8044734001159668, -2.1449942588806152, -1.4094622135162354, 0.8849332928657532, -1.7248954772949219]
[-0.017364557832479477, -0.18769806623458862, -0.041869547218084335, 0.19156883656978607, 0.32554852962493896, -0.10683394223451614, -0.3555847108364105, -0.011297489516437054, 0.28255319595336914, 0.20059266686439514, -0.35956069827079773, -0.14201000332832336, 0.06557245552539825, 0.11550960689783096, 0.14089453220367432, 0.15082527697086334, 0.4528142213821411, -0.032738640904426575, 0.20493730902671814, -0.24683953821659088, 0.04384211450815201, -0.00951393786817789, 0.15478098392486572, 0.1661578267812729, -0.19613951444625854, 0.1608545333147049, -0.3667113780975342, 0.35659077763557434]
[0.12653300166130066, -0.06760050356388092, -0.08710803091526031, 0.04653698205947876, 0.28912585973739624, 0.11719998717308044, -0.263407438993454, -0.2552298903465271, 0.030603915452957153, 0.10065889358520508, 0.25999653339385986, -0.06872925162315369, -0.2735391855239868, 0.05903652310371399, -0.23240023851394653, -0.15666261315345764, -0.2688164710998535, 0.19806471467018127, 0.2763797640800476, -0.04375976324081421, -0.053482964634895325, 0.04133337736129761, -0.29966452717781067, 0.09760424494743347, 0.24916362762451172, 0.1418934464454651, 0.2031162977218628, 0.246715247631073]
[-0.6084624528884888, 0.060609713196754456, -0.15595658123493195, -0.4832247495651245, 0.1932539939880371, 0.27420300245285034, -0.18718674778938293, 0.14023007452487946, -0.12468019872903824, 0.028905630111694336, -0.2881883382797241, -0.6815778613090515, 6.124677020125091e-05, -0.20990993082523346, 0.025492891669273376, -0.15645389258861542, -0.027884645387530327, -0.13500280678272247, 0.43631207942962646, -0.33997732400894165, 0.14050620794296265, 0.04939711466431618, -0.24020609259605408, -0.4758288264274597, 0.1183268204331398, -0.2630203664302826, 0.08109790086746216, -0.3095797300338745]
[-0.15292412042617798, 0.08113937079906464, -0.2548418641090393, -0.2589294910430908, 0.014543469995260239, 0.003884731326252222, 0.0207955501973629, 0.19437772035598755, -0.3675291836261749, 0.01860305294394493, 0.12413720786571503, -0.4163660705089569, -0.22596944868564606, -0.17502689361572266, -0.02070239558815956, -0.0218655988574028, 0.09014148265123367, 0.05956093221902847, 0.5675519704818726, -0.2918805181980133, -0.01975959911942482, -0.3444489538669586, 0.15190786123275757, -0.45819202065467834, 0.19231170415878296, -0.16678427159786224, -0.041633132845163345, 0.03192179277539253]
[-0.03332981467247009, 0.09012502431869507, -0.18142521381378174, -0.12264181673526764, -0.06419569253921509, -0.07499483227729797, 0.024322152137756348, -0.28219014406204224, -0.27842453122138977, -0.2888467013835907, 0.1477780044078827, -0.07069346308708191, 0.2457108497619629, -0.288169264793396, -0.06263627111911774, -0.18100138008594513, -0.04287806153297424, 0.07580873370170593, -0.2011295109987259, -0.053731128573417664, 0.14321771264076233, 0.25601309537887573, -0.15488602221012115, -0.016851484775543213, -0.077192023396492, 0.06923454999923706, -0.17139002680778503, -0.007934272289276123]
[-0.36417579650878906, -0.07993258535861969, 0.20698867738246918, -0.5288689136505127, -0.04886280372738838, -0.21192923188209534, 0.12038678675889969, -0.08093906939029694, -0.3458751142024994, -0.04208493232727051, 0.23061901330947876, -0.25870659947395325, 0.040641993284225464, -0.47668397426605225, -0.22812533378601074, -0.0396478995680809, 0.09352412074804306, 0.08615867048501968, 0.31339067220687866, 0.1162080243229866, -0.2867743670940399, 0.04985090717673302, 0.2767631709575653, -0.37812209129333496, 0.000836934254039079, -0.23101751506328583, 0.06407298892736435, 0.23592136800289154]
[0.0352243036031723, 0.10246077924966812, -0.3314345180988312, 0.33420467376708984, 0.0731692761182785, -0.14988158643245697, -0.4275054931640625, 0.3104965090751648, 0.2514175474643707, 0.022005261853337288, -0.3520476818084717, -0.35859954357147217, -0.005044994410127401, 0.07363568991422653, 0.10831377655267715, 0.2584339678287506, -0.03748154267668724, -0.2703827917575836, 0.1266157031059265, -0.17404451966285706, 0.1988191455602646, -0.015159595757722855, 0.4656713604927063, -0.16609568893909454, 0.5196565985679626, 0.19081802666187286, -0.1004505306482315, 0.47152286767959595]
[0.5342416167259216, 0.0964011698961258, -0.03621920943260193, 0.3567941188812256, 0.09228920936584473, -0.1558336764574051, -0.20269817113876343, 0.49240386486053467, 0.07250667363405228, 0.45017164945602417, -0.28506359457969666, 0.1912951022386551, 0.1930040717124939, 0.4082891047000885, -0.1056552529335022, 0.47018319368362427, 0.497335284948349, -0.4277079105377197, -0.12662991881370544, 0.11441415548324585, 0.33055412769317627, 0.32762351632118225, 0.496441513299942, 0.29417112469673157, 0.6802693009376526, 0.44596120715141296, -0.1465558111667633, 0.2646016776561737]
[-0.5771795511245728, 0.43703868985176086, 0.2783960998058319, -0.8604608774185181, -0.6516954898834229, 0.2825043201446533, 0.7219604849815369, -0.6183409690856934, -0.9876559376716614, -0.7828004956245422, 0.6441625952720642, -0.42620739340782166, -0.8310065865516663, -0.7808308005332947, 0.3418482840061188, -0.790723443031311, -0.49454057216644287, 0.39620593190193176, 0.5707730054855347, 0.19711920619010925, -0.4306524693965912, -0.27851518988609314, -0.532841145992279, -0.581843376159668, -0.2655772268772125, -1.0651750564575195, 0.6584257483482361, -0.6627461910247803]
[-0.3560512065887451, 0.09552712738513947, 0.1676754206418991, 0.013736139982938766, -0.22600334882736206, -0.2605121433734894, 0.03498570993542671, 0.1311064064502716, -0.17325961589813232, 0.07784043252468109, 0.20514944195747375, -0.5525105595588684, 0.1567787081003189, -0.5402516722679138, -0.10769882798194885, 0.23384959995746613, -0.2544601857662201, 0.1410868763923645, 0.37151843309402466, 0.18313750624656677, -0.14930088818073273, 0.09564168006181717, 0.24002912640571594, -0.5187585353851318, -0.08321284502744675, -0.6568022966384888, -0.3779066801071167, -0.11261261254549026]
[-0.4527248442173004, 0.03200538828969002, 0.28428563475608826, -0.49044910073280334, -0.4998340606689453, 0.4850882291793823, 0.2882763147354126, -0.5441768765449524, -0.5055988430976868, -0.35161104798316956, 0.6504055261611938, -0.07294343411922455, -0.7953925728797913, -0.3924904763698578, 0.2615964710712433, -0.46382924914360046, -0.4870295822620392, 0.822380006313324, 0.30904772877693176, 0.38058847188949585, -0.4101771414279938, -0.5085132718086243, -0.6674045324325562, -0.5180925130844116, -0.5311761498451233, -0.7655313014984131, 0.7242746353149414, -0.5724696516990662]
[-0.5535218715667725, 0.19539867341518402, -0.27314019203186035, -0.17874717712402344, -0.0798007920384407, 0.10297057032585144, -0.22726216912269592, 0.09335307776927948, -0.18225431442260742, -0.1091243177652359, -0.1354082226753235, -0.5395777821540833, -0.401078999042511, -0.22185523808002472, -0.18509894609451294, 0.20542828738689423, -0.18854881823062897, 0.11359909921884537, 0.6988964080810547, 0.2328285574913025, 0.10105235129594803, -0.10779780894517899, -0.21105745434761047, -0.6551969051361084, -0.2809165418148041, -0.4012206494808197, 0.08412174135446548, 0.2141619771718979]
[-1.4560273885726929, 0.871974766254425, 0.9223281741142273, -1.2459454536437988, -1.1817004680633545, 1.1877014636993408, 0.7573350071907043, -0.7978376150131226, -0.9979936480522156, -1.1645628213882446, 0.9632613658905029, -0.2976488173007965, -1.38901686668396, -1.4863169193267822, 0.9378805756568909, -1.1219149827957153, -1.2425113916397095, 0.8675140142440796, 0.4882977604866028, 0.5313816070556641, -1.557012915611267, -0.7108348608016968, -1.0495901107788086, -0.805523157119751, -1.289951205253601, -1.048323392868042, 0.7426748871803284, -1.144665002822876]
[-0.2789560854434967, -0.24072565138339996, 0.10679057240486145, -0.17372626066207886, -0.3965774178504944, 0.02525971084833145, 0.2540718913078308, 0.034647174179553986, -0.3713608980178833, -0.2948440909385681, 0.39907512068748474, -0.30773448944091797, -0.5156323909759521, -0.41504254937171936, -0.20975853502750397, -0.45456981658935547, -0.48381099104881287, 0.1783882975578308, -0.10789404064416885, 0.3568759858608246, 0.1674080640077591, -0.1559564471244812, 0.008601319044828415, -0.2155534029006958, -0.06774863600730896, -0.4559953510761261, 0.04531746730208397, -0.318203330039978]
[-0.1370614767074585, -0.23844964802265167, 0.005105257034301758, -0.11297920346260071, 0.10115182399749756, 0.22678160667419434, -0.0442449152469635, -0.2393367886543274, -0.1934203803539276, -0.08916893601417542, -0.15424875915050507, -0.17673660814762115, -0.20098379254341125, 0.2911379337310791, -0.28034383058547974, 0.24535679817199707, 0.17951297760009766, 0.15162384510040283, -0.296561062335968, -0.08653014898300171, -0.13633039593696594, -0.0370425283908844, -0.05653373897075653, 0.19624558091163635, 0.2744823694229126, 0.10844361782073975, -0.03384900093078613, 0.198361337184906]
[0.13129594922065735, 0.13888955116271973, -0.1653478592634201, -0.24671293795108795, 0.28822410106658936, 0.10647949576377869, 0.1458582878112793, -0.1173347681760788, -0.2518831789493561, 0.2969689965248108, 0.03075084090232849, 0.18042901158332825, -0.13676667213439941, -0.27798065543174744, -0.27051615715026855, 0.06837168335914612, 0.06024548411369324, -0.04131656885147095, -0.21565915644168854, -0.1601932793855667, 0.25242698192596436, -0.2633911073207855, -0.2089526355266571, 0.03777754306793213, -0.17774999141693115, -0.1754230409860611, 0.2272738218307495, 0.04749220609664917]
[-0.38129952549934387, -0.3888606131076813, 0.10938326269388199, -0.3405110836029053, 0.045123420655727386, 0.22929376363754272, 0.15528033673763275, -0.42298322916030884, -0.2789197564125061, -0.45287108421325684, 0.21583430469036102, -0.09511592984199524, -0.3431990146636963, 0.007030756212770939, -0.053853608667850494, -0.485637903213501, -0.19156473875045776, 0.183763325214386, -0.21947388350963593, 0.3316158950328827, -0.06311297416687012, -0.12079235911369324, -0.4778394401073456, -0.15678538382053375, -0.2597171366214752, -0.40376409888267517, 0.35470473766326904, -0.5524037480354309]
[-0.32237708568573, -0.013594157062470913, 0.12647327780723572, -0.34734082221984863, 0.14341506361961365, -0.052596431225538254, -0.09854898601770401, 0.1265997737646103, -0.3281199038028717, -0.11459270119667053, 0.0643608421087265, -0.48878365755081177, 0.02893012948334217, -0.07898266613483429, 0.24656277894973755, 0.24275870621204376, -0.13039131462574005, -0.07594386488199234, 0.5208030939102173, 0.11514285951852798, -0.20231954753398895, -0.11871210485696793, -0.1287778615951538, -0.34762734174728394, 0.010581854730844498, -0.18480642139911652, -0.39104700088500977, -0.2437288612127304]
[-0.5343341827392578, 0.21636049449443817, 0.11541715264320374, -0.51214599609375, -0.29852548241615295, 0.25070735812187195, 0.1697903573513031, -0.1987442970275879, -0.2925252616405487, 0.1470096856355667, -0.21176570653915405, -0.21118904650211334, 0.17013563215732574, -0.5637266039848328, 0.28949764370918274, 0.012440727092325687, -0.21707910299301147, 0.21668925881385803, 0.5922706127166748, 0.1258142739534378, 0.020533040165901184, 0.18021941184997559, -0.2614593803882599, -0.33985376358032227, 0.14934808015823364, -0.3080795109272003, 0.14336639642715454, -0.1230025589466095]

[-0.43532121181488037, -0.4612278938293457, 0.5287414193153381, -0.39197292923927307, -0.5428240895271301, 0.4743925631046295, -0.3138395845890045, 0.3902330994606018, -0.34350869059562683, -0.3604039251804352, -0.40316691994667053, -0.4605834484100342, -0.3877274692058563, -0.3809499442577362, -0.49524426460266113, -0.4899519085884094, -0.3379520773887634, -0.40081366896629333]
[0.3183457851409912, 0.08008521795272827, -0.3524695038795471, 0.3227357566356659, 0.253990113735199, 0.17052899301052094, 0.35465773940086365, -0.05272447317838669, 0.2179885357618332, 0.7714512944221497, 0.5108159184455872, 0.483407199382782, 0.4990817904472351, 0.6415175199508667, 0.43071627616882324, 0.6053711175918579, 0.5434347987174988, 0.39580753445625305]
[-0.3808463513851166, -0.34463074803352356, 0.8746851682662964, -0.21009410917758942, -0.5174964070320129, 0.5478535294532776, -0.7684505581855774, 0.6799272894859314, -0.7032609581947327, -0.6642962098121643, -0.414277583360672, -0.7662997245788574, -0.6995172500610352, -0.2153882384300232, -0.30391430854797363, -0.8067656755447388, -0.5881524682044983, -0.12281471490859985]
[-0.5954874157905579, -0.8546885848045349, 0.43547549843788147, -0.7640807628631592, -0.860966145992279, 0.40347978472709656, -0.5908145904541016, 0.42191988229751587, -0.5104234218597412, -0.7078978419303894, -0.8192493915557861, -0.5279812812805176, -0.36884409189224243, -0.883006751537323, -0.567966103553772, -0.8809172511100769, -0.4095859229564667, -0.34312453866004944]
[0.15691980719566345, 0.45018434524536133, -0.42417290806770325, 0.18549861013889313, 0.3822585940361023, -0.3346676230430603, 0.2908512055873871, -0.4630005657672882, 0.21501672267913818, 0.6017424464225769, 0.21012768149375916, 0.2423412799835205, 0.5348355174064636, 0.5150139927864075, 0.14669935405254364, -0.114903025329113, 0.49755367636680603, 0.1099289283156395]
[0.9475608468055725, 0.41973331570625305, -1.0353678464889526, 0.9223583936691284, 0.49446845054626465, -1.0472705364227295, 0.817046046257019, -0.7119197249412537, 0.8164368271827698, 0.7081796526908875, 0.8613268136978149, 0.9050529599189758, 0.4163195788860321, 1.0491180419921875, 0.42827796936035156, 0.7676014304161072, 1.033423900604248, 0.5310802459716797]
[-1.2121473550796509, -1.3552013635635376, 0.9551154375076294, -1.158581018447876, -1.155118703842163, 0.6963295936584473, -0.9871602654457092, 1.1127930879592896, -1.152673363685608, -0.9727885127067566, -1.0800971984863281, -1.2002801895141602, -1.1906187534332275, -1.0265697240829468, -1.3087764978408813, -0.8803408741950989, -0.8323233723640442, -1.35574471950531]
[-0.496803343296051, -0.6340025663375854, 0.7864603400230408, -0.5072419047355652, -0.44124773144721985, 0.5434045791625977, -0.27417945861816406, 0.6211535334587097, -0.4818152189254761, -0.8121926784515381, -0.6254340410232544, -0.374282568693161, -0.5772147178649902, -0.3005855977535248, -0.8744379878044128, -0.36500781774520874, -0.21865488588809967, -0.5772184729576111]
[0.30237334966659546, 0.626929759979248, -0.6173298954963684, 0.87053382396698, 0.5574225187301636, -0.7235373258590698, 0.7520579695701599, -0.8005976676940918, 0.8487915396690369, 0.3165460526943207, 0.8057810664176941, 0.3723226487636566, 0.8656387329101562, 0.600458562374115, 0.4275434911251068, 0.8441285490989685, 0.6249682903289795, 0.482772558927536]
[0.15213046967983246, 0.618947446346283, -0.46827444434165955, 0.5305396914482117, 0.24210400879383087, -0.2783159017562866, 0.10276570171117783, -0.020468199625611305, 0.16428212821483612, 0.6976062655448914, 0.10373010486364365, 0.5726111531257629, 0.6185895800590515, 0.37593764066696167, 0.30676159262657166, 0.3968377411365509, -0.003828983288258314, 0.45829904079437256]
[0.7910670042037964, 0.779107928276062, -0.5245717167854309, 0.3658464550971985, 0.6696189641952515, -0.5947426557540894, 0.23065635561943054, -0.2694542706012726, 0.942783534526825, 0.8791241645812988, 0.5376365184783936, 0.3731115758419037, 0.577059805393219, 0.40101709961891174, 0.7828565239906311, 0.5239858627319336, 0.7429121732711792, 0.7844167351722717]
[-1.0761845111846924, -0.6640167832374573, 1.0065803527832031, -1.171295404434204, -0.9841315150260925, 0.6419933438301086, -0.9081827402114868, 1.215898036956787, -0.5285949110984802, -1.2580265998840332, -0.7508038878440857, -0.7657855749130249, -1.125471591949463, -1.088028073310852, -1.29885733127594, -0.7655402421951294, -0.8396241068840027, -1.1843690872192383]
[0.33790892362594604, -0.08364826440811157, -0.001475929282605648, -0.18895550072193146, 0.03139377385377884, -0.36147409677505493, -0.08059541136026382, -0.23756945133209229, -0.19899818301200867, 0.34919217228889465, 0.34722915291786194, 0.15319204330444336, -0.026882365345954895, -0.1571950912475586, -0.20644749701023102, 0.31326478719711304, -0.22363203763961792, 0.31064096093177795]
[0.4204123616218567, 0.1580348014831543, -0.6888250112533569, 0.47825512290000916, 0.4576241672039032, -0.7050774097442627, 0.9817683696746826, -0.24733708798885345, 0.9781400561332703, 0.7931422591209412, 0.7070901393890381, 0.27772775292396545, 0.47645384073257446, 0.6174665689468384, 0.6760795712471008, 0.5182121396064758, 0.26341408491134644, 0.34214022755622864]
[0.6453220248222351, 0.46377700567245483, -0.4787891209125519, 0.12770448625087738, 0.205082967877388, 0.1410241276025772, 0.23205599188804626, -0.3206813931465149, 0.31314828991889954, 0.5744642019271851, 0.14206646382808685, 0.34122443199157715, 0.7023036479949951, 0.5958103537559509, 0.669028103351593, 0.2051120549440384, 0.236199289560318, 0.8001920580863953]
[-0.673084557056427, -0.16510231792926788, 0.9115586280822754, -0.43087032437324524, -1.0521656274795532, 0.5768285989761353, -0.5075689554214478, 0.7870156168937683, -0.26558926701545715, -0.5707070231437683, -0.7627394795417786, -0.5002025961875916, -0.7097289562225342, -0.41461965441703796, -0.9341457486152649, -0.44042834639549255, -0.40175458788871765, -0.26969507336616516]
[0.7065956592559814, 0.80412757396698, -0.20415225625038147, 0.5889182686805725, 0.5834113955497742, -0.7630054354667664, 0.5635958909988403, -0.42482173442840576, 0.9207352995872498, 0.6312061548233032, 0.901094377040863, 0.671873152256012, 0.6343355178833008, 0.988195538520813, 0.7446262240409851, 0.22523102164268494, 0.7331207394599915, 0.6126736402511597]
[0.3621836304664612, 0.7186161875724792, -0.4562638998031616, 0.8098127245903015, 0.24486182630062103, -0.3619091212749481, 1.019600510597229, -0.619071900844574, 0.9241536259651184, 0.39161768555641174, 0.6164256930351257, 0.5348101258277893, 0.44682037830352783, 1.007046103477478, 0.8809422850608826, 0.46443212032318115, 0.47442731261253357, 0.42740941047668457]
[-0.8793968558311462, -0.8800262808799744, 0.7703612446784973, -0.8516968488693237, -1.1681504249572754, 0.6770449876785278, -0.9440292119979858, 0.9516920447349548, -0.2644944190979004, -0.8731904029846191, -0.900301456451416, -0.6584696769714355, -0.5945091247558594, -0.9078304767608643, -0.8931000828742981, -0.5124089121818542, -0.3259657621383667, -0.9394909143447876]
[-0.42861059308052063, -0.12270704656839371, 0.5644676685333252, -0.5852054953575134, -0.6034656167030334, 0.6213462948799133, -0.05801841989159584, 0.6519716382026672, -0.30286702513694763, -0.02606438659131527, -0.7121930718421936, -0.6048427820205688, -0.3395666778087616, -0.6520488858222961, -0.6792402267456055, -0.2586515247821808, -0.5356656312942505, -0.4151356816291809]
[-0.8432016372680664, -0.8862699270248413, 0.7179142236709595, -0.2627101540565491, -0.36145466566085815, 0.6349064707756042, -0.2157030701637268, 0.38725823163986206, -0.8622241020202637, -0.48646003007888794, -0.6939656734466553, -0.590793788433075, -0.8470268845558167, -0.5736343860626221, -0.7479925751686096, -0.5770556926727295, -0.5942401885986328, -0.3072209358215332]
[0.6770520210266113, 0.320427805185318, -0.5477544665336609, 0.3822215497493744, 0.7052549719810486, -0.3517378866672516, 0.2371058613061905, -0.7529088258743286, 0.3860054910182953, 0.41521236300468445, 0.28075268864631653, 0.6780580878257751, 0.4296683967113495, 0.32760828733444214, 0.27166619896888733, 0.7197070717811584, 0.0988941490650177, 0.5350592136383057]
[0.37204602360725403, 0.6615384817123413, -0.6808145046234131, 0.6548661589622498, 0.38177919387817383, -0.8051720857620239, 0.816957414150238, -0.7148809432983398, 0.5921555161476135, 0.5698031187057495, 0.7936051487922668, 0.413136750459671, 0.8029077649116516, 0.32311344146728516, 0.6909867525100708, 0.5518319606781006, 0.782392680644989, 0.19854915142059326]
[1.3660509586334229, 0.6495368480682373, -0.7320142388343811, 1.0171902179718018, 1.2229526042938232, -1.094093680381775, 0.819643497467041, -1.3446239233016968, 0.8504689335823059, 1.2967861890792847, 1.4968234300613403, 1.2990391254425049, 1.4452918767929077, 0.9401649236679077, 0.9344815015792847, 1.3027416467666626, 0.8793985247612, 1.2529170513153076]
[0.26279789209365845, 0.5604981780052185, -0.095280222594738, 0.5375836491584778, 0.2619263529777527, -0.3687587380409241, -0.01469349954277277, -0.16371507942676544, 0.43936699628829956, 0.5312930941581726, 0.138130322098732, 0.4150584638118744, 0.2781863510608673, 0.2599986791610718, 0.11320308595895767, 0.34514349699020386, 0.31630590558052063, 0.40380170941352844]
[1.3330799341201782, 0.5586515665054321, -1.0610014200210571, 1.1917405128479004, 1.1044586896896362, -0.7824879288673401, 1.1085470914840698, -0.6301681995391846, 1.4405255317687988, 0.9544332027435303, 0.9769148826599121, 1.4596797227859497, 1.100776195526123, 0.7806857228279114, 0.9054573774337769, 0.7821879982948303, 0.6686481833457947, 1.3735933303833008]
[0.46180617809295654, 0.30653950572013855, -0.07628344744443893, 0.5953312516212463, 0.18805384635925293, 0.12784986197948456, -0.13167037069797516, -0.5629560947418213, -0.0868687555193901, 0.19391006231307983, 0.024777257815003395, -0.09598741680383682, 0.36965060234069824, 0.6602204442024231, 0.5960894227027893, 0.17197616398334503, 0.19707660377025604, 0.5545398592948914]
[-0.36745089292526245, -0.6817847490310669, 0.7541391849517822, -0.662112832069397, -1.149489402770996, 0.5928541421890259, -0.4868007302284241, 0.6821134686470032, -0.7268551588058472, -1.022572636604309, -0.7029222846031189, -0.7375652194023132, -1.0080127716064453, -0.8949161171913147, -0.6104755401611328, -0.6903483271598816, -0.7516478896141052, -0.6317827105522156]
[0.23561778664588928, 0.671715497970581, -0.419359415769577, 0.8136011958122253, 0.42327526211738586, -0.8286107182502747, 0.5231747031211853, -0.4819273054599762, 0.3764013946056366, 0.9082764387130737, 0.8562898635864258, 0.4372054636478424, 0.5410051345825195, 0.5326393246650696, 0.9190647602081299, 0.5203474760055542, 0.6237826943397522, 0.9858801960945129]

[-0.8797522187232971, -0.9647971987724304, 0.6561482548713684, -0.8534712791442871, -0.6466683149337769, -0.9196915030479431, -0.22365279495716095, -0.8228288292884827, -0.7534183859825134, -0.02473960444331169, -0.8649670481681824, -0.900970995426178, -0.7211735844612122, -0.7693772912025452, -0.5538602471351624, -0.7132094502449036, -0.5811523795127869, -0.3361455202102661, -0.7783518433570862, -0.997380793094635, -1.8704490661621094, 0.3505307137966156, -0.8582741022109985, -0.8897716403007507, 0.8647797703742981, -0.9915287494659424, -0.8190632462501526, -1.1866358518600464]
[0.2669130265712738, 0.1295149028301239, -0.633838415145874, 0.272043913602829, 0.5539618730545044, 0.703269362449646, 0.789590060710907, 0.5112629532814026, 0.15710808336734772, -0.359934002161026, 0.2920866906642914, 0.31772008538246155, -0.05156548321247101, 0.2583578824996948, 0.9796927571296692, 0.6260425448417664, 0.5032832026481628, 0.7333561778068542, 0.4534667730331421, 0.0923389121890068, -0.7038235068321228, 2.573430061340332, 0.18236811459064484, 0.13727028667926788, -0.6996686458587646, 0.6840755343437195, 0.33972984552383423, -0.2892131507396698]
[0.2529466450214386, 0.3917158246040344, -0.44357621669769287, -0.0798337385058403, 0.3370685577392578, -0.11430417746305466, 0.5707417726516724, 0.5237148404121399, 0.5099080801010132, -0.3240739107131958, 0.26299765706062317, -0.11165744811296463, 0.39582905173301697, 0.11124028265476227, 0.8880650401115417, 0.37127792835235596, 0.043390944600105286, 0.5781837701797485, -0.16192728281021118, -0.14330057799816132, -0.5633053183555603, 2.401542901992798, -0.12447768449783325, 0.18428540229797363, -0.5107407569885254, 0.08921177685260773, -0.0037257263902574778, -0.584749698638916]
[-1.8547453880310059, -2.0703744888305664, 1.4381788969039917, -1.5699832439422607, -1.3297574520111084, -2.093549966812134, -1.1067500114440918, -1.8978079557418823, -1.7154699563980103, 0.1476936787366867, -1.621328592300415, -2.004657030105591, -1.088314414024353, -1.9584565162658691, -1.345517873764038, -1.7509723901748657, -1.6354979276657104, -1.2772694826126099, -1.6757134199142456, -2.1786115169525146, -2.1662538051605225, -0.38454669713974, -2.090092420578003, -2.2694432735443115, 1.4051319360733032, -1.6946547031402588, -1.505805253982544, -1.2591091394424438]
[0.5511802434921265, -0.11436226963996887, -0.2789611518383026, 0.2859744131565094, 0.6125050783157349, 0.44269728660583496, 1.0611728429794312, 0.3391597867012024, 0.2858145534992218, -0.4046747386455536, 0.3246731460094452, 0.5851869583129883, 0.5775821805000305, 0.04478338360786438, 1.4273974895477295, 0.35645872354507446, 0.14847677946090698, 0.8682233691215515, 0.009449434466660023, 0.3679843246936798, -0.31606122851371765, 2.1514458656311035, 0.4239997863769531, 0.0717822015285492, -0.09109366685152054, 0.4193113446235657, 0.1415993869304657, -0.5315922498703003]
[0.510435938835144, 0.09254530817270279, -0.22126007080078125, 0.4010832905769348, 0.6425603032112122, 0.3314337134361267, 0.8679947257041931, 0.7656174898147583, 0.09419580549001694, -0.8803809881210327, 0.72893226146698, 0.3951875567436218, 0.07089366018772125, 0.1445937305688858, 0.884340763092041, -0.04181751608848572, 0.31660711765289307, 0.5990242958068848, -0.036231447011232376, 0.5593448281288147, -0.5238290429115295, 1.8398008346557617, 0.617289125919342, 0.583446741104126, -0.15069112181663513, 0.06565620005130768, 0.20244915783405304, -0.612618088722229]
[-1.3025760650634766, -1.9505298137664795, 1.3035142421722412, -1.5659613609313965, -1.3603358268737793, -2.088406801223755, -1.0284807682037354, -1.6632806062698364, -1.6414144039154053, 0.019209086894989014, -1.559956669807434, -1.611824631690979, -1.3331650495529175, -1.3099297285079956, -1.3083008527755737, -1.4198428392410278, -1.3607527017593384, -1.319130778312683, -1.784791350364685, -1.985182762145996, -2.6333625316619873, -0.6425031423568726, -1.7293092012405396, -2.2111454010009766, 1.428169846534729, -1.9171720743179321, -1.5985058546066284, -1.2821401357650757]
[0.39180418848991394, 0.2702164351940155, 0.012909956276416779, -0.03838546574115753, 0.22277198731899261, 0.3651617765426636, 0.706166684627533, 0.019635329023003578, -0.008430403657257557, -0.17481346428394318, 0.46041208505630493, 0.015271973796188831, -0.03208903223276138, -0.01189478486776352, 1.1202073097229004, 0.391287624835968, 0.36908307671546936, 0.5263890027999878, 0.29920580983161926, 0.2354038804769516, -0.7292592525482178, 2.53031587600708, 0.27712687849998474, 0.44797366857528687, -0.5490943789482117, 0.1426072120666504, 0.2533763349056244, -0.3154522478580475]
[-1.664320468902588, -2.068617820739746, 1.5649844408035278, -1.5919486284255981, -1.4252820014953613, -2.176875114440918, -1.3645137548446655, -2.0134809017181396, -1.7476670742034912, 0.44321420788764954, -1.6898764371871948, -1.8284071683883667, -1.660720944404602, -1.489517092704773, -1.295773983001709, -1.4646106958389282, -1.5691559314727783, -0.7503044009208679, -1.598742127418518, -2.055171251296997, -2.147340774536133, -0.4518040716648102, -1.9637014865875244, -2.0929431915283203, 1.4036924839019775, -2.0542962551116943, -1.4206902980804443, -1.0389996767044067]
[-0.1577507108449936, 0.4429108798503876, -0.2773264944553375, 0.213104248046875, 0.30773788690567017, 0.35262608528137207, 1.101832389831543, 0.04052127152681351, 0.05677655711770058, -0.11738298833370209, 0.05358557030558586, 0.17862500250339508, -0.061428528279066086, 0.5553902387619019, 0.9875090718269348, 0.2860054075717926, 0.42311185598373413, 0.9446287751197815, 0.13448086380958557, 0.37432801723480225, -0.8692207932472229, 2.3146002292633057, 0.19435402750968933, -0.18025636672973633, -0.0968247577548027, -0.01834854856133461, 0.2833634614944458, -0.49655285477638245]
[0.15751588344573975, 0.3668987452983856, -0.5005939602851868, 0.6052300930023193, 0.029053878039121628, 0.3202526867389679, 1.2910094261169434, 0.3175233006477356, 0.07407185435295105, -0.3389069437980652, 0.5577332377433777, 0.23252712190151215, 0.47485530376434326, 0.6083632111549377, 1.391260027885437, 0.22436951100826263, 0.020777106285095215, 1.2800345420837402, 0.5424857139587402, 0.34812015295028687, -0.5071333646774292, 2.448336601257324, 0.6768984794616699, 0.6704131960868835, -0.533064067363739, 0.6824930310249329, 0.6814575791358948, -0.6554099917411804]
[0.3245045840740204, 0.6385449171066284, 0.13874384760856628, 0.39507246017456055, 0.2079315185546875, 0.21885517239570618, 1.112322449684143, 0.4848001301288605, 0.5889059901237488, -0.5658348202705383, 0.4292181134223938, 0.36979809403419495, 0.7456657886505127, 0.800305962562561, 1.5974770784378052, 0.3865799903869629, 0.4672231376171112, 1.312657356262207, 0.45211276412010193, 0.6038805246353149, -0.6580040454864502, 2.123718738555908, 0.3056824207305908, 0.7899004220962524, -0.5441075563430786, 0.21107740700244904, 0.6812105774879456, -0.30216413736343384]
[0.42987313866615295, 0.36699554324150085, -0.06529214233160019, 0.35717323422431946, 0.38471248745918274, 0.23509304225444794, 0.7053249478340149, 0.11388973146677017, 0.41055765748023987, -0.42874282598495483, 0.00825265422463417, 0.5891751050949097, 0.3713759779930115, 0.4143648147583008, 0.881066620349884, 0.4961274564266205, 0.09957849234342575, 1.0404552221298218, 0.5904898047447205, 0.026764892041683197, -0.34982484579086304, 2.200664520263672, 0.22437049448490143, 0.20786327123641968, -0.13387560844421387, 0.24249199032783508, 0.3123781383037567, -0.19361798465251923]
[0.4196127653121948, 0.49278056621551514, -0.658288836479187, 0.6269792914390564, 0.1432785838842392, 0.16169781982898712, 1.0220637321472168, 0.5898416042327881, 0.2717880308628082, -0.5770650506019592, 0.6923915147781372, 0.6846810579299927, 0.3675052225589752, 0.6032465100288391, 1.47883939743042, 0.32622411847114563, 0.024955416098237038, 1.1924350261688232, 0.47645434737205505, 0.10211680829524994, -0.35228294134140015, 2.6182568073272705, 0.7321909666061401, 0.7925232648849487, -0.23898036777973175, 0.3979622721672058, 0.5797164440155029, -0.4266781806945801]
[0.4373283088207245, 0.02089664340019226, -0.2901207208633423, 0.43444451689720154, 0.2960406243801117, 0.3363274931907654, 0.9595743417739868, 0.12321767956018448, -0.04566579684615135, -0.5702807903289795, 0.2698076367378235, 0.27488821744918823, 0.30446556210517883, 0.07681859284639359, 1.0885800123214722, 0.4125194549560547, 0.2415965348482132, 1.0482267141342163, -0.038231365382671356, 0.3834579885005951, -0.2650136947631836, 1.9887170791625977, 0.5089938640594482, 0.47839123010635376, -0.10932505875825882, 0.47558531165122986, 0.0926613137125969, -0.34996047616004944]
[0.451426237821579, 0.573458731174469, -0.7352747917175293, 0.16265565156936646, 0.646604061126709, 0.22759360074996948, 0.9807687997817993, 0.3303263187408447, 0.6685896515846252, -0.4277569353580475, 0.5366925597190857, 0.8150281310081482, 0.20592331886291504, 0.5637655854225159, 1.0258201360702515, 0.1999082714319229, 0.7168749570846558, 1.0089445114135742, 0.6500570774078369, 0.49422380328178406, -0.551192581653595, 2.066767692565918, 0.5503660440444946, 0.2664707899093628, -0.35713955760002136, 0.21715714037418365, 0.6380558609962463, -0.06967123597860336]
[0.10023853927850723, 0.16628921031951904, -0.251697301864624, 0.15746015310287476, 0.2980469763278961, -0.25293266773223877, 0.6329011917114258, 0.30085310339927673, 0.5238461494445801, -0.4853934645652771, -0.1839018315076828, -0.06853239238262177, 0.40302276611328125, 0.5245641469955444, 0.9253129959106445, -0.18237097561359406, 0.0209487471729517, 0.37397176027297974, 0.35084059834480286, 0.1525902897119522, -0.7722213268280029, 2.458859443664551, 0.20872142910957336, 0.01539414469152689, -0.45621150732040405, -0.01654518023133278, 0.18641045689582825, -0.04875672608613968]
[-0.02940310537815094, 0.3920959532260895, 0.0583607442677021, 0.20277522504329681, -0.05448783561587334, -0.17832203209400177, 1.1434389352798462, 0.029556134715676308, 0.07439997792243958, -0.17199185490608215, 0.14078177511692047, -0.21350988745689392, 0.07304742932319641, 0.025080859661102295, 1.0773515701293945, 0.14124535024166107, 0.38374659419059753, 0.7395683526992798, 0.023955294862389565, 0.19730165600776672, -0.8132355809211731, 2.2672934532165527, 0.14787010848522186, -0.05019592493772507, 0.001390709076076746, 0.3071395754814148, 0.25333213806152344, -0.6575374007225037]
[0.04902184382081032, 0.22016312181949615, -0.31120848655700684, 0.26735490560531616, 0.20320577919483185, 0.55846107006073, 1.1709537506103516, 0.5795644521713257, 0.1325669139623642, -0.08282852172851562, 0.06413264572620392, 0.3159186840057373, 0.0640278235077858, 0.21126042306423187, 1.0170656442642212, 0.09756847470998764, 0.09378203749656677, 0.6509853601455688, 0.1335102617740631, 0.5225061178207397, -0.8062770962715149, 2.081242799758911, 0.1771257221698761, 0.20985817909240723, -0.3763253092765808, 0.1892024725675583, -0.11035992205142975, -0.2210196703672409]

[-0.7126092910766602, -0.3197801411151886, -0.538957417011261, -0.9019600749015808, -0.750277042388916, 0.665195643901825, -0.8889225721359253, -0.20476298034191132, -0.9048010110855103, -1.4416322708129883, 0.1593392938375473, 0.07061022520065308, 0.39011120796203613, -1.8526246547698975, 0.5456055402755737, -1.4484423398971558, -0.514260470867157, -2.0545578002929688, -0.06669612228870392, 1.1199308633804321, -2.2620632648468018, -0.7518373131752014, 0.7328863143920898, -0.18660792708396912, -1.6245081424713135, 0.9756801128387451, -1.1986057758331299, -0.9984014630317688, -0.8235522508621216, -1.323835849761963, -0.28145426511764526, -0.6542101502418518, -1.0185736417770386, 0.2648680508136749, -0.5102622509002686, -0.5715576410293579, -0.7371805310249329, -0.5552897453308105]
[1.0669950246810913, 0.17490050196647644, -2.4753425121307373, 0.8040404319763184, -1.915291428565979, 0.6212130188941956, 0.06905730813741684, 0.11941054463386536, 0.29210200905799866, -1.393404245376587, -1.4298858642578125, 0.08855617791414261, 0.7919838428497314, -1.215637445449829, 0.2978208065032959, 0.2432282716035843, 1.186729907989502, -0.7880637645721436, 0.4052804112434387, 0.6319277882575989, -0.7493649125099182, 0.15036335587501526, -0.7339213490486145, -0.907124936580658, -1.592940330505371, 0.6156308054924011, 0.5999895930290222, 0.26006537675857544, 0.43936917185783386, 0.38663381338119507, 0.4568035304546356, 0.46761736273765564, 0.23300759494304657, 0.6439441442489624, 0.5303603410720825, 1.5980968475341797, 0.4619912803173065, 0.05922982096672058]
[1.2040537595748901, 0.3192838728427887, -2.287860155105591, 1.1705201864242554, -1.5472538471221924, 0.6257534623146057, 0.3551867604255676, 0.31514662504196167, 0.7035420536994934, -1.388944149017334, -1.4760980606079102, 0.2887970209121704, 0.5140995383262634, -0.7767314314842224, 0.16554583609104156, 0.35205161571502686, 1.522786021232605, -0.678483784198761, 0.5964796543121338, 0.6959380507469177, -0.33019885420799255, -0.10215435922145844, -0.6268258690834045, -0.7446009516716003, -0.885348916053772, 0.9843850135803223, 0.6457079648971558, 0.6577473282814026, 0.6356028914451599, 0.4607226252555847, 0.5208699107170105, 0.5581089854240417, 0.9162405729293823, 0.6759340763092041, 0.31060296297073364, 1.4425493478775024, 0.17485490441322327, 0.344651460647583]
[-0.7974109649658203, -0.3144553303718567, -0.10851610451936722, -0.9271755814552307, -0.4350525140762329, 0.7292801141738892, -1.2360422611236572, -0.3837767541408539, -1.2707301378250122, -1.4576343297958374, 0.06133267283439636, -0.0072710695676505566, 0.5053266882896423, -1.6668329238891602, 0.35505837202072144, -2.3507962226867676, -0.39525318145751953, -2.0711889266967773, -0.18413320183753967, 1.3206360340118408, -2.03786563873291, -0.5644534826278687, 1.0699933767318726, -0.12863385677337646, -1.3120540380477905, 0.9586570858955383, -1.8678629398345947, -1.7287538051605225, -0.907241702079773, -1.6728286743164062, -0.44502902030944824, -0.4612314701080322, -1.4422720670700073, 0.19330339133739471, -0.7068883180618286, -0.8228555917739868, -1.2408504486083984, -0.79298335313797]
[1.1994892358779907, 0.21305322647094727, -2.0336596965789795, 0.978719174861908, -1.9440486431121826, 0.479680597782135, 0.1075848788022995, 0.41990038752555847, 0.4075937867164612, -1.5572854280471802, -1.1622679233551025, 0.47364091873168945, 0.876590371131897, -1.0967869758605957, 0.34241923689842224, 0.38246655464172363, 1.1327975988388062, -0.8110939264297485, 0.47128239274024963, 0.40643414855003357, -0.7743549942970276, 0.10329681634902954, -0.551500141620636, -0.37481021881103516, -1.0466011762619019, 0.5450907945632935, 0.4087825417518616, 0.22645044326782227, -0.0039825220592319965, 0.5603275299072266, 0.6148859262466431, 0.13766296207904816, 0.6541653871536255, 0.17970572412014008, 0.206979900598526, 1.7998180389404297, 0.19829560816287994, 0.2708335816860199]
[0.6152773499488831, 0.32399982213974, -2.280891180038452, 0.7535349130630493, -2.126577615737915, 0.9739042520523071, 0.17934365570545197, 0.5130156874656677, 0.6408072113990784, -1.3776930570602417, -1.3397648334503174, 0.3542161285877228, 0.9970793724060059, -1.0752596855163574, 0.32828280329704285, 0.6273036003112793, 1.2112162113189697, -0.8800762891769409, 0.2167040854692459, 0.4180450439453125, -0.30354043841362, -0.27109354734420776, -0.36237969994544983, -0.5336993336677551, -1.2156733274459839, 0.8374205827713013, 0.5396878719329834, 0.5964782238006592, 0.16568396985530853, 0.2221919745206833, 0.3688926100730896, 0.1021684855222702, 0.16282735764980316, 0.1259923130273819, 0.020730067044496536, 1.3051573038101196, 0.23445744812488556, 0.3929528295993805]
[1.4962658882141113, 0.37168726325035095, -2.1203649044036865, 1.0449233055114746, -1.9538112878799438, 0.6545134782791138, 0.2948111295700073, 0.6378890872001648, 0.6057652235031128, -1.2990162372589111, -1.579408884048462, 0.2985612750053406, 0.9137235283851624, -0.7344202399253845, 0.17623302340507507, 0.8098000288009644, 1.6771914958953857, -0.4294797480106354, 0.20466849207878113, 0.6585068106651306, -0.8160017132759094, 0.014034614898264408, -0.9737721681594849, -0.6093817949295044, -1.368060827255249, 0.526568591594696, 0.2798041105270386, 0.6687014698982239, 0.6150069236755371, 0.5440640449523926, 0.7293752431869507, 0.4438180923461914, 0.6586296558380127, 0.5147127509117126, 0.4152367413043976, 2.057072877883911, 0.5012247562408447, 0.49108219146728516]
[0.9658370018005371, 0.13235022127628326, -2.2337875366210938, 1.0927467346191406, -2.117709159851074, 1.5101488828659058, 0.11671031266450882, 0.39242395758628845, 0.3129903972148895, -1.1342225074768066, -0.600005030632019, -0.07590267807245255, 0.8064324855804443, -0.6622034311294556, 1.1520291566848755, 0.398983895778656, 1.4872043132781982, -0.876489520072937, 0.12680624425411224, 0.9366495609283447, -0.5132319331169128, 0.33207589387893677, 0.22309646010398865, -0.37288010120391846, -1.2310601472854614, 1.5618594884872437, 0.10226605832576752, 0.10042399913072586, 0.46739453077316284, -0.0986112654209137, 0.19499118626117706, 0.19838359951972961, 0.6100611686706543, 0.21961307525634766, 0.6866537928581238, 1.64291512966156, -0.021112309768795967, -0.11008474230766296]
[1.1771987676620483, 0.31874194741249084, -2.296480655670166, 0.8632636666297913, -1.9423762559890747, 0.4931775629520416, 0.5785829424858093, 0.2252633422613144, 0.7415710687637329, -1.0365142822265625, -1.4100524187088013, 0.4234866201877594, 0.7833966016769409, -0.6633299589157104, 0.6539293527603149, 0.5449642539024353, 1.465923547744751, -0.5229120254516602, 0.2588217854499817, 0.8599818348884583, -0.4709799289703369, -0.37725570797920227, -0.6921027302742004, -0.3159337639808655, -1.3251184225082397, 0.8504514694213867, 0.6455142498016357, 0.6801932454109192, 0.6438831686973572, 0.7893581390380859, 0.7017982006072998, 0.2766329348087311, 0.27021554112434387, 0.6880342960357666, 0.2907469570636749, 1.3153691291809082, 0.5543075203895569, 0.11941461265087128]
[1.0548698902130127, 0.33993881940841675, -2.104410409927368, 0.6450292468070984, -1.9754257202148438, 1.1906840801239014, -0.002945300657302141, 0.5054855942726135, 0.6454526782035828, -1.2690879106521606, -0.8634263277053833, 0.3248530626296997, 0.7886865735054016, -0.7524438500404358, 0.35332170128822327, 0.6437255144119263, 1.1039628982543945, -0.8496311902999878, 0.44989854097366333, 0.7450087070465088, -0.4955774247646332, -0.12568806111812592, -0.24732725322246552, -0.6888577938079834, -1.3236576318740845, 0.7003713250160217, 0.29468870162963867, 0.6346455216407776, 0.4694429934024811, 0.558869481086731, 0.5526021122932434, 0.6681987047195435, 0.726190984249115, 0.36853063106536865, 0.3005393445491791, 1.4596248865127563, 0.3828307092189789, 0.31186604499816895]
[-0.36699265241622925, -0.1251412034034729, 0.1796294003725052, -1.3274308443069458, -0.29281261563301086, 0.7795449495315552, -0.8631744980812073, -0.10969707369804382, -1.2297096252441406, -1.5640685558319092, -0.012799627147614956, 0.22174374759197235, 0.10737045854330063, -1.508845329284668, 0.296210378408432, -2.5105772018432617, -0.5674786567687988, -1.4688128232955933, -0.10740916430950165, 1.2474383115768433, -2.3843483924865723, -0.40335097908973694, 0.32663196325302124, -0.09514464437961578, -1.451176404953003, 0.9624940752983093, -1.529905080795288, -1.819646954536438, -0.07229214906692505, -1.2479491233825684, -0.08870895206928253, -0.38087061047554016, -1.9547940492630005, 0.42187729477882385, -0.5580149292945862, -0.60247802734375, -1.8710066080093384, -1.0390655994415283]
[0.9454689621925354, 0.655766487121582, -2.236628532409668, 1.008862018585205, -2.0127103328704834, 0.8403369188308716, 0.18088914453983307, 0.2233862280845642, 0.44527891278266907, -1.127761721611023, -1.1681655645370483, 0.7089690566062927, 0.6633853912353516, -0.7732321619987488, 0.6705775260925293, 0.1903178095817566, 1.6469932794570923, -0.9258840084075928, 0.28472819924354553, 0.5677493810653687, -0.6351215839385986, -0.3298366069793701, -0.5716785788536072, -0.39914464950561523, -1.394836187362671, 0.7903481721878052, 0.3899441957473755, 0.5001777410507202, 0.2558428645133972, 0.46326109766960144, 0.564410388469696, 0.2700672149658203, 0.28551915287971497, 0.7730901837348938, 0.4692092537879944, 1.5638870000839233, 0.5439854860305786, 0.506467878818512]
[0.9409244060516357, 0.37776198983192444, -2.0720818042755127, 1.1169376373291016, -1.794122338294983, 0.7829834818840027, 0.4731828570365906, 0.19643470644950867, 0.7518749237060547, -1.3856381177902222, -1.5861754417419434, 0.25151121616363525, 0.9739257097244263, -0.9754124879837036, 0.32227933406829834, 0.3352273106575012, 1.2902328968048096, -0.6531296372413635, 0.3135542571544647, 0.24437153339385986, -0.640587568283081, 0.09894576668739319, -0.799346387386322, -0.45951157808303833, -1.4583066701889038, 0.7157977223396301, 0.1351086050271988, 0.7916843295097351, 0.462986022233963, 0.7208727598190308, 0.43735769391059875, 0.32091379165649414, 0.5170683264732361, 0.2732173204421997, 0.5224249958992004, 1.2976356744766235, 0.004721767269074917, -0.05252290517091751]
[1.0790013074874878, 0.07990926504135132, -1.9157103300094604, 1.0593287944793701, -1.755236268043518, 0.8515934348106384, 0.4384751617908478, 0.471271812915802, 0.11476396024227142, -1.3679852485656738, -1.1948271989822388, 0.05142327770590782, 1.0088733434677124, -0.7390546202659607, 0.39733755588531494, 0.390569269657135, 1.283247709274292, -0.9967349767684937, 0.5002608895301819, 0.8688691854476929, -0.26743578910827637, -0.03200314939022064, -0.07003306597471237, -0.7321768403053284, -1.4852161407470703, 1.0610144138336182, 0.13347934186458588, 0.6057037115097046, 0.3758746087551117, 0.21822619438171387, 0.07191450893878937, 0.4182044565677643, 0.3869134187698364, 0.6728305816650391, 0.46753376722335815, 1.267431616783142, 0.4190938472747803, 0.5280384421348572]
[0.7580525279045105, 0.5984405279159546, -2.2154123783111572, 0.6876099109649658, -1.5857104063034058, 0.7044299840927124, 0.386596143245697, 0.3529219329357147, 0.7110441327095032, -1.0860633850097656, -1.2422726154327393, 0.6123021245002747, 1.0300045013427734, -0.993222713470459, 0.25025442242622375, 0.34599068760871887, 0.9934455752372742, -0.7391197085380554, 0.3990134000778198, 0.937353253364563, -0.6644152402877808, -0.45014750957489014, -0.7565451264381409, -0.559680700302124, -1.2115592956542969, 1.0257805585861206, 0.05137128755450249, 0.2438203990459442, 0.35950717329978943, 0.2036028951406479, 0.4259083569049835, 0.3755001425743103, 0.2309941202402115, 0.3590923547744751, 0.31909605860710144, 1.3802409172058105, 0.18542668223381042, 0.2684045433998108]
[1.1019607782363892, -0.10993306338787079, -1.9165209531784058, 0.5803438425064087, -2.086205244064331, 1.7314602136611938, -0.29663804173469543, 0.17061296105384827, 0.2477959394454956, -1.2033288478851318, -0.650362491607666, 0.19102522730827332, 0.7960022687911987, -1.1915252208709717, 0.7742111086845398, 0.4447794258594513, 1.2929550409317017, -0.8831644654273987, 0.6305302977561951, 0.7500245571136475, -0.24207434058189392, 0.4352155923843384, 0.3594646155834198, -0.44415315985679626, -1.1469157934188843, 1.1879627704620361, -0.20967097580432892, 0.30187925696372986, 0.06223880872130394, 0.20049482583999634, 0.20559482276439667, 0.6456273794174194, -0.08302760124206543, -0.07297718524932861, 0.9387310147285461, 1.7841745615005493, 0.038821231573820114, -0.2568003833293915]
[0.9336262941360474, 0.5703873634338379, -2.1027987003326416, 0.7821806073188782, -2.1146090030670166, 0.7956600189208984, 0.07930266857147217, 0.2276313751935959, 0.4661281704902649, -1.0935930013656616, -0.9174214601516724, 0.30855417251586914, 0.8496853709220886, -0.6030139327049255, 0.21564684808254242, 0.26766636967658997, 1.1741870641708374, -0.5961957573890686, 0.19692640006542206, 0.33249837160110474, -0.8313963413238525, 0.11567506939172745, -0.38765445351600647, -0.5783088803291321, -1.2650612592697144, 0.7162245512008667, 0.3399754464626312, 0.3000456690788269, 0.01417095959186554, 0.4070577025413513, 0.2958179712295532, 0.23052950203418732, 0.8379027247428894, 0.42458441853523254, 0.5945063829421997, 1.706699013710022, 0.2395334392786026, 0.24630634486675262]
[0.8151517510414124, 0.536651611328125, -2.1171765327453613, 0.9563438296318054, -1.8445767164230347, 0.6560962796211243, 0.0739855170249939, 0.31949636340141296, 0.7150430083274841, -1.2229106426239014, -1.0089240074157715, 0.4087141752243042, 0.9537215828895569, -0.939363420009613, 0.6587477922439575, 0.36721065640449524, 1.4223078489303589, -1.1218476295471191, 0.23663686215877533, 0.6854397654533386, -0.4391101002693176, -0.24784831702709198, -0.49531814455986023, -0.5736820697784424, -1.0554391145706177, 0.9543888568878174, 0.13769114017486572, 0.49723321199417114, 0.005165351089090109, 0.4491075277328491, 0.5398880243301392, 0.47062283754348755, 0.1567814201116562, 0.40861064195632935, 0.5374855399131775, 1.4905591011047363, 0.2904529869556427, 0.369376003742218]
[1.4441986083984375, 0.3920447528362274, -2.18648099899292, 0.9112269282341003, -2.0117154121398926, 0.9362261295318604, 0.17316745221614838, 0.6484972834587097, 0.3173618018627167, -1.521918535232544, -1.1400976181030273, 0.057614631950855255, 0.36865347623825073, -0.9343972206115723, 0.4868271052837372, 0.03089803084731102, 1.5315732955932617, -1.1112264394760132, 0.30426207184791565, 0.5374420881271362, -0.4426988959312439, 0.04432103410363197, 0.09226743131875992, -0.6564427018165588, -1.426700472831726, 1.3740788698196411, 0.4009566307067871, 0.18059414625167847, 0.30238601565361023, -0.2112882286310196, 0.42797645926475525, 0.20086418092250824, 0.4991373121738434, 0.5557569861412048, 0.8214514255523682, 1.9243183135986328, 0.4843338131904602, 0.4790823459625244]
