[0.0, -0.030495179817080498, 0.0, 0.0, -0.014631666243076324, -0.06262663006782532, -0.011013287119567394, -0.08171181380748749, 0.30151626467704773, 0.32070738077163696, 0.26546528935432434, -0.038332320749759674, -0.10799901932477951, 0.19473999738693237, -0.07336430251598358, -0.033785488456487656, -0.06571411341428757, 0.0]
[0.28680527210235596, 0.23390759527683258, 0.033700406551361084, -0.2893342971801758, -0.21577724814414978, -0.11248224228620529, 0.11008206009864807, 0.41204607486724854, 2.4688916206359863, 2.3941264152526855, 2.510338068008423, -0.31543728709220886, -1.0854934453964233, 2.8915586471557617, -0.19912606477737427, 0.17162126302719116, 1.4192876815795898, 0.08876681327819824]
[-0.0002810657024383545, -0.014250134117901325, 0.07629510760307312, -0.10552944242954254, 0.2480401247739792, -0.10740078240633011, 0.0806698277592659, -0.032651010900735855, 0.19305607676506042, 0.07562891393899918, 0.26371854543685913, -0.07491613179445267, -0.10540235787630081, 0.11337131261825562, -0.02152278833091259, 0.1529029756784439, -0.15011686086654663, -0.12284669280052185]
[-0.18202662467956543, 0.2820039987564087, -0.1688190996646881, -0.14773999154567719, -0.10345898568630219, -0.2512091100215912, -0.2873237431049347, 0.11355629563331604, 0.12454843521118164, 0.05811804533004761, -0.2524733543395996, 0.016908854246139526, 0.2750393748283386, 0.08294951915740967, -0.1754608452320099, -0.23313218355178833, -0.019598335027694702, 0.19463294744491577]
[-0.1447528451681137, -0.02264907956123352, -0.11674048006534576, 0.023345381021499634, 0.22461289167404175, 0.1309061050415039, 0.10426059365272522, 0.26430851221084595, 0.29622530937194824, 0.093473881483078, 0.2522319555282593, -0.2862744927406311, -0.00030538439750671387, -0.02016398310661316, 0.2209046483039856, -0.029779672622680664, -0.19239407777786255, -0.26610487699508667]
[0.17534741759300232, -0.2552012801170349, -0.200307697057724, 0.14387589693069458, 0.18919214606285095, -0.2547798156738281, 0.05028188228607178, -0.21636205911636353, -0.03758302330970764, 0.26993119716644287, -0.010232657194137573, 0.04375717043876648, 0.10643032193183899, 0.2584063410758972, -0.24142701923847198, -0.2680218517780304, 0.00532984733581543, -0.1156911700963974]
[-0.18310950696468353, 0.27112194895744324, -0.1322038620710373, -0.19543801248073578, -0.2298206239938736, -0.36323779821395874, -0.14380677044391632, 0.04287901148200035, -0.3906155526638031, -0.15693189203739166, -0.17223481833934784, 0.14311352372169495, 0.6664195656776428, -0.8056966066360474, 0.014619924128055573, -0.25247931480407715, -0.7777471542358398, -0.27229225635528564]
[-0.020762890577316284, 0.06073625013232231, 0.06188154220581055, 0.026306211948394775, 0.05841702222824097, -0.10066719353199005, -0.16859076917171478, -0.2824757695198059, 0.4642554223537445, 0.2641048729419708, 0.327897846698761, -0.18747268617153168, -0.10016538947820663, 0.18932247161865234, 0.1914830356836319, -0.15764370560646057, -0.2467522770166397, -0.04947742819786072]
[-0.18935129046440125, -0.038488779217004776, 0.09474432468414307, 0.12725812196731567, 0.24956369400024414, -0.35031411051750183, -0.10158390551805496, -0.0585915744304657, 0.3903566896915436, -0.01187394093722105, 0.19519947469234467, 0.08176028728485107, -0.3915194869041443, 0.22918665409088135, -0.24866409599781036, 0.04967228323221207, -0.38020405173301697, -0.06335966289043427]
[-0.2877746820449829, -0.08592656254768372, 0.09308406710624695, -0.01623666286468506, -0.027662957087159157, 0.10721703618764877, 0.04172392189502716, 0.15547582507133484, 0.2715209722518921, 0.19567814469337463, 0.023295940831303596, 0.17467744648456573, 0.42953330278396606, -0.1112518236041069, 0.10622214525938034, 0.10839278995990753, 0.05180530995130539, -0.10438819229602814]
[0.14205273985862732, -0.11129148304462433, 0.14882072806358337, 0.1838841438293457, 0.15435513854026794, -0.3096071183681488, -0.23088739812374115, 0.04321694001555443, -0.2127935141324997, 0.31839534640312195, 0.08814702183008194, 0.05381728336215019, -0.19800965487957, -0.08241808414459229, -0.10582243651151657, 0.03205147758126259, -0.10957290232181549, 0.19510886073112488]
[-0.09467971324920654, 0.14909319579601288, -0.28942185640335083, -0.09835401177406311, -0.09802792966365814, 0.2244844287633896, 0.2421691119670868, 0.10299506783485413, 0.5547630190849304, 0.4261249601840973, 0.03106538951396942, 0.0675974115729332, 0.10697925835847855, 0.46105337142944336, -0.029226593673229218, -0.29420360922813416, 0.12974026799201965, 0.2786328196525574]
[-0.18844911456108093, -0.240458145737648, 0.21294879913330078, -0.16045048832893372, 0.18086665868759155, -0.40421417355537415, 0.1162227913737297, -0.39446672797203064, -0.04740632697939873, -0.24603575468063354, 0.11884540319442749, -0.25463664531707764, -0.1665482372045517, -0.18188050389289856, -0.12394571304321289, -0.3402756452560425, -0.42086097598075867, -0.2976628541946411]
[-0.2987237572669983, -0.2392929345369339, 0.2246919870376587, -0.1574394851922989, 0.09635194391012192, -0.10958043485879898, 0.2095659226179123, 0.13538113236427307, 0.1019168421626091, 0.08170456439256668, -0.3285181522369385, 0.14874547719955444, 0.5889862775802612, -0.31423282623291016, -0.061095185577869415, 0.35252875089645386, -0.4347846508026123, 0.16857051849365234]
[-0.11135745048522949, -0.11286186426877975, -0.010159790515899658, 0.04971390962600708, 0.1633128523826599, 0.11179272085428238, -0.2567240297794342, -0.34556087851524353, 0.28933122754096985, -0.05700397491455078, -0.23782896995544434, -0.18865223228931427, -0.17137648165225983, -0.21320292353630066, -0.27357959747314453, 0.1790653020143509, -0.3818387985229492, -0.25335532426834106]
[-0.061422765254974365, 0.07122096419334412, -0.13706982135772705, 0.20243138074874878, -0.2539824843406677, 0.2043420672416687, 0.07507782429456711, 0.11538255214691162, 0.13135971128940582, 0.3611140549182892, 0.38885197043418884, -0.047028087079524994, -0.3215968906879425, 0.13768410682678223, 0.029629427939653397, -0.3291812837123871, -0.12405487149953842, -0.07113958895206451]
[0.14813688397407532, 0.08501149713993073, 0.22629433870315552, -0.2301103174686432, -0.28639474511146545, 0.029525907710194588, -0.05796888843178749, 0.013412436470389366, 0.39701056480407715, 0.12495412677526474, -0.023359406739473343, -0.0416659377515316, -0.3957066237926483, -0.07977274060249329, -0.3595069348812103, -0.1751859188079834, -0.26856696605682373, -0.1732729971408844]
[-0.2783743739128113, 0.1086866557598114, -0.15654903650283813, 0.19138696789741516, -0.019709041342139244, 0.5128365159034729, -0.08640637993812561, 0.3782865107059479, 0.047174643725156784, 0.3107316195964813, 0.16625913977622986, 0.19079120457172394, 2.389777421951294, -0.08442598581314087, 0.7395634651184082, 0.9998080730438232, -0.445838063955307, 0.24479526281356812]
[0.13922202587127686, 0.2013799399137497, -0.18871402740478516, -0.21912391483783722, -0.03770866245031357, -0.42018944025039673, 0.16643284261226654, 0.04065344110131264, -0.06934577971696854, 0.13551075756549835, 0.07370101660490036, -0.3056158125400543, -0.45888715982437134, 0.10580561310052872, 0.004683324601501226, -0.21161293983459473, -0.35113197565078735, -0.07984030246734619]
[-0.23068834841251373, 0.12132278829813004, -0.24959808588027954, -0.08351100981235504, -0.2014395296573639, -0.25006553530693054, -0.2363259196281433, 0.06378091871738434, 0.2847701609134674, 0.019612308591604233, 0.41615843772888184, 0.07286015897989273, 0.0922795832157135, 0.28584423661231995, -0.032391294836997986, 0.24863852560520172, -0.10289208590984344, -0.2568989396095276]
[0.13965994119644165, -0.007242019288241863, 0.03457948565483093, -0.11709143221378326, -0.19581855833530426, -0.39145025610923767, -0.3050299286842346, -0.48838040232658386, 0.14275020360946655, 0.018609607592225075, -0.23640017211437225, 0.11909334361553192, -0.6157616972923279, -0.4133235514163971, 0.09691228717565536, -0.04751948267221451, -0.44857504963874817, 0.10310769081115723]
[0.04621407389640808, -0.2300005853176117, 0.2559407353401184, 0.29877597093582153, 0.06818455457687378, -0.17002829909324646, 0.2888171076774597, 0.03965160250663757, -0.2242233008146286, -0.11837956309318542, -0.37433186173439026, -0.24262994527816772, -0.3423917591571808, -0.24498039484024048, -0.008645176887512207, -0.20818978548049927, -0.40834587812423706, 0.231218159198761]
[-0.13619503378868103, 0.09047220647335052, 0.23386895656585693, -0.02742224931716919, -0.17310205101966858, 0.2792387306690216, -0.22285445034503937, 0.14993545413017273, 0.009602532722055912, 0.09761494398117065, -0.29516205191612244, 0.19197984039783478, 0.3321889340877533, -0.40119248628616333, 0.22929096221923828, 0.06622572243213654, -0.5911192893981934, 0.26219886541366577]
[-0.1312226951122284, 0.19595997035503387, 0.0547005832195282, -0.1257261484861374, -0.06942924112081528, 0.14177028834819794, -0.29023370146751404, 0.18563814461231232, 0.5167816877365112, 0.5014439821243286, 0.19841043651103973, 0.038022950291633606, -0.2627359628677368, 0.3112157881259918, 0.19838742911815643, 0.08680250495672226, -0.01167407538741827, 0.11385324597358704]
[-0.15075582265853882, -0.255413293838501, 0.22344273328781128, -0.007948994636535645, 0.19340263307094574, -0.3107816278934479, -0.16463115811347961, 0.10735798627138138, -0.22343158721923828, -0.1037910133600235, 0.2551640570163727, 0.06917428225278854, -0.21930842101573944, -0.19531090557575226, -0.012613853439688683, -0.2858368456363678, 0.036110203713178635, 0.14442023634910583]
[-0.2422824651002884, -0.0634448304772377, 0.10431745648384094, 0.2920460104942322, -0.14615868031978607, -0.13119277358055115, -0.04848523810505867, -0.054397936910390854, 0.12990902364253998, 0.3763023018836975, 0.2361794412136078, -0.030353229492902756, -0.05899708345532417, -0.2610280513763428, 0.24540168046951294, -0.1579364538192749, -0.20644454658031464, -0.14143501222133636]
[-0.19346705079078674, -0.00872763991355896, 0.2697461247444153, -0.13338667154312134, 0.02383572980761528, 0.23673687875270844, -0.016522573307156563, -0.12139817327260971, -0.05650026723742485, 0.0105289863422513, 0.16688087582588196, -0.24981722235679626, 0.1969025880098343, 0.17099091410636902, -0.16108708083629608, -0.03154505044221878, -0.2084827870130539, 0.08413353562355042]
[-0.04862126708030701, -0.24236367642879486, -0.112150639295578, -0.05757895112037659, 0.1390707790851593, 0.02650403045117855, 0.1370752602815628, -0.1065557450056076, 0.034188274294137955, 0.3095532953739166, 0.3158908188343048, 0.1402142196893692, 0.11319846659898758, 0.21147723495960236, 0.1974523514509201, -0.2144598662853241, 0.0877261757850647, 0.027378827333450317]
[-0.24134068191051483, 0.0927165299654007, -0.14142487943172455, 0.1418246328830719, 0.1562950611114502, 0.4224781394004822, 0.23116444051265717, 0.09253812581300735, 0.15252463519573212, -0.00010188778105657548, 0.018358351662755013, 0.2568002939224243, 0.40686848759651184, 0.14061549305915833, -0.0037347497418522835, 0.025758512318134308, -0.20520037412643433, 0.09088069200515747]
[0.03416666388511658, -0.03525078669190407, -0.21807250380516052, -0.023488938808441162, 0.003131621051579714, 0.2535307705402374, -0.2619769275188446, -0.20794449746608734, 0.04602660611271858, 0.01754194125533104, -0.15774542093276978, -0.1586482673883438, 0.4184189438819885, -0.17500212788581848, -0.15398229658603668, 0.0609598234295845, -0.21175913512706757, 0.06267121434211731]
[-0.225103959441185, -0.2692878246307373, 0.18020683526992798, -0.1193535327911377, -0.17083992063999176, -0.00448363134637475, -0.039947085082530975, -0.10195747017860413, 0.16785232722759247, -0.1287231147289276, -0.15971271693706512, 0.02822127938270569, -0.6109472513198853, 0.14350488781929016, -0.037690479308366776, -0.1253242790699005, -0.35729146003723145, -0.0004545450210571289]
[-0.29173967242240906, -0.285453736782074, -0.08441993594169617, 0.12878093123435974, 0.030564667657017708, -0.2289002537727356, 0.23425480723381042, -0.010250776074826717, 0.5017496943473816, 0.5037427544593811, 0.2152222841978073, -0.19684040546417236, -0.10895991325378418, 0.059320513159036636, -0.34149500727653503, 0.10443143546581268, 0.11655950546264648, -0.13413111865520477]
[0.23679721355438232, 0.0194089412689209, -0.018850713968276978, 0.01050180196762085, -0.1693691462278366, 0.5843793153762817, -0.23095375299453735, -0.05764520540833473, 0.2538469135761261, 0.0361468605697155, -0.2906939685344696, 0.15131188929080963, 1.5988136529922485, 0.07381106913089752, 0.35694822669029236, 0.5082846879959106, -0.05271587520837784, 0.052238255739212036]
[0.23612409830093384, -0.2641301155090332, 0.14278444647789001, 0.18526923656463623, -0.16988936066627502, -0.4942665994167328, 0.14283306896686554, -0.6108065247535706, 0.05938640236854553, 0.22421221435070038, 0.15362432599067688, 0.2078554332256317, -0.8852431774139404, -0.12581931054592133, -0.37001103162765503, -0.2910308539867401, -0.2935296893119812, 0.21435147523880005]
[0.05425184965133667, 0.22801990807056427, -0.2114495187997818, -0.07004599273204803, 0.28365421295166016, -0.15620535612106323, 0.2773659825325012, -0.4147680699825287, -0.31458789110183716, 0.15604040026664734, 0.11778944730758667, 0.2509370446205139, -0.1336258351802826, 0.09854868054389954, -0.2557067275047302, 0.15403318405151367, -0.2894316613674164, 0.21246707439422607]
[-0.21133112907409668, 0.1139485165476799, -0.03628075122833252, -0.08949609100818634, 0.2508084774017334, 0.0767253190279007, -0.2972293198108673, -0.028062887489795685, 0.39976486563682556, 0.42769789695739746, 0.14461860060691833, -0.3008243441581726, 0.16006332635879517, 0.045722171664237976, -0.12381617724895477, 0.0028480333276093006, -0.18723008036613464, 0.02168804407119751]
[-0.025790661573410034, -0.2917027175426483, 0.2235979437828064, 0.10319709777832031, 0.013695809990167618, -0.40529394149780273, 0.20698876678943634, -0.5136473178863525, 0.014155183918774128, 0.04108740761876106, 0.05152333900332451, -0.15339992940425873, -0.2738897204399109, -0.317807674407959, -0.0013089173007756472, 0.09393413364887238, -0.2508505582809448, 0.24782371520996094]
[-0.022447019815444946, -0.21593426167964935, 0.10595545172691345, 0.24242055416107178, 0.20875903964042664, -0.9216872453689575, -0.11094854772090912, -0.3698078989982605, -0.24380366504192352, -0.10519108176231384, 0.08044098317623138, -0.11815940588712692, -1.4185198545455933, 0.14655336737632751, -0.10335342586040497, -0.6483001708984375, -0.4140366017818451, -0.047145068645477295]
[-0.2086443156003952, 0.007416948676109314, -0.22796955704689026, 0.2937958240509033, -0.11489861458539963, -0.2947854995727539, 0.1995570957660675, -0.200659841299057, 0.027821924537420273, 0.11164027452468872, 0.03718067333102226, 0.08079848438501358, -0.42200469970703125, -0.226938396692276, 0.021625975146889687, 0.0389556884765625, -0.2593713700771332, 0.05907684564590454]
[0.03325572609901428, 0.048685237765312195, -0.17160215973854065, -0.06364159286022186, -0.2984110116958618, 0.16232594847679138, 0.05511828139424324, -0.10958941280841827, 0.3430815637111664, 0.4024641513824463, 0.316035658121109, 0.18706345558166504, -0.07836274057626724, 0.17337928712368011, -0.08123491704463959, 0.11067809164524078, -0.0422765389084816, -0.14766760170459747]
[-0.12764276564121246, -0.21332794427871704, -0.24554507434368134, 0.2787225842475891, -0.20708003640174866, 0.10510458797216415, -0.15455858409404755, -0.07040950655937195, 0.19750608503818512, 0.1497165709733963, 0.22461041808128357, -0.0977163016796112, -0.1477605700492859, -0.1028394103050232, -0.447823166847229, -0.17597945034503937, -0.09340955317020416, 0.03804704546928406]
[0.06515443325042725, 0.03316924721002579, 0.25526344776153564, 0.28650861978530884, 0.2163233757019043, -0.5920813083648682, -0.10312370210886002, -0.8741162419319153, 0.11575791984796524, 0.039723608642816544, 0.13478492200374603, 0.07657511532306671, -2.4150619506835938, -0.03145863115787506, -0.5937304496765137, -0.6352192163467407, 0.19059805572032928, -0.17712140083312988]
[0.023458749055862427, -0.06592883169651031, 0.07119449973106384, -0.06173202395439148, 0.0401795394718647, -0.26656317710876465, -0.139805868268013, -0.19339171051979065, -0.061397794634103775, 0.20260679721832275, -0.35860517621040344, 0.24957093596458435, -0.7279331088066101, -0.009815637953579426, -0.10026770085096359, -0.1830243319272995, -0.5603059530258179, -0.18136224150657654]
[-0.10134461522102356, -0.20478509366512299, -0.19293725490570068, 0.12842339277267456, 0.19583028554916382, -0.06415029615163803, 0.23784694075584412, -0.17445795238018036, 0.2826310396194458, 0.19889883697032928, 0.5541992783546448, 0.07202120870351791, 0.1676364541053772, 0.4900316596031189, 0.06666406244039536, 0.12720690667629242, 0.13394802808761597, 0.033721327781677246]
[0.06153792142868042, 0.23127900063991547, -0.2292782962322235, 0.29076915979385376, -0.1338631510734558, 0.08508576452732086, -0.13662216067314148, 0.04958372935652733, 0.0520230308175087, 0.1150963231921196, -0.31227603554725647, 0.07934971153736115, -0.07307278364896774, -0.5830876231193542, -0.2527085244655609, 0.17642472684383392, -0.2060205191373825, 0.28613072633743286]
[0.21643471717834473, -0.2721472382545471, 0.10939303040504456, -0.1308034509420395, -0.25183066725730896, -0.7603487968444824, 0.055275771766901016, -0.754901111125946, -0.09507901221513748, 0.21891869604587555, -0.08902342617511749, 0.0962379053235054, -2.410884380340576, 0.0691007673740387, -0.5874653458595276, -0.9800890684127808, -0.18016763031482697, 0.1998470425605774]
[0.15858504176139832, -0.29353460669517517, 0.014078140258789062, 0.24674952030181885, -0.18696358799934387, -0.48089495301246643, -0.19598250091075897, -0.30355972051620483, 0.18575990200042725, -0.06432562321424484, 0.013171007856726646, 0.15974843502044678, -0.29046666622161865, 0.03715480864048004, -0.18361087143421173, -0.28593552112579346, -0.2681054174900055, -0.11446018517017365]
[-0.08898727595806122, 0.01066372450441122, 0.004320919513702393, -0.04255804419517517, 0.20555493235588074, -0.30318155884742737, -0.17987799644470215, -0.032401781529188156, 0.19529199600219727, 0.1046389564871788, 0.489854633808136, -0.1347917914390564, 0.11764878034591675, 0.02423422783613205, 0.09687545150518417, 0.15372617542743683, 0.0013928974512964487, -0.04193350672721863]
[-0.09876908361911774, -0.27845603227615356, 0.15752020478248596, -0.2313179224729538, 0.13832958042621613, -0.15441811084747314, 0.015863662585616112, -0.014874272048473358, 0.122999407351017, -0.10217263549566269, 0.08185776323080063, -0.0031343901064246893, -0.017117703333497047, -0.07024329155683517, 0.1614745557308197, 0.16329751908779144, 0.008266526274383068, -0.20878499746322632]

[-0.03300791233778, 0.0, 0.4342472553253174]
[0.4239698648452759, 0.15993309020996094, -0.22778603434562683]
[0.4414382874965668, 0.08734261989593506, -0.3562103509902954]
[0.1679677963256836, 0.06875979900360107, 0.28694820404052734]
[0.314486563205719, 0.38872742652893066, 0.30529242753982544]
[-0.03383883461356163, 0.10928398370742798, -0.16230502724647522]
[0.19130147993564606, 0.07547867298126221, 0.007714812643826008]
[0.04608216509222984, -0.49605607986450195, 0.10902035236358643]
[0.49601033329963684, -0.025907814502716064, 0.0009996683802455664]
[-0.0015751332975924015, -0.20624840259552002, 0.4945718050003052]
[0.08406416326761246, 0.24741816520690918, 0.6158750057220459]
[-0.10704869031906128, -0.01695108413696289, 0.41647037863731384]
[-0.18947477638721466, 0.4410093426704407, -0.22733590006828308]
[0.30051133036613464, 0.11202198266983032, 0.010569985024631023]
[-0.17611627280712128, -0.4902278780937195, 0.2687302827835083]
[0.18751384317874908, -0.4185265004634857, 0.019353719428181648]
[0.23141221702098846, -0.16209346055984497, 0.018949272111058235]
[-0.05263761430978775, 0.2620317339897156, 0.0005081832059659064]
[0.12912625074386597, 0.30977654457092285, 0.39417093992233276]

[-0.07413455843925476, 0.0, 0.07310754060745239, 0.13053473830223083, 0.0, 0.6834544539451599, 0.0, -0.03508509323000908, -0.02679436281323433, 0.04285373166203499, -0.09190348535776138, 0.0, 0.0, -0.05586102232336998, 0.0, 0.15591320395469666, 0.03466756269335747, -0.06352705508470535]
[-0.05092652887105942, -0.276635080575943, 0.002697054063901305, -0.2106032520532608, -0.39941340684890747, 0.24237842857837677, -0.22020664811134338, 0.2832038700580597, -0.36132025718688965, 0.259432852268219, 0.3050033450126648, -0.2654758095741272, -0.2910447418689728, 0.45753663778305054, -0.26206448674201965, -0.03683585673570633, 0.009490454569458961, -0.5792970657348633]
[0.17430073022842407, 0.39605218172073364, -0.4306343197822571, 0.4995655417442322, -0.17088887095451355, 0.3157259225845337, -0.5271391272544861, 0.29062366485595703, -0.4978353977203369, -0.20662638545036316, -0.059197962284088135, -0.4541819393634796, -0.27180129289627075, -0.49337270855903625, -0.05818966031074524, 0.3259989023208618, 0.48991483449935913, -0.5248699188232422]
[-0.030174391344189644, -0.31629037857055664, -0.0016608504811301827, -0.039094120264053345, -0.5008060336112976, 0.6571521162986755, -0.2334119975566864, -0.3354993462562561, -0.00017002428648993373, -0.26344558596611023, -0.025546524673700333, -0.3028606176376343, -0.4032939672470093, -0.07680098712444305, -0.40391817688941956, -0.0010450620902702212, -0.0036376728676259518, -0.029018986970186234]

[-0.03290262445807457, -0.23593375086784363, -0.05138479918241501, -0.042063429951667786, -0.20320042967796326, -0.04916622117161751, 0.0, 0.0, -0.023502729833126068, -0.0671234056353569, 0.0, -0.04612382873892784, -0.033095113933086395, -0.213578999042511, 0.76463782787323, 0.0, -0.11366375535726547, -0.023428110405802727, 0.0, -0.1513693928718567, 0.0, -0.19539028406143188, 0.7747127413749695, -0.2288624346256256, -0.08039658516645432, -0.030272772535681725, 0.7587503790855408, -0.16066065430641174, -0.04225146397948265, -0.04236408695578575, 0.7845569252967834, -0.08602377772331238, -0.18471121788024902, -0.2342313528060913, 0.26653242111206055, -0.10860688239336014, 0.0, 0.0, 0.4679061770439148, -0.023179251700639725, -0.06663364917039871, -0.02466718479990959, 0.0, 0.0, -0.11200686544179916, -0.304029643535614, 0.22588559985160828]
[0.13483823835849762, -0.31397363543510437, -0.23715893924236298, -0.003406647825613618, 0.016428126022219658, 0.056390345096588135, 0.24265170097351074, -0.18421748280525208, -0.08928632736206055, 0.1972610354423523, 0.0963498055934906, 0.18679635226726532, 0.03634277731180191, -0.2664688527584076, 0.12008512020111084, 0.08309823274612427, -0.08011861145496368, 0.15142759680747986, 0.07673314213752747, 0.22066816687583923, 0.2873687148094177, -0.07609205693006516, -0.16500121355056763, 0.2114521563053131, 0.16537007689476013, -0.31378424167633057, 0.1204446405172348, 0.1350138783454895, 0.2242317497730255, 0.02237345464527607, -0.1955576241016388, -0.23098690807819366, -0.08114814758300781, -0.0686505064368248, -0.28029173612594604, -0.1460939347743988, 0.28565406799316406, -0.08874444663524628, -0.18593786656856537, -0.22393475472927094, -0.2810843586921692, 0.1763804703950882, 0.1304354965686798, -0.20034117996692657, 0.14578911662101746, 0.14125080406665802, 0.32828956842422485]
[0.2855534553527832, -0.1519845724105835, -0.19058191776275635, -0.12731072306632996, 0.07151094079017639, -0.10185883939266205, -0.0011033713817596436, -0.2026398777961731, -0.05486714839935303, 0.2478695511817932, -0.08463872969150543, -0.1055135577917099, 0.12265434861183167, -0.15298840403556824, -0.20032379031181335, 0.2519152760505676, 0.051308125257492065, 0.22279351949691772, -0.09464427828788757, 0.29095566272735596, -0.09886994957923889, -0.2555094361305237, 0.14693573117256165, 0.021009206771850586, 0.11471366882324219, -0.3029186725616455, -0.2872878313064575, 0.28439050912857056, 0.13402903079986572, -0.07461196184158325, -0.16603758931159973, -0.1660212129354477, 0.03333604335784912, -0.20875181257724762, 0.06608790159225464, -0.08510152995586395, 0.15154790878295898, 0.2126285433769226, -0.1181851476430893, 0.11756631731987, 0.00656929612159729, 0.25888264179229736, -0.232147216796875, 0.06460410356521606, 0.07700607180595398, -0.1264045387506485, -0.2501240074634552]
[-0.04039352759718895, -0.456735223531723, -0.01216802466660738, -0.3280816972255707, -0.05955209210515022, 0.1049930602312088, 0.12023082375526428, 0.16354641318321228, 0.14160850644111633, 0.11844627559185028, 0.23834961652755737, -0.10448723286390305, -0.2889382541179657, 0.1433868110179901, -0.0034408369101583958, -0.11759138107299805, -0.24973393976688385, -0.1826651394367218, -0.11181773245334625, -0.11380253732204437, -0.09786966443061829, 0.027821330353617668, 0.09710683673620224, -0.03577593341469765, -0.2315787822008133, -0.2520097494125366, -0.1292707324028015, 0.18737781047821045, 0.123929962515831, 0.24511979520320892, -0.017142940312623978, 0.05793599784374237, -0.08628163486719131, -0.40434810519218445, 0.047351837158203125, -0.1717459261417389, 0.23010295629501343, -0.14385071396827698, 0.1324959546327591, -0.07680349797010422, -0.2541516125202179, -0.029202505946159363, -0.12411394715309143, -0.006104469299316406, -0.3706473410129547, -0.22636939585208893, -0.04176289588212967]
[-0.2316955029964447, 0.0016821349272504449, -0.0432618223130703, 0.24335506558418274, -0.23633989691734314, -0.041352201253175735, -0.011439800262451172, -0.031216919422149658, 0.04414963722229004, 0.04261760041117668, 0.03638613224029541, -0.08729694783687592, 0.1646941900253296, -0.25434550642967224, 0.043211933225393295, -0.26530784368515015, -0.32910779118537903, 0.15072761476039886, -0.17644624412059784, -0.27466800808906555, 0.2450076937675476, -0.19077198207378387, -0.002462972654029727, -0.05595368891954422, 0.04061715304851532, -0.18529102206230164, 0.210804283618927, -0.2398526519536972, 0.08224818110466003, -0.29360538721084595, 0.10024639964103699, -0.3742000460624695, 0.05181622877717018, -0.0011721705086529255, -0.1816886067390442, 0.06673941016197205, 0.24343228340148926, -0.17957377433776855, 0.057676881551742554, -0.20121930539608002, 0.1891803741455078, -0.06721001863479614, -0.239411398768425, -0.29438886046409607, 0.0581403449177742, -0.3105388879776001, 0.10865278542041779]
[0.29366564750671387, 0.0699755847454071, 0.27020037174224854, -0.06358462572097778, 0.018283486366271973, 0.1417655646800995, -0.06269097328186035, -0.15981034934520721, 0.07917439937591553, 0.09046408534049988, -0.3024059534072876, -0.021082639694213867, -0.2222808301448822, -0.03608870506286621, -0.19348394870758057, -0.14933519065380096, 0.228448748588562, -0.17870250344276428, -0.0298406183719635, -0.03879183530807495, 0.05262908339500427, -0.17020241916179657, -0.2082391083240509, 0.1770002543926239, -0.17815111577510834, 0.17724421620368958, -0.1765369325876236, -0.06260260939598083, -0.08809910714626312, -0.16712884604930878, -0.17895980179309845, 0.09125685691833496, 0.07661318778991699, 0.13030540943145752, 0.2474677562713623, 0.03290438652038574, -0.1825231909751892, 0.06553760170936584, -0.08475333452224731, 0.1744454801082611, -0.0016811192035675049, -0.19799655675888062, -0.017492324113845825, -0.14689747989177704, -0.2945399880409241, 0.15621879696846008, -0.2817675471305847]
[-0.31981006264686584, -0.012798553332686424, -0.14031276106834412, -0.17703485488891602, -0.028248988091945648, -0.07356851547956467, -0.025625079870224, -0.2367430329322815, -0.230076864361763, -0.08868331462144852, -0.1270918995141983, -0.19830116629600525, -0.05231381207704544, -0.019773563370108604, 0.2750343084335327, -0.17974406480789185, -0.018428657203912735, -0.06829741597175598, -0.2890482544898987, -0.0062223169952631, -0.3011382520198822, -0.007002454716712236, 0.27505573630332947, -0.0015551596879959106, -0.04982878267765045, -0.15803949534893036, 0.27514371275901794, -0.004426043014973402, -0.10030776262283325, -0.21102140843868256, 0.27509695291519165, -0.0017979189287871122, -0.029162012040615082, -0.02312968298792839, 0.2762601673603058, -0.054719340056180954, -0.2867579460144043, -0.2724618911743164, 0.2756892442703247, -0.005387394223362207, -0.05867674574255943, -0.22400380671024323, -0.17565466463565826, -0.07866299152374268, -0.02711942233145237, -0.018188538029789925, 0.27644550800323486]
[0.24783062934875488, -0.225263774394989, -0.02385544776916504, 0.03024277091026306, 0.06090649962425232, -0.0955808162689209, 0.06171032786369324, 0.005565762519836426, -0.0841926634311676, -0.04394224286079407, -0.14350953698158264, -0.21107369661331177, 0.05638319253921509, -0.17719364166259766, 0.0029837489128112793, 0.08603885769844055, -0.10380738973617554, 0.2914509177207947, -0.21797677874565125, 0.2582281231880188, -0.003417789936065674, 0.04353407025337219, -0.14052072167396545, -0.2884032130241394, -0.12139517068862915, 0.22866111993789673, 0.16867166757583618, 0.03770151734352112, -0.1365172266960144, -0.147701233625412, -0.019376695156097412, 0.09414562582969666, -0.18814998865127563, 0.2761874198913574, -0.08454935252666473, 0.20865219831466675, 0.1252501904964447, 0.23102450370788574, 0.0705905556678772, -0.033767640590667725, 0.002441614866256714, 0.012815147638320923, 0.3037007451057434, 0.17825600504875183, -0.1325368881225586, 0.13748309016227722, 0.06954589486122131]
[-0.22715607285499573, -0.18781478703022003, 0.116265207529068, 0.17918190360069275, -0.13824869692325592, -0.08598576486110687, 0.1420884132385254, -0.2592542767524719, -0.09919571131467819, -0.27502086758613586, 0.13193899393081665, 0.2498445063829422, -0.08099725842475891, 0.08044429123401642, -0.2679661512374878, 0.035280466079711914, 0.13300803303718567, 0.11804750561714172, -0.16479668021202087, 0.25904157757759094, 0.11424654722213745, -0.26613548398017883, 0.06322795897722244, 0.016651278361678123, -0.2560824155807495, 0.13561005890369415, -0.03524106368422508, -0.07735709846019745, -0.28230229020118713, 0.2756446301937103, -0.154876247048378, -0.12035265564918518, -0.22660669684410095, -0.0724717527627945, -0.2205856591463089, 0.275765597820282, 0.04707491397857666, -0.01604139804840088, -0.12938816845417023, -0.08625276386737823, -0.03344443067908287, 0.021385004743933678, -0.09132073819637299, 0.08165672421455383, -0.2054053395986557, -0.043458547443151474, 0.20670390129089355]
[0.028503715991973877, 0.04223402962088585, 0.19840317964553833, -0.21144841611385345, 0.14399799704551697, -0.011861884035170078, 0.10030290484428406, 0.1358799934387207, -0.1442016065120697, 0.1914237141609192, -0.16847436130046844, -0.12260414659976959, -0.2020333707332611, -0.08465749025344849, 0.08241884410381317, -0.2862214744091034, 0.04416966810822487, 0.1520497351884842, 0.08012056350708008, 0.2532077133655548, 0.002063363790512085, -0.003229584079235792, -0.0048911841586232185, -0.2880544066429138, -0.3433249890804291, 0.21327292919158936, -0.10710003226995468, -0.0926072746515274, 0.2405730038881302, 0.05922481417655945, 0.07598724216222763, 0.20796889066696167, -0.24918577075004578, -0.21860463917255402, 0.19487431645393372, 0.1244148463010788, 0.10095533728599548, 0.03157323598861694, 0.004429744556546211, -0.2917023301124573, -0.0283726304769516, 0.18889009952545166, 0.2991100549697876, -0.11431571841239929, -0.21199993789196014, -0.19479772448539734, 0.025081321597099304]
[0.20581164956092834, -0.042414456605911255, 0.25680771470069885, -0.29295575618743896, -0.05543208122253418, -0.044692397117614746, -0.30171069502830505, -0.06336651742458344, 0.030576152727007866, 0.2130115032196045, -0.2930186688899994, 0.01873130537569523, -0.19875118136405945, -0.13021907210350037, 0.2705889642238617, -0.1633772850036621, 0.09320807456970215, -0.2617082893848419, 0.1687851846218109, 0.13716095685958862, 0.20239055156707764, -0.16447211802005768, -0.145143523812294, -0.149164080619812, -0.2789839506149292, -0.047030169516801834, 0.09765960276126862, -0.02824091911315918, 0.2559145390987396, -0.3152402937412262, -0.061968639492988586, -0.1586415320634842, -0.30564969778060913, -0.17704522609710693, -0.11595474183559418, -0.1880713403224945, -0.21164710819721222, 0.23044490814208984, 0.25438278913497925, -0.22589093446731567, 0.026105960831046104, 0.21363693475723267, 0.015159130096435547, 0.16166436672210693, -0.1519995927810669, 0.16466882824897766, -0.03634369373321533]
[0.2413148581981659, 0.09414025396108627, 0.04140610247850418, 0.29131194949150085, 0.09082924574613571, -0.29390987753868103, -0.16444477438926697, -0.22263801097869873, 0.0942678451538086, -0.2605419158935547, -0.29753008484840393, 0.19049105048179626, 0.22372688353061676, 0.07381001859903336, 0.010700383223593235, -0.15813183784484863, -0.18013320863246918, -0.0967509001493454, 0.14290976524353027, 0.0426785908639431, 0.24510657787322998, -0.17243382334709167, 0.06852260231971741, 0.11555983126163483, -0.2876615524291992, 0.26070377230644226, -0.13327033817768097, -0.17270687222480774, 0.16467341780662537, 0.16383472084999084, 0.1008547693490982, -0.2449411153793335, -0.2566041648387909, -0.21971651911735535, -0.13881389796733856, -0.3661162257194519, -0.1989729106426239, -0.09182736277580261, -0.04502763971686363, -0.04595683887600899, -0.13773934543132782, 0.16761115193367004, -0.050598591566085815, -0.05084669589996338, 0.003559721866622567, -0.05949307605624199, -0.011070175096392632]
[-0.22011257708072662, 0.016643792390823364, -0.059213653206825256, 0.07937967777252197, 0.08873212337493896, 0.09056797623634338, 0.2717866897583008, 0.27881067991256714, -0.18902264535427094, -0.2797238230705261, -0.08429676294326782, 0.0520271360874176, -0.0807877779006958, -0.24784454703330994, -0.2320251613855362, 0.28851550817489624, -0.19434145092964172, -0.11883823573589325, -0.0925396978855133, 0.03701084852218628, -0.17381338775157928, 0.19704854488372803, -0.037163883447647095, 0.2571529150009155, 0.21908897161483765, -0.2058304399251938, 0.2247227430343628, -0.09422168135643005, 0.23093503713607788, 0.2555452585220337, 0.04369652271270752, -0.11560602486133575, 0.13407248258590698, 0.23710548877716064, -0.1667741984128952, 0.07652834057807922, 0.21695905923843384, 0.026632040739059448, -0.30221617221832275, -0.014941811561584473, -0.07961335778236389, -0.27284544706344604, -0.2722548842430115, -0.21112477779388428, 0.2854585647583008, -0.04344460368156433, -0.2106224149465561]
[0.2997872233390808, -0.25483015179634094, -0.05544136464595795, 0.025832325220108032, -0.2235255092382431, 0.03784596920013428, 0.28558313846588135, -0.231379896402359, -0.07116368412971497, -0.20547014474868774, -0.07581144571304321, -0.2007737010717392, -0.2084650993347168, -0.08351698517799377, 0.27824974060058594, -0.2641318142414093, -0.12650036811828613, -0.2543396055698395, -0.06073351204395294, -0.14671899378299713, 0.065929114818573, 0.23790615797042847, 0.12500128149986267, -0.24286626279354095, 0.24444806575775146, 0.28706640005111694, 0.09756022691726685, -0.2682124674320221, -0.1261471062898636, 0.005636096000671387, -0.2981923818588257, 0.20540213584899902, -0.026683807373046875, 0.10090520977973938, 0.10870236158370972, 0.08135762810707092, 0.10675007104873657, 0.09782540798187256, 0.00878751277923584, 0.010448992252349854, -0.04352608323097229, 0.14965543150901794, 0.0961051881313324, -0.220133438706398, -0.018015235662460327, 0.1415984332561493, -0.21514999866485596]
[0.2501140832901001, -0.15122120082378387, 0.08263544738292694, -0.06980128586292267, 0.06587602943181992, 0.027728388085961342, -0.2532705068588257, -0.014439970254898071, 0.15416225790977478, -0.13552451133728027, -0.20649635791778564, 0.11886416375637054, 0.1882762759923935, -0.045761894434690475, 0.10039752721786499, 0.019132137298583984, -0.015949547290802002, -0.1696566641330719, -0.1635144054889679, 0.14219912886619568, -0.17707666754722595, -0.005929268896579742, -0.10313162952661514, -0.304473876953125, -0.23186184465885162, 0.2334698587656021, 0.12954440712928772, -0.31581342220306396, -0.2549861669540405, 0.024702513590455055, -0.14649949967861176, -0.0022647471632808447, -0.3075961470603943, -0.056498948484659195, -0.22914522886276245, 0.007508762180805206, -0.016709357500076294, -0.23132425546646118, 0.177454873919487, 0.004683106672018766, 0.25781726837158203, 0.12077460438013077, 0.10507583618164062, -0.13083100318908691, 0.2100098729133606, -0.12015600502490997, 0.020650403574109077]
[-0.09732335805892944, 0.22624284029006958, 0.27882981300354004, 0.29423511028289795, -0.22911067306995392, -0.21378906071186066, 0.035486847162246704, -0.08854582905769348, 0.0833410918712616, -0.2425699234008789, -0.14106523990631104, -0.12966637313365936, -0.05876120924949646, -0.032326072454452515, -0.23181474208831787, 0.17999109625816345, -0.055821001529693604, -0.27049902081489563, -0.06351175904273987, -0.2122584730386734, 0.08826020359992981, -0.26317572593688965, 0.11209407448768616, -0.22214847803115845, -0.09564441442489624, 0.14174512028694153, 0.16963276267051697, 0.11548852920532227, 0.27818214893341064, -0.1514131873846054, 0.10261595249176025, 0.19821298122406006, 0.1609441339969635, -0.17192517220973969, -0.14825516939163208, 0.19790548086166382, 0.09058353304862976, -0.09649497270584106, 0.112831711769104, 0.24011802673339844, -0.08655823767185211, 0.29902321100234985, -0.07761070132255554, 0.2022457718849182, -0.20982524752616882, 0.19995123147964478, -0.17765593528747559]
[-0.13402006030082703, -0.21434442698955536, 0.1955966353416443, -0.01994101144373417, -0.08461017161607742, 0.01744011417031288, -0.26772698760032654, -0.2380652278661728, -0.2331613302230835, -0.09922568500041962, -0.26390522718429565, 0.20162324607372284, -0.22315362095832825, -0.2530776560306549, -0.04455563426017761, 0.19398188591003418, 0.028083112090826035, -0.06547122448682785, -0.008855253458023071, 0.11834743618965149, 0.10060885548591614, -0.4283798933029175, 0.16330809891223907, -0.5088391304016113, 0.048531126230955124, -0.12358876317739487, -0.15904924273490906, -0.22909295558929443, -0.20666156709194183, 0.13932302594184875, 0.03255930170416832, 0.17856253683567047, -0.24575497210025787, -0.40065956115722656, 0.12539824843406677, 0.009381457231938839, -0.09522941708564758, -0.058111950755119324, 0.09195376932621002, 0.18497154116630554, -0.1880309134721756, 0.14383003115653992, -0.15329401195049286, 0.048586368560791016, -0.054558165371418, -0.5863674283027649, -0.0017243953188881278]
[0.2486286163330078, -0.3363041877746582, 0.022951753810048103, -0.29885974526405334, -0.09411882609128952, 0.22050511837005615, -0.2798781991004944, -0.27460479736328125, 0.1885957568883896, -0.18519766628742218, -0.03399240970611572, 0.017754871398210526, -0.2995639145374298, -0.23895163834095, -0.0016565491678193212, -0.01376110315322876, 0.10920718312263489, 0.05464903637766838, 0.18855729699134827, 0.16261735558509827, 0.0031703412532806396, -0.16851505637168884, 0.12253308296203613, -0.04557490721344948, 0.014954620972275734, -0.2453126460313797, 0.044269684702157974, -0.06405864655971527, 0.21674023568630219, 0.07424641400575638, -0.09868429601192474, 0.05652865394949913, 0.07674220204353333, -0.12193405628204346, 0.1170942485332489, -0.28671109676361084, 0.2355007529258728, -0.18602658808231354, 0.13193009793758392, -0.0032791648991405964, 0.18590666353702545, -0.2772720754146576, -0.130972757935524, 0.0020003318786621094, 0.09724371880292892, 0.20904502272605896, -0.17008629441261292]
[0.18247240781784058, -0.29388853907585144, 0.0116538405418396, 0.11108902096748352, -0.09168604016304016, 0.16362985968589783, -0.23315221071243286, -0.0965859442949295, -0.2478642612695694, -0.2546256482601166, -0.07471098005771637, -0.12291388213634491, -0.002467334270477295, -0.30320224165916443, -0.08729937672615051, 0.04742252826690674, 0.002219974994659424, -0.07529264688491821, 0.11246654391288757, -0.23269027471542358, -0.08725515007972717, 0.20235538482666016, -0.05022125691175461, -0.1946532279253006, 0.0015977323055267334, -0.09519784152507782, -0.03330058231949806, -0.10067573189735413, -0.22579458355903625, 0.1462971270084381, 0.0671500563621521, -0.1323418915271759, -0.06836074590682983, 0.12306424975395203, -0.25612133741378784, -0.25502246618270874, -0.2237902581691742, 0.061855852603912354, 0.2915720045566559, 0.2742161154747009, 0.04822629690170288, -0.13152733445167542, 0.18266183137893677, 0.04640507698059082, -0.04672330617904663, -0.09800027310848236, -0.2023356854915619]

