[0.0, 0.004335535224527121, -5.5568778745129777e-11, 3.494385282465373e-06, 0.0, 0.0, 0.0, 0.0, 0.0, 0.0, 0.0, -2.614306339146874e-24, 0.005656298715621233, 0.0, 0.0, 0.0, 0.0, 4.930544861281305e-10, -0.01986039988696575, 0.0, 1.3954652820148263e-27, -0.01797519624233246, 0.0, 1.3838673745369274e-18, 0.0, -1.3132167489214184e-22, 0.0, 0.0004343815380707383, 0.01010864693671465, 0.0, 0.0, 0.0, -2.212069577764678e-21, -1.7178042980958708e-05, -0.019084231927990913, -1.5179480215010699e-05, 3.0883392011514452e-18, 0.0]
[-0.2282501757144928, -0.2059110403060913, 0.0622725784778595, 0.25335386395454407, -0.06477867066860199, 0.12441179156303406, -0.19480334222316742, -0.02744351327419281, 0.14397963881492615, 0.1490890085697174, 0.2339746356010437, 0.24603089690208435, -0.061175163835287094, -0.2532167136669159, -0.10289709270000458, -0.03918856382369995, 0.17151087522506714, -0.206111341714859, 0.01360960304737091, -0.0902620255947113, 0.07183176279067993, 0.0781807154417038, -0.08341024816036224, -0.1488732099533081, 0.09596621990203857, 0.25435611605644226, 0.11237749457359314, -0.2419394552707672, -0.24284717440605164, -0.240323007106781, -0.012237370014190674, -0.2517016530036926, -0.0017408132553100586, 0.22435903549194336, 0.19428755342960358, -0.1418069303035736, 0.13822516798973083, 0.18191668391227722]
[0.1929885447025299, 0.16639696061611176, 0.17484721541404724, 0.14141201972961426, -0.0025412142276763916, -0.21849241852760315, -0.2174563705921173, -0.011937052011489868, -0.0793653279542923, -0.24451762437820435, 0.08826938271522522, -0.0679243803024292, -0.2142874002456665, -0.2352224886417389, -0.10510531067848206, 0.1769903600215912, 0.06323346495628357, -0.008461534976959229, 0.14107070863246918, -0.03471294045448303, -0.22314707934856415, 0.08883169293403625, -0.17572596669197083, 0.006437540054321289, 0.11529096961021423, 0.22330257296562195, 0.2069244086742401, 0.009317649528384209, 0.009798170067369938, 0.05843636393547058, 0.1993233561515808, -0.18940319120883942, -0.06284509599208832, 0.2049615979194641, 0.2107740342617035, -0.2537870705127716, 0.13297030329704285, 0.08755448460578918]
[-0.05197224020957947, 0.24863359332084656, -0.2622760534286499, -0.11082857847213745, 0.05887711048126221, -0.1231900155544281, 0.1772170066833496, 0.005286037921905518, 0.18865856528282166, -0.07770322263240814, 0.1843905746936798, 0.221169114112854, -0.18874970078468323, 0.19843119382858276, -0.22041240334510803, 0.09750854969024658, -0.07936979830265045, -0.2618286907672882, 0.008813261985778809, -0.1003580242395401, -0.18071407079696655, 0.24869325757026672, -0.12280511856079102, -0.16725987195968628, 0.20658144354820251, 0.20474490523338318, 0.1845952570438385, -0.17326617240905762, -0.23519660532474518, -0.2030389904975891, -0.14678968489170074, 0.06829088926315308, -0.21565793454647064, 0.06054645776748657, 0.050823599100112915, -0.254870742559433, 0.1195528507232666, 0.2635713517665863]
[-0.26246529817581177, -0.21910952031612396, 0.09242138266563416, 0.11834260821342468, 0.09898585081100464, 0.054487764835357666, -0.13195283710956573, 0.04763481020927429, -0.11588607728481293, 0.1895192563533783, -0.16813012957572937, -0.17362499237060547, 0.21792861819267273, 0.261751264333725, 0.2504396140575409, -0.04420311748981476, -0.1957104206085205, 0.08543980121612549, 0.19240593910217285, 0.18705472350120544, -0.09035585820674896, -0.22262685000896454, 0.15927770733833313, 0.07937949895858765, 0.14780476689338684, -0.2074134647846222, 0.05862686038017273, 0.14176642894744873, -0.1537744700908661, -0.06083707511425018, 0.013839006423950195, 0.24501869082450867, -0.03149569034576416, 0.11852240562438965, 0.22371989488601685, -0.19757920503616333, 0.08921155333518982, 0.08489418029785156]
[-0.24288809299468994, -0.2539178133010864, -0.20079204440116882, 0.2122858762741089, -0.11229273676872253, 0.07700711488723755, 0.11846107244491577, -0.15482714772224426, 0.12372472882270813, -0.05689196288585663, 0.24136528372764587, 0.23390746116638184, 0.17232656478881836, 0.09194830060005188, 0.08098426461219788, 0.1104033887386322, 0.08539426326751709, 0.045618921518325806, 0.22218835353851318, 0.05552256107330322, 0.22347071766853333, -0.21595454216003418, -0.014853030443191528, 0.03935644030570984, 0.029259592294692993, -0.00375443696975708, 0.04729220271110535, 0.2183946967124939, -0.02440240979194641, -0.09639042615890503, -0.1988944411277771, -0.24817684292793274, 0.12485715746879578, 0.26029977202415466, 0.22921311855316162, 0.16589409112930298, 0.10585048794746399, 0.03696373105049133]
[-0.03771167993545532, -0.03061511553823948, -0.20693284273147583, 0.1565999686717987, -0.13263000547885895, -0.0831041932106018, 0.10785818099975586, -0.05280552804470062, -0.23946674168109894, -0.025714799761772156, 0.25986137986183167, 0.10725325345993042, 0.22061149775981903, 0.05574190616607666, -0.22635973989963531, 0.04090261459350586, -0.1439754068851471, -0.08375813066959381, -0.10724181681871414, 0.042227357625961304, -0.08899044990539551, -0.10991709679365158, 0.15955862402915955, 0.042487114667892456, -0.1885758936405182, -0.01208353042602539, -0.0012800395488739014, 0.2529280483722687, -0.23566865921020508, 0.19786617159843445, 0.2011328637599945, -0.18044163286685944, -0.2237309217453003, 0.12867935001850128, 0.05340596288442612, -0.17128705978393555, 0.2431650459766388, 0.2434462606906891]
[-0.12214300036430359, -0.14683690667152405, 0.01270553469657898, -0.1660991907119751, -0.24586018919944763, 0.11217465996742249, -0.101189985871315, 0.21528026461601257, -0.17266839742660522, -0.050328224897384644, 0.23569455742835999, -0.2428121417760849, 0.20931264758110046, 0.06540924310684204, 0.22425034642219543, 0.2480214536190033, -0.022239655256271362, 0.21042591333389282, -0.04070676490664482, 0.20252442359924316, 0.1349867582321167, 0.04893681779503822, -0.14262503385543823, 0.2267942726612091, -0.10257422924041748, -0.0720972865819931, 0.026078104972839355, -0.17694614827632904, -0.11473461240530014, -0.14655724167823792, 0.01367899775505066, -0.22196756303310394, -0.2597654461860657, 0.08631972968578339, 0.05585499107837677, 0.07718726992607117, -0.16181936860084534, 0.16903597116470337]
[-0.12934812903404236, 0.14616143703460693, -0.010016441345214844, -0.10462023317813873, -0.24561351537704468, 0.1428435742855072, 0.24750998616218567, 0.1606944501399994, -0.26391416788101196, -0.11358605325222015, 0.24119523167610168, -0.17340810596942902, -0.12102508544921875, 0.16922631859779358, -0.11843933165073395, -0.060898229479789734, 0.13287314772605896, -0.025529339909553528, -0.13366693258285522, -0.07698065042495728, 0.2547362744808197, -0.19849075376987457, 0.26247701048851013, -0.24936272203922272, 0.0013604462146759033, -0.10485555231571198, 0.058052390813827515, 0.1533888578414917, -0.24230054020881653, -0.16690275073051453, -0.1899532675743103, -0.11864538490772247, 0.25480929017066956, -0.03675120323896408, -0.08083909749984741, 0.08619964867830276, 0.013670504093170166, 0.22269561886787415]
[0.12785035371780396, 0.06483698636293411, 0.0856989324092865, 0.16518738865852356, -0.17797182500362396, -0.05642053484916687, -0.18612919747829437, 0.16540899872779846, 0.0279063880443573, 0.06397396326065063, 0.07548028230667114, 0.09333911538124084, 0.16011281311511993, 0.08483916521072388, -0.18710196018218994, -0.1445733606815338, -0.19669213891029358, -0.2510263919830322, -0.26437145471572876, 0.2198936641216278, 0.03909522294998169, 0.04708189144730568, -0.20776064693927765, 0.006464749574661255, -0.07603892683982849, -0.006010562181472778, -0.13134461641311646, 0.21507373452186584, 0.02133188582956791, 0.2399229109287262, 0.13542839884757996, -0.1356380581855774, -0.21640387177467346, -0.14683569967746735, -0.21058239042758942, 0.2599761188030243, 0.16931286454200745, 0.05257534980773926]
[-0.23749178647994995, 0.13399174809455872, -0.008868992328643799, 0.11910955607891083, 0.21201956272125244, 0.08521586656570435, -0.10928860306739807, -0.05676531791687012, 0.2457420527935028, -0.03287062048912048, 0.07576221227645874, 0.15000277757644653, 0.019007351249456406, -0.06979642808437347, -0.01459282636642456, -0.22916507720947266, 0.029572755098342896, 0.025058209896087646, -0.13322731852531433, 0.0802222192287445, 0.048043638467788696, -0.12468171119689941, 0.15579375624656677, 0.02926480770111084, 0.19314226508140564, 0.2288168966770172, -0.26374351978302, -0.1831512153148651, -0.010690298862755299, 0.2635329067707062, 0.08481660485267639, 0.015212178230285645, 0.16414818167686462, 0.02761654183268547, -0.019444692879915237, 0.24329133331775665, -0.24492955207824707, -0.007185608148574829]
[0.03686857223510742, -0.2412804812192917, -0.2272268384695053, -0.08057408779859543, 0.22708067297935486, -0.26130789518356323, 0.18907931447029114, -0.09186127781867981, 0.10842180252075195, 0.08616968989372253, -0.0660770833492279, 0.08827617764472961, 0.22473227977752686, 0.006511330604553223, 0.1307653784751892, 0.025708258152008057, 0.05314415693283081, 0.2014438509941101, 0.13011981546878815, 0.1445457637310028, -0.19155415892601013, -0.00016339901776518673, 0.1972227692604065, -0.0021538734436035156, 0.24942299723625183, -0.20254136621952057, -0.21491621434688568, -0.16340799629688263, 0.14184489846229553, 0.1494753062725067, -0.15046414732933044, 0.16460537910461426, -0.12204161286354065, 0.13164354860782623, -0.20164981484413147, 0.04198956862092018, 0.06414425373077393, 0.09734266996383667]
[-0.147546648979187, 0.12986646592617035, -0.21740087866783142, -0.047948699444532394, 0.02519512176513672, -0.126443549990654, 0.20543071627616882, -0.042152151465415955, -0.18628127872943878, -0.03983625769615173, -0.0692320466041565, 0.16252776980400085, 0.24369747936725616, 0.2317112684249878, 0.09083276987075806, 0.0923033058643341, 0.24102166295051575, -0.016105860471725464, -0.09935367852449417, 0.11596569418907166, 0.08653184771537781, 0.22238779067993164, -0.2584187984466553, 0.14389851689338684, 0.05005630850791931, -0.1168360561132431, 0.07533803582191467, -0.19230929017066956, 0.02826271764934063, 0.20931625366210938, 0.24489393830299377, 0.07007881999015808, 0.12504369020462036, 0.1709832102060318, -0.17908290028572083, 0.18083961308002472, 0.10521703958511353, 0.1747879981994629]
[-0.0649435967206955, -0.04759187996387482, -0.25409987568855286, -0.16876132786273956, 0.2182064652442932, 0.06414929032325745, 0.001956939697265625, -0.08087551593780518, -0.18352456390857697, 0.0999491810798645, 0.25491663813591003, 0.051439493894577026, 0.24830150604248047, -0.1978445053100586, -0.24225091934204102, -0.24897409975528717, -0.18575909733772278, -0.18688559532165527, -0.19410671293735504, -0.16584843397140503, 0.054670512676239014, -0.12375953793525696, -0.02759566903114319, 0.15729954838752747, -0.048031285405159, 0.07617130875587463, 0.2274530529975891, -0.17362499237060547, 0.14790575206279755, 0.08660036325454712, 0.10698863863945007, 0.08800086379051208, -0.05924879014492035, 0.26084741950035095, -0.10168235003948212, -0.11869250237941742, -0.007841438055038452, -0.13331075012683868]
[0.18839812278747559, -0.11358415335416794, -0.0070767998695373535, -0.12258543074131012, -0.22432376444339752, -0.10556262731552124, 0.09452012181282043, 0.0479760468006134, -0.24440181255340576, 0.16240885853767395, -0.021665960550308228, -0.006406992673873901, 0.17820385098457336, 0.08480426669120789, 0.14327171444892883, 0.004266113042831421, -0.18606962263584137, 0.21632352471351624, -0.18880227208137512, 0.19190391898155212, 0.06847459077835083, 0.07758279144763947, -0.2258506417274475, -0.13600468635559082, 0.030762404203414917, 0.20255982875823975, 0.26211801171302795, -0.16824987530708313, -0.02472754567861557, 0.05829477310180664, 0.0696246325969696, 0.13911890983581543, -0.17497214674949646, -0.19445554912090302, -0.06552277505397797, -0.23950742185115814, -0.1616189181804657, -0.11938747763633728]
[-0.021289750933647156, 0.2191285490989685, -0.23893995583057404, -0.18958806991577148, -0.04882104694843292, -0.24310535192489624, 0.09291407465934753, -0.043975457549095154, -0.049144551157951355, 0.12317502498626709, 0.08779600262641907, -0.21237248182296753, 0.12131894379854202, 0.042706966400146484, -0.15369965136051178, 0.11951935291290283, 0.1642741858959198, -0.010589373297989368, 0.12134798616170883, 0.18354451656341553, 0.015466839075088501, -0.13771972060203552, 0.050480008125305176, -0.2413814812898636, 0.18917205929756165, -0.19633615016937256, 0.1521158516407013, -0.07795608043670654, 0.24855856597423553, 0.08718949556350708, 0.11515370011329651, 0.20903682708740234, -0.15340548753738403, -0.008938898332417011, -0.19899992644786835, 0.0376095287501812, 0.23981449007987976, -0.25736087560653687]
[0.25550273060798645, 0.09750718623399734, -0.22865630686283112, 0.1940895915031433, 0.24787303805351257, -0.02847270667552948, 0.04692688584327698, -0.17645318806171417, -0.09292945265769958, -0.16590668261051178, 0.1647665798664093, -0.14258398115634918, -0.09751340001821518, -0.21382902562618256, -0.13677053153514862, 0.06394606828689575, -0.12580536305904388, 0.23221531510353088, -0.1664597988128662, -0.24847237765789032, 0.14903417229652405, 0.12503209710121155, 0.1802675724029541, 0.0786682665348053, 0.2584264576435089, -0.02642105519771576, 0.053441017866134644, 0.11473725736141205, 0.11062455922365189, 0.04124569892883301, 0.2449900209903717, 0.1863623857498169, 0.053544461727142334, 0.016957523301243782, -0.03221065551042557, -0.01015089824795723, -0.09159092605113983, -0.1085270494222641]
[0.21528801321983337, -0.08354953676462173, 0.25180432200431824, 0.11003237962722778, 0.09899619221687317, -0.21452218294143677, -0.0026415884494781494, -0.11208562552928925, -0.20956847071647644, -0.16397732496261597, -0.07884244620800018, 0.12381410598754883, -0.1648995727300644, -0.2544386088848114, -0.057801127433776855, 0.2362947165966034, 0.23897257447242737, -0.09009276330471039, 0.019666209816932678, -0.21708129346370697, -0.10648488998413086, -0.03260336443781853, 0.10570061206817627, 0.02203229069709778, -0.13202519714832306, 0.14513495564460754, 0.0920739471912384, 0.10144560039043427, 0.1046142727136612, -0.10877956449985504, -0.22026270627975464, 0.1363706886768341, -0.17263862490653992, 0.20007586479187012, -0.16448763012886047, -0.01230115257203579, 0.009867817163467407, 0.2620380222797394]
[0.1726716160774231, 0.160325825214386, -0.23576048016548157, -0.14521147310733795, -0.027054518461227417, -0.2222248762845993, -0.1884765774011612, -0.24272990226745605, -0.022619396448135376, -0.14651265740394592, 0.23645874857902527, 0.01069784164428711, -0.018633438274264336, -0.21599869430065155, -0.1993018090724945, 0.18569821119308472, 0.13279607892036438, -0.22576797008514404, -0.21697679162025452, 0.03449007868766785, 0.020959198474884033, 0.10578391700983047, 0.1329544484615326, -0.2560757100582123, 0.25293979048728943, -0.09182770550251007, 0.20415553450584412, 0.19498088955879211, 0.005077534820884466, -0.026100322604179382, 0.24821653962135315, -0.0021665096282958984, 0.08597502112388611, -0.03490743413567543, 0.06319072842597961, -0.2466830611228943, -0.015449538826942444, 0.04712551832199097]
[-0.2567543089389801, -0.20859630405902863, 0.17643019556999207, 0.1365843415260315, -0.021125391125679016, -0.05680625140666962, 0.12715327739715576, 0.1834714114665985, 0.228829026222229, 0.23697295784950256, 0.21017640829086304, -0.17953895032405853, -0.07185349613428116, -0.028297454118728638, 0.12599244713783264, -0.13466937839984894, -0.1425694227218628, 0.12422525882720947, -0.14865049719810486, 0.07492583990097046, -0.12931576371192932, -0.1745985895395279, -0.02020588517189026, 0.130921870470047, -0.1985589563846588, -0.2582942247390747, -0.20199726521968842, -0.07561111450195312, -0.09315398335456848, -0.2164679765701294, -0.15038901567459106, 0.18704000115394592, 0.2366044819355011, -0.15705429017543793, -0.17302803695201874, 0.19828735291957855, 0.0318676233291626, 0.1772558093070984]
[-0.25442683696746826, 0.18395410478115082, 0.21517157554626465, -0.20314636826515198, 0.14941313862800598, 0.16183561086654663, 0.21210792660713196, -0.048369020223617554, 0.09457799792289734, -0.19118216633796692, -0.13669981062412262, -0.11882266402244568, 0.13649411499500275, -0.17638806998729706, 0.09841713309288025, -0.23829150199890137, 0.019171983003616333, 0.25995495915412903, -0.1602412462234497, -0.10988105833530426, 0.16609925031661987, -0.12966005504131317, -0.034188807010650635, -0.032328471541404724, -0.07649272680282593, 0.05101919174194336, 0.05187317728996277, 0.17006748914718628, -0.20052093267440796, 0.07461187243461609, -0.2640087604522705, 0.11322009563446045, 0.18288826942443848, -0.019291678443551064, 0.10823144763708115, -0.26271167397499084, -0.061916783452034, -0.06533598899841309]
[-0.17970356345176697, 0.046043526381254196, -0.13585223257541656, -0.045628707855939865, 0.19402101635932922, -0.008228778839111328, -0.05894915759563446, -0.03239201009273529, -0.19756817817687988, -0.20857320725917816, -0.06570936739444733, -0.20921775698661804, -0.024036401882767677, -0.1873861700296402, 0.07605940103530884, 0.04978683590888977, 0.20756322145462036, -0.18480005860328674, -0.2622770369052887, -0.04577678442001343, -0.11423507332801819, 0.01609717682003975, 0.004649996757507324, -0.11259117722511292, 0.2019677758216858, -0.05791838467121124, -0.163432776927948, 0.012209877371788025, 0.2570249140262604, -0.21961620450019836, 0.03642609715461731, -0.16838228702545166, 0.03222090005874634, -0.2454448789358139, 0.11336561292409897, -0.22168028354644775, 0.1098814308643341, -0.05508023500442505]
[-0.07841610908508301, 0.14334377646446228, -0.25246742367744446, -0.1102004274725914, -0.2194007784128189, 0.24274912476539612, 0.051944464445114136, 0.2186228334903717, -0.21402695775032043, -0.17505061626434326, 0.261745423078537, -0.05713309347629547, -0.18797585368156433, 0.16808471083641052, 0.1747453212738037, -0.025173470377922058, 0.2101321518421173, -0.1496545970439911, -0.20719638466835022, 0.17449870705604553, -0.038649752736091614, -0.011718537658452988, 0.06819203495979309, -0.14020133018493652, -0.09615728259086609, -0.21900050342082977, -0.09826266765594482, -0.0740097314119339, -0.11731328070163727, -0.1140047162771225, 0.16247102618217468, -0.11909200251102448, -0.08759348094463348, 0.24890996515750885, 0.18738597631454468, 0.1500140130519867, -0.2056526243686676, -0.2627401351928711]
[-0.24200506508350372, -0.07991045713424683, 0.26047536730766296, 0.1019977480173111, -0.019361406564712524, -0.18235990405082703, -0.13889887928962708, 0.07638901472091675, -0.23128606379032135, -0.053344905376434326, 0.12114882469177246, 0.13252338767051697, -0.17600023746490479, 0.1891326606273651, 0.2432127296924591, 0.10917416214942932, -0.1513487994670868, 0.2482428252696991, 0.05136069655418396, 0.0289839506149292, -0.04665075242519379, 0.18995055556297302, 0.09980547428131104, 0.09778127074241638, -0.1570671647787094, -0.1976940631866455, 0.2596032917499542, 0.11464674025774002, -0.1249852403998375, 0.18027254939079285, 0.20647388696670532, -0.0057607293128967285, -0.24355581402778625, 0.08849325031042099, -0.014592704363167286, -0.18478427827358246, -0.24115042388439178, 0.06817823648452759]
[-0.20667213201522827, 0.16727489233016968, -0.100301593542099, 0.26168403029441833, -0.17191427946090698, -0.10505266487598419, -0.19705235958099365, -0.12068337202072144, 0.09165453910827637, -0.2434362918138504, -0.25078922510147095, 0.10351374745368958, -0.20576529204845428, 0.20523038506507874, 0.0032975971698760986, -0.1924608051776886, -0.05114872753620148, -0.16391333937644958, 0.22421613335609436, -0.012634575366973877, -0.07749000191688538, -0.05436405912041664, 0.15037545561790466, 0.1346258521080017, 0.04821297526359558, -0.06387895345687866, -0.008062392473220825, -0.21051813662052155, -0.12057512998580933, -0.012981683015823364, -0.22323958575725555, 0.04815956950187683, -0.03989897668361664, 0.14836707711219788, -0.1672980785369873, -0.20374958217144012, -0.22198255360126495, 0.21194612979888916]
[0.06731420755386353, -0.173374205827713, -0.10676394402980804, -0.23115400969982147, -0.24486008286476135, 0.013245970010757446, 0.25602343678474426, 0.23486560583114624, 0.0317247211933136, 0.11987325549125671, -0.15306417644023895, -0.03304561972618103, -0.12210351228713989, 0.25589123368263245, 0.11153092980384827, 0.07192176580429077, -0.10264129936695099, 0.11782962083816528, -0.026832375675439835, -0.23546254634857178, -0.2227635681629181, 0.08233796805143356, 0.09182360768318176, 0.03188040852546692, 0.2094428837299347, -0.07413457334041595, -0.13082313537597656, 0.03395260497927666, -0.10457608848810196, -0.25852102041244507, -0.10137814283370972, -0.027644723653793335, -0.035375192761421204, 0.10090546309947968, 0.18681900203227997, -0.14853371679782867, 0.25546202063560486, -0.02925807237625122]
[-0.03477106988430023, -0.016592424362897873, -0.2148863673210144, -0.21459031105041504, -0.09022915363311768, 0.12789154052734375, -0.21130001544952393, -0.0396781861782074, 0.16901159286499023, 0.06063535809516907, -0.25732409954071045, -0.2335263341665268, -0.1270166039466858, -0.07444138824939728, -0.04088938236236572, 0.20871421694755554, -0.14891067147254944, 0.04713332653045654, 0.07551635801792145, -0.15116554498672485, 0.1979863941669464, 0.011684667319059372, -0.04528973996639252, 0.2077697217464447, -0.15145856142044067, 0.20254790782928467, 0.13181039690971375, -0.08349776268005371, -0.16579470038414001, -0.19820252060890198, -0.04729171097278595, 0.08905699849128723, 0.023012369871139526, -0.06830093264579773, -0.2664749324321747, -0.09823169559240341, 0.0849744975566864, 0.18618321418762207]
[0.25115469098091125, -0.15411323308944702, 0.07659026980400085, -0.012862478382885456, -0.18707457184791565, 0.09322613477706909, -0.19050738215446472, -0.08277842402458191, -0.23869144916534424, 0.17848801612854004, -0.13164368271827698, -0.022499874234199524, 0.07768069952726364, 0.19446024298667908, 0.18861091136932373, 0.13873451948165894, 0.1588355004787445, 0.047853320837020874, 0.06214570626616478, -0.22355371713638306, -0.2028370201587677, -0.0315111018717289, 0.25852450728416443, 0.08380278944969177, 0.19385826587677002, 0.006043195724487305, 0.18206727504730225, 0.12153682112693787, 0.09472742676734924, -0.25671154260635376, -0.052041083574295044, -0.1294924020767212, -0.24483753740787506, -0.04491346701979637, 0.11081752926111221, -0.13305635750293732, 0.038534700870513916, 0.2378806173801422]
[0.012533366680145264, 0.04974224790930748, -0.20153212547302246, 0.0020302364137023687, -0.25582355260849, 0.15656688809394836, -0.2422441691160202, 0.0021322667598724365, 0.19097170233726501, 0.16928118467330933, 0.18817278742790222, -0.007782995700836182, 0.19671481847763062, 0.13760721683502197, 0.1285390853881836, 0.01264345645904541, 0.06850609183311462, -0.22989772260189056, 0.21792015433311462, -0.2125554233789444, -0.1822354644536972, 0.003321335418149829, -0.14727622270584106, 0.11280849575996399, 0.08698147535324097, 0.14125937223434448, -0.12977327406406403, 0.17443980276584625, 0.03383661434054375, -0.2431415617465973, -0.14427882432937622, -0.19100677967071533, 0.03969520330429077, -0.0291725005954504, 0.14663276076316833, -0.2197909653186798, 0.051454782485961914, -0.20030751824378967]
[0.1999586522579193, -0.21933557093143463, 0.18062099814414978, 0.1525082290172577, -0.014262393116950989, -0.08528746664524078, 0.014602720737457275, 0.16221699118614197, 0.14715757966041565, -0.1058463305234909, 0.18903887271881104, -0.15956518054008484, -0.23052123188972473, 0.10859259963035583, 0.05578485131263733, 0.15074965357780457, 0.0500757098197937, -0.19316178560256958, 0.05543776601552963, 0.10275766253471375, 0.2565098702907562, -0.17415709793567657, 0.18919217586517334, -0.15835726261138916, -0.15849971771240234, -0.1295713186264038, -0.027972251176834106, -0.015467753633856773, 0.06731034815311432, -0.24446164071559906, -0.08019904792308807, -0.10777002573013306, 0.16707101464271545, 0.21141688525676727, -0.15200960636138916, -0.23353564739227295, 0.12643685936927795, -0.1657482385635376]
[0.1497008204460144, 0.24830786883831024, 0.18916797637939453, -0.07446596026420593, 0.1578664481639862, 0.2142224907875061, -0.2532294988632202, 0.07548469305038452, 0.1498010754585266, 0.16803774237632751, 0.2113858461380005, 0.02824920415878296, -0.1557897925376892, -0.19428139925003052, -0.039357900619506836, -0.04879617691040039, -0.012790858745574951, -0.12108427286148071, 0.21310476958751678, 0.06290164589881897, -0.06522169709205627, -0.1611493080854416, 0.17134317755699158, -0.011573761701583862, -0.236055389046669, 0.1641685664653778, -0.0335051566362381, -0.0825296938419342, 0.027539711445569992, 0.2098727524280548, 0.2199667990207672, 0.06303313374519348, -0.24155837297439575, -0.014961615204811096, 0.0024065941106528044, 0.19082145392894745, -0.13263945281505585, -0.039248958230018616]
[0.10666146874427795, 0.16753622889518738, 0.013523250818252563, -0.17329728603363037, 0.22595039010047913, -0.007315903902053833, 0.19244948029518127, 0.04346907138824463, 0.1361508071422577, 0.18573719263076782, -0.03691694140434265, -0.1574082374572754, 0.21523408591747284, -0.16110050678253174, -0.15299636125564575, 0.034768372774124146, 0.22426754236221313, -0.2609810531139374, 0.09600058197975159, -0.19739499688148499, -0.26131728291511536, 0.16522063314914703, -0.055619239807128906, -0.17068973183631897, 0.004836320877075195, 0.16460171341896057, 0.21222272515296936, -0.023935701698064804, -0.031583089381456375, -0.18907099962234497, 0.20599988102912903, 0.09969654679298401, -0.0905589610338211, -0.15652890503406525, 0.09514749050140381, 0.020323004573583603, -0.2286272644996643, -0.10465320944786072]
[-0.23716098070144653, -0.23484793305397034, 0.22094902396202087, -0.019268576055765152, 0.2607562243938446, -0.1337464153766632, 0.036099910736083984, -0.21105214953422546, 0.21353977918624878, -0.14259940385818481, 0.03226971626281738, 0.0949215292930603, -0.1641901135444641, -0.09814482927322388, -0.19681519269943237, -0.18112850189208984, 0.15831097960472107, 0.006751269102096558, -0.23745058476924896, 0.06617864966392517, -0.16611707210540771, -0.06653797626495361, 0.2585340440273285, -0.17336711287498474, -0.20110094547271729, 0.18799066543579102, -0.25990915298461914, 0.07297172397375107, 0.20103923976421356, 0.10446491837501526, 0.16341307759284973, -0.027979940176010132, -0.0028216540813446045, 0.0776851549744606, -0.2155190408229828, -0.15300387144088745, 0.0901351273059845, -0.05017179250717163]
[0.20907381176948547, -0.1099911704659462, 0.11134105920791626, 0.20770561695098877, -0.09047330915927887, -0.24492457509040833, 0.16590553522109985, -0.0832742303609848, 0.02040797472000122, 0.12342515587806702, 0.16118231415748596, 0.26069095730781555, 0.20509040355682373, 0.06289690732955933, -0.07683348655700684, 0.21893823146820068, 0.03918376564979553, 0.19881382584571838, -0.14003436267375946, 0.1763048768043518, 0.08455142378807068, -0.08940412849187851, -0.07483875751495361, 0.04917573928833008, 0.10119098424911499, 0.18785130977630615, -0.15254086256027222, 0.1629909873008728, 0.041357483714818954, 0.1922282874584198, 0.23654469847679138, -0.09997116029262543, 0.16372868418693542, -0.07192975282669067, 0.026037657633423805, 0.1769932210445404, 0.17722570896148682, -0.16667893528938293]
[0.07685211300849915, -0.22974348068237305, 0.11767852306365967, -0.06143047660589218, 0.2473485767841339, 0.2548818290233612, -0.004794716835021973, 0.25393345952033997, -0.2266269326210022, -0.26034682989120483, -0.1994236707687378, 0.05705821514129639, -0.0056332373060286045, -0.08032089471817017, 0.020946592092514038, 0.20842283964157104, 0.0772320032119751, 0.17110195755958557, -0.14154040813446045, 0.23872658610343933, 0.0015736818313598633, -0.11792981624603271, -0.2439504712820053, 0.26047268509864807, 0.19765660166740417, -0.05256648361682892, 0.11450353264808655, -0.1937355399131775, 0.015023235231637955, -0.2353355884552002, -0.18689081072807312, 0.11051037907600403, -0.05474250018596649, 0.03227168694138527, -0.16993948817253113, -0.17178991436958313, 0.026496440172195435, 0.1625727415084839]
[0.2362097203731537, -0.0008075920632109046, -0.26138630509376526, 0.24047331511974335, 0.012292861938476562, -0.19107478857040405, -0.23872244358062744, 0.03940916061401367, 0.134281188249588, 0.242987722158432, 0.22930046916007996, -0.04577881097793579, -0.012669977732002735, 0.09883907437324524, -0.22189998626708984, 0.2263926863670349, -0.027893781661987305, 0.019299713894724846, 0.16852901875972748, 0.023654192686080933, -0.18735267221927643, 0.2017269879579544, 0.2016546130180359, -0.029420986771583557, 0.04707646369934082, 0.031951576471328735, -0.20801469683647156, 0.059995051473379135, -0.07759074866771698, 0.23650667071342468, -0.11264936625957489, -0.11570622026920319, -0.05510334670543671, 0.028449222445487976, 0.2157263606786728, -0.1922176480293274, -0.25865596532821655, 0.033449798822402954]
[0.13595303893089294, -0.17715398967266083, -0.07793687283992767, 0.20940282940864563, 0.06852251291275024, -0.017078697681427002, -0.16397839784622192, -0.1403190940618515, 0.19729462265968323, 0.12927576899528503, 0.026815474033355713, 0.15874344110488892, 0.2224491685628891, 0.14472970366477966, 0.1419752538204193, 0.04496404528617859, -0.05438557267189026, 0.19246363639831543, -0.18084454536437988, -0.09091551601886749, 0.23668929934501648, 0.15188848972320557, 0.07594269514083862, -0.006476074457168579, -0.13643953204154968, -0.2527758777141571, -0.15983383357524872, -0.18477825820446014, 0.0696963295340538, -0.02656741440296173, -0.17189735174179077, 0.13598346710205078, -0.08825062215328217, -0.21407893300056458, 0.020630819723010063, -0.12326637655496597, 0.033445507287979126, -0.14401042461395264]
[0.13058501482009888, -0.22709114849567413, 0.16908040642738342, -0.20774458348751068, 0.1579212248325348, -0.118612140417099, -0.15337911248207092, -0.034399330615997314, 0.06893602013587952, -0.010236799716949463, -0.2608471214771271, 0.10418683290481567, -0.1552378386259079, -0.02844834327697754, -0.05493861436843872, -0.21269181370735168, 0.08894547820091248, 0.22865623235702515, -0.21120131015777588, 0.13388648629188538, -0.08499778807163239, 0.2456067055463791, 0.23981568217277527, 0.20648565888404846, 0.1876058280467987, 0.047756344079971313, 0.07055175304412842, 0.04592454805970192, 0.1298118382692337, -0.007723987102508545, 0.18607637286186218, 0.05774003267288208, -0.1347734034061432, -0.16403889656066895, 0.06702005118131638, -0.07158089429140091, -0.14897044003009796, 0.13915058970451355]
[-0.22976762056350708, -0.02384137734770775, -0.1285841166973114, 0.15723618865013123, -0.1595918834209442, 0.04878389835357666, -0.22290903329849243, -0.19310352206230164, -0.2063259482383728, 0.07488247752189636, -0.11942954361438751, 0.09546136856079102, -0.23772968351840973, -0.13928568363189697, -0.03688551485538483, 0.061661869287490845, 0.21236497163772583, 0.25181707739830017, -0.05132191255688667, 0.23571747541427612, -0.16808390617370605, 0.06443597376346588, -0.06835746765136719, -0.13006611168384552, -0.25699475407600403, -0.20213845372200012, 0.08409366011619568, -0.09876862168312073, -0.06002480164170265, 0.21530306339263916, 0.09587898850440979, 0.22857826948165894, -0.2332368940114975, 0.15644459426403046, -0.18263603746891022, -0.024188930168747902, 0.0078078508377075195, -0.055788516998291016]
[-0.22828423976898193, 0.14458972215652466, 0.06509259343147278, -0.18505950272083282, 0.19434311985969543, 0.13651567697525024, 0.1828344762325287, 0.21109893918037415, -0.16475896537303925, -0.11357931792736053, 0.08237060904502869, -0.2318430095911026, -0.053296416997909546, -0.08307762444019318, 0.1468958556652069, 0.2506546080112457, -0.1879727840423584, -0.2511770725250244, -0.22729863226413727, 0.0894446074962616, 0.23709365725517273, -0.20991940796375275, 0.11331874132156372, 0.04260021448135376, -0.14894947409629822, -0.11273691058158875, 0.22447633743286133, -0.0047157807275652885, -0.04371172934770584, 0.1292145550251007, 0.06431013345718384, 0.0659799873828888, 0.1433068811893463, 0.0617765411734581, -0.023841341957449913, 0.0046458919532597065, 0.011466622352600098, 0.21828246116638184]
[-0.13369187712669373, 0.1901945322751999, 0.14464986324310303, -0.17311173677444458, 0.26375171542167664, 0.03897339105606079, 0.189304381608963, -0.06273104250431061, 0.16851282119750977, -0.11509688198566437, 0.12462767958641052, -0.015396133065223694, -0.1479049026966095, -0.08200642466545105, 0.23886975646018982, -0.023911133408546448, -0.17950040102005005, 0.2641291916370392, -0.2388664335012436, -0.13800150156021118, 0.1720515787601471, -0.06317780166864395, 0.19752681255340576, 0.1218966543674469, -0.22771860659122467, 0.105536550283432, 0.22269964218139648, -0.16050976514816284, -0.1458207219839096, -0.21833600103855133, -0.09502311050891876, -0.25641342997550964, 0.16991716623306274, 0.14288616180419922, -0.029693368822336197, 0.0357537604868412, 0.23904374241828918, 0.24811384081840515]
[0.24575218558311462, 0.06990889459848404, 0.1651860475540161, -0.0012564724311232567, 0.14778608083724976, -0.10859808325767517, -0.06713651120662689, -0.17217840254306793, 0.04289180040359497, 0.06370174884796143, 0.16965973377227783, 0.19910746812820435, 0.21462956070899963, -0.19215279817581177, -0.10346871614456177, -0.07287293672561646, 0.1067369282245636, -0.1598137468099594, -0.17196902632713318, 0.16820412874221802, -0.1978936344385147, 0.11703870445489883, -0.16495758295059204, 0.21566694974899292, -0.12215912342071533, 0.23514339327812195, -0.25481846928596497, 0.03946356102824211, -0.1474536955356598, 0.2535037696361542, 0.22020646929740906, -0.020144611597061157, -0.11689738929271698, 0.13378992676734924, 0.18112613260746002, -0.11215613037347794, 0.04882696270942688, -0.18345806002616882]
[0.0023295581340789795, -0.12615340948104858, -0.06320051848888397, -0.09728696942329407, 0.04005861282348633, -0.06245899200439453, 0.2508074939250946, -0.19485723972320557, -0.0680173933506012, 0.0735941231250763, -0.0884312242269516, -0.2520536184310913, -0.09951166063547134, -0.19825732707977295, 0.20153596997261047, 0.04908290505409241, 0.051946669816970825, 0.22561204433441162, 0.04174148663878441, 0.14917877316474915, 0.005984187126159668, -0.029929306358098984, 0.009419143199920654, 0.2574506103992462, -0.006126612424850464, 0.08430278301239014, -0.11138640344142914, 0.090965136885643, 0.023506833240389824, -0.09595009684562683, -0.25649675726890564, 0.0012635886669158936, -0.16928936541080475, -0.2465047985315323, -0.06077723205089569, 0.24299341440200806, 0.08191528916358948, 0.05682286620140076]
[0.20407706499099731, 0.19408145546913147, -0.2159309983253479, 0.09346132725477219, 0.19408360123634338, 0.24138417840003967, 0.08703374862670898, 0.22266370058059692, 0.2530287802219391, 0.13692966103553772, 0.0455784797668457, -0.08978311717510223, -0.01824927143752575, -0.18694829940795898, -0.199514240026474, 0.14494100213050842, 0.1805160641670227, -0.12021112442016602, -0.1979047656059265, 0.20877069234848022, 0.2424044907093048, -0.00034727886668406427, -0.07389344274997711, -0.2555713355541229, 0.10249486565589905, 0.041898369789123535, -0.16737613081932068, 0.025725379586219788, -0.17918194830417633, -0.11564551293849945, 0.06596788763999939, -0.045357003808021545, 0.15257638692855835, -0.12099774926900864, 0.13880230486392975, 0.10349544882774353, 0.1093062162399292, 0.15940478444099426]
[0.0752761960029602, -0.22141359746456146, 0.02365836501121521, -0.12533701956272125, 0.2538103759288788, 0.05097624659538269, 0.04491007328033447, 0.09828263521194458, 0.11766606569290161, 0.04891374707221985, 0.21295097470283508, 0.205230712890625, -0.008623549714684486, 0.11372452974319458, -0.06035161018371582, 0.038661450147628784, 0.14186719059944153, -0.1496151089668274, -0.041974470019340515, -0.0548534095287323, -0.045550331473350525, 0.02984827198088169, 0.1621713936328888, 0.11217114329338074, 0.0957116186618805, -0.05704851448535919, -0.06410729885101318, 0.1096436008810997, -0.23564423620700836, 0.16166695952415466, 0.1093163788318634, -0.09296995401382446, 0.24444988369941711, 0.21947570145130157, 0.2415895164012909, -0.08242253959178925, 0.0581335723400116, 0.15192407369613647]
[-0.03397481143474579, 0.16883452236652374, 0.19558018445968628, 0.13860297203063965, 0.15473374724388123, -0.011442512273788452, 0.01560288667678833, 0.22751829028129578, 0.22470054030418396, -0.005694866180419922, -0.11707209050655365, -0.012898623943328857, 0.21612276136875153, 0.2599237263202667, 0.2153017520904541, 0.22978278994560242, -0.21675527095794678, 0.13429367542266846, -0.2677035927772522, -0.18876349925994873, -0.09348639845848083, 0.13046839833259583, -0.1975175440311432, -0.004433304071426392, 0.2618381679058075, -0.04748731851577759, 0.2168707549571991, 0.16765445470809937, -0.09864909201860428, -0.011507630348205566, 0.2542477548122406, 0.14538535475730896, 0.18373873829841614, -0.1924872100353241, 0.05322843790054321, -0.24179624021053314, -0.20429180562496185, -0.13952088356018066]
[-0.14885085821151733, 0.2560040354728699, -0.02400974929332733, 0.030085207894444466, -0.05701218545436859, 0.24702712893486023, -0.014920800924301147, 0.03055635094642639, -0.2410132735967636, -0.039294928312301636, 0.17454153299331665, 0.18997350335121155, -0.19197502732276917, 0.003643602132797241, 0.21925359964370728, -0.2519664168357849, -0.030632302165031433, -0.18541178107261658, 0.19968819618225098, 0.03343689441680908, 0.1402416229248047, -0.07208526879549026, 0.10669711232185364, 0.21094030141830444, -0.0684920996427536, -0.2077866494655609, -0.15842987596988678, -0.24616120755672455, -0.029360296204686165, -0.1259806901216507, 0.03483015298843384, -0.11514613032341003, 0.22931620478630066, -0.2240462750196457, 0.0337638296186924, 0.10690047591924667, 0.23172977566719055, 0.08658468723297119]
[0.1890324056148529, 0.09891214221715927, 0.09694913029670715, -0.10099726170301437, -0.06281983852386475, -0.15652677416801453, -0.07552291452884674, 0.002186983823776245, 0.003508836030960083, 0.18196681141853333, 0.10039913654327393, 0.21415403485298157, -0.1697462648153305, 0.24571958184242249, 0.18868768215179443, -0.03955356776714325, 0.18606874346733093, -0.2327481508255005, -0.19426657259464264, 0.1278277337551117, -0.02901756763458252, -0.1266874521970749, 0.22138744592666626, -0.056362032890319824, -0.13358677923679352, 0.24601992964744568, 0.12637969851493835, 0.19047658145427704, 0.19434760510921478, 0.24797788262367249, 0.020434170961380005, 0.048557430505752563, -0.08116187155246735, 0.012811916880309582, -0.0811300054192543, -0.050812818109989166, -0.16303464770317078, -0.10891754925251007]
[0.11304661631584167, -0.08759544789791107, -0.13131029903888702, -0.07461283355951309, 0.15206223726272583, 0.14561393857002258, -0.16009202599525452, -0.1536528617143631, -0.1278022974729538, 0.1858794391155243, -0.09533156454563141, 0.11851787567138672, -0.14040692150592804, -0.26253753900527954, 0.15776631236076355, -0.2598109245300293, 0.11403366923332214, -0.0811682939529419, -0.16433392465114594, 0.23366960883140564, -0.026031747460365295, -0.013677192851901054, -0.06876704096794128, -0.23564177751541138, -0.10215714573860168, -0.022059366106987, -0.022421211004257202, -0.15750524401664734, -0.10934387892484665, 0.017562389373779297, 0.07104414701461792, 0.1813238561153412, -0.07710906863212585, -0.09084539860486984, -0.16263015568256378, -0.18219991028308868, -0.14357897639274597, 0.1442781388759613]

[0.04279440641403198, 0.30890244245529175, 0.18533122539520264, 0.06276325136423111, 0.272030770778656, 0.2038487046957016, 0.23930533230304718, 0.2636130452156067, -0.21061499416828156, -0.21595892310142517, -0.2576792240142822, 0.21505476534366608, -0.19732971489429474, -0.20363155007362366, 0.23566783964633942, 0.1593041568994522, 0.15435552597045898, 0.20558078587055206, -0.2569955885410309, 0.20581118762493134, 0.15175050497055054, 0.21199385821819305, -0.18745821714401245, 0.1531859040260315, -0.2160036414861679, 0.34165942668914795, 0.15520261228084564, -0.20679478347301483]
[0.25167688727378845, 0.5928881168365479, -0.08271466195583344, -0.18117521703243256, 0.4704207181930542, 0.45199131965637207, 0.25729647278785706, -0.018899325281381607, -0.01370158139616251, -0.5160953998565674, -0.431446373462677, 0.38911378383636475, -0.15493126213550568, 0.08929011225700378, 0.2614399194717407, 0.33262771368026733, 0.28891292214393616, 0.13536818325519562, -0.0746162086725235, 0.4318927824497223, 0.0038646103348582983, 0.4600433111190796, -0.04579250514507294, 0.06608540564775467, -0.17748990654945374, 0.3492951989173889, 0.35618919134140015, -0.4773242771625519]
[0.006324910558760166, 0.3924484848976135, 0.47661468386650085, -0.02799784019589424, 0.08874505758285522, 0.07229688763618469, 0.4694906175136566, 0.22691908478736877, -0.41950803995132446, -0.08708108216524124, -0.41915398836135864, -0.08289270102977753, -0.29653313755989075, 0.0694231390953064, 0.2224424183368683, 0.2646930515766144, -0.04582085460424423, 0.3982994854450226, -0.535498857498169, 0.18342094123363495, 0.18827399611473083, 0.15661649405956268, -0.04224319010972977, 0.12100226432085037, -0.4791465401649475, 0.5159482359886169, -0.0473744161427021, -0.30722907185554504]
[0.0847710371017456, -0.22688508033752441, 0.2695363759994507, 0.09844407439231873, -0.0299396812915802, 0.13821834325790405, -0.1686856746673584, 0.13056212663650513, 0.0809330940246582, -0.10396584868431091, 0.2739596366882324, 0.04256054759025574, -0.09156309068202972, 0.21150106191635132, 0.01542714238166809, -0.01663994789123535, 0.1102077066898346, 0.1528666615486145, -0.1288089007139206, -0.09406068921089172, -0.22076809406280518, -0.1668625771999359, -0.008283495903015137, -0.24829399585723877, 0.026617497205734253, -0.23950523138046265, 0.11621606349945068, 0.045358508825302124]
[-0.1537567377090454, -0.23042719066143036, -0.04231538251042366, 0.20210835337638855, -0.0007161347893998027, -0.11249638348817825, -0.22416819632053375, 0.21180188655853271, 0.273565411567688, -0.24140983819961548, 0.27952340245246887, 0.30122095346450806, 0.22730232775211334, -0.07857898622751236, 0.04973427578806877, 0.19171294569969177, -0.262138307094574, 0.10698160529136658, 0.1606348156929016, -0.17929472029209137, 0.05517798662185669, 0.19298936426639557, 0.15058349072933197, -0.07672169804573059, 0.23576165735721588, 0.1289462298154831, 0.14838455617427826, 0.27038952708244324]
[0.07010602205991745, 0.5470811128616333, 0.13558530807495117, 0.35147491097450256, 0.35564035177230835, 0.22436998784542084, 0.12917523086071014, 0.4252145290374756, 0.014169483445584774, -0.467700332403183, -0.48898810148239136, 0.10473373532295227, 0.022127419710159302, -0.46870532631874084, -0.04620128124952316, -0.09746500849723816, 0.28582099080085754, 0.21250973641872406, -0.3196631669998169, -0.07697774469852448, 0.2700514495372772, 0.11571676284074783, 0.045016124844551086, 0.1441032588481903, -0.34102964401245117, 0.22663497924804688, -0.10853921622037888, -0.2824734151363373]
[-0.16301028430461884, -0.05117744207382202, -0.16922323405742645, -0.29217445850372314, -0.10000896453857422, -0.15235663950443268, 0.05109018087387085, 0.06393948197364807, -0.06833884119987488, 0.022453993558883667, -0.162797212600708, -0.17515906691551208, -0.07245689630508423, 0.0057305991649627686, -0.040744632482528687, 0.18045827746391296, -0.25269392132759094, 0.2593480944633484, -0.21785619854927063, 0.027655810117721558, 0.01039189100265503, -0.23276807367801666, -0.21771681308746338, -0.22754305601119995, -0.2840367555618286, -0.25128236413002014, 0.10829663276672363, 0.27608007192611694]
[-0.03351515531539917, 0.5682518482208252, 0.34173783659935, 0.14642949402332306, 0.2492865025997162, 0.4320719838142395, 0.2581067979335785, 0.4315320551395416, -0.2125595360994339, -0.2823334038257599, -0.42336463928222656, 0.251337468624115, -0.1994236260652542, 0.044853512197732925, 0.2758614420890808, 0.43073052167892456, 0.11481727659702301, 0.40679046511650085, -0.4318714141845703, 0.41045185923576355, 0.16309133172035217, 0.011026661843061447, -0.20545649528503418, 0.2378517985343933, -0.47767674922943115, 0.1411246657371521, -0.09419865161180496, -0.28093037009239197]
[0.04752963036298752, 0.036417968571186066, 0.199741929769516, 0.23943038284778595, 0.190437451004982, 0.1792578548192978, 0.12273294478654861, 0.11975879967212677, -0.07027586549520493, -0.17806753516197205, -0.08635496348142624, 0.025933420285582542, -0.4192257821559906, -0.0767357349395752, 0.4450681805610657, 0.3625742197036743, 0.0330522283911705, 0.20607991516590118, -0.07204224169254303, 0.4425966441631317, -0.14588037133216858, 0.3235095739364624, -0.4022032618522644, -0.10128269344568253, -0.4058572053909302, 0.06201131269335747, 0.2969955801963806, 0.06233082711696625]
[0.19868697226047516, 0.131527379155159, 0.28622350096702576, 0.23741500079631805, 0.09305422008037567, 0.21905438601970673, -0.024549508467316628, 0.4430302083492279, -0.032431695610284805, -0.09882121533155441, 0.01289271004498005, 0.17567919194698334, -0.1499609798192978, -0.45557090640068054, 0.22796911001205444, 0.1856222301721573, 0.25411200523376465, 0.3152531683444977, 0.01915593445301056, 0.4218886196613312, -0.045362360775470734, 0.4581981301307678, -0.4449201822280884, 0.21708866953849792, -0.09076593816280365, 0.18890613317489624, 0.12027070671319962, -0.32253578305244446]
[-0.057101085782051086, 0.12849725782871246, 0.405466765165329, -0.20854119956493378, 0.4469553232192993, 0.44825828075408936, 0.5095300674438477, 0.31661707162857056, 0.079442597925663, -0.0060806879773736, -0.4318104386329651, 0.1631632298231125, -0.48466137051582336, -0.4594872295856476, 0.3104574680328369, 0.10358569025993347, 0.0830448567867279, 0.2960205376148224, 0.024867478758096695, 0.10704371333122253, 0.011398267932236195, 0.18978027999401093, -0.4781249165534973, 0.4139712154865265, -0.24441953003406525, 0.06476201862096786, 0.16694320738315582, -0.05959350988268852]
[0.27219679951667786, 0.5311910510063171, -0.015626205131411552, 0.03748646751046181, 0.2786341905593872, 0.37586790323257446, 0.369585245847702, 0.32196879386901855, -0.10247134417295456, -0.3813382089138031, -0.14033102989196777, 0.4633459448814392, 0.04623328149318695, -0.46386173367500305, 0.44972169399261475, 0.33445852994918823, 0.1858844757080078, 0.22103019058704376, -0.5206371545791626, 0.007120669819414616, 0.18023210763931274, 0.451121985912323, -0.29318374395370483, -0.05224958062171936, -0.391467809677124, 0.05561993643641472, 0.3502417206764221, -0.4861730635166168]
[0.14972195029258728, 0.05950412154197693, -0.13272202014923096, 0.26563501358032227, 0.2308868169784546, 0.2165730595588684, -0.15773393213748932, -0.08868104219436646, 0.23594993352890015, -0.12260544300079346, -0.05551144480705261, 0.13331061601638794, 0.02089148759841919, 0.17197230458259583, -0.20255054533481598, 0.027431517839431763, 0.23247826099395752, 0.08625876903533936, 0.020991414785385132, 0.09568122029304504, 0.17333459854125977, 0.055082350969314575, 0.20471632480621338, 0.17422807216644287, 0.09610721468925476, -0.2565234303474426, 0.04354202747344971, -0.05638493597507477]
[-0.15350341796875, 0.05383830517530441, 0.4097645878791809, 0.12199194729328156, 0.41267627477645874, 0.42514798045158386, 0.47022271156311035, 0.4422173798084259, -0.5063290596008301, -0.48578211665153503, 0.05322980880737305, 0.345695436000824, -0.12032288312911987, -0.18947537243366241, 0.2366834431886673, -0.04700073227286339, 0.07049380242824554, 0.1570172905921936, -0.1676665097475052, -0.057679858058691025, -0.013691584579646587, 0.030850721523165703, 0.008087006397545338, 0.22324733436107635, -0.03804970905184746, 0.39741238951683044, 0.030347110703587532, -0.4006623327732086]
[-0.14493273198604584, 0.07565312832593918, 0.44207021594047546, 0.24024076759815216, 0.1733894795179367, -0.07239510118961334, 0.45931926369667053, 0.29740825295448303, -0.3325733244419098, -0.49378493428230286, -0.17106792330741882, -0.011145291849970818, 0.0815432071685791, -0.031117001548409462, 0.06209935247898102, -0.06850390136241913, 0.30194219946861267, 0.09735388308763504, -0.49479812383651733, 0.4965446889400482, 0.35258689522743225, 0.17034627497196198, -0.3156290650367737, 0.06681124120950699, -0.25255540013313293, 0.09571481496095657, 0.25370827317237854, -0.4454266130924225]
[-0.06590377539396286, 0.46962040662765503, -0.02098228968679905, 0.30095502734184265, 0.03724966570734978, 0.3358457684516907, 0.4033493101596832, 0.11133988201618195, 0.01333556231111288, -0.4052172601222992, -0.534653902053833, 0.13724888861179352, -0.36649981141090393, 0.08253255486488342, 0.1046234592795372, 0.20476411283016205, 0.12907123565673828, 0.4849347174167633, -0.02478202059864998, 0.2990645468235016, 0.41379645466804504, 0.30645573139190674, 0.10286647081375122, 0.3937143385410309, 0.07908248901367188, 0.43204230070114136, 0.14309827983379364, -0.3804631531238556]
[0.28710195422172546, 0.14196635782718658, 0.206354558467865, -0.012167379260063171, 0.09274187684059143, 0.07650403678417206, 0.022596722468733788, 0.48523014783859253, -0.27756768465042114, -0.15902003645896912, -0.4300009608268738, 0.1837533861398697, -0.43983742594718933, -0.4523563086986542, -0.043694689869880676, 0.03164450451731682, 0.4220145642757416, 0.06670113652944565, -0.42588257789611816, 0.3053942024707794, 0.3905254304409027, 0.42099303007125854, 0.09292593598365784, 0.12946107983589172, -0.3749886751174927, 0.4792855381965637, -0.12573106586933136, -0.47443321347236633]
[0.09273364394903183, 0.03483467549085617, 0.47479048371315, 0.18033243715763092, 0.4950702488422394, 0.2582915425300598, -0.04518674686551094, 0.1247832328081131, -0.1529550403356552, -0.10955231636762619, -0.25803279876708984, 0.29272645711898804, -0.3062790334224701, 0.08003441989421844, -0.044100940227508545, 0.13901083171367645, 0.09477035701274872, -0.009278061799705029, 0.007571505848318338, 0.13858093321323395, -6.348291208269075e-05, 0.3492644429206848, -0.05429241806268692, 0.3736051023006439, -0.4969111680984497, 0.34970128536224365, -0.06404786556959152, -0.02537814900279045]
[-0.13815753161907196, 0.24192816019058228, -0.15846069157123566, 0.22368156909942627, -0.11429628729820251, 0.06756514310836792, -0.1926289200782776, 0.2993183732032776, 0.09384998679161072, -0.17091277241706848, 0.13604897260665894, 0.16308438777923584, -0.24197867512702942, 0.2897304892539978, -0.11813212931156158, -0.18695512413978577, 0.1526576280593872, -0.20360921323299408, 0.14265549182891846, 0.0038031339645385742, -0.15876254439353943, -0.030852854251861572, -0.049145668745040894, 0.1949879229068756, -0.2599073052406311, 0.10535094141960144, -0.2632022798061371, -0.15740324556827545]
[0.2321600615978241, 0.2575491964817047, -0.2689827084541321, -0.14697831869125366, -0.02738267369568348, -0.17864921689033508, -0.1090131402015686, 0.3231295943260193, -0.09503740817308426, 0.024073593318462372, -0.19097377359867096, -0.20620699226856232, -0.12039556354284286, -0.1510806530714035, 0.2407091110944748, -0.0929918959736824, -0.1799706071615219, -0.12211482971906662, -0.022570135071873665, 0.10619669407606125, 0.019220490008592606, -0.021736664697527885, -0.2545928359031677, -0.20262737572193146, 0.0310011375695467, 0.08537645637989044, 0.005286149214953184, 0.22191168367862701]
[0.1680186241865158, 0.18280477821826935, 0.001305283629335463, -0.16312779486179352, -0.024638066068291664, 0.3931044936180115, 0.5018646717071533, -0.035640355199575424, -0.2538231909275055, -0.4206291139125824, -0.12438309192657471, 0.3010215759277344, -0.45751360058784485, -0.3984505832195282, 0.4260751008987427, 0.4400365948677063, 0.36927881836891174, 0.22329585254192352, -0.30322837829589844, 0.22789572179317474, 0.44045183062553406, 0.08509711176156998, -0.4844316244125366, 0.3969072997570038, -0.47236669063568115, 0.30622369050979614, 0.27571070194244385, -0.4751756489276886]
[-0.04563546180725098, -0.08548341691493988, 0.2854812741279602, -0.165924534201622, 0.1633395254611969, -0.052984654903411865, -0.049801409244537354, -0.25544944405555725, 0.09823131561279297, -0.07852745056152344, -0.13323140144348145, 0.2042330503463745, 0.15957507491111755, 0.008554846048355103, 0.027237147092819214, -0.14065642654895782, 0.28512483835220337, 0.19838017225265503, 0.2026195526123047, -0.14871001243591309, 0.17583760619163513, 0.17278310656547546, 0.09672507643699646, -0.2694363594055176, 0.2174818515777588, -0.13826800882816315, -0.08423461019992828, -0.3012261688709259]
[-0.1330062448978424, -0.1830715388059616, -0.06302378326654434, -0.04578722268342972, -0.030877210199832916, 0.24592427909374237, 0.11226092278957367, 0.31661638617515564, -0.23193193972110748, -0.1104225367307663, 0.23127025365829468, -0.08615898340940475, 0.18357111513614655, -0.0746312141418457, 0.09988437592983246, -0.029180290177464485, 0.24982202053070068, -0.18789193034172058, -0.047219377011060715, 0.022337650880217552, 0.033574726432561874, -0.009069433435797691, 0.11314643919467926, -0.22407613694667816, -0.01330842636525631, -0.14700764417648315, -0.21301500499248505, -0.17449285089969635]
[0.1630750149488449, 0.17041607201099396, 0.2252686619758606, -0.0009676357731223106, 0.3634011745452881, 0.006379459053277969, -0.01587160862982273, 0.24490830302238464, -0.5090504884719849, -0.24807730317115784, -0.03399110957980156, 0.29194992780685425, -0.2753749191761017, -0.24006232619285583, 0.5138276815414429, 0.19388486444950104, -0.10978473722934723, 0.4095397889614105, -0.3802177309989929, 0.33860501646995544, 0.32224127650260925, 0.3716374635696411, -0.290216326713562, 0.1618773341178894, 0.04540678858757019, 0.14737343788146973, 0.348549485206604, -0.43602117896080017]
[0.20682120323181152, -0.007604748010635376, -0.07497958838939667, -0.15444903075695038, 0.22230380773544312, -0.18181607127189636, 0.08148211240768433, 0.16234031319618225, 0.15153449773788452, 0.19821900129318237, -0.07962995767593384, 0.20711684226989746, -0.24846450984477997, 0.10525813698768616, 0.28088289499282837, 0.06919458508491516, -0.3010494112968445, -0.255511999130249, 0.2183862328529358, 0.12343823909759521, 0.012083739042282104, -0.19075867533683777, -0.05632275342941284, 0.22739553451538086, 0.13626176118850708, -0.17724916338920593, -0.05163370072841644, 0.2656714916229248]
[-0.05651426315307617, 0.03272756189107895, -0.08028943836688995, 0.13536010682582855, 0.4490125775337219, -0.04531453549861908, 0.17258380353450775, 0.0996326357126236, -0.02110324054956436, 0.010951166041195393, -0.08514358848333359, 0.41271793842315674, -0.030908828601241112, -0.18896353244781494, 0.10710874944925308, 0.05452025309205055, 0.12969809770584106, -0.04805146902799606, -0.19485144317150116, -0.09206424653530121, 0.2042447328567505, -0.038022324442863464, -0.11055260896682739, 0.3093046247959137, 0.050139471888542175, 0.26984769105911255, 0.14310972392559052, -0.19313548505306244]
[0.2374752163887024, -0.23376081883907318, 0.016528308391571045, -0.27138036489486694, 0.20816516876220703, -0.10075213015079498, -0.2559608519077301, 0.25477510690689087, -0.050545722246170044, 0.13375559449195862, -0.024105221033096313, -0.22881528735160828, -0.032874733209609985, -0.04536396265029907, -0.07336646318435669, 0.2816527485847473, -0.21938371658325195, 0.14028722047805786, -0.1988319605588913, 0.06604525446891785, -0.00021573901176452637, -0.08273887634277344, -0.18225443363189697, 0.003950774669647217, -0.23284219205379486, 0.17600733041763306, 0.14991611242294312, 0.018666386604309082]
[-0.1725429743528366, 0.2411995381116867, 0.010776215232908726, 0.14150016009807587, 0.36303621530532837, -0.01376773789525032, 0.2859135568141937, 0.5547065734863281, -0.18431545794010162, 0.04864320904016495, -0.3110382556915283, 0.42676299810409546, -0.09434615075588226, -0.3755173981189728, 0.10107896476984024, 0.08118169009685516, -0.05772904306650162, -0.05714628845453262, -0.30800384283065796, 0.2648986876010895, 0.15499818325042725, 0.40250104665756226, 0.08271674811840057, 0.18238112330436707, -0.10939577221870422, 0.0828620120882988, 0.0711074098944664, -0.21207644045352936]
[0.26427194476127625, 0.08709871023893356, 0.26720747351646423, -0.05189654603600502, 0.16318602859973907, -0.025684544816613197, 0.18386121094226837, 0.5529364347457886, -0.3487684726715088, -0.4029708802700043, -0.4155762195587158, 0.2162826508283615, -0.27613547444343567, -0.5036972165107727, 0.3886294364929199, -0.04256979748606682, 0.19242969155311584, 0.17020143568515778, -0.4608071446418762, 0.47892627120018005, 0.12971949577331543, 0.28804323077201843, -0.1923651397228241, 0.35142162442207336, -0.11527639627456665, 0.22678324580192566, 0.31081312894821167, -0.054845791310071945]
[0.32553642988204956, 0.04275999218225479, 0.18030473589897156, -0.2222731113433838, 0.4895184338092804, -0.08884914964437485, 0.2973543107509613, 0.2239498496055603, -0.3493250012397766, -0.21405240893363953, -0.41328495740890503, 0.4943731725215912, -0.03407253324985504, -0.13716444373130798, 0.2518099546432495, 0.4403132498264313, 0.4044743776321411, 0.027554772794246674, -0.43492820858955383, 0.38497135043144226, 0.23785638809204102, 0.0818832740187645, -0.23936741054058075, 0.19686174392700195, -0.08171126991510391, 0.080995112657547, 0.14357508718967438, 0.004703603219240904]
[-0.13366283476352692, 0.5142390727996826, 0.17341449856758118, -0.025574102997779846, 0.4918118119239807, 0.38499629497528076, -0.05996110662817955, 0.23107752203941345, -0.09469486027956009, 0.03210239112377167, -0.5497753024101257, 0.14356361329555511, -0.14033599197864532, -0.19233837723731995, 0.35150545835494995, 0.0536339245736599, 0.19582554697990417, 0.3120035231113434, -0.4598364233970642, 0.08313065767288208, 0.07245387136936188, 0.3406473994255066, -0.4529581665992737, 0.018074359744787216, -0.102831169962883, 0.5381343960762024, 0.32321518659591675, -0.15258319675922394]
[-0.20442335307598114, 0.43170827627182007, 0.3378588855266571, -0.09308082610368729, 0.24232812225818634, 0.397235631942749, 0.5313459038734436, 0.5419656038284302, -0.35265398025512695, -0.2612248361110687, -0.13981053233146667, 0.0035290599334985018, -0.07140034437179565, -0.5012038350105286, 0.12158948928117752, 0.2343832403421402, -0.14649295806884766, 0.08111455291509628, -0.1516561359167099, 0.36665651202201843, -0.0976213663816452, 0.23270858824253082, -0.11776775121688843, 0.34972551465034485, 0.03614256531000137, 0.46394968032836914, 0.05654039606451988, -0.49543818831443787]
[0.04866747558116913, 0.5720200538635254, 0.22035741806030273, 0.31935402750968933, 0.44392484426498413, -0.07615388929843903, 0.32206991314888, 0.5026378631591797, -0.32368993759155273, -0.11384686082601547, -0.04957054927945137, -0.022350797429680824, -0.461532324552536, -0.3179655373096466, 0.19265538454055786, -0.07657912373542786, 0.39446958899497986, 0.2586759030818939, -0.29506218433380127, 0.10125507414340973, 0.1594761610031128, -0.018269406631588936, -0.19540482759475708, 0.019074108451604843, -0.3174927234649658, 0.1046011820435524, -0.13469384610652924, -0.30878201127052307]
[0.20441949367523193, 0.2625482678413391, -0.21788856387138367, 0.19903415441513062, 0.2722485065460205, 0.13485804200172424, -0.021807879209518433, -0.280539870262146, -0.05024385452270508, -0.19320833683013916, -0.11083966493606567, -0.07376658916473389, -0.2794918417930603, 0.26495593786239624, -0.05576542019844055, -0.20206208527088165, 0.046743243932724, 0.12070843577384949, 0.1485622227191925, 0.22399121522903442, -0.16021572053432465, 0.2140832543373108, -0.23557600378990173, 0.16816702485084534, -0.0500338077545166, -0.1439393013715744, 0.2570157051086426, -0.2599450349807739]
[0.2885230481624603, -0.12508246302604675, 0.2994260787963867, -0.02031869627535343, -0.03012785315513611, 0.2793765962123871, -0.009302249178290367, -0.11402671784162521, 0.2292281538248062, -0.2457301914691925, 0.2741786539554596, -0.13233859837055206, -0.06731593608856201, -0.029727447777986526, -0.28177812695503235, -0.0916220098733902, -0.13443875312805176, 0.30117541551589966, -0.25052163004875183, -0.17412954568862915, -0.2104571908712387, 0.16307979822158813, 0.21126392483711243, -0.13489724695682526, 0.24161019921302795, 0.17500221729278564, 0.18974456191062927, -0.24954167008399963]
[0.146096870303154, 0.3238394260406494, -0.202113077044487, -0.13670463860034943, 0.22408530116081238, -0.2217932790517807, 0.038345497101545334, 0.2503094971179962, -0.06263350695371628, 0.23819376528263092, 0.04810339957475662, -0.058718353509902954, 0.044679537415504456, 0.20313838124275208, 0.06614328175783157, -0.14687766134738922, 0.31754162907600403, 0.0476071797311306, -0.021415673196315765, -0.17336910963058472, -0.16168911755084991, -0.2095533013343811, -0.02117682434618473, -0.14159150421619415, -0.2517037093639374, 0.20843449234962463, 0.13043177127838135, 0.14303220808506012]
[0.24705453217029572, -0.16606226563453674, 0.12607689201831818, 0.03651541844010353, -0.1934909075498581, -0.24592585861682892, 0.2483641505241394, 0.1823451966047287, -0.002176868263632059, -0.06243002414703369, 0.246725395321846, 0.25500616431236267, -0.049870289862155914, 0.2616164982318878, -0.16870781779289246, -0.19629965722560883, -0.0779591053724289, -0.19745297729969025, 0.12576107680797577, -0.2183554768562317, 0.1493866890668869, 0.11259593814611435, -0.2883986234664917, -0.18741898238658905, -0.10348130017518997, 0.14992712438106537, 0.27425339818000793, -0.1092209741473198]
[-0.03983995318412781, -0.05515977740287781, -0.19917061924934387, 0.011758089065551758, 0.2943221926689148, 0.2018345594406128, 0.05171501636505127, -0.007944107055664062, -0.108512282371521, -0.16739438474178314, 0.21308082342147827, 0.1584438681602478, -0.2597569227218628, 0.08776536583900452, 0.29570162296295166, -0.2941508889198303, 0.25617969036102295, 0.04759478569030762, -0.0132485032081604, -0.06865543127059937, -0.19783872365951538, -0.04917198419570923, 0.11922895908355713, -0.08261127769947052, 0.06456935405731201, 0.21538305282592773, -0.2785082757472992, -0.05741296708583832]
[-0.12305497378110886, 0.4211864471435547, 0.022588344290852547, 0.14198128879070282, 0.2204810231924057, 0.19907055795192719, 0.4571276605129242, 0.31498438119888306, -0.16218231618404388, -0.06396841257810593, -0.5435394644737244, 0.2501107156276703, -0.4812541902065277, 0.042300622910261154, 0.36978334188461304, 0.1261739730834961, 0.13499218225479126, 0.3813818395137787, -0.05324395373463631, 0.3797341287136078, 0.41976049542427063, 0.3922894597053528, 0.05160548537969589, -0.1400289535522461, -0.2898637056350708, 0.25097936391830444, 0.24315772950649261, 0.05376939848065376]

[0.2680368721485138, 0.419339120388031, 0.5090688467025757, 0.2602759301662445, -0.1923021823167801, 0.27661779522895813, 0.4854271411895752, 0.29072698950767517, 0.068191759288311, 0.5034101605415344, 0.33248740434646606, -0.39106568694114685, 0.45372939109802246, 0.42754021286964417, 0.2685756981372833, 0.443350225687027, 0.2882601022720337, 0.4634701907634735]
[0.18009056150913239, 0.11096040159463882, 0.7074291110038757, 0.07872939109802246, -0.42687341570854187, 0.0033791749738156796, 0.613076388835907, 0.30543261766433716, -0.07289247214794159, 0.36396312713623047, 0.20846040546894073, -0.4108002781867981, 0.27126404643058777, 0.005078592337667942, 0.3518866002559662, 0.20878054201602936, 0.07526067644357681, 0.1510070115327835]
[0.15406644344329834, 0.20554615557193756, 0.8335743546485901, 0.5285256505012512, -0.4003288745880127, 0.13701768219470978, 0.8635386228561401, 0.5679222345352173, 0.30713772773742676, 0.7008007168769836, 0.32200953364372253, -0.22685624659061432, 0.25570181012153625, 0.5824127197265625, 0.392549991607666, 0.5688310861587524, 0.44721201062202454, 0.5468031764030457]
[0.010369966737926006, 0.5143682956695557, 0.34048381447792053, 0.5393372178077698, -0.07397756725549698, 0.5744844675064087, 0.5815746188163757, 0.28614911437034607, -0.11715753376483917, 0.8563850522041321, 0.4922406077384949, -0.2616615295410156, 0.19848008453845978, 0.6349657773971558, 0.5935888290405273, 0.471327543258667, 0.2893140912055969, 0.22140835225582123]
[0.0570317804813385, 0.3790699243545532, 0.5049915909767151, -0.1650361269712448, -0.08870687335729599, 0.46760043501853943, 0.036441028118133545, 0.040849365293979645, -0.1677185595035553, 0.589799702167511, 0.4298047423362732, -0.22833649814128876, 0.5843144655227661, 0.6275835037231445, 0.2471798211336136, 0.23218803107738495, 0.5869002938270569, 0.8071193695068359]
[0.08748040348291397, 0.1958749145269394, 0.4249553084373474, 0.5733611583709717, -0.3511665165424347, 0.5039452910423279, 0.40444254875183105, 0.008472349494695663, 0.08569313585758209, 0.644314169883728, 0.5835907459259033, -0.2851763963699341, 0.7013996839523315, 0.7899273037910461, 0.043911390006542206, 0.4501301646232605, -0.027916228398680687, 0.5572152733802795]
[0.2563204765319824, 0.6989132165908813, 0.5118618607521057, 0.2607468068599701, -0.2992156445980072, 0.3942166864871979, 0.3149849772453308, 0.3093782961368561, 0.5191217064857483, 0.018215453252196312, 0.6608043909072876, 0.05617089942097664, 0.5581107139587402, 0.6132847666740417, 0.4897548258304596, 0.3255822956562042, 0.1696292608976364, 0.37612012028694153]
[0.4963163733482361, 0.17209137976169586, 0.7614591121673584, 0.5342209935188293, -0.3561737537384033, 0.5239530801773071, 0.436470091342926, 0.2678762376308441, -0.22969751060009003, 0.29882699251174927, 0.14052756130695343, -0.24010667204856873, 0.18649236857891083, 0.42072051763534546, 0.07452338933944702, 0.7173737287521362, -0.02193460613489151, 0.4533435106277466]
[0.20324914157390594, 0.5074673295021057, 0.46927231550216675, 0.13702984154224396, -0.18034988641738892, 0.5394803881645203, 0.5798466801643372, 0.010220854543149471, -0.19019269943237305, 0.7047746777534485, 0.4740569591522217, -0.6940568685531616, 0.7360747456550598, 0.17528951168060303, 0.4719858765602112, 0.2650046646595001, 0.5288079380989075, 0.6842824220657349]
[-0.2587015926837921, -0.1480785757303238, 0.33697962760925293, 0.13300985097885132, -0.15953153371810913, 0.15840178728103638, -0.0633166953921318, 0.4760109484195709, -0.30583393573760986, -0.09136296808719635, 0.2430935651063919, -0.33327987790107727, 0.2606264650821686, -0.13289234042167664, 0.3931431472301483, 0.021571725606918335, 0.1076848953962326, 0.48344942927360535]
[-0.30059564113616943, 0.21077555418014526, -0.16099964082241058, -0.20395323634147644, -0.0982319712638855, 0.1517760455608368, 0.5027005076408386, 0.070632204413414, -0.4902929663658142, -0.1392306536436081, -0.40736398100852966, -0.08842802047729492, 0.16896991431713104, 0.012720363214612007, 0.036960527300834656, 0.23046575486660004, 0.1691618412733078, 0.40222424268722534]
[-0.31909188628196716, 0.334984689950943, 0.11992643773555756, 0.15089479088783264, 0.22023777663707733, -0.20465269684791565, 0.47328659892082214, 0.2974078059196472, -0.08729877322912216, 0.11406780779361725, 0.19388504326343536, 0.13131079077720642, 0.46751290559768677, 0.4851846694946289, -0.2023821473121643, -0.024962110444903374, 0.5464515686035156, 0.18750706315040588]
[0.1377926766872406, 0.5578866600990295, 0.21416489779949188, 0.46319934725761414, -0.14325857162475586, 0.02775837853550911, 0.6137531995773315, 0.5076366066932678, 0.4094647467136383, 0.45585665106773376, 0.6925455331802368, -0.26295003294944763, 0.6922925710678101, 0.7862929105758667, 0.5858773589134216, 0.35175129771232605, 0.6604505777359009, 0.7673268914222717]
[-0.1693369597196579, -0.2781929671764374, 0.268934428691864, 0.00685479398816824, 0.20353487133979797, -0.05072112753987312, 0.09683142602443695, 0.4862034022808075, -0.5423775911331177, 0.08828704804182053, -0.04728347808122635, -0.0861041396856308, 0.4086441993713379, 0.5647327303886414, -0.13837938010692596, 0.41875869035720825, 0.02031436376273632, 0.44703584909439087]
[-0.14084628224372864, -0.22320939600467682, 0.1886742115020752, -0.1496819108724594, -0.026284141466021538, 0.1828136295080185, 0.37745916843414307, -0.07502510398626328, -0.4003869593143463, 0.2695041000843048, -0.10595835745334625, -0.49038785696029663, 0.6319212317466736, 0.2914201319217682, -0.11545869708061218, 0.7618176341056824, 0.5715752243995667, 0.6420956254005432]
[0.34205472469329834, 0.17511335015296936, 0.8607627153396606, 0.25472116470336914, 0.040419839322566986, 0.37413060665130615, 0.7800174355506897, 0.5765476226806641, -0.19067086279392242, 0.536059558391571, 0.034370746463537216, -0.3149256706237793, 0.2125655859708786, 0.5360177755355835, 0.15357153117656708, 0.42731744050979614, 0.10265836864709854, 0.7387359142303467]
[0.44299131631851196, 0.6228194832801819, 0.42759016156196594, 0.32443997263908386, -0.16097088158130646, 0.3283262252807617, 0.6070155501365662, 0.6331576704978943, 0.06284491717815399, 0.4152480959892273, 0.14910061657428741, -0.522246778011322, 0.3551807999610901, 0.7009462118148804, 0.4969336688518524, 0.0024709433782845736, 0.4260508120059967, 0.07322284579277039]
[0.3382086157798767, 0.44880062341690063, 0.27374669909477234, 0.43118929862976074, -0.1523781269788742, 0.6000156998634338, 0.40693986415863037, 0.4795740842819214, 0.08506089448928833, 0.4138685166835785, 0.4929620027542114, -0.011979633010923862, -0.05578741431236267, 0.5901860594749451, 0.10172341018915176, 0.4269830882549286, 0.48224255442619324, 0.4203304350376129]
[0.023614510893821716, 0.7152597904205322, 0.9374850392341614, 0.5657632946968079, -0.01621386781334877, 0.16795465350151062, 0.5000655651092529, 0.5026702284812927, 0.24626338481903076, 0.8600953221321106, 0.24919462203979492, -0.45626774430274963, 0.2669394612312317, 0.14049121737480164, 0.492583692073822, 0.6662545800209045, 0.48558059334754944, 0.15473464131355286]
[-0.01478250790387392, -0.06855455785989761, 0.21162331104278564, -0.20337918400764465, -0.007095327600836754, -0.20003236830234528, 0.2774408757686615, -0.03220943734049797, 0.16289149224758148, 0.03550015389919281, 0.16989322006702423, -0.30161333084106445, 0.15672293305397034, 0.38302233815193176, 0.12790775299072266, 0.43932294845581055, 0.4474615156650543, 0.25333699584007263]
[0.5794041752815247, 0.11420287936925888, 0.37846630811691284, 0.2346377670764923, -0.17492036521434784, 0.3770964443683624, 0.6699985861778259, 0.49618735909461975, -0.05358535423874855, 0.7825527191162109, -0.0062417942099273205, -0.2839425802230835, 0.6596006751060486, 0.7775452136993408, 0.34249812364578247, 0.5095632076263428, 0.18948951363563538, 0.44979584217071533]
[0.34573304653167725, 0.2847527265548706, 0.6263250708580017, 0.10437683761119843, -0.33932653069496155, 0.5676231384277344, 0.28248071670532227, 0.18129593133926392, 0.3363087475299835, 0.08656292408704758, 0.15531618893146515, -0.24428801238536835, 0.24163295328617096, 0.5600805282592773, 0.547584593296051, 0.3842068314552307, 0.43585044145584106, 0.07369916141033173]
[0.30391818284988403, 0.30549824237823486, 0.17658990621566772, 0.33927372097969055, -0.2752080261707306, 0.4179054796695709, 0.5720566511154175, 0.5641092658042908, -0.2624906301498413, 0.6500694155693054, 0.22977209091186523, -0.4906453490257263, 0.7199772596359253, 0.1466073840856552, 0.2340545356273651, 0.2234717756509781, 0.3555105924606323, 0.742161750793457]
[-0.16158941388130188, -0.08019695430994034, -0.07792060077190399, 0.38942644000053406, -0.18365684151649475, 0.32776135206222534, -0.15645888447761536, 0.5498644113540649, -0.24311818182468414, -0.1928461641073227, 0.2656346261501312, 0.13809067010879517, 0.5168314576148987, -0.10902464389801025, 0.31443464756011963, -0.0488697774708271, 0.08909229189157486, 0.5181012749671936]
[0.2616545259952545, 0.1905452460050583, 0.6269984245300293, 0.18467949330806732, -0.16825369000434875, 0.5405483245849609, 0.43567538261413574, -0.03580990806221962, 0.387908399105072, 0.4080284833908081, 0.3898332417011261, -0.5269585251808167, 0.35590606927871704, 0.7341166734695435, 0.15701515972614288, 0.7972379922866821, 0.6384719610214233, 0.30237144231796265]
[-0.09398376941680908, -0.026539985090494156, 0.6944010853767395, -0.15813122689723969, 0.17620131373405457, -0.2850410044193268, 0.7118796110153198, 0.03958914428949356, -0.17901115119457245, 0.3328113257884979, -0.1250343918800354, -0.23652838170528412, 0.6480380892753601, 0.5819108486175537, -0.0898459404706955, 0.7548991441726685, 0.17812156677246094, 0.23684510588645935]
[0.6274073123931885, 0.23354960978031158, 0.9142419099807739, 0.3672136962413788, -0.30805957317352295, 0.48923638463020325, 0.30985578894615173, 0.1415574699640274, 0.030992504209280014, 0.7006638050079346, 0.4060407280921936, -0.32101646065711975, 0.8179616332054138, 0.4452677071094513, 0.4732774496078491, 0.8746721148490906, 0.5816932916641235, 0.3440304696559906]
[0.2867060601711273, 0.5371925830841064, 0.7393400073051453, 0.5806875824928284, -0.09096160531044006, 0.03262513503432274, 0.45321565866470337, 0.24914449453353882, -0.03742029890418053, 0.4657244384288788, 0.1868537962436676, -0.7519106864929199, 0.6116660237312317, 0.3798258602619171, -0.02870951034128666, 0.3757571876049042, 0.5464296340942383, 0.5110099911689758]
[-0.03405764698982239, 0.08203709125518799, 0.04494861513376236, 0.1514921933412552, -0.011579236947000027, -0.12392626702785492, 0.1078384518623352, -0.31026723980903625, -0.2278653383255005, 0.5011193752288818, -0.28993165493011475, -0.27977845072746277, 0.02587316557765007, -0.01971607655286789, 0.357471764087677, 0.6006913185119629, 0.4781751036643982, 0.0676606297492981]

[-0.6910178065299988, -0.7279032468795776, -0.47786271572113037, 0.6196329593658447, -0.6889839172363281, 0.6720936894416809, -0.6337770223617554, -0.5879111289978027, -0.8279916048049927, 0.6877436637878418, -0.7804116606712341, 0.5880506038665771, -0.6655527353286743, -0.4520091116428375, -0.7334743738174438, -0.8202582597732544, -0.6405605673789978, 0.6762372851371765, -0.5855320692062378, -0.8737576007843018, -0.830506443977356, -0.7723343372344971, -0.655167281627655, 0.639159083366394, 0.5438523292541504, 0.5994634628295898, -0.579400897026062, -0.4534149169921875]
[-0.39904195070266724, -0.295541912317276, -0.6677354574203491, 0.44929733872413635, -0.3414076566696167, 0.3614237308502197, -0.4523901641368866, -0.48551705479621887, -0.8542002439498901, 0.7192376255989075, -0.7164359092712402, 0.9533934593200684, -0.3296991288661957, -0.7502567768096924, -0.6730924248695374, -0.4472563862800598, -0.0760430246591568, 0.7379371523857117, -0.21287879347801208, -0.03915233910083771, -0.24409979581832886, -0.0491902157664299, -0.3529200553894043, 0.8598279356956482, 0.5251752734184265, 0.5588724613189697, -0.47289904952049255, -0.3309808373451233]
[-0.6656387448310852, 0.18897798657417297, -0.6373531222343445, 0.98076993227005, 0.09308008849620819, 0.37559056282043457, -0.1984831839799881, -0.24186944961547852, -0.1553930789232254, 0.5965619087219238, 0.1388290375471115, 0.783754825592041, -0.31298553943634033, -0.5287193059921265, -0.47841790318489075, -0.022570423781871796, -0.6350237727165222, 1.1999551057815552, -0.3157522976398468, 0.13393081724643707, -0.2338433563709259, -0.004674643278121948, -0.06134333834052086, 0.41450822353363037, 0.8556728959083557, 0.5155081748962402, -0.9417446255683899, -0.4535616338253021]
[-0.5861921310424805, -0.6663454174995422, -0.8077716827392578, 0.7866019010543823, -0.7114505767822266, 0.7836732268333435, -0.9832427501678467, -0.5993562340736389, -0.8184801936149597, 0.8381025195121765, -0.9042789936065674, 0.20609374344348907, -0.691324770450592, -0.7938171029090881, -0.7984230518341064, -1.1213150024414062, -0.6756259799003601, 0.4906717836856842, -0.9456461668014526, -1.2019237279891968, -0.6638291478157043, -0.7652820944786072, -1.0325896739959717, 0.9575477838516235, 0.5493231415748596, 0.48239758610725403, -0.5613438487052917, -0.841021716594696]
[-0.3175950050354004, -0.7276918292045593, -0.5959964990615845, 0.9042809009552002, -0.4253300726413727, 0.6203340888023376, -0.26299813389778137, -0.7121416926383972, -0.6457213163375854, 0.9751110672950745, -0.9629024267196655, 0.4601007401943207, -0.8124390244483948, -0.20247629284858704, -0.9339138865470886, -0.69522625207901, -0.5196990966796875, 0.461230605840683, -0.3627910017967224, -1.11393141746521, -1.1451339721679688, -0.9313166737556458, -0.6400101184844971, 0.5251384973526001, 0.26708751916885376, 0.668138325214386, -0.26902899146080017, -0.6356505155563354]
[-0.6906018257141113, -0.8830357193946838, -0.12337399274110794, 0.3990001082420349, -0.4007924497127533, 0.7618654370307922, -0.6087633967399597, -0.3622601628303528, -0.9640940427780151, 0.1581398993730545, -1.0088669061660767, -0.07769440859556198, -0.5152568817138672, -0.06496816128492355, -0.6378359198570251, -0.44676366448402405, -0.0883895605802536, 0.5514138340950012, -0.07046210765838623, -0.9083508253097534, -0.824360728263855, -0.3057742416858673, -0.16648821532726288, 0.5639386177062988, 0.48118430376052856, 0.5468616485595703, -0.21027131378650665, -0.3305642306804657]
[-0.4395563304424286, -0.3688771724700928, -0.5019746422767639, 0.39645203948020935, -0.6914027333259583, 0.7289528846740723, -0.5760402679443359, -0.5202726125717163, -0.5998626351356506, 0.5312202572822571, -0.5865292549133301, 0.8520517349243164, -0.880739152431488, -0.7385422587394714, -0.7732369899749756, -0.37349939346313477, -0.3712192177772522, 1.0574393272399902, -0.36542609333992004, -0.5630794763565063, -0.6042437553405762, -1.0080794095993042, -0.8183229565620422, 0.3976764380931854, 0.7391189932823181, 0.8033555746078491, -0.6850485801696777, -0.6239872574806213]
[-0.5933994650840759, -0.9275469779968262, -0.3604716956615448, 0.4882490336894989, -0.5950432419776917, 0.7586399912834167, -0.7704396843910217, -0.27519696950912476, -0.5946122407913208, 1.0557622909545898, -0.6450728178024292, 0.721987247467041, -0.9310319423675537, -0.4253552258014679, -0.6360716223716736, -0.9750605225563049, -0.7554428577423096, 0.855373740196228, -0.4147919714450836, -0.6405631899833679, -1.090748906135559, -0.9244630336761475, -0.5161189436912537, 0.5687937140464783, 0.8014382719993591, 0.8198640942573547, -0.6809322237968445, -0.7866155505180359]
[-0.4804843068122864, -0.6396410465240479, -0.58746737241745, 0.7405245900154114, -0.4230760633945465, 0.5755788683891296, -0.6186181306838989, -0.3401733636856079, -1.1459496021270752, 0.7000815272331238, -0.43286263942718506, 0.7384073734283447, -0.6971427798271179, -0.46954745054244995, -0.4655914902687073, -0.7445425391197205, -0.26428863406181335, 0.5859583020210266, -0.6823309063911438, -0.931422233581543, -0.8747178912162781, -0.46297594904899597, -0.5311292409896851, 0.4253709614276886, 0.516567051410675, 0.7608419060707092, -0.3033124506473541, -0.3823279142379761]
[-0.116915762424469, -0.4224127531051636, -0.483627587556839, 0.5710704326629639, -0.2052413672208786, 0.11387426406145096, -0.14283397793769836, -0.4904865026473999, -0.07376225292682648, 0.8408951163291931, -0.28667181730270386, 0.49834463000297546, -0.669680655002594, -0.45277872681617737, 0.03094884566962719, 0.05041932314634323, 0.10459073632955551, 1.0647083520889282, -0.40337100625038147, 0.11575109511613846, -0.10291311889886856, 0.04617277532815933, 0.13824133574962616, 0.44486773014068604, 0.8665850162506104, 0.3204400837421417, -0.2733616530895233, -0.38267767429351807]
[-0.45972976088523865, -0.4903396964073181, -0.8780379295349121, 0.892785906791687, -0.5445755124092102, 0.9403321146965027, -0.9249786734580994, -0.951776385307312, -0.6774672865867615, 0.3823181390762329, -1.0115058422088623, 0.1733919084072113, -1.065035104751587, -0.6637625694274902, -0.9623869061470032, -1.1479406356811523, -1.0170183181762695, 0.4170236587524414, -0.8289965391159058, -1.1189541816711426, -1.1483184099197388, -1.201850414276123, -0.8379982709884644, 0.819119930267334, 0.7690545320510864, 0.6998646855354309, -0.7910975217819214, -0.37880659103393555]
[-0.8037123680114746, 0.0028058630414307117, -0.5341544151306152, 0.675480306148529, -0.2280116081237793, 0.6159667372703552, -0.2963772714138031, -0.7636966705322266, -0.18621355295181274, 0.8542864322662354, -0.572520911693573, 0.5857915878295898, -0.42748454213142395, -0.6877722144126892, -0.3522183895111084, -0.43918126821517944, -0.48281922936439514, 0.7429178953170776, -0.3255409896373749, -0.35443639755249023, -0.0008346449467353523, -0.41147053241729736, 0.02870592102408409, 0.6747687458992004, 0.7073180079460144, 0.20801210403442383, -0.8025258779525757, -0.5955029726028442]
[-0.8908042311668396, -0.4305243492126465, -0.04680730029940605, 0.38709530234336853, 0.0212391447275877, 0.6949974894523621, 0.013093861751258373, 0.02655828930437565, -0.6744217276573181, 0.4524424970149994, -0.531082034111023, 0.0661032572388649, -0.3541048467159271, -0.23485061526298523, -0.46855413913726807, -0.08437635004520416, -0.46417945623397827, 0.15986452996730804, -0.269632488489151, -0.09636048972606659, -0.0288645401597023, -0.3944852948188782, -0.450471431016922, 0.1215907484292984, 0.04006434231996536, 0.5673383474349976, 0.3283250629901886, -0.3522799611091614]
[-0.6860859394073486, -0.9755483269691467, -0.19521084427833557, 0.9234874248504639, -0.8193051815032959, 0.7078270316123962, -0.3977275788784027, -0.6565709114074707, -0.57224440574646, 0.857792317867279, -0.9260393381118774, 0.8289398550987244, -0.26744869351387024, -0.6259825229644775, -1.0269935131072998, -1.0656629800796509, -0.8089334964752197, 0.7618259191513062, -0.6818392872810364, -0.8492945432662964, -0.4632816016674042, -0.7506701946258545, -0.935091495513916, 0.5918944478034973, 0.6686440706253052, 0.9094662070274353, -0.24857650697231293, -0.33158940076828003]
[-0.5771721601486206, -1.0182260274887085, -0.6388117074966431, 0.47037649154663086, -0.9600495100021362, 0.6132708787918091, -0.6807622313499451, -0.592252254486084, -0.6344672441482544, 0.9005587100982666, -0.9478649497032166, 0.6844767332077026, -0.35828912258148193, -0.7970281839370728, -0.9314413070678711, -0.526650607585907, -0.7221508026123047, 0.49421191215515137, -0.4694162607192993, -1.078873872756958, -0.6362416744232178, -0.7747353315353394, -0.9357329607009888, 0.7305206060409546, 0.23531129956245422, 0.5627039074897766, -0.2271263599395752, -0.39148348569869995]
[-0.6805529594421387, -1.0137165784835815, -0.30488911271095276, 0.8364216089248657, -0.9170869588851929, 0.591738224029541, -0.41131657361984253, -0.5109742283821106, -1.0229213237762451, 0.4277893900871277, -0.6797011494636536, 0.7042985558509827, -0.2816431224346161, -0.0954703763127327, -0.702445387840271, -0.7693780660629272, -0.36559775471687317, 0.6814110279083252, -0.26651740074157715, -1.1982109546661377, -0.8810388445854187, -1.114314317703247, -0.26129138469696045, 1.0175065994262695, 0.6994747519493103, 0.9517892003059387, -0.4327755868434906, -0.3303110599517822]
[-0.7677881717681885, -1.0323169231414795, -0.3077339231967926, 0.5300023555755615, -0.35958176851272583, 0.7019913792610168, -0.8597643375396729, -0.5385901927947998, -0.5248658061027527, 0.6618946194648743, -0.6659619212150574, 0.7084780335426331, -0.8760913014411926, -0.4536581337451935, -0.5102746486663818, -0.46958333253860474, -0.8829872012138367, 0.8907066583633423, -0.6455585360527039, -0.639102041721344, -1.1025036573410034, -1.086973786354065, -0.5994259715080261, 0.9252405762672424, 0.4209374487400055, 0.755674421787262, -0.2655247449874878, -0.7745676040649414]
[-0.8986532092094421, -0.3739252984523773, -0.38406097888946533, 0.9599549174308777, -0.49791643023490906, 0.3778495490550995, -0.7548298835754395, -0.20932815968990326, -0.566122829914093, 0.4264983832836151, -0.9893362522125244, 0.5376365184783936, -0.4943709969520569, -0.19184304773807526, -0.9031915068626404, -1.0452280044555664, -0.6624354720115662, 0.49286559224128723, -0.8803033232688904, -0.5986970663070679, -0.7829885482788086, -0.9621365666389465, -0.8535040616989136, 0.8493755459785461, 0.46297892928123474, 0.920321524143219, -0.8314416408538818, -0.7444509267807007]
[-0.7138054370880127, -0.6531344652175903, -0.8632727265357971, 0.5275454521179199, -0.6226239800453186, 0.7115951776504517, -0.4480697214603424, -0.8005863428115845, -0.6391887068748474, 0.4928968846797943, -0.8332697153091431, 0.46520453691482544, -0.31835636496543884, -0.8812122344970703, -1.0764551162719727, -1.171422004699707, -0.6553956270217896, 0.40053853392601013, -0.6961076855659485, -1.284691572189331, -1.1645160913467407, -1.1079732179641724, -0.9202979207038879, 0.5702698826789856, 0.6929982304573059, 0.685897171497345, -0.32598739862442017, -0.6805111169815063]

[-1.5828335285186768, -1.5420643091201782, -1.6045687198638916, 0.799656867980957, -1.5056132078170776, -1.4936496019363403, -1.5359066724777222, -1.5402010679244995, -1.575737476348877, -1.4989616870880127, -1.5607844591140747, 0.467159628868103, -1.539586067199707, 1.2919511795043945, -1.5451594591140747, -1.4723198413848877, -1.5938447713851929, -1.5860413312911987, -1.4779092073440552, -1.5791131258010864, -1.5432076454162598, -1.5146342515945435, -1.5203514099121094, -1.5428704023361206, -1.5061861276626587, -1.4909025430679321, -1.5014249086380005, -1.4577583074569702, -1.590535044670105, -1.5311414003372192, -1.5458509922027588, -1.5282434225082397, -1.562623143196106, -1.4495769739151, -1.493118166923523, -1.4967538118362427, -1.5338473320007324, -1.4846360683441162]
[-0.5726029276847839, -0.06597768515348434, -0.23524333536624908, 0.0892113596200943, -0.7416561841964722, -0.31370043754577637, -0.5427345037460327, -0.31426846981048584, -0.003394722007215023, -0.38666412234306335, -0.035332608968019485, 0.1721971333026886, -0.5660681128501892, 0.5763669013977051, -0.17289508879184723, 0.06120776757597923, -0.3265336751937866, -0.34351304173469543, -0.3309312164783478, -0.34403207898139954, -0.1895781010389328, -0.6655062437057495, -0.7408210039138794, -0.3679119050502777, -0.5209930539131165, -0.24665425717830658, -0.2706393897533417, -0.22779519855976105, -0.13408112525939941, -0.623374342918396, -0.30465829372406006, -0.40120771527290344, -0.16768504679203033, -0.34121355414390564, -0.18624913692474365, -0.6315009593963623, -0.15297473967075348, 0.048076801002025604]
[-0.08230017125606537, -0.24643249809741974, 0.04772559180855751, 0.5308427214622498, -0.2583621144294739, 0.06383219361305237, -0.2471175342798233, -0.3310215175151825, 0.11423739045858383, -0.13516907393932343, 0.03545261174440384, 0.3469652831554413, 0.028095263987779617, 0.6208332777023315, 0.02363322675228119, -0.027522580698132515, -0.27176693081855774, 0.06466757506132126, -0.1762942522764206, -0.3164631724357605, -0.23244306445121765, -0.2694627344608307, -0.10862406343221664, 0.20129510760307312, -0.7515658736228943, -0.2917812764644623, -0.33540835976600647, -0.26151224970817566, 0.07596740126609802, -0.3464009463787079, -0.2571280598640442, -0.07747967541217804, -0.4218933582305908, 0.02944166213274002, -0.07742740958929062, 0.0035486388951539993, -0.08437986671924591, -0.07568621635437012]
[-1.2237474918365479, -0.8130362033843994, -1.081015944480896, 0.2875063717365265, -1.0424853563308716, -0.6993905305862427, -0.6833335757255554, -1.0425597429275513, -0.8257396817207336, -1.1320781707763672, -0.7506866455078125, 0.16639317572116852, -0.987237274646759, 0.3385182023048401, -0.843389093875885, -0.6965747475624084, -0.7656629681587219, -0.9215525388717651, -0.30883803963661194, -1.067230224609375, -0.7411444187164307, -1.0313150882720947, -0.9637792706489563, -0.6325518488883972, -1.1881906986236572, -0.01841103471815586, -0.6323829293251038, -0.5372467041015625, -0.8981400728225708, -0.804987907409668, -0.6660411953926086, -1.1732234954833984, -0.8504383563995361, -0.6034561991691589, -0.48061221837997437, -1.1807204484939575, -0.11721838265657425, -0.8493300676345825]
[-1.5975089073181152, -1.7815755605697632, -1.5999534130096436, 0.922838032245636, -1.3546236753463745, -1.8343836069107056, -1.462343454360962, -1.3049241304397583, -1.3420937061309814, -1.707899570465088, -1.3203831911087036, 0.4146919250488281, -1.6813195943832397, 1.0430660247802734, -1.3826217651367188, -1.7379918098449707, -1.7083230018615723, -1.3990039825439453, -1.4014374017715454, -1.7959023714065552, -1.5884028673171997, -1.8085284233093262, -1.392404556274414, -1.5948444604873657, -1.7186486721038818, -1.678882122039795, -1.768181324005127, -1.5084290504455566, -1.485195279121399, -1.3673616647720337, -1.484860897064209, -1.3352253437042236, -1.7459088563919067, -1.3031786680221558, -1.4510629177093506, -1.5265461206436157, -1.6000971794128418, -1.7253828048706055]
[-0.14613188803195953, -0.4450974762439728, -0.2114512026309967, 0.049240127205848694, -0.6384645104408264, -0.40961554646492004, -0.5112211108207703, -0.0408475436270237, -0.0533720999956131, -0.42620107531547546, -0.2686134874820709, 0.15397830307483673, -0.4975622594356537, 0.10454335063695908, -0.07255228608846664, -0.4221375286579132, -0.49669092893600464, -0.18703146278858185, -0.2932089567184448, -0.519364595413208, -0.40891915559768677, -0.1509089469909668, -0.0016211275942623615, -0.3377072215080261, -0.12208408117294312, -0.2922600507736206, -0.7263940572738647, -0.21873009204864502, -0.5132699012756348, -0.6436135172843933, -0.45602947473526, -0.21658843755722046, -0.16120034456253052, -0.5124059319496155, -0.3119872510433197, -0.0213005393743515, -0.465871661901474, -0.36304906010627747]
[-1.3765400648117065, -1.4302394390106201, -1.7137099504470825, 1.0728869438171387, -1.643099069595337, -1.2270152568817139, -1.583424687385559, -1.7078819274902344, -1.5979305505752563, -1.2230201959609985, -1.628661870956421, 0.22623208165168762, -1.6076971292495728, 1.1818827390670776, -1.6582515239715576, -1.6958906650543213, -1.8487355709075928, -1.666550874710083, -1.637573480606079, -1.675000548362732, -1.7770569324493408, -1.4892131090164185, -1.6919418573379517, -1.6170392036437988, -1.3594614267349243, -1.4771897792816162, -1.5334378480911255, -1.3773746490478516, -1.3800950050354004, -1.6657270193099976, -1.7969623804092407, -1.6706502437591553, -1.5486642122268677, -1.6771278381347656, -1.4642887115478516, -1.5696557760238647, -1.508385181427002, -1.1813901662826538]
[-0.34588298201560974, -0.23226313292980194, -0.4285544455051422, 0.14282473921775818, -0.6711423993110657, -0.7481269240379333, -0.44644907116889954, -0.2095063328742981, -0.4024503827095032, -0.5084371566772461, -0.5079860091209412, 0.2385946810245514, -0.2219512015581131, 0.2175481915473938, -0.5351977348327637, -0.22524602711200714, -0.6742152571678162, -0.3482871949672699, -0.46835431456565857, -0.3245512545108795, -0.5577713251113892, -0.37992623448371887, -0.5509436726570129, -0.27296292781829834, -0.4925838112831116, -0.5709481835365295, -0.38722607493400574, -0.33914488554000854, -0.7181726098060608, -0.7877219915390015, -0.6903953552246094, -0.3744901120662689, -0.5919488668441772, -0.6266963481903076, -0.01968764141201973, -0.27080053091049194, -0.10363020747900009, -0.4749273359775543]
[-0.28022754192352295, -0.4684477746486664, -0.6858862042427063, 0.3882730007171631, -0.3978677988052368, -0.6631376147270203, -0.18379992246627808, -0.13481608033180237, -0.5070576667785645, -0.2623748779296875, -0.278434693813324, 0.11737924814224243, -0.09085208922624588, 0.7000893354415894, -0.1956571340560913, -0.5260876417160034, -0.45868945121765137, -0.433975487947464, -0.19851428270339966, -0.5656934976577759, -0.7284010052680969, -0.1498337686061859, -0.19466494023799896, -0.517810046672821, -0.05297095328569412, -0.20962019264698029, -0.4715345799922943, -0.1244540587067604, -0.166713684797287, -0.38978472352027893, -0.5667850971221924, -0.4464189410209656, -0.25882795453071594, -0.3187040090560913, -0.22608818113803864, -0.21827109158039093, -0.08801471441984177, -0.48303964734077454]
[-0.2318132221698761, -0.31510838866233826, -0.36468467116355896, 0.32580628991127014, -0.7911766171455383, -0.06918010860681534, -0.5202977657318115, -0.0786910131573677, -0.07119689136743546, -0.2759625315666199, -0.37303662300109863, -0.04467448964715004, -0.5133676528930664, 0.38593125343322754, -0.03678138926625252, -0.05610491707921028, -0.08684042096138, -0.3947350084781647, -0.07275945693254471, -0.5984901785850525, -0.21319100260734558, -0.33532029390335083, -0.26742446422576904, -0.3522073030471802, -0.4993412494659424, -0.12261418253183365, -0.2592085599899292, -0.49636614322662354, -0.1948881298303604, -0.2506401240825653, -0.40392005443573, -0.1994289606809616, -0.18582633137702942, -0.39750537276268005, -0.0012255613692104816, -0.7974820733070374, -0.11112090945243835, -0.19826003909111023]
[-1.4624392986297607, -1.7946659326553345, -1.5162452459335327, 0.5023676156997681, -1.7310371398925781, -1.3079869747161865, -1.6001956462860107, -1.3665329217910767, -1.6416959762573242, -1.698805570602417, -1.5596368312835693, 0.7316029071807861, -1.3885293006896973, 1.2245031595230103, -1.3275649547576904, -1.6874138116836548, -1.5759410858154297, -1.483559250831604, -1.6834156513214111, -1.2716989517211914, -1.7410026788711548, -1.5514472723007202, -1.282355546951294, -1.7074655294418335, -1.6920523643493652, -1.5232875347137451, -1.7520591020584106, -1.5466269254684448, -1.454663872718811, -1.485945701599121, -1.6087132692337036, -1.708859920501709, -1.3923934698104858, -1.5304032564163208, -1.5978871583938599, -1.6644078493118286, -1.5857248306274414, -1.5410863161087036]
[-0.33537641167640686, -0.00927190762013197, -0.127116397023201, 0.5330726504325867, -0.3765227198600769, -0.29040923714637756, 0.05200273543596268, -0.47668683528900146, -0.11050371080636978, -0.22749608755111694, -0.08140318095684052, 0.19995102286338806, -0.21184708178043365, 0.08905141055583954, -0.01966790296137333, -0.1233443170785904, -0.3826475739479065, -0.4487619400024414, 0.11753873527050018, -0.0393553152680397, -0.2751987874507904, -0.28000274300575256, -0.18350616097450256, -0.204234316945076, -0.13822989165782928, -0.15587931871414185, -0.05329592898488045, 0.028133591637015343, -0.12595003843307495, -0.2172650396823883, 0.11825170367956161, -0.3745025396347046, -0.13742445409297943, -0.24102193117141724, -0.17442981898784637, -0.1961628794670105, -0.09236065298318863, 0.22880353033542633]
[-1.6794557571411133, -1.6732902526855469, -1.3077577352523804, 0.6537997722625732, -1.4473761320114136, -1.7048726081848145, -1.4991636276245117, -1.7714430093765259, -1.729377269744873, -1.7223039865493774, -1.7872880697250366, 0.47357800602912903, -1.4233663082122803, 1.067500114440918, -1.6214622259140015, -1.2967677116394043, -1.3208824396133423, -1.2936630249023438, -1.6559045314788818, -1.630405306816101, -1.3273433446884155, -1.4185606241226196, -1.3707829713821411, -1.266360878944397, -1.4027358293533325, -1.6826975345611572, -1.2397948503494263, -1.7414077520370483, -1.3562452793121338, -1.5245845317840576, -1.5905126333236694, -1.7429438829421997, -1.6706080436706543, -1.4921859502792358, -1.3653550148010254, -1.700461506843567, -1.4255411624908447, -1.7065109014511108]
[-0.4068954586982727, -0.5421226024627686, -0.45026904344558716, 0.2432289570569992, -1.1226561069488525, -0.3314339816570282, -0.36111751198768616, -0.9029260277748108, -0.18739798665046692, -0.8935290575027466, -0.5479522943496704, 0.08882403373718262, -0.6967436075210571, 0.33494430780410767, -0.4294779896736145, -0.4943314492702484, -0.4539863169193268, -0.8406333923339844, -0.03287152945995331, -0.8908116817474365, -0.4417758285999298, -0.5921482443809509, -0.34540536999702454, -0.15511153638362885, -1.0442780256271362, -0.4092358946800232, -0.2769941985607147, -0.6131436228752136, -0.826742947101593, -0.5249000191688538, -0.7134456038475037, -0.6902170777320862, -0.6963410973548889, -0.29493460059165955, 0.04617080092430115, -0.422644704580307, -0.1097496896982193, -0.3834742307662964]
[-0.6181446313858032, -0.19004248082637787, -0.0029365760274231434, 0.08068443834781647, -0.8800811171531677, -0.7015078663825989, -0.7161533832550049, -0.3735082447528839, -0.1435394287109375, -0.42457154393196106, -0.38199201226234436, 0.16581225395202637, -0.5552207827568054, 0.4637915790081024, -0.6217815279960632, -0.22756171226501465, -0.4651169776916504, -0.4442284107208252, -0.5075089335441589, -0.5433891415596008, -0.5084131360054016, -0.6325740814208984, -0.6185154318809509, -0.18449276685714722, -0.7724323272705078, -0.1301591396331787, -0.4587317705154419, -0.23617231845855713, -0.6763868927955627, -0.30921152234077454, -0.2620585858821869, -0.5338840484619141, -0.28723251819610596, -0.28974655270576477, -0.035703908652067184, -0.8440006375312805, -0.5254795551300049, -0.20561155676841736]
[-0.24043922126293182, -0.00673402426764369, -0.3629315197467804, -0.09758581966161728, -0.6538481712341309, -0.2832961082458496, -0.5085594058036804, -0.6512134075164795, 0.08604571968317032, -0.6021140813827515, -0.35299864411354065, -0.1468682885169983, -0.22344549000263214, 0.6096128225326538, -0.377655953168869, 0.022949127480387688, -0.11731530725955963, -0.5827344655990601, -0.21275688707828522, -0.3059251010417938, -0.09976151585578918, -0.3037017285823822, -0.3686169981956482, -0.20049236714839935, -0.9739938974380493, -0.19451823830604553, 0.07503512501716614, -0.42023175954818726, -0.6053977608680725, -0.29244086146354675, -0.5274533033370972, -0.3516094982624054, -0.5168118476867676, -0.10452020168304443, -0.0151887321844697, -0.5310896635055542, -0.06740780919790268, -0.2495088279247284]
[-0.04551878944039345, -0.18657593429088593, -0.09171349555253983, 0.40222495794296265, -0.7926672697067261, -0.46235787868499756, -0.02088441699743271, -0.4824081361293793, 0.2405584454536438, -0.47605767846107483, -0.30174124240875244, -0.0854371190071106, 0.14102046191692352, 0.3131454586982727, -0.06925827264785767, -0.08942398428916931, -0.3814055323600769, 0.07959301769733429, 0.08601485937833786, -0.2413511574268341, -0.3130761981010437, -0.3325903117656708, 0.026961343362927437, 0.1751558780670166, -0.6270557641983032, 0.012839860282838345, -0.10341902077198029, 0.08493468910455704, -0.44642096757888794, -0.32895106077194214, -0.3181374967098236, 0.03704715892672539, 0.053743474185466766, -0.13270248472690582, -0.12117714434862137, -0.04914185404777527, -0.23146867752075195, 0.15229518711566925]
[-0.7302132248878479, -0.12711767852306366, -0.42682069540023804, 0.23839515447616577, -0.7427124381065369, -0.45089292526245117, -0.26193246245384216, -0.44961294531822205, -0.40700846910476685, -0.24082748591899872, -0.10090204328298569, 0.11341045051813126, -0.14153778553009033, 0.5950242280960083, -0.22301502525806427, -0.36672598123550415, -0.38603463768959045, -0.2127014696598053, -0.4259548783302307, -0.5671829581260681, -0.16153715550899506, -0.36679527163505554, -0.5999516844749451, -0.38605862855911255, -0.9674579501152039, -0.31978651881217957, -0.3005177080631256, -0.0214341189712286, -0.2601359486579895, -0.7008285522460938, -0.03173527121543884, -0.5420219898223877, -0.4400666058063507, -0.3312055170536041, -0.3334781229496002, -0.7927085757255554, -0.2114911824464798, -0.22396111488342285]
