[-0.006143387872725725, 0.0, 0.0, 0.0, 0.0, 0.0, -8.154104786712516e-20, 4.5090717321727425e-05, -1.02125264010739e-28, -5.242436361252479e-22, 1.0086967068903552e-12, 0.0, 4.390080948960269e-25, 0.0, 4.21387539972784e-06, -2.8956820800766017e-15, 0.01990920677781105, 0.0, -6.972461414989084e-05, 0.0, 0.0, 5.149715653907094e-10, 0.0, -1.2814956562579027e-06, 1.6658505087516207e-12, 0.0, 0.0, 0.0, 0.0, 2.3566213869230523e-08, 0.0, 9.734237210068386e-06, 0.0, 0.0, 0.0, 0.0, -1.3618222001465785e-11, 0.0]
[0.05238863825798035, 0.1925111711025238, -0.0913086086511612, -0.15880784392356873, 0.23356983065605164, 0.20471718907356262, 0.08942168951034546, -0.08158356696367264, 0.08829829096794128, 0.19340190291404724, 0.09071090817451477, 0.23867568373680115, 0.06936189532279968, -0.10970371961593628, 0.25288650393486023, 0.18960201740264893, 0.014253138564527035, -0.03597457706928253, 0.24894876778125763, -0.2129034847021103, -0.0799344927072525, -0.22144335508346558, 0.021083563566207886, -0.2219516932964325, 0.12093988060951233, -0.04603606462478638, 0.04094019532203674, 0.03739026188850403, 0.17837309837341309, -0.06811311841011047, 0.16770309209823608, 0.10547667741775513, 0.1743125021457672, -0.11126896739006042, -0.16507232189178467, -0.1415329873561859, -0.263103187084198, 0.10961580276489258]
[0.16137149930000305, 0.10350283980369568, 0.042327672243118286, 0.13700151443481445, 0.12042814493179321, -0.06967546045780182, -0.233193501830101, -0.18900053203105927, -0.11319580674171448, 0.2287634313106537, 0.10851967334747314, 0.07386812567710876, -0.0037334561347961426, -0.24525751173496246, -0.022218748927116394, -0.206836998462677, 0.24992989003658295, 0.22556668519973755, 0.19597864151000977, 0.2576054036617279, -0.255896657705307, -0.1870819330215454, 0.24085578322410583, 0.1506347358226776, 0.0501248836517334, 0.200723797082901, 0.019348978996276855, 0.04366070032119751, -0.06886717677116394, 0.11533436179161072, 0.2225133776664734, 0.14467114210128784, -0.23980391025543213, 0.09129860997200012, 0.10936623811721802, -0.08138184249401093, 0.1716473400592804, -0.13963738083839417]
[-0.26286986470222473, -0.018570810556411743, 0.05321267247200012, 0.031153172254562378, 0.0035372376441955566, -0.26020175218582153, -0.019798696041107178, 0.23434171080589294, -0.22261299192905426, 0.09829124808311462, -0.16086283326148987, -0.13699881732463837, -0.014332801103591919, -0.25668755173683167, 0.15835261344909668, -0.24462348222732544, -0.20023509860038757, 0.008109182119369507, -0.19713139533996582, 0.22213715314865112, 0.04547619819641113, 0.06171998381614685, 0.1252167522907257, -0.1815260648727417, 0.04485344886779785, -0.07279346883296967, 0.125077486038208, -0.07392549514770508, -0.0908425897359848, -0.24494975805282593, -0.04888339340686798, 0.16765794157981873, 0.07278352975845337, -0.008492529392242432, -0.10778740048408508, 0.0717960000038147, -0.0397125780582428, -0.11415685713291168]
[0.0035151243209838867, 0.17113345861434937, -0.0632288008928299, -0.16463187336921692, -0.14873647689819336, 0.1503736972808838, 0.1050274670124054, 0.23288437724113464, 0.09245023131370544, 0.24978169798851013, 0.2253800332546234, 0.07012996077537537, 0.15143337845802307, -0.19709128141403198, 0.08355742692947388, 0.052983760833740234, 0.2552325427532196, 0.058156996965408325, -0.0858289897441864, -0.2082570195198059, -0.14508658647537231, 0.030826658010482788, 0.15175801515579224, 0.12220099568367004, 0.2436947524547577, -0.10875865817070007, 0.14336523413658142, -0.05337539315223694, 0.010619550943374634, -0.25361835956573486, 0.13803544640541077, -0.11556592583656311, -0.19322499632835388, -0.2474253624677658, -0.08347304165363312, -0.0856153815984726, -0.027027130126953125, -0.19471749663352966]
[-0.05644837021827698, -0.07999204099178314, -0.1972990334033966, -0.25965309143066406, -0.25095364451408386, -0.1186905950307846, 0.20829573273658752, -0.09830018877983093, -0.10812999308109283, 0.1370561122894287, 0.16124969720840454, 0.20552435517311096, -0.035603657364845276, -0.21441324055194855, -0.007472783327102661, 0.2266278862953186, 0.04047054052352905, -0.08712972700595856, 0.21102464199066162, -0.23634803295135498, 0.2026596963405609, -0.03514476120471954, 0.03100857138633728, 0.07490810751914978, 0.19864410161972046, 0.18607813119888306, -0.036562129855155945, -0.09728635847568512, 0.0951196551322937, -0.10445535182952881, 0.19162777066230774, -0.00665774941444397, -0.21102632582187653, 0.010823160409927368, 0.2620258033275604, 0.008367836475372314, -0.17351064085960388, 0.018933922052383423]
[0.026561733335256577, 0.2140980362892151, -0.1449064314365387, -0.09933638572692871, 0.03820362687110901, -0.11917398869991302, -0.11976388096809387, -0.0681089460849762, -0.11193637549877167, -0.22978997230529785, -0.17047826945781708, 0.13740688562393188, -0.024380862712860107, -0.11825953423976898, -0.2610873579978943, 0.15335586667060852, 0.16409696638584137, -0.20875173807144165, 0.07404331862926483, -0.053235456347465515, 0.015584439039230347, -0.1565791666507721, 0.032193273305892944, 0.07119452953338623, 0.12287741899490356, -0.14121201634407043, 0.07713758945465088, -0.07283295691013336, 0.2416045367717743, -0.19106629490852356, -0.16150259971618652, -0.23507964611053467, -0.12112034857273102, -0.2254035919904709, 0.10084196925163269, 0.18067017197608948, 0.07041200995445251, 0.20391032099723816]
[-0.21338599920272827, -0.20388171076774597, -0.021621063351631165, 0.24083498120307922, 0.1949603259563446, 0.004730165004730225, -0.25290176272392273, 0.16672350466251373, 0.08286136388778687, 0.011410951614379883, 0.0698917806148529, -0.11151784658432007, 0.205442875623703, -0.03282685577869415, -0.2189444601535797, 0.2545912563800812, -0.09081804007291794, -0.2413669377565384, -0.027820952236652374, 0.18870404362678528, 0.07014179229736328, 0.16460952162742615, -0.17778176069259644, 0.19019055366516113, -0.263607919216156, -0.25272443890571594, -0.10934275388717651, 0.08557632565498352, 0.04271280765533447, -0.12877947092056274, -0.05954660475254059, 0.23723411560058594, 0.17703035473823547, -0.10825556516647339, 0.2022959589958191, 0.048284947872161865, -0.09776270389556885, -0.23962153494358063]
[-0.041877564042806625, 0.1198960542678833, -0.24069933593273163, 0.10392490029335022, -0.19726696610450745, -0.22362694144248962, 0.09170150756835938, -0.011392200365662575, 0.03569364547729492, -0.23192255198955536, 0.07797881960868835, -0.062421903014183044, 0.034348875284194946, 0.07438886165618896, -0.21450476348400116, 0.19170957803726196, 0.23237092792987823, -0.04840245842933655, -0.04593402147293091, 0.033748626708984375, 0.21899697184562683, 0.2176291048526764, 0.2249588668346405, 0.01726013608276844, 0.12887373566627502, -0.18309859931468964, 0.05216968059539795, 0.23126810789108276, -0.15628597140312195, -0.02089892327785492, 0.2345360517501831, -0.2184283435344696, 0.2641294300556183, 0.1955071985721588, -0.21257588267326355, -0.03194117546081543, 0.03474324941635132, 0.19731765985488892]
[-0.02148563228547573, -0.21534135937690735, 0.18153557181358337, 0.2387341558933258, -0.24953073263168335, -0.20374493300914764, -0.0771583765745163, 0.11679018288850784, -0.14395147562026978, -0.1997164487838745, -0.016802608966827393, -0.14071771502494812, 0.2634488046169281, -0.22716663777828217, -0.21939384937286377, 0.057990431785583496, 0.1586407870054245, 0.1639523208141327, 0.015175145119428635, 0.206038236618042, 0.16479068994522095, 0.17866453528404236, -0.2070576548576355, -0.1964976191520691, -0.18633624911308289, 0.004179835319519043, 0.04363459348678589, 0.1312376856803894, -0.19831852614879608, 0.13672977685928345, 0.07800576090812683, 0.2141316831111908, 0.06834191083908081, -0.0259181410074234, -0.1984410136938095, 0.1807914674282074, -0.1738838255405426, -0.1665361225605011]
[-0.06353973597288132, -0.2478204071521759, -0.09365744888782501, 0.24419859051704407, 0.05063465237617493, 0.02943408489227295, 0.21878701448440552, -0.09308218210935593, 0.2434363067150116, -0.1021045595407486, -0.11845287680625916, 0.013510465621948242, 0.057091981172561646, -0.24640938639640808, 0.12387662380933762, -0.03419850766658783, 0.23573307693004608, 0.24040743708610535, 0.10197614878416061, -0.11464636027812958, 0.08247822523117065, -0.14416640996932983, -0.0469580739736557, -0.11398827284574509, 0.14369195699691772, -0.04980219900608063, 0.10882106423377991, -0.1479637324810028, -0.24241270124912262, -0.1437220573425293, -0.17890410125255585, 0.17683343589305878, 0.1238366961479187, 0.02251511812210083, 0.015634924173355103, -0.02474990487098694, 0.09228691458702087, -0.09169678390026093]
[-0.18633122742176056, -0.21125316619873047, -0.021113798022270203, -0.1245841532945633, -0.03776375949382782, 0.01140296459197998, -0.09013670682907104, -0.018262797966599464, -0.05337059497833252, 0.07573544979095459, -0.12407827377319336, 0.016153961420059204, 0.0649261474609375, -0.25235503911972046, 0.0727628543972969, -0.11904628574848175, 0.08669237047433853, -0.22533941268920898, 0.13229192793369293, 0.15656530857086182, -0.1412566602230072, 0.22074559330940247, 0.10258820652961731, -0.0016582648968324065, -0.2349482923746109, 0.03450682759284973, -0.18183116614818573, 0.21316376328468323, 0.11311140656471252, 0.05257327854633331, 0.20168516039848328, -0.25117865204811096, 0.22213053703308105, 0.14903190732002258, 0.23821815848350525, -0.20569072663784027, -0.07078009843826294, -0.14432698488235474]
[-0.1250726729631424, -0.044738784432411194, -0.2633016109466553, 0.021201282739639282, -0.21337175369262695, 0.21710634231567383, 0.13607913255691528, 0.07149104028940201, -0.1592453420162201, 0.022250503301620483, 0.1306731104850769, 0.058237552642822266, 0.13948160409927368, -0.02515891194343567, -0.25757110118865967, -0.06610044836997986, 0.20214854180812836, -0.17852336168289185, -0.2184995710849762, 0.22413048148155212, 0.104612797498703, 0.05227497220039368, -0.054860830307006836, 0.21024848520755768, -0.23985642194747925, 0.1324751377105713, -0.0813518613576889, 0.008218079805374146, -0.2437354177236557, 0.04081955552101135, 0.22144412994384766, -0.07936257869005203, 0.1595316231250763, 0.23742857575416565, 0.18834567070007324, -0.02703985571861267, -0.20917783677577972, 0.01248142123222351]
[-0.12724193930625916, -0.06973107159137726, -0.15718719363212585, 0.014472156763076782, -0.24177230894565582, 0.03482043743133545, 0.229547381401062, -0.017328357324004173, -0.20843416452407837, 0.1048477292060852, 0.22578281164169312, 0.14123284816741943, 0.1812119483947754, 0.19723090529441833, 0.04374796152114868, 0.11790317296981812, 0.1896616816520691, -0.24074450135231018, -0.06063033267855644, -0.14041544497013092, -0.2580423355102539, 0.1927138864994049, 0.20828106999397278, -0.14725109934806824, -0.12430939078330994, -0.23603688180446625, 0.08433908224105835, 0.1473124921321869, 0.23688152432441711, -0.1360451877117157, 0.11239632964134216, -0.05166317895054817, 0.17149978876113892, 0.05367237329483032, -0.18405070900917053, 0.09307876229286194, 0.07358512282371521, 0.15673434734344482]
[0.08097490668296814, -0.017803281545639038, 0.12409231066703796, 0.12300199270248413, 0.16639283299446106, 0.0012931227684020996, -0.14815416932106018, -0.17339666187763214, 0.015996545553207397, 0.19236129522323608, -0.1483151912689209, -0.05504050850868225, 0.08622169494628906, 0.15929299592971802, 0.06567434966564178, 0.13966995477676392, 0.23534633219242096, -0.09270823001861572, 0.18241342902183533, -0.10428299009799957, 0.041770219802856445, 0.07895201444625854, -0.12320135533809662, -0.15126416087150574, 0.23965689539909363, -0.11808666586875916, 0.13203111290931702, 0.09118202328681946, -0.03723716735839844, -0.16404388844966888, 0.11804863810539246, 0.23229551315307617, -0.2086344212293625, -0.14094121754169464, -0.044068723917007446, -0.06394670903682709, -0.2461559772491455, 0.11808723211288452]
[0.14752040803432465, 0.03868281841278076, 0.23131155967712402, 0.1567257046699524, 0.20550677180290222, -0.03447319567203522, 0.09432080388069153, -0.10479530692100525, -0.19686084985733032, -0.17126935720443726, 0.21739572286605835, 0.2218676209449768, -0.20746901631355286, 0.005130350589752197, -0.0640375167131424, -0.09407646954059601, 0.23435132205486298, -0.23508375883102417, 0.24985964596271515, 0.09843572974205017, 0.07706516981124878, 0.26399120688438416, -0.21447578072547913, 0.01792686991393566, 0.14956113696098328, -0.053598254919052124, 0.11825394630432129, 0.14910274744033813, 0.04996052384376526, -0.08981051295995712, 0.12438604235649109, 0.23145683109760284, -0.03985854983329773, 0.07419407367706299, 0.10698220133781433, -0.1828562617301941, 0.010593295097351074, 0.08807680010795593]
[0.1589851677417755, 0.11267399787902832, 0.058929771184921265, 0.07425001263618469, 0.050891488790512085, -0.2434600293636322, -0.17868229746818542, 0.21087145805358887, 0.24675700068473816, -0.08978702127933502, 0.14761647582054138, -0.12548086047172546, -0.11133483052253723, -0.0864865630865097, -0.2063094526529312, 0.10491412878036499, 0.11100687086582184, -0.05616699159145355, 0.03986746072769165, 0.1775568127632141, 0.04975396394729614, -0.08319041132926941, -0.2427440732717514, 0.25424692034721375, 0.18157732486724854, -0.25282612442970276, 0.19891652464866638, 0.05034258961677551, 0.22170615196228027, -0.07682013511657715, 0.16846472024917603, -0.20124314725399017, 0.18428051471710205, -0.19864442944526672, -0.048153653740882874, -0.06482104957103729, 0.16776058077812195, 0.1136113703250885]
[0.256024032831192, -0.05167299509048462, -0.19777946174144745, -0.025763973593711853, 0.20497912168502808, -0.208460733294487, 0.1345384418964386, 2.778396628855262e-05, 0.1863323450088501, -0.09274670481681824, 0.018771320581436157, 0.17981117963790894, -0.054006144404411316, -0.015576109290122986, -0.17613565921783447, -0.11462973058223724, -0.17156550288200378, -0.17782917618751526, 0.15503647923469543, 0.19810637831687927, -0.1959552764892578, -0.18152770400047302, -0.08183740079402924, -0.1356838345527649, 0.11559087038040161, 0.08138075470924377, 0.062170833349227905, -0.007964998483657837, 0.12145179510116577, -0.1994851976633072, -0.07400421798229218, -0.059233881533145905, 0.11047238111495972, 0.041218101978302, 0.03726285696029663, 0.14271074533462524, 0.05037081241607666, -0.1019376814365387]
[-0.08039131760597229, 0.22756639122962952, -0.20725074410438538, -0.0952233076095581, -0.15511268377304077, -0.09716539084911346, -0.019047275185585022, -0.22457660734653473, 0.24606147408485413, 0.009042233228683472, -0.027258113026618958, 0.23064535856246948, 0.06138169765472412, -0.1686316579580307, -0.25309523940086365, -0.19186550378799438, -0.08943378925323486, 0.23077598214149475, 0.1948843002319336, -0.0035294294357299805, -0.057354822754859924, -0.081435427069664, 0.23056399822235107, 0.13751427829265594, -0.08189918100833893, 0.10704758763313293, -0.050845250487327576, -0.23330648243427277, 0.20271679759025574, 0.1672576665878296, -0.025434434413909912, 0.2245151698589325, -0.0940198004245758, -0.1856687217950821, 0.04602634906768799, -0.21482861042022705, -0.22042159736156464, 0.2348024547100067]
[0.07960629463195801, -0.061987683176994324, -0.11972962319850922, 0.23413637280464172, 0.0831250548362732, 0.20056438446044922, 0.1640702784061432, -0.023528477177023888, -0.2462642341852188, -0.2345300167798996, -0.2403421550989151, 0.07517096400260925, -0.19494591653347015, 0.08143353462219238, 0.06163744628429413, 0.22427093982696533, 0.21439775824546814, -0.013904333114624023, -0.2467234879732132, -0.19047772884368896, -0.03846441209316254, -0.044741421937942505, 0.24548152089118958, -0.1053525060415268, 0.24053296446800232, -0.09459665417671204, -0.009944707155227661, 0.17117124795913696, 0.06277072429656982, -0.2135545164346695, -0.13266924023628235, -0.14390146732330322, 0.09772014617919922, 0.1267000436782837, -0.10982099175453186, 0.06627091765403748, 0.014711141586303711, -0.1121278703212738]
[-0.19481009244918823, -0.12328536808490753, -0.2380012571811676, -0.24084028601646423, 0.2620657980442047, -0.1476578563451767, 0.24553850293159485, 0.1952337771654129, 0.15547913312911987, 0.2492542564868927, -0.06292872130870819, -0.10686646401882172, -0.18077093362808228, -0.07661232352256775, 0.05803462490439415, 0.037220299243927, 0.18975578248500824, -0.24674618244171143, 0.1424800157546997, -0.0902293473482132, 0.23393529653549194, -0.09916810691356659, 0.1465967297554016, 0.041190095245838165, 0.2623938024044037, 0.100746750831604, -0.23892131447792053, 0.03751829266548157, -0.08581532537937164, -0.10735192894935608, 0.08281943202018738, 0.05862709879875183, -0.043285638093948364, -0.17819853127002716, 0.1912274956703186, 0.028421521186828613, 0.07156181335449219, 0.219608336687088]
[0.21673458814620972, 0.2370627224445343, -0.19243964552879333, 0.1761719286441803, -0.17420071363449097, 0.2602098882198334, -0.14653337001800537, -0.007987754419445992, 0.13760948181152344, 0.025836646556854248, 0.1340099573135376, -0.12066523730754852, -0.13500748574733734, 0.2541920244693756, -0.054570551961660385, 0.06095036864280701, -0.15102709829807281, 0.19219252467155457, -0.08088812977075577, -0.1313256025314331, -0.04237149655818939, 0.2121783196926117, -0.08803744614124298, -0.2079002559185028, 0.13471856713294983, -0.08090020716190338, 0.0767885148525238, 0.11536389589309692, -0.06529733538627625, 0.1228674054145813, -0.0457766056060791, 0.04318372532725334, 0.15471795201301575, -0.07452337443828583, 0.18099141120910645, 0.19214090704917908, -0.10853636264801025, -0.053513750433921814]
[0.07288318127393723, 0.01570919156074524, 0.018577367067337036, 0.22999167442321777, 0.15510568022727966, -0.20763298869132996, 0.0023744702339172363, -0.17611464858055115, 0.11864480376243591, 0.04878756403923035, 0.2623019516468048, -0.13542954623699188, -0.18693388998508453, 0.09018835425376892, -0.027230869978666306, 0.24970999360084534, -0.1625952273607254, 0.1111825704574585, -0.08396752923727036, 0.0005695521831512451, -0.14761251211166382, -0.2552465796470642, 0.01600515842437744, 0.023940404877066612, -0.01791587471961975, 0.12249377369880676, -0.21068784594535828, 0.17625394463539124, -0.03235964477062225, 0.0630667507648468, 0.16268402338027954, -0.12359488010406494, 0.08660018444061279, -0.15573197603225708, 0.15618470311164856, 0.028408527374267578, 0.09964445233345032, 0.19335070252418518]
[-0.2525993585586548, 0.1610274612903595, -0.037516772747039795, -0.04660913348197937, 0.2639073431491852, 0.2577402889728546, -0.2022830992937088, 0.23370465636253357, -0.22254031896591187, -0.005202978849411011, -0.24648571014404297, -0.21527159214019775, 0.02042648196220398, 0.17409220337867737, -0.055249180644750595, -0.06506848335266113, 0.07440026104450226, -0.030637338757514954, -0.10208872705698013, -0.004029631614685059, -0.20300592482089996, -0.16243834793567657, 0.15715879201889038, -0.02988842874765396, -0.16894961893558502, 0.16537290811538696, 0.07004204392433167, 0.16175192594528198, 0.1818607747554779, -0.019732549786567688, 0.09422162175178528, 0.14840441942214966, 0.2545221745967865, 0.26361140608787537, 0.04149293899536133, 0.022145211696624756, -0.0016644299030303955, -0.2002985179424286]
[-0.11310712993144989, 0.2355436086654663, 0.12943729758262634, 0.2625338137149811, 0.21152415871620178, 0.022792071104049683, -0.11492565274238586, 0.054146233946084976, -0.05243636667728424, -0.004718899726867676, 0.24206730723381042, 0.03733968734741211, 0.12391957640647888, 0.2579764425754547, -0.07020656764507294, 0.2179136872291565, 0.027527131140232086, 0.06756284832954407, -0.01696607656776905, 0.15388762950897217, -0.21183548867702484, -0.21331030130386353, 0.25692883133888245, -0.026151984930038452, -0.18296736478805542, -0.1629825085401535, -0.2369004487991333, 0.21124151349067688, 0.2400965392589569, -0.05910986661911011, 0.13942718505859375, 0.1387556940317154, 0.07803717255592346, 0.20846155285835266, 0.21073073148727417, -0.11987301707267761, 0.18484991788864136, 0.17189469933509827]
[-0.026747237890958786, -0.009073406457901001, -0.05235104262828827, 0.07626211643218994, -0.16507351398468018, -0.2100410908460617, -0.1980190873146057, 0.06304579228162766, 0.013042956590652466, -0.09265299141407013, -0.10713373124599457, 0.05314955115318298, -0.011951804161071777, -0.07316173613071442, 0.21186774969100952, 0.06747505068778992, -0.24605657160282135, -0.1208098977804184, -0.08012976497411728, -0.13110342621803284, -0.22281312942504883, 0.14951744675636292, -0.08230176568031311, -0.0813012346625328, 0.0610184371471405, 0.09117782115936279, 0.0828292965888977, -0.2377309650182724, -0.10009743273258209, -0.10898278653621674, 0.22971931099891663, -0.024486033245921135, -0.10156676173210144, 0.007901370525360107, -0.12484511733055115, -0.03964172303676605, -0.18515869975090027, 0.0419730544090271]
[0.12135685235261917, -0.08800779283046722, -0.047110602259635925, 0.1664595901966095, -0.06210702657699585, -0.09119223058223724, -0.2298853099346161, -0.20177674293518066, 0.20577645301818848, -0.19731974601745605, -0.08639475703239441, -0.04266810417175293, -0.07517075538635254, 0.2229267954826355, -0.10079788416624069, 0.013837069272994995, -0.08690302819013596, 0.053477734327316284, 0.06310663372278214, 0.18724504113197327, -0.24319307506084442, -0.21724621951580048, -0.22584082186222076, -0.17188763618469238, -0.22534438967704773, 0.10293394327163696, 0.2587902843952179, 0.031019866466522217, 0.1859193742275238, -0.05320906639099121, 0.02064242959022522, -0.10924597084522247, -0.09666366875171661, 0.19544291496276855, 0.13841354846954346, -0.12993575632572174, 0.2364509403705597, -0.10306146740913391]
[-0.20323386788368225, -0.11886447668075562, -0.25163912773132324, -0.016622379422187805, -0.11803831160068512, 0.198810875415802, 0.059987545013427734, 0.09277646988630295, 0.021101146936416626, -0.08474217355251312, 0.17719829082489014, 0.040647923946380615, -0.2075127810239792, -0.05053365230560303, 0.13630978763103485, 0.09201034903526306, -0.1881735473871231, 0.015869140625, -0.001722576911561191, -0.2230202555656433, 0.12098723649978638, -0.2556766867637634, 0.211848646402359, 0.06923355907201767, 0.13973814249038696, -0.13929392397403717, -0.18270960450172424, 0.2557676136493683, -0.1784156709909439, 0.15525783598423004, 0.24446991086006165, -0.053750231862068176, 0.05222010612487793, 0.11635246872901917, -0.007236480712890625, -0.07517977058887482, 0.019075751304626465, -0.1067226231098175]
[-0.19548027217388153, -0.08384320139884949, -0.1889050006866455, -0.24378567934036255, -0.0460159033536911, 0.09560832381248474, 0.007556349039077759, -0.13656404614448547, 0.15147224068641663, -0.09629954397678375, -0.08249126374721527, -0.005513578653335571, 0.20840215682983398, 0.19199535250663757, 0.15906505286693573, 0.11273261904716492, -0.19070476293563843, -0.12751783430576324, -0.11109507828950882, -0.051698312163352966, -0.11587229371070862, -0.1669941246509552, -0.10293929278850555, -0.17856408655643463, 0.13031774759292603, -0.21599812805652618, 0.20875200629234314, -0.0497409850358963, 0.06340965628623962, -0.031043410301208496, 0.13302546739578247, -0.03379005938768387, 0.1712077558040619, -0.2635786235332489, 0.07220137119293213, -0.1531747579574585, 0.013462811708450317, -0.21131588518619537]
[0.04841168597340584, 0.20588934421539307, 0.05893334746360779, 0.07658529281616211, 0.04743000864982605, 0.13820981979370117, 0.13693538308143616, -0.1259058117866516, 0.17733648419380188, -0.24823805689811707, 0.01463538408279419, -0.12080566585063934, -0.19527912139892578, 0.16554269194602966, -0.21360716223716736, 0.12981608510017395, -0.10956426709890366, -0.008099257946014404, -0.19129331409931183, 0.09798148274421692, 0.009888559579849243, -0.23329994082450867, 0.072628915309906, -0.013688740320503712, -0.009372025728225708, -0.1892082840204239, 0.2425425946712494, -0.22924649715423584, 0.23779496550559998, -0.19307398796081543, -0.16728878021240234, -0.14970728754997253, 0.1892833411693573, 0.007185846567153931, -0.18672531843185425, -0.1397928148508072, -0.08127905428409576, -0.225205659866333]
[-0.13379228115081787, -0.24158741533756256, 0.15058133006095886, -0.062288641929626465, 0.17301419377326965, 0.15255144238471985, -0.07272212207317352, 0.04282485321164131, -0.03167857229709625, 0.035658568143844604, 0.1505381464958191, -0.046737849712371826, -0.1572778820991516, -0.25794240832328796, -0.03208643198013306, 0.030199557542800903, 0.1364874690771103, -0.10032841563224792, 0.10331249237060547, -0.1838131844997406, -0.23506978154182434, -0.023819193243980408, 0.22697967290878296, -0.0317230224609375, -0.1981695294380188, -0.09210877120494843, -0.09861871600151062, 0.1369730532169342, 0.014770656824111938, -0.024472549557685852, 0.04393130540847778, 0.1426481157541275, 0.18907496333122253, -0.21984657645225525, 0.26214799284935, 0.08378559350967407, 0.0373748242855072, 0.15745937824249268]
[0.11916523426771164, -0.15152645111083984, -0.12982605397701263, 0.2001034915447235, 0.24834492802619934, 0.1606559157371521, -0.09227728843688965, 0.04783282056450844, 0.25267741084098816, 0.14703655242919922, -0.030609130859375, 0.21448573470115662, -0.18681026995182037, 0.13109442591667175, -0.09329155087471008, -0.00591665506362915, 0.03479772433638573, -0.24775919318199158, 0.13211512565612793, 0.22385933995246887, 0.1482906937599182, -0.09335106611251831, -0.05867931246757507, -0.18633009493350983, -0.2568017840385437, 0.0010164082050323486, 0.24440553784370422, 0.2173781394958496, -0.18180754780769348, -0.16815921664237976, -0.14750036597251892, 0.21393513679504395, 0.1968032419681549, 0.24051883816719055, -0.21609453856945038, -0.09768436849117279, -0.05421106517314911, -0.014847815036773682]
[0.11063338071107864, -0.1149391382932663, 0.0639047622680664, -0.03652265667915344, -0.19794994592666626, 0.00013148784637451172, -0.19738271832466125, -0.12007744610309601, 0.1643417477607727, -0.19926169514656067, 0.09797170758247375, 0.007036983966827393, -0.09904077649116516, 0.0038300752639770508, 0.1478285938501358, -0.1317089945077896, -0.1694757491350174, -0.0786183774471283, -0.019972939044237137, 0.2639143764972687, 0.15259256958961487, -0.1250605583190918, -0.1972379982471466, -0.2172939032316208, -0.25621530413627625, 0.2078477442264557, -0.14595842361450195, -0.10616499185562134, 0.24529078602790833, 0.2528158724308014, -0.2506219744682312, 0.12708601355552673, -0.20604300498962402, -0.17736303806304932, 0.11772710084915161, -0.0629616528749466, -0.08964991569519043, 0.13753175735473633]
[-0.03187490254640579, 0.22673273086547852, 0.0030131638050079346, 0.011116862297058105, -0.1631324589252472, -0.10749834775924683, -0.1394769847393036, -0.23100802302360535, -0.06911693513393402, 0.012536823749542236, -0.004950076341629028, -0.2285260707139969, -0.19200626015663147, 0.08349621295928955, 0.08900728076696396, -0.07606720924377441, -0.08326265215873718, -0.2352607101202011, -0.19085298478603363, -0.13372386991977692, -0.21114875376224518, -0.011296093463897705, -0.2405966967344284, -0.07686097174882889, -0.16653800010681152, -0.24364617466926575, -0.014054656028747559, 0.1408158242702484, -0.051729291677474976, 0.205206960439682, -0.25858762860298157, -0.2624170184135437, 0.1937466263771057, -0.24280300736427307, -0.07402336597442627, -0.02180047333240509, -0.055061474442481995, 0.031494319438934326]
[0.2408134937286377, -0.07155853509902954, -0.2595408260822296, 0.23959174752235413, -0.23499703407287598, -0.08548124134540558, -0.06892706453800201, 0.17669573426246643, 0.23189496994018555, 0.24277809262275696, 0.024169445037841797, -0.21273766458034515, 0.09157481789588928, -0.16791267693042755, -0.17178258299827576, -0.17783668637275696, 0.08773564547300339, 0.03437715768814087, 0.10521204024553299, -0.0044171810150146484, -0.12257733941078186, 0.06976732611656189, 0.02021080255508423, -0.09626373648643494, -0.050727054476737976, 0.2535892426967621, 0.06118080019950867, 0.0011861324310302734, -0.2064998298883438, -0.1906176507472992, -0.1759718656539917, -0.10650672018527985, 0.01789534091949463, -0.13019652664661407, 0.12710919976234436, -0.19571363925933838, 0.025836527347564697, 0.058356255292892456]
[0.19190792739391327, -0.1584446132183075, -0.25109073519706726, 0.042434096336364746, 0.07600390911102295, -0.19551408290863037, -0.17071151733398438, -0.024745218455791473, 0.13385197520256042, -0.11655128002166748, -0.055480629205703735, 0.188185453414917, 0.11410635709762573, -0.18331146240234375, -0.05604245886206627, -0.25962382555007935, -0.1482609361410141, -0.10856892168521881, -0.23976421356201172, -0.15392756462097168, -0.055674657225608826, -0.19114463031291962, 0.1700231432914734, 0.2198726385831833, -0.07077902555465698, -0.2577805519104004, 0.0122813880443573, -0.08468121290206909, -0.18630942702293396, 0.13642270863056183, 0.0890163779258728, 0.09827207773923874, -0.04726262390613556, -0.23367640376091003, -0.1533847153186798, -0.25196734070777893, 0.015988916158676147, -0.0703403502702713]
[-0.16852886974811554, 0.16851761937141418, 0.10048454999923706, -0.24791423976421356, -0.15143300592899323, 0.24570849537849426, -0.2103111892938614, -0.19024060666561127, 0.057992756366729736, -0.1636616289615631, 0.025254011154174805, -0.059161633253097534, 0.09718170762062073, -0.08415612578392029, -0.01758023537695408, 0.05854120850563049, -0.08468740433454514, 0.051657676696777344, -0.03397708013653755, 0.02777332067489624, 0.19868335127830505, -0.24578997492790222, 0.24700281023979187, -0.2500703036785126, -0.24837899208068848, 0.0883665680885315, -0.12954744696617126, 0.0027991533279418945, -0.19600017368793488, -0.1601712554693222, 0.16833114624023438, -0.21735018491744995, -0.26017698645591736, -0.08964979648590088, 0.13005629181861877, 0.12143227458000183, 0.11726990342140198, 0.1734696924686432]
[-0.2027660608291626, -0.06070426106452942, 0.21797394752502441, -0.08580946922302246, 0.18265098333358765, 0.16610655188560486, 0.05812707543373108, 0.039929501712322235, -0.12083759903907776, -0.2033572643995285, -0.04108498990535736, -0.24761554598808289, 0.20742341876029968, 0.07329872250556946, -0.20974241197109222, 0.14775371551513672, 0.27229154109954834, 0.20822566747665405, 0.25417232513427734, 0.11796310544013977, 0.08816561102867126, 0.1919918954372406, -0.13020987808704376, 0.005062477197498083, -0.03994274139404297, 0.1633932888507843, 0.0394282341003418, -0.158113494515419, 0.12839815020561218, -0.06730647385120392, 0.13908490538597107, 0.2629440426826477, -0.26078563928604126, -0.10613255202770233, -0.21017378568649292, -0.16386812925338745, 0.1264834702014923, 0.21260201930999756]
[0.1223936453461647, 0.2609865963459015, 0.21610334515571594, -0.21080893278121948, 0.12182661890983582, 0.2333962321281433, -0.2595415711402893, -0.006042043212801218, 0.020699232816696167, 0.073367178440094, -0.173725426197052, 0.12980815768241882, 0.16090214252471924, -0.08100569248199463, -0.25722694396972656, 0.01600554585456848, 0.0497007817029953, 0.07568791508674622, 0.21522249281406403, 0.201130211353302, -0.08019936084747314, -0.25455334782600403, 0.22635361552238464, -0.22581452131271362, 0.036410361528396606, -0.1084764152765274, 0.16848844289779663, -0.21759414672851562, 0.20284566283226013, -0.035859331488609314, -0.07139568030834198, -0.22405141592025757, -0.15934237837791443, 0.04345422983169556, -0.023758798837661743, 0.2450377643108368, 0.060040444135665894, 0.044531285762786865]
[-0.10251672565937042, -0.03038652241230011, 0.06820204854011536, -0.11594395339488983, -0.0022517740726470947, -0.14173337817192078, -0.21688127517700195, -0.009859530255198479, -0.05742686986923218, 0.07981446385383606, 0.009070366621017456, 0.24164655804634094, -0.04402250051498413, -0.08300337195396423, -0.16580891609191895, -0.019769921898841858, -0.23160932958126068, -0.199008047580719, -0.21586154401302338, 0.12412109971046448, 0.22066190838813782, 0.035209447145462036, -0.004837781190872192, 0.17208240926265717, -0.15478459000587463, -0.20668882131576538, 0.09962776303291321, 0.13504689931869507, -0.22024855017662048, -0.02126982808113098, -0.18639004230499268, -0.15369923412799835, -0.047919824719429016, 0.10949024558067322, 0.26239416003227234, -0.16469335556030273, -0.0005512237548828125, -0.13738244771957397]
[0.1330307126045227, 0.0049148499965667725, 0.037313491106033325, -0.12290014326572418, -0.07657301425933838, -0.2614235281944275, -0.25534260272979736, -0.05964053049683571, 0.010331124067306519, 0.24311783909797668, -0.22696562111377716, 0.23249977827072144, 0.15747159719467163, 0.02418312430381775, -0.24619778990745544, 0.10774168372154236, 0.10941988974809647, 0.11398646235466003, -0.12118417024612427, 0.22530031204223633, 0.25672492384910583, 0.18964111804962158, 0.23452726006507874, 0.09903592616319656, 0.19473525881767273, 0.24437734484672546, 0.23281320929527283, 0.26063016057014465, -0.01788458228111267, -0.18032632768154144, -0.17105260491371155, 0.24961625039577484, -0.03732381761074066, -0.06069684028625488, 0.11428231000900269, 0.04867899417877197, -0.07471179962158203, -0.08313977718353271]
[0.023544402793049812, -0.11289018392562866, 0.039417922496795654, -0.15586912631988525, -0.037540510296821594, 0.22802630066871643, -0.08586809039115906, -0.18968182802200317, 0.05396765470504761, -0.2598251402378082, 0.20819568634033203, -0.0737258642911911, 0.15497589111328125, -0.21205338835716248, -0.16381634771823883, -0.18318501114845276, -0.06193636357784271, 0.11815595626831055, 0.14955735206604004, 0.017979681491851807, -0.12381882965564728, -0.021453365683555603, -0.2270534634590149, -0.24326027929782867, -0.09155553579330444, 0.012534558773040771, 0.2590029537677765, 0.013964593410491943, -0.16725660860538483, -0.030955806374549866, 0.14860057830810547, -0.1965421736240387, 0.05482795834541321, 0.17669475078582764, 0.11908426880836487, 0.24827685952186584, 0.08532997965812683, -0.08906897902488708]
[0.14324237406253815, 0.025705784559249878, -0.1922086477279663, 0.02549666166305542, 0.22523242235183716, -0.21925178170204163, -0.015175968408584595, -0.011907871812582016, 0.056662291288375854, 0.1785130798816681, -0.07611677050590515, -0.2247944325208664, -0.17098276317119598, 0.25125280022621155, 0.09670381247997284, 0.2111700475215912, 0.0049613527953624725, -0.17266468703746796, -0.1436348259449005, 0.08192229270935059, -0.10385558009147644, 0.13370653986930847, -0.03162592649459839, -0.13060159981250763, -0.1377231478691101, 0.22891873121261597, 0.18445250391960144, 0.03535741567611694, 0.18818399310112, 0.05717504024505615, 0.09326699376106262, 0.041769225150346756, -0.22991788387298584, -0.01636733114719391, -0.19270256161689758, 0.2457641065120697, 0.15892669558525085, -0.0871175080537796]
[0.0650985911488533, -0.19342532753944397, -0.22923099994659424, -0.10541936755180359, 0.11938107013702393, 0.016256868839263916, -0.17623889446258545, 0.09208834916353226, -0.20032049715518951, -0.10063964128494263, -0.141792893409729, -0.21939164400100708, 0.009183734655380249, 0.20021489262580872, 0.04035438969731331, 0.12099334597587585, 0.17438769340515137, 0.08620569109916687, -0.016606025397777557, 0.03433603048324585, 0.0734536349773407, -0.24681934714317322, 0.2616930305957794, -0.07132847607135773, -0.17500314116477966, -0.21476823091506958, 0.058319032192230225, -0.006989896297454834, 0.2603035867214203, -0.03939814493060112, 0.04880097508430481, -0.1569022685289383, 0.017846733331680298, 0.2177850306034088, -0.12043960392475128, 0.13086524605751038, -0.024851292371749878, -0.16587147116661072]
[-0.15886519849300385, 0.16520613431930542, -0.13248427212238312, 0.12360432744026184, -0.18721505999565125, 0.23447102308273315, -0.1251693218946457, -0.12960167229175568, -0.052143409848213196, -0.05530266463756561, 0.08793631196022034, -0.24783746898174286, 0.24497190117835999, 0.1809084117412567, 0.2194179892539978, 0.25619348883628845, 0.2024189829826355, -0.04508866369724274, -0.1948549598455429, 0.09572508931159973, -0.003754556179046631, -0.05827450752258301, 0.13231191039085388, 0.03466734662652016, 0.10989239811897278, 0.05793336033821106, 0.19683170318603516, 0.12984967231750488, -0.0158989280462265, 0.06881359219551086, -0.11140863597393036, 0.22400222718715668, 0.23263266682624817, 0.18995428085327148, -0.25912028551101685, -0.25986698269844055, 0.1592096984386444, 0.13343191146850586]
[-0.2630404233932495, 0.13235247135162354, -0.13581514358520508, 0.10522565245628357, 0.02820110321044922, 0.13652926683425903, -0.11597834527492523, 0.17585261166095734, -0.1767885982990265, -0.08292792737483978, 0.025227129459381104, -0.134523406624794, 0.11189278960227966, 0.2633925974369049, -0.25391045212745667, 0.11895793676376343, -0.07548677176237106, 0.07175475358963013, -0.1992085725069046, 0.08876475691795349, 0.21367493271827698, 0.13419529795646667, -0.10710091888904572, 0.21010103821754456, -0.24051085114479065, -0.1566329002380371, 0.017860770225524902, -0.15174731612205505, -0.2607962191104889, 0.24460771679878235, -0.11390313506126404, -0.15855222940444946, 0.24030062556266785, -0.043816134333610535, -0.09236255288124084, 0.20157772302627563, 0.004173010587692261, -0.1183541864156723]
[0.16085311770439148, 0.16178184747695923, -0.036414965987205505, -0.20873303711414337, -0.05620862543582916, -0.2270013839006424, 0.1765286922454834, 0.22548559308052063, 0.11742103099822998, 0.06315600872039795, -0.02309662103652954, 0.003431558609008789, -0.02136172354221344, 0.16208884119987488, -0.08288329094648361, -0.11403501033782959, -0.057076238095760345, -0.01728498935699463, 0.08131549507379532, -0.02796614170074463, 0.12941652536392212, -0.020106270909309387, 0.12089067697525024, -0.1953185498714447, -0.103892982006073, -0.048611730337142944, 0.09907138347625732, 0.25501683354377747, -0.06235615909099579, 0.20105093717575073, -0.038371533155441284, -0.1263197809457779, -0.22282396256923676, -0.12173134088516235, 0.019521117210388184, -0.19705915451049805, -0.25476375222206116, 0.18847286701202393]
[-0.014033819548785686, 0.02110794186592102, -0.12478171288967133, 0.09652695059776306, 0.08710020780563354, -0.13524414598941803, 0.20446965098381042, -0.11639223992824554, -0.037337347865104675, -0.06253845989704132, 0.1326410174369812, -0.1759735643863678, 0.09654280543327332, 0.174850732088089, -0.038639992475509644, -0.21504928171634674, -0.121645487844944, 0.04290199279785156, 0.1304796189069748, 0.10750016570091248, 0.027824461460113525, 0.22710302472114563, 0.2213621735572815, -0.2501271367073059, 0.2371806800365448, -0.1583099663257599, 0.135255366563797, 0.03870710730552673, 0.24740901589393616, -0.0025614623446017504, -0.06554771959781647, 0.21306563913822174, -0.08540265262126923, -0.22823184728622437, 0.13358500599861145, -0.0866960883140564, -0.18184295296669006, 0.20369529724121094]
[0.0611194372177124, 0.027942657470703125, -0.11997899413108826, -0.06039354205131531, -0.14250324666500092, -0.033780232071876526, 0.008810997009277344, 0.16780151426792145, -0.09401677548885345, 0.23851069808006287, 0.2637878954410553, -0.10726691782474518, 0.21940267086029053, 0.08021429181098938, 0.11322591453790665, 0.22528445720672607, -0.05836552008986473, -0.21794669330120087, 0.1773870438337326, 0.15579155087471008, -0.08356642723083496, 0.09137415885925293, -0.2396114468574524, 0.23655018210411072, 0.1719033122062683, -0.22225958108901978, 0.06528881192207336, -0.16613024473190308, 0.2417680323123932, 0.09077012538909912, 0.17649123072624207, -0.10028994083404541, 0.0724356472492218, 0.046984076499938965, -0.06167955696582794, 0.1352001130580902, -0.15590307116508484, -0.015083461999893188]

[0.3200499415397644, 0.23462297022342682, 0.1443668156862259, -0.011959806084632874, 0.08422036468982697, 0.017694182693958282, 0.29181167483329773, 0.2563270628452301, -0.0441194549202919, 0.18702423572540283, 0.2370557188987732, 0.1340232789516449, 0.26637348532676697, -0.1989857405424118, 0.14119897782802582, 0.2069610208272934, -0.11881560832262039, -0.15043966472148895, -0.04071307182312012, 0.2755832076072693, 0.1883433610200882, 0.2767467796802521, 0.28824150562286377, -0.07701016217470169, 0.2887018322944641, -0.32258340716362, -0.028055431321263313, 0.04776494950056076]
[-0.2089388221502304, -0.14682000875473022, -0.15853114426136017, 0.300143301486969, -0.10916918516159058, 0.0297537911683321, 0.22019974887371063, 0.21263495087623596, -0.2347905933856964, -0.06642097234725952, 0.25272244215011597, 0.07780355960130692, -0.06139589101076126, -0.16936497390270233, 0.19194290041923523, 0.14879660308361053, -0.24843019247055054, -0.008619377389550209, 0.11229506134986877, -0.13588576018810272, -0.24957886338233948, 0.18123683333396912, 0.08076807111501694, 0.14606381952762604, -0.2944754660129547, 0.2802668809890747, 0.05971634387969971, 0.18542760610580444]
[0.08907103538513184, 0.28317099809646606, 0.046341389417648315, -0.057722657918930054, 0.11582356691360474, -0.2423570156097412, -0.029067128896713257, 0.09842121601104736, -0.23975467681884766, 0.017654240131378174, -0.04299825429916382, -0.1561981588602066, 0.2051069736480713, -0.049164146184921265, 0.28945428133010864, -0.10115547478199005, 0.18932262063026428, 0.25994014739990234, -0.275783896446228, -0.07841882109642029, 0.07162511348724365, -0.05386906862258911, 0.23644143342971802, -0.11583817005157471, -0.2956734895706177, 0.08820667862892151, 0.1736501157283783, 0.2878548502922058]
[-0.22840914130210876, 0.196089506149292, -0.00511777400970459, 0.10327178239822388, -0.10514183342456818, 0.24294430017471313, 0.02242457866668701, 0.18507838249206543, 0.29066699743270874, 0.2538653016090393, 0.017618447542190552, -0.049782782793045044, -0.23001764714717865, -0.00270766019821167, 0.1459115743637085, 0.21081840991973877, -0.03471320867538452, 0.004567474126815796, 0.17282602190971375, -0.05521577596664429, 0.19572535157203674, -0.19087721407413483, 0.08730658888816833, -0.23873373866081238, 0.039890557527542114, -0.12189872562885284, -0.0720142275094986, 0.13837692141532898]
[0.35569220781326294, 0.1325005292892456, 0.15172593295574188, -0.06086738035082817, -0.018797459080815315, 0.2872083783149719, 0.39585521817207336, 0.04370470345020294, -0.3219064474105835, -0.054713573306798935, 0.22253835201263428, 0.07518226653337479, 0.16089721024036407, -0.06717828661203384, -0.025223759934306145, 0.1225946694612503, -0.004186748992651701, -0.3198568820953369, 0.1117638424038887, 0.2654736638069153, 0.47067350149154663, 0.2245868444442749, 0.23598693311214447, -0.15994395315647125, 0.39788126945495605, -0.34145382046699524, 0.11772572249174118, 0.21240580081939697]
[0.4861299395561218, 0.08748174458742142, 0.1665160208940506, 0.06524232774972916, -0.1716187596321106, 0.0696243867278099, 0.2724575698375702, 0.3986380398273468, -0.23990698158740997, -0.04323190078139305, 0.47466254234313965, -0.06397869437932968, 0.23974095284938812, -0.38281700015068054, -0.15391896665096283, -0.027657566592097282, -0.3183913826942444, -0.20439152419567108, -0.0790640339255333, 0.32735946774482727, -0.044181086122989655, 0.04573821648955345, 0.568616509437561, -0.1649014800786972, 0.5081720352172852, -0.5842031836509705, 0.05322112515568733, 0.06107757240533829]
[0.10455464571714401, 0.1147264912724495, -0.08762934803962708, 0.28191253542900085, -0.06927840411663055, 0.2880602478981018, -0.0015708663268014789, 0.24468886852264404, 0.13571219146251678, 0.08258663862943649, -0.06286462396383286, 0.06831049174070358, 0.2472320944070816, -0.4657571017742157, 0.03504367172718048, 0.37020424008369446, -0.24827073514461517, 0.032825957983732224, 0.14870060980319977, 0.1445690542459488, 0.1622205227613449, 0.32991495728492737, 0.5424716472625732, -0.37140893936157227, 0.3538562059402466, -0.49998635053634644, 0.1386300027370453, -0.2536538541316986]
[-0.013288170099258423, -0.2234615832567215, 0.029473304748535156, 0.032923609018325806, 0.2987132668495178, -0.08634553849697113, -0.2752217948436737, -0.019375264644622803, -0.09257805347442627, 0.1326952874660492, 0.0023147165775299072, -0.2976544499397278, -0.020227253437042236, -0.29143840074539185, -0.28990638256073, 0.02570265531539917, -0.007379889488220215, 0.04595351219177246, -0.13506124913692474, -0.23893171548843384, -0.05337341129779816, 0.04515010118484497, 0.12957161664962769, -0.24026276171207428, 0.23636692762374878, 0.042972683906555176, 0.024371325969696045, -0.03638303279876709]
[0.061495017260313034, 0.4843349754810333, 0.20391105115413666, 0.011170316487550735, -0.04732659459114075, -0.12609902024269104, 0.5087500214576721, 0.36143550276756287, 0.1855120211839676, 0.3766646385192871, 0.38937443494796753, 0.10572627931833267, 0.11990039050579071, -0.4002896249294281, 0.11517127603292465, 0.10584575682878494, 0.015398832969367504, -0.007455287966877222, -0.0283276978880167, 0.2788579761981964, 0.46069997549057007, 0.47828975319862366, 0.16155679523944855, -0.22736699879169464, 0.10682372003793716, -0.24700859189033508, 0.27321478724479675, -0.21771720051765442]
[-0.06075020134449005, 0.06746232509613037, -0.2427864521741867, -0.23309186100959778, 0.2398727536201477, 0.28694605827331543, -0.07330687344074249, -0.21332955360412598, -0.1850985884666443, -0.2434658408164978, 0.24222725629806519, -0.002208620309829712, -0.002017766237258911, -0.09197773039340973, -0.2810230851173401, -0.1449168175458908, 0.10079050064086914, -0.15302705764770508, -0.28360751271247864, 0.12406215071678162, 0.06212702393531799, -0.05669066309928894, -0.03387480974197388, -0.19533082842826843, -0.16544024646282196, -0.06594324111938477, 0.25898486375808716, -0.05579762160778046]
[0.20068609714508057, -0.1929984986782074, -0.16192199289798737, 0.10298281908035278, 0.04394721984863281, -0.10377119481563568, -0.17835426330566406, 0.21611714363098145, 0.1590818464756012, -0.04239758849143982, 0.23649847507476807, -0.24269142746925354, -0.029573708772659302, 0.1443680226802826, 0.17465558648109436, -0.2953398823738098, 0.028441667556762695, 0.008016705513000488, -0.10487312078475952, 0.17836353182792664, 0.14270776510238647, 0.14994537830352783, 0.10067671537399292, 0.21434348821640015, -0.28314608335494995, -0.2517458200454712, -0.0836656391620636, 0.06492361426353455]
[0.1827143430709839, 0.11509451270103455, 0.12544414401054382, 0.1809329390525818, -0.164345845580101, -0.11956071853637695, 0.07560354471206665, 0.2617235779762268, -0.11486390233039856, -0.008020520210266113, 0.23031210899353027, -0.1343965232372284, -0.05782322585582733, 0.219302237033844, -0.09700672328472137, -0.18626968562602997, 0.23353242874145508, 0.23116862773895264, -0.1557171642780304, -0.23860140144824982, -0.14998671412467957, -0.13488958775997162, 0.19444096088409424, 0.2392866611480713, -0.1747126579284668, 0.17652174830436707, -0.14675845205783844, 0.2158300280570984]
[0.44269436597824097, 0.20977966487407684, 0.34896039962768555, 0.15772469341754913, -0.19001352787017822, 0.2625977396965027, 0.051189012825489044, 0.1906040906906128, 0.22660864889621735, 0.13572539389133453, 0.2592150568962097, 0.39047354459762573, 0.5537512302398682, -0.3084433972835541, 0.16395993530750275, 0.40852096676826477, -0.2480137199163437, -0.3996155261993408, -0.0067380270920693874, 0.17015637457370758, 0.15686695277690887, 0.27510789036750793, 0.3241989016532898, 0.18102426826953888, 0.5468471050262451, -0.4474201500415802, -0.29290327429771423, 0.271815687417984]
[0.15046927332878113, 0.15496063232421875, -0.25162577629089355, 0.03709772229194641, -0.24026505649089813, 0.07319989800453186, 0.08820128440856934, 0.25885009765625, 0.09784173965454102, 0.27312952280044556, -0.003760784864425659, 0.13587793707847595, -0.20700415968894958, -0.22019243240356445, -0.29219961166381836, 0.24419355392456055, -0.28347301483154297, -0.2203238308429718, 0.08007529377937317, -0.10170166194438934, 0.06088829040527344, 0.19087353348731995, -0.2113676369190216, -0.08744935691356659, 0.10729560256004333, -0.04618525505065918, -0.04338616132736206, 0.10784697532653809]
[0.4429953098297119, 0.07903049141168594, 0.283128559589386, 0.059768807142972946, 0.3185875415802002, -0.19945821166038513, 0.5476838946342468, 0.14585667848587036, -0.29222407937049866, 0.2901431918144226, 0.024583932012319565, -0.03711807355284691, 0.5106507539749146, 0.04452117905020714, 0.26933228969573975, -0.03647635504603386, 0.0743672177195549, -0.1159752607345581, 0.20629741251468658, 0.20361413061618805, 0.30810266733169556, 0.03851329907774925, 0.22156699001789093, -0.3518627882003784, 0.5572563409805298, -0.5309697985649109, 0.10414814203977585, 0.3075059950351715]
[-0.0382910780608654, -0.07678242772817612, 0.0196079108864069, 0.30027714371681213, 0.19574686884880066, 0.14837037026882172, -0.23793423175811768, -0.13336139917373657, -0.2525750994682312, -0.004602381028234959, 0.050759077072143555, -0.0038051442243158817, -0.1467793732881546, -0.1999724805355072, -0.29782015085220337, -0.12152973562479019, -0.1483965665102005, -0.19146807491779327, 0.17198681831359863, 0.09057511389255524, 0.09293234348297119, -0.10130864381790161, -0.1557423174381256, -0.13563556969165802, -0.26069721579551697, 0.2614597678184509, -0.1926107257604599, 0.2937288284301758]
[0.015411198139190674, -0.038216352462768555, 0.1565455198287964, -0.2952778935432434, -0.013824880123138428, 0.24619048833847046, 0.1666129231452942, -0.1883055567741394, -0.1487082839012146, -0.19916248321533203, -0.2587619423866272, 0.10927823185920715, 0.2994384169578552, -0.23503521084785461, -0.08930163085460663, -0.2598983943462372, 0.15692958235740662, 0.11519062519073486, -0.1271001100540161, -0.23445644974708557, 0.02574235200881958, 0.016869813203811646, -0.19788643717765808, 0.24041515588760376, -0.19478163123130798, 0.07750889658927917, 0.29450708627700806, 0.20863884687423706]
[0.43614041805267334, 0.36306142807006836, 0.09786933660507202, -0.13019825518131256, 0.23195642232894897, 0.05105780437588692, 0.06574105471372604, 0.4474436640739441, -0.049502477049827576, 0.2443987876176834, 0.037807971239089966, 0.03851348161697388, 0.0641399398446083, -0.3173697292804718, 0.030492538586258888, -0.009086539037525654, -0.23410741984844208, 0.058217570185661316, -0.26917099952697754, 0.12128403782844543, 0.3016502559185028, 0.3583080470561981, 0.5731676816940308, 0.16459333896636963, 0.1865316480398178, 0.0013493685983121395, 0.07256058603525162, 0.2039276659488678]
[-0.29707247018814087, -0.09201748669147491, -0.2679363191127777, -0.07790648937225342, -0.15424466133117676, 0.03489556908607483, 0.21571379899978638, 0.121727854013443, 0.2328304648399353, 0.28062307834625244, -0.28272324800491333, -0.2648161053657532, 0.23888534307479858, 0.15856298804283142, -0.13775071501731873, 0.29076510667800903, -0.024910837411880493, -0.24575354158878326, 0.26431965827941895, -0.025644659996032715, 0.016742229461669922, -0.27213746309280396, 0.06743365526199341, -0.07904121279716492, -0.13794481754302979, -0.24825352430343628, -0.11434301733970642, -0.2778637707233429]
[-0.23741494119167328, 0.05558979883790016, -0.23885872960090637, -0.10532956570386887, 0.1446346640586853, -0.005940235685557127, -0.05273192748427391, 0.28736159205436707, 0.27847111225128174, -0.044228166341781616, -0.041320979595184326, -0.015354719944298267, 0.020485252141952515, 0.042743388563394547, -0.1139846071600914, -0.18370360136032104, -0.2829384505748749, -0.14283078908920288, 0.23449373245239258, -0.2724434733390808, 0.1302710324525833, 0.1831376701593399, -0.2710564136505127, -0.23620885610580444, -0.0030246293172240257, -0.03470708057284355, 0.02843010053038597, -0.10011165589094162]
[0.13025061786174774, 0.47234514355659485, 0.40344536304473877, -0.1256646066904068, -0.044715262949466705, 0.209587961435318, 0.5831188559532166, 0.5567946434020996, -0.19917742908000946, -0.05803203210234642, 0.24533358216285706, 0.4339521527290344, 0.5477534532546997, -0.23578934371471405, -0.007743745110929012, 0.45789024233818054, -0.3709859848022461, -0.15635766088962555, -0.006711357738822699, 0.20285801589488983, 0.07215995341539383, 0.05254639312624931, 0.4434148669242859, -0.35162192583084106, 0.23474815487861633, -0.11408168077468872, 0.11949913948774338, 0.202973872423172]
[0.26906007528305054, 0.45723727345466614, 0.3238312005996704, -0.24607352912425995, -0.1176435798406601, 0.006337266881018877, 0.3934648931026459, 0.05732640624046326, 0.0062834215350449085, 0.2594246566295624, 0.40291839838027954, 0.4009089469909668, 0.31839460134506226, -0.18436624109745026, -0.049825966358184814, 0.2568039000034332, -0.09453693777322769, 0.06537021696567535, -0.22487692534923553, 0.48422595858573914, 0.37418895959854126, 0.46443846821784973, 0.14800508320331573, -0.13613860309123993, 0.011929596774280071, -0.09448643028736115, 0.14898228645324707, -0.028507983312010765]
[0.21015077829360962, 0.25893867015838623, 0.27119481563568115, -0.23599028587341309, 0.07620882987976074, -0.19252914190292358, 0.20567065477371216, -0.027319371700286865, -0.06440746784210205, -0.040921926498413086, 0.28317946195602417, 0.2880868911743164, 0.08589178323745728, -0.17627480626106262, -0.14850959181785583, 0.03662636876106262, -0.1605880856513977, 0.2165946364402771, -0.03891342878341675, -0.2819683849811554, -0.20552094280719757, 0.20560866594314575, -0.2187962532043457, -0.29555925726890564, 0.13317087292671204, 0.013821661472320557, -0.10782893002033234, 0.06632697582244873]
[0.4008878469467163, 0.17874671518802643, 0.01784418895840645, -0.02970195934176445, -0.048304833471775055, 0.23162242770195007, 0.2982729971408844, 0.1903773546218872, 0.18374155461788177, 0.09371962398290634, 0.38501906394958496, 0.2737705707550049, -0.0011675840942189097, 0.0361570306122303, 0.1614588350057602, 0.47728630900382996, 0.06520391255617142, 0.09924395382404327, 0.09085801988840103, 0.2807837128639221, -0.018853923305869102, 0.07055103778839111, 0.34371769428253174, 0.16608665883541107, 0.3204021453857422, -0.1539393663406372, 0.0005434116465039551, -0.020497558638453484]
[0.08176260441541672, 0.06400785595178604, -0.13456928730010986, -0.2205725610256195, -0.13205686211585999, 0.06274455785751343, 0.16335465013980865, 0.23336775600910187, 0.2715981602668762, 0.21945880353450775, -0.1322493553161621, 0.2566336989402771, -0.15965698659420013, -0.23536145687103271, -0.018670015037059784, -0.1990729421377182, -0.2997930943965912, -0.22244788706302643, -0.20610958337783813, 0.22602397203445435, 0.19291472434997559, 0.25369012355804443, 0.16877134144306183, -0.2092195749282837, -0.03587563708424568, 0.12346568703651428, 0.2711676061153412, -0.10364272445440292]
[-0.12714575231075287, 0.15934395790100098, 0.1351383924484253, 0.22409307956695557, -0.015176981687545776, 0.22639209032058716, -0.20750299096107483, -0.10493458807468414, 0.07267630100250244, -0.07751859724521637, 0.07765123248100281, -0.034338176250457764, 0.022394180297851562, -0.22420832514762878, 0.24460726976394653, 0.1492730975151062, -0.1952807903289795, -0.2027672827243805, -0.2897682189941406, 0.1483648121356964, -0.17885926365852356, 0.09762221574783325, 0.22282540798187256, -0.2877099812030792, 0.2941558361053467, -0.01588958501815796, -0.27625855803489685, 0.27571165561676025]
[-0.19208195805549622, 0.29326021671295166, -0.039309144020080566, -0.15160061419010162, -0.2557760179042816, -0.002520322799682617, 0.2582693099975586, -0.2376801073551178, -0.24845127761363983, -0.06821979582309723, 0.13063350319862366, -0.07019191980361938, -0.0931256115436554, 0.20540887117385864, -0.25948426127433777, -0.20368698239326477, 0.031208902597427368, 0.28555119037628174, -0.1933266520500183, -0.11376506090164185, 0.039158135652542114, -0.26057204604148865, -0.20939558744430542, 0.04843750596046448, -0.29937705397605896, 0.10143157839775085, 0.031997859477996826, 0.02034592628479004]
[0.057010356336832047, 0.14346955716609955, -0.06470747292041779, 0.13217611610889435, 0.15486979484558105, -0.05799788609147072, 0.28862372040748596, 0.23871684074401855, -0.2534773349761963, 0.012328079901635647, 0.3329348564147949, 0.3180587887763977, 0.021263431757688522, -0.2688077390193939, -0.11056462675333023, 0.4795924127101898, 0.03313213959336281, -0.14826111495494843, -0.17444680631160736, 0.25575241446495056, 0.3710816502571106, 0.023287074640393257, 0.20893017947673798, -0.10374655574560165, 0.19829532504081726, -0.052435941994190216, -0.09373847395181656, -0.0983487144112587]
[0.26250386238098145, -0.03688330575823784, -0.01743631809949875, -0.03536174073815346, 0.21591728925704956, 0.023344963788986206, 0.17110542953014374, 0.3862244188785553, 0.08950646966695786, 0.3533015251159668, 0.41403788328170776, 0.3129305839538574, 0.3507668972015381, -0.1959652453660965, 0.15766604244709015, 0.05507120117545128, -0.044756148010492325, 0.04608180746436119, -0.08343885093927383, 0.3811401426792145, 0.06991840153932571, 0.11128592491149902, 0.5154193639755249, 0.16228066384792328, 0.0019644475542008877, -0.03752298653125763, -0.06206445023417473, 0.25137630105018616]
[0.17212706804275513, 0.03088909201323986, 0.3742309808731079, -0.049137238413095474, 0.3380020260810852, 0.020955495536327362, 0.5058910250663757, 0.07706469297409058, 0.11189203709363937, 0.3768588900566101, 0.05407935008406639, 0.4046395421028137, 0.16985400021076202, -0.22870583832263947, -0.049017973244190216, 0.2260354608297348, -0.2535485029220581, 0.05817612633109093, -0.13822855055332184, 0.04749118164181709, 0.3118002414703369, 0.2681499421596527, 0.3693327307701111, -0.11478700488805771, 0.2907615900039673, -0.5408928990364075, -0.13266560435295105, -0.25304415822029114]
[0.043773114681243896, -0.17955058813095093, 0.2276405692100525, 0.21970081329345703, -0.14430715143680573, -0.29498404264450073, 0.0740460753440857, -0.09991788864135742, 0.26025092601776123, 0.01373982708901167, 0.0868690013885498, -0.2888399362564087, -0.014709234237670898, -0.1415439248085022, -0.21435903012752533, 0.09160393476486206, -0.08242566883563995, 0.16513335704803467, 0.2400544285774231, 0.23031336069107056, 0.09609046578407288, -0.2657744884490967, 0.26318466663360596, 0.02866572141647339, 0.250400185585022, -0.08508695662021637, -0.05259403586387634, -0.05561266839504242]
[0.5252806544303894, 0.4045077860355377, -0.09961119294166565, -0.06511612981557846, -0.15760108828544617, -0.12437526136636734, 0.3102559745311737, 0.13648289442062378, -0.178077831864357, 0.18864113092422485, 0.22201290726661682, 0.4287791848182678, -0.028254523873329163, -0.3555430471897125, 0.13132552802562714, 0.05700695142149925, -0.09737250953912735, -0.1600715070962906, -0.16514725983142853, 0.14172352850437164, 0.060128286480903625, 0.24354124069213867, 0.570980429649353, -0.11535859853029251, 0.06381724029779434, -0.30739569664001465, 0.02977924607694149, -0.17663967609405518]
[0.05567469820380211, 0.5032072067260742, -0.12411268055438995, 0.2748216688632965, 0.08763471245765686, 0.15339410305023193, 0.2294883280992508, 0.42374613881111145, -0.12082023173570633, 0.37009119987487793, 0.4226493835449219, 0.22894972562789917, 0.3707566261291504, -0.023587822914123535, 0.21336649358272552, 0.47754165530204773, -0.14240644872188568, 0.13097955286502838, -0.3336428701877594, 0.4822390377521515, 0.2756991684436798, -0.021281683817505836, 0.4979139566421509, 0.06763722747564316, 0.48306208848953247, -0.12959662079811096, 0.13123884797096252, 0.014034029096364975]
[0.5147795081138611, 0.27148106694221497, 0.3769477605819702, 0.1887761801481247, -0.05267290025949478, 0.0501381941139698, 0.3777868449687958, 0.2635078728199005, 0.17099620401859283, 0.43160974979400635, 0.23109668493270874, 0.014971358701586723, 0.18258671462535858, -0.3361837565898895, 0.31690943241119385, 0.490596204996109, 0.03148263320326805, 0.12017475068569183, -0.2830316722393036, 0.28347882628440857, -0.024321792647242546, 0.13078787922859192, 0.30395442247390747, -0.22640056908130646, 0.5520538091659546, -0.42418983578681946, -0.2797790467739105, -0.02929913066327572]
[0.2697904407978058, 0.296808123588562, 0.11180846393108368, -0.06567328423261642, -0.021017884835600853, -0.25660985708236694, 0.16434164345264435, 0.07186594605445862, 0.13881419599056244, 0.23100551962852478, 0.0002324666129425168, 0.1306513249874115, 0.049096208065748215, -0.27684763073921204, 0.19552548229694366, 0.44910839200019836, -0.17098717391490936, -0.22715620696544647, 0.08677033334970474, 0.008890648372471333, 0.1645733267068863, 0.3646509349346161, 0.0623616985976696, 0.06942106038331985, 0.2526942789554596, -0.5647251009941101, -0.31474569439888, -0.036827996373176575]
[0.21457093954086304, 0.49461057782173157, 0.324909508228302, 0.05747764930129051, -0.2036164104938507, 0.07261975854635239, 0.16999949514865875, 0.16913792490959167, -0.3094484210014343, 0.06689567118883133, 0.4683369994163513, -0.07594113796949387, 0.5486501455307007, -0.35303738713264465, -0.03698758780956268, 0.4486929476261139, 0.04770397022366524, 0.08821308612823486, 0.09868278354406357, 0.11136580258607864, 0.053290821611881256, 0.064344123005867, 0.010228493250906467, 0.1807156354188919, 0.03127845376729965, -0.20861592888832092, 0.05810019001364708, 0.29639944434165955]
[0.033393532037734985, -0.2882944643497467, 0.07157722115516663, -0.1415739804506302, -0.09300260245800018, -0.2747375965118408, -0.13449688255786896, -0.13857008516788483, -0.07614938914775848, -0.19339796900749207, -0.08055649697780609, 0.11134615540504456, 0.023129582405090332, 0.04206210374832153, 0.10004311800003052, 0.26161813735961914, -0.10666114091873169, 0.06849893927574158, 0.003409832715988159, 0.27211499214172363, -0.07110084593296051, 0.04039406776428223, 0.11850428581237793, 0.2966095209121704, 0.11208602786064148, -0.14599575102329254, -0.09339998662471771, -0.10293018817901611]
[0.08497676253318787, -0.11159934103488922, -0.18601685762405396, 0.03877383470535278, 0.26802343130111694, -0.17798389494419098, 0.060538291931152344, 0.20015090703964233, -0.18749821186065674, 0.08436119556427002, 0.0792742669582367, -0.2651037871837616, 0.14577406644821167, 0.003085196018218994, 0.11980634927749634, -0.09351925551891327, 0.2598029375076294, 0.08685916662216187, -0.25329726934432983, -0.13433153927326202, -0.15341825783252716, -0.25550493597984314, -0.07166874408721924, -0.20860370993614197, 0.16969802975654602, 0.2724597454071045, -0.026313036680221558, -0.27027419209480286]
[-0.23853448033332825, 0.014468550682067871, -0.14844799041748047, -0.16837145388126373, -0.011395364999771118, 0.04569414258003235, 0.2921769618988037, -0.20873165130615234, 0.0016495585441589355, -0.02989676594734192, 0.012489885091781616, 0.19052669405937195, -0.10381302237510681, 0.22737550735473633, -0.08484600484371185, 0.04267808794975281, 0.1948087215423584, -0.2760927081108093, 0.11669376492500305, 0.026794612407684326, -0.2885099947452545, -0.034319132566452026, 0.042230963706970215, -0.2344362586736679, -0.038335949182510376, 0.11909905076026917, -0.03394538164138794, 0.10852724313735962]

[0.46644827723503113, 0.2887585759162903, 0.2623113691806793, 0.3424171507358551, -0.287936806678772, 0.2754778265953064, 0.3054114580154419, 0.3459358811378479, 0.4059664011001587, -0.3452197015285492, 0.2824588119983673, 0.23058339953422546, 0.3168036639690399, 0.44148558378219604, -0.32797983288764954, 0.48101693391799927, -0.2439051866531372, 0.3452182710170746]
[0.48359453678131104, 0.45387858152389526, 0.26583245396614075, 0.688647449016571, -0.5362663865089417, 0.008727972395718098, 0.5973706841468811, 0.6206713318824768, 0.5082929730415344, -0.25706785917282104, 0.48275521397590637, 0.14131565392017365, 0.435352623462677, 0.6466197967529297, -0.24388113617897034, 0.28632405400276184, -0.34026843309402466, 0.24989129602909088]
[0.7076470851898193, 0.5920116901397705, 0.2667280435562134, 0.0482727512717247, -0.007088618353009224, 0.37279683351516724, 0.43483826518058777, 0.3824530839920044, 0.4236361086368561, -0.27213743329048157, 0.6483212113380432, 0.4863184690475464, 0.4226815104484558, 0.10089537501335144, -0.6923308968544006, 0.7919552326202393, -0.3324376344680786, 0.7195143103599548]
[0.7242316007614136, 0.29718098044395447, 0.4992668926715851, 0.03583503141999245, 0.0657443180680275, 0.21640454232692719, 0.4967464208602905, 0.3201843202114105, 0.5940526723861694, -0.4751230776309967, 0.4797987639904022, -0.03411649540066719, 0.1726679652929306, 0.7362656593322754, -0.34816041588783264, 0.791736900806427, -0.07562010735273361, 0.0265149287879467]
[0.2657493054866791, 0.25956735014915466, 0.030461030080914497, 0.10480330884456635, 0.009524947963654995, 0.1405215859413147, 0.5378658771514893, 0.6301474571228027, 0.33043715357780457, -0.5783937573432922, 0.27887630462646484, -0.012565072625875473, 0.4934130012989044, 0.5920776128768921, -0.5154527425765991, 0.5997881293296814, -0.1386924535036087, 0.4182548224925995]
[0.12511131167411804, 0.4957493841648102, 0.3980810344219208, 0.6281100511550903, -0.5307397246360779, 0.17563602328300476, 0.11774834245443344, 0.5859666466712952, -0.036994919180870056, -0.02929145283997059, 0.28513771295547485, 0.06673076748847961, 0.40888503193855286, 0.158971905708313, -0.1411106437444687, 0.4487849175930023, -0.4353157579898834, 0.46943098306655884]
[0.15132158994674683, 0.2272493839263916, 0.19417771697044373, 0.3250403106212616, -0.33771035075187683, 0.1213575080037117, 0.0009664870449341834, 0.1995312124490738, 0.5180111527442932, -0.25755515694618225, 0.39241576194763184, 0.299145370721817, 0.5147882103919983, 0.2949780523777008, -0.11088205128908157, 0.31195497512817383, -0.2657296359539032, 0.190721333026886]
[0.7986646294593811, 0.6523914337158203, 0.5327643752098083, 0.6729963421821594, -0.5947076678276062, 0.4589463472366333, 0.3213804066181183, 0.2888749837875366, 0.42275023460388184, -0.060757409781217575, 0.3361091613769531, -0.11101601272821426, 0.4753510355949402, 0.6550081372261047, -0.08170595020055771, 0.2137497067451477, -0.2896828055381775, 0.5604909658432007]
[0.23451367020606995, 0.47016528248786926, 0.6376165747642517, 0.2817173898220062, -0.1509276032447815, 0.3967602252960205, 0.3550156354904175, 0.2069646269083023, 0.03922265022993088, 0.05931935831904411, 0.480154424905777, 0.632209837436676, 0.5438031554222107, 0.20747040212154388, -0.38030073046684265, 0.6087037324905396, -0.4086734354496002, 0.1955658197402954]
[0.11099047213792801, 0.1455204039812088, 0.5369734764099121, 0.13258466124534607, -0.4370661675930023, 0.42174938321113586, 0.018906230106949806, 0.35738205909729004, 0.150262713432312, -0.4403471052646637, 0.5328543782234192, -0.1292429119348526, 0.4608185291290283, 0.3827477693557739, 0.1470184624195099, -0.1070200577378273, -0.29229018092155457, 0.05813164636492729]
[0.30507442355155945, 0.508459210395813, 0.5299219489097595, 0.15286824107170105, -0.39931970834732056, 0.004813295789062977, 0.6182532906532288, 0.41875529289245605, 0.19114863872528076, -0.3603030741214752, 0.10661279410123825, 0.473291277885437, 0.004635114222764969, 0.6744257807731628, -0.31029433012008667, 0.715660035610199, -0.2552502453327179, 0.02529262751340866]
[0.6455186605453491, 0.338826060295105, 0.4412912130355835, 0.42661362886428833, -0.5024161338806152, 0.5576462149620056, 0.07512287050485611, 0.3782597780227661, 0.23555898666381836, -0.4213668704032898, 0.3160303831100464, 0.14624112844467163, 0.15857169032096863, 0.2894309461116791, -0.646067202091217, 0.6547452807426453, -0.4484722912311554, -0.012512710876762867]
[0.41397178173065186, -0.008777535520493984, 0.12894105911254883, 0.6493142247200012, -0.5023820996284485, 0.0985807552933693, 0.3020796477794647, 0.6480087637901306, 0.3802725374698639, -0.09681344032287598, -0.017627153545618057, 0.2560950815677643, 0.5051629543304443, 0.3780958950519562, -0.20118559896945953, 0.7322341203689575, -0.5308165550231934, 0.17859835922718048]
[0.14502578973770142, 0.21785902976989746, 0.2132113128900528, 0.44055676460266113, -0.3362926244735718, 0.5881688594818115, 0.21483448147773743, 0.38323161005973816, 0.38371577858924866, -0.12570969760417938, 0.5074186325073242, 0.3554917275905609, 0.5098251700401306, 0.7953095436096191, -0.03121810033917427, 0.6095276474952698, -0.546679675579071, 0.6512972712516785]
[0.5254935026168823, 0.40714186429977417, -0.14048440754413605, -0.08036394417285919, -0.14634576439857483, 0.23714613914489746, 0.38172435760498047, 0.3183647692203522, 0.03732987493276596, -0.022448241710662842, -0.12314286828041077, -0.0737762376666069, -0.17810454964637756, -0.021650156006217003, -0.4721790552139282, 0.34620052576065063, -0.11627312004566193, -0.0042929924093186855]
[0.12458738684654236, 0.20005157589912415, 0.45587196946144104, 0.03566773980855942, -0.15455131232738495, 0.5020132064819336, 0.07385583221912384, 0.44670340418815613, 0.1801084578037262, -0.29770299792289734, 0.018873795866966248, 0.10982393473386765, 0.0967179536819458, 0.18678253889083862, -0.5783777236938477, 0.7863460183143616, -0.4133624732494354, 0.4824932813644409]
[0.14220358431339264, 0.17116349935531616, 0.12395113706588745, 0.6867913603782654, 0.004895634949207306, 0.08652675151824951, 0.42088326811790466, 0.38335224986076355, 0.7030659317970276, -0.5973886847496033, 0.15710559487342834, -0.08983178436756134, 0.5906612277030945, 0.34538766741752625, -0.30684101581573486, 0.17382223904132843, -0.43932828307151794, 0.22136877477169037]
[0.6326904892921448, 0.21247956156730652, 0.29791805148124695, 0.18871256709098816, -0.22725088894367218, -0.09825638681650162, 0.11438211053609848, 0.25063326954841614, 0.4007200300693512, -0.11370836198329926, -0.014493349939584732, 0.040670547634363174, 0.3724665343761444, 0.30622053146362305, -0.30132120847702026, 0.16909873485565186, 0.16306336224079132, -0.015909863635897636]
[0.1465880125761032, 0.1412939429283142, 0.2102779895067215, 0.14433789253234863, -0.3831014931201935, -0.051494698971509933, -0.11511369049549103, 0.19919677078723907, 0.5602468252182007, 0.11541334539651871, 0.2984670400619507, 0.17734602093696594, 0.1827072650194168, 0.4208504259586334, -0.4393250048160553, 0.6215465664863586, 0.14768902957439423, 0.42145460844039917]
[0.22712735831737518, -0.07888524979352951, 0.3362433910369873, 0.5461874008178711, -0.2266698032617569, 0.17166517674922943, 0.3331129252910614, 0.08964180946350098, 0.48500144481658936, 0.04933588206768036, 0.5633799433708191, 0.18101759254932404, -0.1068253442645073, 0.5576597452163696, -0.22716103494167328, 0.24651481211185455, 0.04653749614953995, -0.018047703430056572]
[0.17904271185398102, 0.6547801494598389, 0.4081187844276428, 0.12378980219364166, -0.3052148222923279, 0.3740164339542389, 0.11713292449712753, 0.6885999441146851, 0.1650303304195404, -0.07294174283742905, 0.689551591873169, 0.59409499168396, 0.25521162152290344, 0.5316234230995178, -0.4189727306365967, 0.18376462161540985, -0.5527380108833313, 0.7403664588928223]
[0.6321020126342773, 0.3408440947532654, 0.3122384250164032, 0.3145001530647278, -0.5500075817108154, 0.11238569021224976, 0.08989822119474411, 0.6707941293716431, 0.4942120611667633, -0.5035645961761475, 0.5070717930793762, 0.18651075661182404, 0.3810458779335022, 0.3022811710834503, -0.6035704612731934, 0.2969972491264343, -0.5599789023399353, 0.05693651735782623]
[0.37894177436828613, 0.171118825674057, 0.28938180208206177, 0.8238538503646851, -0.21118049323558807, 0.24490992724895477, 0.44921454787254333, 0.494547039270401, 0.41671493649482727, 0.39032843708992004, 0.6515894532203674, 0.6433275938034058, 0.37109920382499695, 0.5028285384178162, 0.15271338820457458, 0.3336162567138672, -0.174277663230896, 0.5905138254165649]
[0.7629061937332153, 0.595073938369751, 0.13339801132678986, 0.5346586108207703, -0.6146879196166992, 0.5280906558036804, -0.0394529327750206, 0.039742372930049896, 0.6649972200393677, -0.6797810196876526, 0.5699200630187988, 0.48650816082954407, 0.6201359629631042, 0.4024852514266968, -0.4056842625141144, 0.8118232488632202, -0.5642769932746887, 0.6550334692001343]
[0.7320888042449951, 0.06778500229120255, -0.06000224128365517, 0.20786947011947632, -0.23109929263591766, 0.26597660779953003, 0.040428850799798965, 0.15022508800029755, 0.2858961820602417, -0.6604647636413574, 0.09818270802497864, -0.09092701226472855, -0.01686358079314232, 0.5392944812774658, -0.3842708468437195, 0.4208240211009979, -0.519658625125885, 0.2746296226978302]
[0.7047020792961121, 0.5498498678207397, 0.17817966639995575, 0.326504647731781, -0.6304704546928406, 0.01932576857507229, 0.37252894043922424, 0.3280925154685974, 0.07656723260879517, -0.622441291809082, 0.35132119059562683, 0.24269254505634308, -0.0636105090379715, 0.18948741257190704, -0.478321373462677, 0.35862404108047485, -0.54586261510849, 0.4760366380214691]
[0.3606181740760803, -0.1320851892232895, 0.17023643851280212, -0.05171659588813782, -0.3681305944919586, 0.22673435509204865, -0.028184115886688232, -0.07302872091531754, 0.08005021512508392, 0.16323347389698029, 0.42277464270591736, 0.13182692229747772, -0.19680611789226532, 0.28444594144821167, 0.07009350508451462, -0.0984257310628891, 0.17301161587238312, -0.03819933533668518]
[0.31326398253440857, 0.02105981484055519, 0.06738849729299545, -0.020850853994488716, -0.2663695216178894, 0.5500343441963196, 0.19771581888198853, 0.5154613256454468, 0.0691058412194252, -0.4930865168571472, 0.05162786319851875, 0.13208584487438202, 0.5664562582969666, 0.2658883333206177, -0.2541317939758301, 0.09289227426052094, -0.6194543838500977, 0.27833354473114014]
[0.14403913915157318, 0.2623221278190613, 0.42345499992370605, 0.20545269548892975, -0.043781764805316925, 0.22613395750522614, 0.09800548851490021, 0.24637764692306519, 0.43114718794822693, -0.41975581645965576, 0.4373018145561218, 0.027230650186538696, 0.5507500171661377, 0.5951253175735474, -0.012435232289135456, 0.06369438767433167, -0.4370504915714264, 0.08637376129627228]

[-0.3867059051990509, 0.5807281732559204, -0.5414561629295349, 0.5557263493537903, 0.48868125677108765, 0.6072043180465698, 0.5110001564025879, -0.8130875825881958, -0.6596670150756836, -0.493988960981369, -0.8393242955207825, 0.7303479909896851, -0.7987157702445984, 0.5618763566017151, 0.6226106882095337, -0.6901412010192871, 0.4338420629501343, 0.5682483911514282, -0.4855659008026123, -0.5326945781707764, -0.778580367565155, -0.6873916983604431, 0.5685988664627075, -0.7072445154190063, -0.6660235524177551, 0.6838791966438293, 0.8229513168334961, -0.5625563263893127]
[-0.3432271182537079, 0.6992592811584473, -0.2759281396865845, 0.8256656527519226, 0.2787410318851471, 0.5317049622535706, 0.8367841839790344, -0.9060824513435364, -0.6746574640274048, -0.3833102881908417, -0.9588274359703064, 0.757955014705658, -1.0395084619522095, 0.40621280670166016, 0.4984946548938751, -0.6812589764595032, 0.7790741920471191, 0.5104448199272156, -0.19941064715385437, -0.6822890043258667, -1.0425362586975098, -0.7980456948280334, 0.8563004732131958, -0.9589701890945435, -0.827448308467865, 0.47763732075691223, 0.5073357820510864, -0.33392876386642456]
[-0.18660451471805573, 0.6394475102424622, -0.5813727378845215, 0.8248547911643982, 0.4918332099914551, 0.4710199236869812, 0.5642220377922058, -0.5675811171531677, -0.9318642020225525, -0.3059483468532562, -0.6363431215286255, 0.5029073357582092, -0.6855294704437256, 0.9439389109611511, 0.7909906506538391, -0.9445467591285706, 0.7471814751625061, 0.6687313318252563, -0.35308128595352173, -0.7716361880302429, -0.6946465373039246, -0.6178367733955383, 0.34958070516586304, -0.8330392837524414, -0.43227872252464294, 0.49675461649894714, 0.9195103049278259, -0.5263496041297913]
[-0.5070861577987671, 0.48528343439102173, -0.2560580372810364, 0.7346487641334534, 0.5876295566558838, 0.6465906500816345, 0.775677502155304, -0.5143700242042542, -0.5545494556427002, -0.7648798823356628, -0.5240706205368042, 0.8744429349899292, -0.823811948299408, 0.748629629611969, 0.6107460856437683, -0.8654966950416565, 0.6572421193122864, 0.4973008930683136, -0.7960618138313293, -0.2786462604999542, -0.7259775400161743, -0.6642326712608337, 0.8518666625022888, -1.067274570465088, -0.5777351260185242, 0.8869115114212036, 0.7085467576980591, -0.2325996458530426]
[-0.5476513504981995, 0.9541410207748413, -0.21487729251384735, 0.860435426235199, 0.766680121421814, 1.0347273349761963, 0.5484278798103333, -0.8113653063774109, -0.5068377256393433, -0.3494362235069275, -1.1208670139312744, 0.5938401818275452, -0.7697747945785522, 0.7637328505516052, 0.6018331050872803, -0.2848842740058899, 0.8355627655982971, 0.32573574781417847, -0.5246360898017883, -0.3942117691040039, -0.8524678349494934, -0.8149070739746094, 0.5062819123268127, -0.29441502690315247, -0.7715563178062439, 0.9294530153274536, 1.1529215574264526, -0.20729248225688934]
[0.05227970331907272, 0.3030939996242523, -0.561319887638092, -0.10778864473104477, -0.07723438739776611, 0.23396742343902588, 0.3641602396965027, -0.3127414286136627, 0.041390784084796906, -0.16637413203716278, -0.7263632416725159, -0.013865458779036999, -0.30522966384887695, 0.799403190612793, 0.7392686009407043, -0.20527762174606323, 0.11281871050596237, 0.44498351216316223, -0.014121009036898613, -0.055546846240758896, -0.3591447174549103, 0.009959735907614231, 0.6790336966514587, -0.6536290645599365, -0.3276928961277008, 0.23107081651687622, 0.2824392020702362, -0.5530630350112915]
[-0.5467001795768738, 0.18227145075798035, -0.42427316308021545, 0.19881081581115723, 0.17840272188186646, 0.7856982350349426, 0.44098904728889465, -0.5044719576835632, -0.5601828694343567, -0.467508465051651, -0.9173026084899902, 1.165513515472412, -1.2003493309020996, 0.353994220495224, 0.47459539771080017, -0.5328822731971741, 0.26868897676467896, 0.13367606699466705, -0.8383492827415466, -0.29792261123657227, -0.918853223323822, -1.0988633632659912, 0.3651427924633026, -0.9703698754310608, -0.99423748254776, 0.4161451756954193, 0.41835102438926697, -0.3293572962284088]
[-0.5169039368629456, 0.7844461798667908, -0.36080649495124817, 0.28377148509025574, 0.4629945755004883, 0.47559109330177307, 0.617768406867981, -0.48368003964424133, -0.9070569276809692, -0.177100270986557, -0.7928780317306519, 0.6633980870246887, -0.7665318846702576, 0.4488835036754608, 0.4977883994579315, -0.5112556219100952, 0.3566059470176697, 0.7969954013824463, -0.6841656565666199, -0.40116408467292786, -0.7051429152488708, -0.8472604751586914, 0.8406901359558105, -0.33672311902046204, -0.7671331167221069, 0.4592711627483368, 1.0110596418380737, -0.40308162569999695]
[-0.15291619300842285, 0.8642717599868774, -0.5007787346839905, 0.4200363755226135, 0.5120263695716858, 0.657745361328125, 0.2528258264064789, -0.7918642163276672, -0.4716145992279053, -0.17489011585712433, -0.6504213809967041, 1.0624897480010986, -0.9365618228912354, 0.6959636211395264, 0.4918331503868103, -0.9761393666267395, 0.6940158009529114, 0.2724214196205139, -0.35165825486183167, -0.5713462233543396, -0.8215641975402832, -0.8542314171791077, 0.8032851815223694, -0.7399682998657227, -0.5705500245094299, 0.339438796043396, 0.7080463171005249, -0.6612840294837952]
[0.017399808391928673, 0.9450145363807678, -0.4086337387561798, 0.6727519035339355, 0.5627101063728333, 0.8377650380134583, 0.6170055270195007, -0.5430103540420532, -0.6002877354621887, -0.25530511140823364, -0.6987456679344177, 0.46207842230796814, -0.8519289493560791, 0.5538254976272583, 0.8902463316917419, -0.7869035601615906, 0.3468417227268219, 0.5644658207893372, -0.23325295746326447, -0.6572855114936829, -0.9760617017745972, -0.9701400399208069, 0.35932692885398865, -0.9426424503326416, -0.7553155422210693, 0.8576124906539917, 0.7142369747161865, -0.37951087951660156]
[-0.15027260780334473, 0.7306747436523438, -0.7424565553665161, 0.20725560188293457, 0.5520877838134766, 0.12944485247135162, 0.08004462718963623, -0.704697847366333, 0.06383395195007324, -0.1290825754404068, -0.8531306982040405, 0.42317378520965576, -0.5762733221054077, 0.36619123816490173, 0.0877906084060669, -0.17893142998218536, -0.057447053492069244, 0.14223450422286987, -0.3765498399734497, -0.14668767154216766, -0.4187512993812561, -0.5641783475875854, 0.14903777837753296, -0.5026845335960388, -0.5712165832519531, 0.5959802269935608, 0.5201579332351685, -0.6018582582473755]
[-0.5258769989013672, 0.22616656124591827, -0.5383729338645935, 0.47540193796157837, 0.33896520733833313, 0.3996340334415436, 0.6618642807006836, -1.0761983394622803, -0.8285931348800659, -0.39180880784988403, -0.5602970123291016, 1.0151045322418213, -0.562279999256134, 0.7854442596435547, 0.6628405451774597, -0.8641379475593567, 0.592077374458313, 0.6638999581336975, -0.23471307754516602, -0.41687220335006714, -0.504163920879364, -0.6071716547012329, 0.4546315371990204, -0.8492736220359802, -0.3553066849708557, 0.36867982149124146, 1.0384845733642578, -0.6430565118789673]
[-0.5580775737762451, 0.4348832070827484, -0.5150853991508484, 0.7742966413497925, 0.49540072679519653, 0.583608865737915, 0.6641613245010376, -0.8580547571182251, -1.0208083391189575, -0.4337173402309418, -0.47621530294418335, 0.706885576248169, -0.39153116941452026, 0.3811797797679901, 0.46930190920829773, -0.8532567620277405, 0.48580724000930786, 0.38023844361305237, -0.6370247006416321, -0.19420775771141052, -0.7136746644973755, -0.2760114371776581, 0.3598245084285736, -1.0661040544509888, -0.5194413065910339, 0.32457447052001953, 0.5723890662193298, -0.9068952202796936]
[-0.4757383167743683, 0.6417183876037598, -0.322338730096817, 0.2777828574180603, 0.7481986284255981, 0.6206735372543335, 0.38945379853248596, -0.6286985278129578, -0.825320303440094, -0.3438599705696106, -0.891921877861023, 0.8254771828651428, -0.6679178476333618, 0.8845407366752625, 0.3624943494796753, -0.9186599850654602, 0.574097752571106, 0.9112741351127625, -0.6053107380867004, -0.21172715723514557, -0.6102326512336731, -0.7183811664581299, 0.4625592827796936, -0.7233844995498657, -0.8268592357635498, 0.680927574634552, 0.5660412311553955, -0.3179105520248413]
[-0.22257676720619202, 0.5482823848724365, -0.304643452167511, 0.6145563721656799, 0.8295781016349792, 0.8377715349197388, 0.49483585357666016, -0.5315960645675659, -0.9079003930091858, -0.34722647070884705, -0.7948657274246216, 0.6298878788948059, -0.9221863746643066, 0.39846232533454895, 0.8424288034439087, -1.0244320631027222, 0.35205188393592834, 0.943701446056366, -0.35643959045410156, -0.26821690797805786, -0.5387873649597168, -0.5913631319999695, 0.4903806149959564, -0.47095394134521484, -1.0161665678024292, 0.9423074722290039, 0.8697395920753479, -0.5127546191215515]
[0.1489916294813156, 0.7957372069358826, -0.029365817084908485, 0.07511896640062332, 0.02099170908331871, 0.15400633215904236, 0.13448205590248108, -0.2045263797044754, -0.37648019194602966, 0.08399306237697601, -0.14260518550872803, 0.059152036905288696, -0.009269969537854195, 0.3670364320278168, 0.08444660156965256, -0.14049114286899567, 0.32714542746543884, 0.2425958663225174, -0.35363128781318665, -0.2775381803512573, -0.14718343317508698, -0.4105249345302582, 0.1686808168888092, -0.1275145411491394, 0.06721106916666031, 0.6105402112007141, 0.4784691035747528, -0.5439170002937317]
[-0.5264296531677246, 0.4941411316394806, -0.5012949109077454, 0.8552373647689819, 0.7657696604728699, 0.45795291662216187, 0.8801361322402954, -0.6929750442504883, -0.924384355545044, -0.4657212197780609, -0.8873459696769714, 0.7646607160568237, -0.4658168852329254, 0.7330893874168396, 0.8686532378196716, -0.7457984685897827, 0.40858954191207886, 0.6021887063980103, -0.21330681443214417, -0.5769080519676208, -0.7177779078483582, -0.7384824156761169, 0.5604390501976013, -0.9236607551574707, -0.5321653485298157, 0.9623474478721619, 0.8701245784759521, -0.4133891463279724]
[-0.026959624141454697, 0.6602146625518799, 0.10138420015573502, 0.3589639365673065, 0.387888103723526, 0.3375289738178253, -0.14703576266765594, 0.14462311565876007, -0.21932508051395416, -0.29960277676582336, -0.026906507089734077, -0.27797695994377136, -0.051322415471076965, 0.4345282316207886, 0.4416789710521698, 0.03563782200217247, 0.12251126766204834, 0.12092889845371246, -0.2050972431898117, 0.10068803280591965, 0.05407661572098732, -0.13310405611991882, 0.02541796676814556, 0.10105688869953156, -0.28838732838630676, 0.2792777419090271, 0.22253063321113586, 0.12240508198738098]
[-0.5946816205978394, 1.094763994216919, -0.8638780117034912, 0.8418514728546143, 0.8246784210205078, 0.5932402014732361, 0.8896393775939941, -1.068110704421997, -0.8502903580665588, -0.6535282135009766, -0.9087600111961365, 0.4797366261482239, -0.4825424551963806, 0.5966870784759521, 0.5286495089530945, -0.2679981291294098, 0.3713115155696869, 0.6176751852035522, -0.24858419597148895, -0.31416013836860657, -0.9267991185188293, -0.7842332720756531, 0.5676255226135254, -0.3807945251464844, -0.2096765786409378, 0.7536938786506653, 1.2241456508636475, -0.24435633420944214]

[0.7037876844406128, -0.9100651144981384, 0.8941497802734375, -1.0332587957382202, -0.9271811842918396, -0.9469434022903442, 0.6703184843063354, -1.0152182579040527, -1.0062998533248901, -1.0364092588424683, -1.044521689414978, -0.9942020177841187, -0.9616795778274536, -0.9141808748245239, -1.0808842182159424, -1.0598000288009644, 0.7858030200004578, -1.0432031154632568, -1.0965056419372559, -1.0521788597106934, 0.7415510416030884, -1.0202348232269287, -1.0090553760528564, -0.959408164024353, -1.0560963153839111, -0.994756817817688, -0.9741910099983215, -1.0001050233840942, -0.9356285929679871, -0.9858103394508362, -0.9534792900085449, -1.0100085735321045, -1.0386385917663574, -1.0646425485610962, -1.0416008234024048, 0.7862219214439392, -0.9812371730804443, -1.0013834238052368]
[0.17558270692825317, -0.31786277890205383, 0.7019690871238708, -0.714131236076355, -0.5801994204521179, -0.6939213871955872, 0.13070200383663177, -0.6342591643333435, -0.7665011882781982, -0.8084186315536499, -0.43461665511131287, -0.5293362140655518, -0.9054151773452759, -0.09871679544448853, -0.6488727927207947, -0.45741480588912964, 0.30613255500793457, -0.4217911660671234, -0.5294241905212402, -0.5027732253074646, 0.11400886625051498, -0.561664342880249, -0.7543829083442688, -0.3312084972858429, -0.8108077049255371, -0.3959542214870453, -0.24189108610153198, -0.8203393220901489, -0.8878011107444763, -0.4886118471622467, -0.9966239929199219, -0.8721376061439514, -0.6397950649261475, -0.8692087531089783, -0.3944686949253082, 0.5949481129646301, -0.17360273003578186, -0.5316419005393982]
[0.7955410480499268, -0.7247118353843689, 1.2020493745803833, -1.2647783756256104, -1.2052124738693237, -1.1180503368377686, 0.7657365202903748, -0.9354650974273682, -0.8954724073410034, -0.871370255947113, -1.3086589574813843, -0.989920973777771, -0.695134162902832, -1.1448824405670166, -1.105715274810791, -1.0565627813339233, 0.7026984095573425, -0.8250107169151306, -0.9399683475494385, -1.2425810098648071, 0.6929872632026672, -0.8690513372421265, -1.1861951351165771, -1.1811442375183105, -0.7657179236412048, -1.082531213760376, -1.230171799659729, -1.0283397436141968, -1.1562726497650146, -1.1717267036437988, -1.019081711769104, -1.0484126806259155, -1.0772262811660767, -1.2929911613464355, -1.1450213193893433, 1.0248733758926392, -1.0649751424789429, -1.0692311525344849]
[0.25484156608581543, -0.3173566460609436, 0.10987593233585358, -0.34364694356918335, -0.1349407583475113, -0.3073456287384033, -0.009356440976262093, -0.46673783659935, -0.3852687180042267, -0.24662858247756958, -0.186134934425354, -0.4678772985935211, -0.18153150379657745, -0.16073690354824066, -0.3640901744365692, -0.3299662172794342, 0.4438464641571045, -0.3661755919456482, -0.5394640564918518, -0.21138937771320343, 0.25354424118995667, -0.14922408759593964, -0.16829939186573029, -0.5712031722068787, -0.42063406109809875, -0.34060904383659363, -0.4594193696975708, -0.4953981041908264, -0.26695096492767334, -0.09738997370004654, -0.5042557716369629, -0.45571383833885193, -0.3934221565723419, -0.40140363574028015, -0.5009320378303528, 0.4492936432361603, -0.5385829210281372, -0.3919422924518585]
[0.7505404353141785, -0.9493851065635681, 0.7506250143051147, -0.870016872882843, -1.1661534309387207, -0.6498213410377502, 0.9631145596504211, -1.173608660697937, -0.9678611159324646, -0.9201387166976929, -0.876275897026062, -0.9770119190216064, -1.0835320949554443, -1.185368299484253, -0.9187590479850769, -0.9190150499343872, 0.8430920243263245, -1.2098612785339355, -1.152241587638855, -1.014806866645813, 0.5775890946388245, -1.0475926399230957, -1.2036924362182617, -1.194672703742981, -1.2396976947784424, -0.9747905731201172, -0.6598795652389526, -1.2378439903259277, -1.1939561367034912, -0.9792753458023071, -0.8284164667129517, -1.3039289712905884, -0.8465785980224609, -0.9157710671424866, -1.1192959547042847, 0.8616892695426941, -0.6756956577301025, -0.9280514121055603]
[0.6103644967079163, -1.1830265522003174, 1.002955675125122, -1.031874418258667, -1.0416650772094727, -0.8720763325691223, 0.8682253956794739, -1.2773278951644897, -1.1242483854293823, -0.7545626163482666, -0.7452701926231384, -1.1727992296218872, -1.1804665327072144, -1.1511902809143066, -1.2652435302734375, -0.8030887246131897, 0.8908876776695251, -0.7767301797866821, -0.8377302289009094, -0.8960056900978088, 0.7947548627853394, -0.9272640943527222, -0.8549821972846985, -1.0705393552780151, -1.2567222118377686, -0.9060769081115723, -0.848583459854126, -0.8159511685371399, -1.0789893865585327, -0.8592150211334229, -1.095679521560669, -0.9847367405891418, -0.8645035028457642, -1.3358516693115234, -0.8496360778808594, 0.8460641503334045, -0.9365108609199524, -0.9991433024406433]
[0.7661135792732239, -1.0687774419784546, 0.7357540130615234, -1.090245008468628, -1.1927013397216797, -0.9303272366523743, 0.5696568489074707, -0.7096258997917175, -0.7341371178627014, -0.7874184250831604, -1.2214646339416504, -0.7202081680297852, -0.8701614141464233, -1.1742451190948486, -0.9389685988426208, -0.8857302665710449, 1.1028996706008911, -0.8514561057090759, -1.0336402654647827, -1.1230871677398682, 0.9537854194641113, -1.1099778413772583, -0.8873690962791443, -1.126803994178772, -1.0994713306427002, -1.2348439693450928, -0.8012328147888184, -1.093289852142334, -0.9197061061859131, -0.9330165386199951, -1.1700083017349243, -1.1203100681304932, -1.2272114753723145, -0.9431656002998352, -0.98055499792099, 0.836740255355835, -1.2229872941970825, -0.7415392398834229]
[0.9772992134094238, -1.0121136903762817, 0.6202331185340881, -0.8883733153343201, -0.9788239002227783, -1.097828984260559, 0.4412110149860382, -1.173653483390808, -1.2563945055007935, -1.043508768081665, -0.7494737505912781, -1.1419789791107178, -0.9469174146652222, -0.7337937951087952, -1.0254660844802856, -0.8211266398429871, 1.0992786884307861, -1.2382577657699585, -0.8275237083435059, -0.8715736865997314, 0.8274499177932739, -0.6918399333953857, -0.7297648191452026, -1.1633307933807373, -0.8239627480506897, -0.943914532661438, -1.1903067827224731, -1.1675337553024292, -1.1877148151397705, -1.220059871673584, -0.9007471799850464, -0.843438982963562, -1.1876105070114136, -0.8435777425765991, -1.1053392887115479, 0.9547649621963501, -1.0786720514297485, -1.0111613273620605]
[-0.04540058597922325, 0.16054989397525787, 0.22533826529979706, 0.14406606554985046, -0.02635304629802704, -0.08016674965620041, 0.13878369331359863, -0.09909427911043167, -0.32528626918792725, 0.13999220728874207, 0.11721597611904144, -0.7048661708831787, -0.13705800473690033, -0.2876962125301361, -0.13199543952941895, -0.5335723757743835, 0.1978931427001953, -0.2236071676015854, 0.018010063096880913, -0.41604360938072205, 0.00035467452835291624, -0.27783289551734924, -0.23895861208438873, -0.42851749062538147, 0.030943606048822403, 0.10840605944395065, -0.15379799902439117, 0.06261887401342392, -0.010934659279882908, -0.20040442049503326, -0.3385906517505646, -0.5534504055976868, -0.07972554862499237, -0.23890112340450287, -0.1274397075176239, 0.45139241218566895, -0.17077761888504028, -0.022532377392053604]
[0.4755612015724182, -0.33278682827949524, 0.7002633213996887, 0.0054707773961126804, -0.5359447002410889, 0.010007554665207863, 0.04935462772846222, -0.6242685317993164, 0.1841735988855362, -0.19919969141483307, -0.020274648442864418, -0.7044825553894043, -0.08343725651502609, -0.4706345796585083, -0.33227697014808655, -0.3429037034511566, 0.5993984937667847, -0.09796901792287827, -0.46235722303390503, -0.2854818105697632, 0.2584092915058136, -0.19030500948429108, -0.43547922372817993, -0.9818487167358398, 0.12855035066604614, 0.21747799217700958, -0.05528287962079048, -0.03472687304019928, -0.033995918929576874, -0.45092716813087463, 0.23582328855991364, -0.47214096784591675, -0.2927306592464447, -0.3143952488899231, -0.005004755686968565, 0.4028002917766571, 0.0061426907777786255, -0.31964582204818726]
[0.11281777173280716, -0.38556402921676636, 0.203090637922287, -0.7624847292900085, -0.2854801416397095, -0.6196794509887695, 0.3847743570804596, -0.9933000802993774, -0.8001333475112915, -0.3383222818374634, -0.8661635518074036, -0.8348551988601685, -0.7086141705513, -0.3283109664916992, -0.7193366289138794, -0.8914492130279541, 0.44235759973526, -0.4185633659362793, -0.721480131149292, -0.8358936309814453, 0.16197647154331207, -0.6804316639900208, -0.5102514624595642, -1.04671049118042, -0.8186706900596619, -0.4980429708957672, -0.32017776370048523, -0.7837098836898804, -0.8979198932647705, -0.5776876211166382, -0.8017467856407166, -0.7267117500305176, -0.7241855263710022, -0.6028391718864441, -0.5756757259368896, -0.0004930459544993937, -0.6499083638191223, -0.7390553951263428]
[-0.034419573843479156, -0.020116707310080528, 0.050312187522649765, 0.23066839575767517, -0.21102766692638397, 0.06448425352573395, 0.5403505563735962, 0.0645395815372467, 0.14937202632427216, 0.07791311293840408, 0.13322478532791138, -0.07379408925771713, -0.2815600037574768, 0.07748860865831375, -0.08495963364839554, 0.11337757110595703, 0.3897033631801605, 0.03343459218740463, -0.059895794838666916, -0.12251938134431839, 0.20465967059135437, 0.11674702167510986, -0.1486193984746933, -0.26539474725723267, 0.2816022038459778, -0.02753901295363903, 0.004313373472541571, 0.1877216398715973, 0.19569596648216248, -0.10742900520563126, -0.05865545943379402, -0.667622447013855, -0.050905391573905945, 0.04676484316587448, 0.1791582703590393, 0.49581092596054077, 0.11067187786102295, -0.25558578968048096]
[0.5179908871650696, -1.0977904796600342, 0.7240632772445679, -1.3346482515335083, -0.8314881920814514, -1.125239610671997, 0.639370322227478, -0.6128416061401367, -0.9977515339851379, -1.348966360092163, -1.0634325742721558, -0.7632673382759094, -1.2308293581008911, -0.7936974167823792, -0.9886874556541443, -1.1763709783554077, 0.8794767260551453, -1.393340826034546, -1.1406080722808838, -1.0550572872161865, 0.4172642230987549, -1.221179485321045, -1.2331608533859253, -0.424419105052948, -1.1225862503051758, -1.3040664196014404, -0.9963314533233643, -1.276953935623169, -1.0357301235198975, -1.1884443759918213, -1.0806490182876587, -0.3157608211040497, -0.9271021485328674, -0.9694663286209106, -1.024548053741455, 0.6035895347595215, -1.256395697593689, -1.188744068145752]
[0.060131415724754333, 0.25785937905311584, 0.5216736197471619, 0.21727819740772247, -0.01728612184524536, 0.2503584921360016, 0.080386221408844, -0.22013519704341888, -0.1740417778491974, 0.030867330729961395, 0.04106748849153519, -0.5321264266967773, -0.17601078748703003, -0.12575063109397888, -0.00035559889511205256, -0.19701316952705383, 0.014166241511702538, -0.07610534131526947, -0.3871438801288605, 0.14880380034446716, 0.008435249328613281, 0.09848253428936005, -0.1276685893535614, -0.14387141168117523, 0.055936794728040695, 0.13822445273399353, 0.11146678030490875, 0.008373044431209564, -0.12813937664031982, 0.09481631964445114, 0.19420009851455688, -0.4443061649799347, 0.08069007098674774, -0.15091729164123535, 0.03598003089427948, 0.10723038762807846, -0.006971812807023525, -0.034121520817279816]
[0.9733729362487793, -1.1146990060806274, 0.6398665308952332, -1.274856686592102, -1.1612545251846313, -0.9483956694602966, 0.4527239203453064, -1.1650842428207397, -1.2592209577560425, -1.2732704877853394, -1.1577705144882202, -1.21799635887146, -0.7620320320129395, -0.7727475166320801, -0.9455288648605347, -1.138022541999817, 0.6328575611114502, -0.8523468971252441, -0.8535911440849304, -1.023114562034607, 0.5981692671775818, -1.2236721515655518, -0.946628212928772, -1.2582032680511475, -0.993453323841095, -0.9171346426010132, -1.2426478862762451, -0.929037868976593, -1.1629693508148193, -0.9540327191352844, -0.9022824764251709, -1.267734408378601, -1.1722897291183472, -1.0024000406265259, -0.7469772696495056, 0.9947943091392517, -1.041367530822754, -0.8965367674827576]
[0.8971520662307739, -0.9914254546165466, 0.8122252821922302, -1.1583056449890137, -0.7255370616912842, -1.0238710641860962, 0.8824790716171265, -0.6913007497787476, -1.1694692373275757, -0.9136903285980225, -1.0752904415130615, -1.2725342512130737, -1.1282553672790527, -0.9942876696586609, -0.9718979597091675, -1.211281418800354, 0.8465308547019958, -1.0434978008270264, -1.1176538467407227, -1.1950656175613403, 0.6258395314216614, -1.2115134000778198, -0.9741442799568176, -1.1097568273544312, -1.0544832944869995, -1.0365684032440186, -0.8632860779762268, -0.8896729946136475, -1.0290107727050781, -1.1063425540924072, -1.2391760349273682, -1.0138094425201416, -0.8820652365684509, -1.0900700092315674, -0.7459554672241211, 0.7952402234077454, -1.147197961807251, -1.1052135229110718]
[0.5019181370735168, -0.19891753792762756, 0.22441314160823822, -0.26033446192741394, -0.3513909578323364, -0.2612823247909546, 0.11695072054862976, -0.6235895156860352, 0.09948206692934036, -0.06086122244596481, -0.4181807041168213, -0.6094761490821838, 0.03102966770529747, -0.25588712096214294, -0.34912312030792236, -0.30069252848625183, 0.225505530834198, -0.06316167861223221, -0.08271980285644531, -0.19494609534740448, 0.13724185526371002, -0.2598894238471985, -0.3992191255092621, -0.6564194560050964, 0.11640719324350357, 0.0622982457280159, -0.45685485005378723, 0.009589463472366333, -0.41875872015953064, -0.004788540303707123, -0.13388171792030334, -0.4263927936553955, -0.2019353061914444, -0.26576927304267883, -0.24328579008579254, 0.13417582213878632, -0.08254211395978928, -0.3395172655582428]
[0.7254041433334351, -0.795348048210144, 0.6996930241584778, -0.7747315764427185, -1.0592983961105347, -1.0029350519180298, 0.9572696089744568, -0.7660420536994934, -1.0123140811920166, -0.940780520439148, -1.115057349205017, -1.0132694244384766, -1.1501014232635498, -1.1133038997650146, -0.9024359583854675, -1.1006827354431152, 0.7107722759246826, -0.87335604429245, -1.189900279045105, -1.1053814888000488, 0.6648544073104858, -0.7820854187011719, -0.9655224680900574, -0.8176149725914001, -0.8392142653465271, -0.899614691734314, -1.226263165473938, -0.7824923396110535, -0.7914890050888062, -1.086582064628601, -1.0252244472503662, -0.8954398036003113, -0.7539182305335999, -0.7708606123924255, -1.1465190649032593, 0.5245533585548401, -1.0804362297058105, -0.9924361109733582]
[0.8135149478912354, -1.0111474990844727, 1.0820668935775757, -0.756721556186676, -0.9481726288795471, -1.1351794004440308, 0.5680475234985352, -1.210860252380371, -0.9710575938224792, -1.0250120162963867, -0.9497725963592529, -1.1775060892105103, -0.839318037033081, -1.1762443780899048, -0.9005417823791504, -1.2408950328826904, 0.8994563221931458, -1.0238375663757324, -0.8364894986152649, -0.8858802318572998, 0.9250127077102661, -0.7230807542800903, -0.7605909705162048, -0.9308667778968811, -0.7632514238357544, -0.9689706563949585, -0.9268164038658142, -0.8735617995262146, -0.8171042799949646, -1.0568721294403076, -0.6724373698234558, -1.1839277744293213, -0.935862123966217, -0.841560959815979, -0.9836503863334656, 0.9975273013114929, -0.9775311946868896, -1.160192608833313]
