[0.040052350610494614, 0.0, 0.08825531601905823, 0.0, -0.014053400605916977, -0.02297253906726837, 0.0, -0.029355859383940697, -0.03418051451444626, 0.06133473291993141, 0.0, 0.0, 0.0, 0.07752801477909088, 0.0, 0.07297316193580627, 0.0, -0.008299465291202068, 0.08942089974880219, 0.0, 0.0, -0.009954340755939484, -0.02450002171099186, 0.0, 0.06866364181041718, -0.03815812990069389, 0.0, 0.06323321908712387]
[0.5332831144332886, -0.034663692116737366, 0.4494798183441162, -0.20021706819534302, -0.06153428554534912, 0.11386731266975403, -0.10981020331382751, 0.17866340279579163, 0.04905102401971817, 0.38332027196884155, -0.10803826153278351, 0.14640206098556519, -0.09066498279571533, 0.6083720326423645, -0.04043900966644287, 0.6734063625335693, -0.17466667294502258, -0.2861163914203644, 0.6334288716316223, -0.1809006929397583, 0.12030282616615295, 0.38155415654182434, 0.17945587635040283, -0.25924208760261536, 0.6508820652961731, -0.10096729546785355, -0.14864876866340637, 0.6694419980049133]
[-0.09097731858491898, 0.11406815052032471, -0.11516497284173965, 0.2160038948059082, -0.08395419269800186, 0.007740504574030638, 0.18172720074653625, 0.053100474178791046, 0.10016856342554092, 0.21760082244873047, -0.2597590386867523, -0.07050974667072296, 0.16867893934249878, 0.13039904832839966, -0.21621552109718323, -0.013283529318869114, -0.13470356166362762, -0.20769014954566956, -0.07628221064805984, -0.26347625255584717, 0.21904334425926208, -0.04687611758708954, 0.2059166133403778, 0.11858472228050232, 0.18644817173480988, 0.0325736403465271, 0.24360933899879456, -0.0697082057595253]
[-0.19924169778823853, -0.17604070901870728, 0.19695794582366943, -0.19227027893066406, 0.24829253554344177, 0.15877074003219604, 0.01989772915840149, 0.1475679576396942, 0.05215385556221008, 0.06955212354660034, 0.07000291347503662, -0.18942172825336456, 0.020401090383529663, -0.08976759016513824, -0.13383221626281738, 0.20749861001968384, 0.2565896213054657, 0.1568206548690796, -0.15677449107170105, 0.01387399435043335, -0.2080245316028595, 0.22706177830696106, -0.17039883136749268, 0.2515733540058136, 0.1895696520805359, -0.24122905731201172, 0.24258199334144592, -0.1699056476354599]
[0.20790696144104004, 0.10215774178504944, -0.1914042830467224, 0.18388724327087402, 0.03804084658622742, -0.05830560624599457, -0.2328616827726364, 0.033799320459365845, 0.13494479656219482, 0.026435136795043945, -0.05337013304233551, -0.017826318740844727, 0.2592744529247284, 0.13505786657333374, -0.2158317267894745, 0.16634902358055115, -0.11303918063640594, -0.23567064106464386, -0.19532647728919983, -0.02951774001121521, -0.12166941165924072, 0.104734867811203, 0.16721400618553162, -0.06547030806541443, -0.15076416730880737, 0.016645431518554688, -0.178686261177063, -0.2301425039768219]
[-0.15663911402225494, -0.2547435760498047, 0.1922856867313385, -0.07191312313079834, -0.12897439301013947, 0.20883023738861084, -0.23067018389701843, -0.03553904592990875, 0.14248350262641907, -0.253456711769104, -0.21363332867622375, 0.014537453651428223, 0.04531177878379822, -0.1978701502084732, -0.07658813893795013, -0.23286215960979462, 0.19706788659095764, -0.1542685478925705, 0.06553065776824951, 0.023311316967010498, 0.02810606360435486, -0.1811695098876953, -0.01994389295578003, -0.23268188536167145, -0.25878843665122986, -0.10440057516098022, -0.22765061259269714, -0.01053166389465332]
[-0.19286181032657623, -0.10999375581741333, -0.2678224742412567, -0.23506103456020355, -0.5005246996879578, -0.5347253084182739, 0.06299972534179688, -0.34912481904029846, -0.26677611470222473, -0.008561613038182259, 0.03202402591705322, -0.1547349989414215, 0.2625732719898224, -0.3899346888065338, 0.2782836854457855, -0.14328326284885406, 0.13588929176330566, 0.12631940841674805, -0.2413432002067566, -0.27142399549484253, -0.25835633277893066, -0.14504529535770416, -0.032875753939151764, 0.15052065253257751, -0.3305310904979706, -0.10608614981174469, 0.22070077061653137, -0.05081571266055107]
[0.12752775847911835, -0.03034350275993347, 0.26337510347366333, 0.12487715482711792, 0.17520248889923096, -0.13773903250694275, 0.23125484585762024, -0.017956160008907318, -0.16807645559310913, 0.284883052110672, -0.058084145188331604, -0.2550273537635803, -0.05944778025150299, -0.1805132031440735, 0.2634483277797699, -0.022941192612051964, 0.04333317279815674, -0.03365118056535721, -0.012792631052434444, 0.14345523715019226, -0.15425005555152893, 0.08787502348423004, 0.15880633890628815, 0.18337267637252808, -0.08507503569126129, -0.09361964464187622, -0.14207914471626282, 0.23267337679862976]
[0.0896633043885231, -0.08832255005836487, -0.11192068457603455, 0.07977056503295898, 0.10489830374717712, -0.24211587011814117, -0.11246286332607269, 0.05543329566717148, -0.1976613849401474, 0.15560825169086456, 0.10316288471221924, -0.014565795660018921, -0.2359170913696289, -0.050855521112680435, -0.23439669609069824, -0.32408443093299866, 0.04434064030647278, 0.22868144512176514, -0.20239704847335815, 0.19389471411705017, -0.1700645387172699, 0.2333817034959793, 0.08121446520090103, -0.07200704514980316, 0.2814842462539673, 0.2371724247932434, 0.0855732262134552, 0.18694117665290833]
[-0.1694435477256775, -0.10769432783126831, 0.05829658731818199, 0.035651594400405884, -0.15267755091190338, 0.3225419521331787, 0.265534907579422, 0.17245477437973022, 0.20931756496429443, 0.13590332865715027, 0.18329483270645142, -0.03977930545806885, -0.2563462555408478, -0.06391286104917526, -0.24160802364349365, 0.23577913641929626, -0.27811920642852783, 0.2802550494670868, 0.15069518983364105, 0.11816826462745667, -0.09866899251937866, 0.38100817799568176, 0.1364889293909073, -4.3958425521850586e-05, -0.2583569586277008, 0.11805541068315506, 0.24019768834114075, 0.18736229836940765]
[0.1484333872795105, -0.1545928418636322, -0.16451111435890198, 0.21125948429107666, 0.12031994760036469, 0.38869696855545044, -0.04102471470832825, 0.07071531563997269, -0.09081615507602692, 0.021192211657762527, 0.17870771884918213, 0.16750559210777283, 0.030868977308273315, 0.21015256643295288, 0.0027632713317871094, -0.10059215873479843, 0.011925667524337769, 0.2210654616355896, -0.13995026051998138, -0.1243748664855957, 0.011722296476364136, 0.0361984558403492, -0.2151721566915512, -0.05009949207305908, 0.2823624610900879, 0.13444547355175018, 0.26357927918434143, -0.00492585776373744]
[0.15990842878818512, 0.11577451229095459, 0.13037806749343872, -0.2518957853317261, -0.0768679529428482, -0.25257283449172974, 0.2680332362651825, 0.1470557600259781, 0.09367047250270844, 0.06081734970211983, 0.12493294477462769, 0.1042921245098114, -0.13110144436359406, 0.19089974462985992, -0.24797359108924866, 0.3012734055519104, -0.10125567018985748, -0.19900403916835785, 0.05998994782567024, -0.10456912219524384, -0.03675524890422821, 0.016435353085398674, -0.21024608612060547, -0.12697158753871918, 0.27493077516555786, 0.058720678091049194, 0.12378361821174622, -0.14048604667186737]
[0.04634946957230568, 0.250337690114975, -0.0046044401824474335, -0.13350416719913483, -0.10819128900766373, 0.11479440331459045, 0.004472583532333374, -0.07171954214572906, -0.28300219774246216, -0.030945872887969017, 0.048877984285354614, -0.27032795548439026, -0.09435445070266724, -0.0054101706482470036, -0.20169667899608612, 0.017148079350590706, -0.20398470759391785, 0.15509819984436035, 0.11226744204759598, 0.16931989789009094, 0.2319185435771942, -0.2369220107793808, 0.10976054519414902, 0.01808503270149231, -0.014252003282308578, 0.01766594499349594, 0.09447535872459412, -0.3567066490650177]
[0.42004019021987915, 0.2515345513820648, 0.042515501379966736, -0.00080147385597229, 0.15587002038955688, 0.1855667233467102, -0.11699941754341125, 0.07338885962963104, -0.21647939085960388, 0.2773781716823578, 0.07395851612091064, -0.047489896416664124, -0.24887347221374512, -0.3168582022190094, 0.218240886926651, 0.1031307578086853, -0.1312650442123413, 0.09640616178512573, 0.0062163700349628925, 0.14387258887290955, 0.2793092429637909, 0.3964708745479584, 0.16500425338745117, -0.24271796643733978, -0.15700778365135193, -0.15717513859272003, 0.10112538933753967, 0.06435773521661758]
[0.11611411720514297, 0.046049416065216064, -0.34383466839790344, 0.010497093200683594, -0.16599583625793457, -0.1902637481689453, 0.19679763913154602, -0.06973547488451004, -0.17452572286128998, 0.1605568826198578, 0.21760308742523193, -0.2665224075317383, -0.1610237956047058, 0.31484919786453247, -0.1483483910560608, -0.29753509163856506, -0.06169247627258301, 0.18982654809951782, -0.0583382211625576, 0.18622255325317383, -0.20478054881095886, -0.11510636657476425, -0.17451997101306915, -0.05736728012561798, 0.13114288449287415, 0.18558147549629211, -0.038637250661849976, 0.13862255215644836]
[0.05896759033203125, 0.22386375069618225, -0.15008977055549622, -0.17439839243888855, 0.06439558416604996, -0.22898004949092865, 0.25367727875709534, 0.008430699817836285, -0.22419138252735138, 0.03514384105801582, -0.23613446950912476, -0.037694111466407776, -0.11984407901763916, 0.19203320145606995, 0.08917906880378723, 0.00793122686445713, -0.21069976687431335, 0.21958027780056, 0.202979177236557, 0.13568052649497986, 0.13791444897651672, -0.2584768831729889, 0.17958086729049683, -0.1740034818649292, 0.08159266412258148, 0.08987236022949219, 0.14885514974594116, 0.1479322761297226]
[-0.24960960447788239, -0.006349295377731323, -0.08630765974521637, -0.12655766308307648, 0.1262713372707367, 0.14648382365703583, 0.16138675808906555, 0.1704697161912918, 0.15698125958442688, 0.08668625354766846, -0.2542980909347534, 0.2376202642917633, 0.060336142778396606, 0.2563428580760956, 0.1973263919353485, 0.0640692263841629, -0.2215164303779602, 0.12854430079460144, 0.12665890157222748, 0.2558946907520294, -0.1659032702445984, -0.2941195070743561, 0.14534041285514832, 0.12177270650863647, 0.09701237082481384, 0.04367680475115776, -0.21290896832942963, -0.19548234343528748]
[0.6226015090942383, -0.1927003413438797, 0.20294173061847687, 0.13153696060180664, -0.4391055405139923, 0.37093570828437805, 0.059150755405426025, -0.1316670924425125, 0.2151348739862442, -0.069896399974823, 0.22968748211860657, -0.2068035900592804, -0.22469335794448853, -0.7667192220687866, 0.26295050978660583, 0.6329621076583862, 0.04104447364807129, -0.044755980372428894, -0.22741998732089996, 0.06679883599281311, -0.1744418740272522, 0.41178274154663086, -0.070480577647686, -0.20809869468212128, -0.1513374000787735, -0.13838334381580353, -0.20770874619483948, 0.42605024576187134]
[0.11403869837522507, 0.061285048723220825, -0.19720548391342163, -0.00757172703742981, 0.07574544101953506, 0.013764509931206703, -0.20185986161231995, -0.09699209779500961, 0.15768881142139435, -0.11318518966436386, -0.22077417373657227, -0.22621482610702515, -0.04766996204853058, 0.15597938001155853, 0.2140926718711853, 0.08496106415987015, -0.21540507674217224, 0.24008989334106445, -0.0005415096529759467, 0.25960400700569153, -0.04755769670009613, -0.37379729747772217, 0.052987150847911835, 0.04262334108352661, 0.1274803727865219, -0.019628839567303658, 0.14259028434753418, 0.1625010371208191]
[0.009505261667072773, 0.12539035081863403, 0.20672811567783356, -0.11535181105136871, 0.03505377843976021, 0.17728060483932495, -0.08705596625804901, -0.09757159650325775, 0.05992402881383896, 0.32532310485839844, 0.17862838506698608, -0.17484521865844727, 0.16485294699668884, 0.2788443863391876, 0.16195577383041382, 0.27604788541793823, 0.05538135766983032, -0.17157278954982758, 0.2302323877811432, 0.011157751083374023, -0.2266440987586975, -0.26435545086860657, 0.21629145741462708, 0.13124394416809082, -0.18669825792312622, -0.023704400286078453, -0.2056466042995453, -0.19856007397174835]
[0.05989262834191322, -0.26786547899246216, -0.04384031519293785, -0.002380877733230591, -0.22035790979862213, 0.01411063876003027, -0.0005116760730743408, 0.02365981973707676, 0.0256706103682518, -0.09058567136526108, 0.18530580401420593, -0.04584208130836487, 0.14576372504234314, 0.261734277009964, -0.13065730035305023, -0.1995045393705368, -0.25893592834472656, 0.07324738055467606, 0.18395256996154785, -0.034383535385131836, -0.1099473387002945, -0.08070195466279984, 0.2508089542388916, -0.06459788978099823, 0.08678098767995834, 0.24035625159740448, -0.06904548406600952, -0.1557275503873825]
[0.04974635690450668, 0.09419924020767212, -0.1827879697084427, 0.01238963007926941, -0.2924991250038147, 0.04028201848268509, -0.2803015410900116, -0.04477139189839363, 0.20202116668224335, -0.09138955920934677, -0.16442038118839264, 0.28038856387138367, -0.2701531946659088, 0.14166957139968872, -0.11067624390125275, -0.04768099635839462, -0.07501937448978424, -0.14951014518737793, -0.20929653942584991, -0.12010104954242706, 0.24345454573631287, -0.29651403427124023, 0.16450536251068115, -0.21403902769088745, -0.18875941634178162, -0.21019482612609863, -0.2791864275932312, -0.317030668258667]
[0.08180690556764603, -0.19570235908031464, -0.19213193655014038, -0.19010764360427856, -0.35200032591819763, 0.11954864114522934, -0.027927249670028687, -0.24505992233753204, -0.22687475383281708, 0.08744153380393982, 0.0026560723781585693, -0.15795305371284485, -0.0017296075820922852, -0.252078115940094, 0.08038699626922607, 0.17208199203014374, -0.2375164031982422, -0.16374017298221588, -0.10624045878648758, 0.2190377414226532, 0.2774718105792999, -0.2999423146247864, 0.10958787798881531, 0.20087891817092896, 0.053846992552280426, -0.034865349531173706, 0.010755956172943115, 0.3827930986881256]
[0.26492100954055786, -0.08452750742435455, 0.34851348400115967, -0.061722755432128906, 0.06472108513116837, 0.1991221159696579, -0.22493517398834229, -0.03456972911953926, 0.05209186673164368, 0.02887929230928421, -0.10029557347297668, -0.20283007621765137, -0.18509304523468018, 0.35309097170829773, -0.23933196067810059, 0.34736910462379456, 0.18090569972991943, 0.18976260721683502, -0.12665024399757385, -0.10994331538677216, -0.2276647537946701, 0.007949687540531158, 0.19766956567764282, 0.05236366391181946, 0.14660771191120148, -0.278788298368454, -0.16396042704582214, 0.17041276395320892]
[0.010544948279857635, 0.18581178784370422, -0.2640126049518585, 0.26697900891304016, -0.21506458520889282, -0.4041662812232971, 0.10105502605438232, -0.22390198707580566, -0.1659502387046814, 0.034862399101257324, 0.24174627661705017, 0.005971074104309082, 0.17701661586761475, 0.11696377396583557, -0.25373345613479614, 0.13435935974121094, 0.2121559977531433, -0.07177119702100754, -0.046958476305007935, 0.013153374195098877, 0.03447377681732178, -0.1797335147857666, -0.1688547283411026, -0.07489335536956787, -0.08528977632522583, 0.08783112466335297, -0.21059386432170868, -0.1729992777109146]
[0.19488918781280518, 0.0564899742603302, 0.1375071406364441, -0.20335125923156738, -0.3020092248916626, 0.13169890642166138, -0.11446365714073181, 0.19596144556999207, -0.07167651504278183, 0.11607582122087479, -0.16338250041007996, -0.19051821529865265, -0.2292422354221344, -0.10231263190507889, 0.24183502793312073, -0.014373828656971455, 0.1636156439781189, -0.0925341472029686, -0.13709847629070282, -0.013370901346206665, -0.02791312336921692, -0.12664861977100372, 0.10011018812656403, 0.02866661548614502, 0.055845458060503006, -0.010736659169197083, 0.07102403044700623, -0.016525596380233765]
[0.0918138399720192, 0.07694754004478455, -0.08611472696065903, 0.133266419172287, -0.2900581657886505, 0.05095513537526131, 0.2549488842487335, -0.15696457028388977, -0.2630945146083832, 0.1521814465522766, 0.12371227145195007, 0.21232125163078308, 0.003693610429763794, -0.1452745646238327, 0.1425601840019226, 0.04206191375851631, 0.24586519598960876, -0.12175498157739639, -0.06515481323003769, -0.14574910700321198, 0.21829882264137268, -0.35347291827201843, -0.289888471364975, -0.058421969413757324, 0.3155514597892761, 0.0882829874753952, 0.25152716040611267, 0.018967794254422188]
[0.004896063357591629, 0.007004529237747192, 0.3587833642959595, -0.2090752124786377, -0.018703309819102287, 0.14744701981544495, -0.0960274487733841, 0.07345239073038101, 0.21788376569747925, -0.2182382196187973, 0.1349661648273468, -0.07660770416259766, -0.14339233934879303, 0.14574195444583893, 0.045021265745162964, 0.0006948008085601032, -0.2093711644411087, 0.11637437343597412, 0.1944696009159088, -0.2674337923526764, 0.11497071385383606, -0.047629792243242264, 0.012620989233255386, -0.11997886002063751, 0.2420564740896225, 0.16024912893772125, -0.2240789234638214, 0.28404784202575684]
[-0.05735361576080322, 0.2349611222743988, 0.12414579093456268, -0.03834919631481171, -0.1307404339313507, -0.03603192791342735, -0.08485040068626404, -0.3500820994377136, -0.13706986606121063, -0.05217541381716728, -0.12306487560272217, -0.2762187719345093, -0.08985647559165955, -0.08579527586698532, 0.008877098560333252, 0.22658199071884155, -0.008250206708908081, 0.004631455987691879, -0.036736536771059036, -0.23197400569915771, 0.15694084763526917, 0.28922322392463684, 0.13818059861660004, 0.08121821284294128, -0.10596445202827454, -0.11014027893543243, 0.001010596752166748, 0.05786069855093956]
[-0.05589781329035759, -0.1557856649160385, 0.026984771713614464, 0.012756794691085815, -0.5559464693069458, -0.39470547437667847, -0.19155368208885193, 0.37201762199401855, -0.16816382110118866, -0.3265274465084076, -0.21250909566879272, 0.1051071286201477, -0.2636689841747284, -0.0035554864443838596, -0.23155619204044342, 0.13674065470695496, 0.1669028401374817, -0.26575809717178345, -0.18735794723033905, -0.16940918564796448, 0.09777441620826721, -0.3828236758708954, -0.004095091950148344, 0.0981629490852356, -0.1294804811477661, 0.23858729004859924, 0.1441735029220581, 0.18613113462924957]
[0.0187063030898571, -0.2251608669757843, -0.13387615978717804, -0.08824919164180756, 0.24520821869373322, -0.11943892389535904, 0.04320690035820007, 0.07991424202919006, -0.24685874581336975, 0.01662462390959263, -0.02532336115837097, 0.1909083127975464, -0.21691656112670898, 0.15297096967697144, 0.2706265151500702, -0.03385147824883461, 0.08828482031822205, -0.17727850377559662, -0.08536378294229507, -0.20832417905330658, -0.15784138441085815, -0.37364792823791504, -0.27296182513237, 0.02713879942893982, 0.24931080639362335, -0.1976938247680664, -0.2437688410282135, -0.08177720755338669]
[-0.007290859241038561, 0.20455017685890198, -0.02220781147480011, -0.02315443754196167, -0.16996890306472778, -0.11633411049842834, 0.03370305895805359, -0.23766545951366425, 0.038792934268713, -0.0021305351983755827, -0.2737770676612854, -0.06493224203586578, 0.15852609276771545, 0.11372509598731995, -0.015255272388458252, 0.23604519665241241, 0.1252819001674652, -0.20718914270401, 0.05561850592494011, -0.09354881942272186, -0.03450706601142883, 0.1388428509235382, 0.05037827789783478, 0.057952433824539185, 0.06943853199481964, -0.08479107171297073, -0.033452779054641724, 0.22015032172203064]
[0.5083842873573303, 0.27020397782325745, 0.35928452014923096, -0.01695653796195984, -0.8122697472572327, -0.043814245611429214, 0.044250816106796265, -0.027627740055322647, -0.16698992252349854, 0.029128974303603172, 0.18808770179748535, -0.12759573757648468, 0.27324822545051575, -0.7382106781005859, -0.029577016830444336, 0.05566937103867531, 0.1805633306503296, -0.12434836477041245, -0.052630119025707245, 0.06908246874809265, -0.2782629132270813, -0.4149737060070038, 0.1860119104385376, 0.1904328167438507, -0.4412662088871002, -0.13705530762672424, 0.019999146461486816, 0.39982497692108154]
[-0.2502400577068329, 0.16758370399475098, 0.03225840628147125, -0.25940874218940735, 0.21459311246871948, -0.33420899510383606, -0.12124383449554443, 0.4002952575683594, -0.05195770785212517, -0.26449331641197205, -0.20448124408721924, -0.13286663591861725, 0.07392877340316772, 0.18636535108089447, 0.2387869656085968, -0.2514672875404358, 0.11489567160606384, 0.1677687019109726, 0.10728442668914795, 0.23129644989967346, 0.050510257482528687, -0.2082987278699875, -0.10539592057466507, -0.041542068123817444, 0.1038215160369873, 0.035264380276203156, 0.19030994176864624, -0.187452495098114]
[0.17817237973213196, 0.14880365133285522, 0.06385473906993866, 0.24081698060035706, -0.1146567165851593, 0.20330163836479187, 0.04233703017234802, -0.0021236042957752943, 0.016764668747782707, -0.08064954727888107, -0.11181862652301788, -0.2003059685230255, 0.1769106388092041, 0.2711714804172516, 0.062443703413009644, -0.2746986150741577, -0.27066075801849365, -0.14110364019870758, -0.11921947449445724, -0.052099600434303284, 0.2624681293964386, -0.13377872109413147, 0.058045122772455215, 0.18576031923294067, -0.0772172287106514, 0.0003618258342612535, 0.1184644103050232, -0.2184579223394394]
[0.25261300802230835, 0.02504381537437439, 0.18603157997131348, -0.16852933168411255, 0.13690584897994995, -0.08819741755723953, 0.18841004371643066, 0.12521395087242126, -0.15407642722129822, 0.3291049599647522, -0.2584357261657715, 0.2295682728290558, 0.05801555514335632, 0.22621524333953857, -0.2435612976551056, -0.056889887899160385, 0.15385931730270386, 0.007135496474802494, 0.1644507646560669, 0.05934467911720276, 0.0395449697971344, 0.11613680422306061, -0.23441612720489502, -0.0927874892950058, 0.26846054196357727, 0.02083830162882805, 0.06300333142280579, 0.1714460551738739]
[-0.009340997785329819, 0.017612695693969727, 0.08280231803655624, -0.2750411033630371, -0.12749551236629486, -0.26781973242759705, -0.09495386481285095, 0.01330252643674612, 0.17391939461231232, 0.2651061415672302, -0.1360722929239273, 0.03369516134262085, -0.24635739624500275, 0.01710464246571064, 0.12728282809257507, 0.0954308807849884, 0.09535238146781921, -0.13814543187618256, 0.015091093257069588, 0.029903262853622437, 0.08249804377555847, -0.2270057201385498, 0.25433918833732605, 0.060958534479141235, -0.04830579087138176, 0.23150944709777832, 0.13030487298965454, -0.3067125082015991]
[-0.7176775336265564, 0.10410040616989136, -0.13812051713466644, -0.05817410349845886, 0.5706081390380859, 0.2870340049266815, -0.025587022304534912, 0.43382975459098816, -0.1413375735282898, 0.01824183575809002, -0.2424270361661911, -0.2182922065258026, 0.12760263681411743, 0.24519895017147064, 0.012953341007232666, -0.24249814450740814, 0.2790921628475189, 0.2659529447555542, 0.1912008672952652, 0.23558470606803894, 0.0028462111949920654, -0.3453575074672699, -0.2729197144508362, -0.17372192442417145, 0.3959167003631592, -0.13357822597026825, 0.14342066645622253, -0.5385169982910156]
[-0.17101411521434784, -0.15459740161895752, -0.18075327575206757, 0.014442414045333862, 0.06535045057535172, -0.20712924003601074, 0.17823642492294312, 0.3653939962387085, -0.09616521000862122, -0.11125145107507706, 0.22827038168907166, 0.02461761236190796, -0.26493018865585327, 0.23337116837501526, -0.2772563099861145, 0.1646582931280136, -0.0866883248090744, -0.2583049237728119, -0.01592155359685421, 0.06043025851249695, -0.20591235160827637, -0.23483437299728394, 0.23427262902259827, 0.2717028558254242, 0.053697239607572556, 0.009730132296681404, 0.16695955395698547, -0.0047392635606229305]
[0.21322812139987946, -0.27223095297813416, 0.29196932911872864, 0.13545766472816467, 0.07624439895153046, 0.20491883158683777, -0.22455549240112305, 0.14939428865909576, 0.05632825940847397, 0.3308030068874359, -0.23241640627384186, -0.0625033974647522, -0.07857216894626617, -0.17897671461105347, -0.15138939023017883, 0.2193734049797058, -0.17273932695388794, 0.014904214069247246, -0.04064071923494339, 0.20125922560691833, 0.21632757782936096, 0.0475185327231884, -0.2824934720993042, -0.049541324377059937, -0.20654745399951935, 0.02200123853981495, -0.25437039136886597, 0.22319000959396362]
[0.023438604548573494, -0.2509208619594574, 0.06503511965274811, -0.035730838775634766, 0.23891139030456543, -0.08757205307483673, 0.14950811862945557, 0.05313822999596596, -0.30355605483055115, 0.21093840897083282, -0.2720114290714264, 0.23465761542320251, 0.2052159309387207, 0.17409566044807434, -0.06058835983276367, -0.13806690275669098, -0.05537399649620056, -0.20697179436683655, -0.10275691747665405, 0.08755946159362793, -0.10787419974803925, -0.08184819668531418, -0.2976261079311371, 0.04241681098937988, 0.23800437152385712, 0.21384164690971375, -0.22016912698745728, 0.22573129832744598]
[-0.5925715565681458, 0.22834768891334534, -0.09624412655830383, 0.1928595006465912, 0.7474767565727234, -0.03773302212357521, 0.1263745129108429, 0.5342100262641907, 0.20805460214614868, 0.0806025043129921, 0.006826132535934448, 0.006440341472625732, 0.1260913610458374, 0.5026910901069641, 0.1314486563205719, -0.1647830605506897, -0.03821374475955963, -0.05282184109091759, 0.26714053750038147, 0.2371196448802948, 0.1009950041770935, -0.4759748876094818, -0.0460270531475544, -0.10843905806541443, 0.6333519816398621, -0.31113511323928833, -0.09200598299503326, -0.6441601514816284]
[-0.09602712839841843, -0.21962490677833557, 0.1262187361717224, 0.0293082594871521, 0.05128009617328644, 0.2811257541179657, 0.22878924012184143, -0.15907838940620422, 0.17028146982192993, -0.007156913634389639, -0.19549885392189026, -0.07038253545761108, -0.243693009018898, -0.05645076930522919, -0.11775654554367065, -0.2512933313846588, 0.1404384970664978, 0.2552337944507599, -0.025330252945423126, -0.25027528405189514, -0.23112203180789948, -0.15907157957553864, -0.2587924897670746, -0.15817412734031677, 0.2967190444469452, 0.01717155985534191, -0.0021510422229766846, -0.0616830475628376]
[0.1936182826757431, -0.17912016808986664, 0.32893720269203186, -0.1179683655500412, -0.23198407888412476, -0.22095254063606262, -0.08779466152191162, -0.23918356001377106, 0.06742078065872192, 0.3359394371509552, 0.07273334264755249, 0.16690558195114136, -0.22909940779209137, -0.08349766582250595, -0.13188979029655457, 0.2259984314441681, -0.27332282066345215, 0.015368201769888401, 0.33282670378685, -0.0035564303398132324, -0.24582555890083313, 0.19037415087223053, 0.07271327078342438, -0.16609245538711548, -0.08739062398672104, -0.24504783749580383, 0.20279330015182495, -0.03173746541142464]
[0.020943965762853622, 0.029239922761917114, -0.08670774102210999, 0.12162157893180847, 0.11714816093444824, -0.22394905984401703, 0.020924150943756104, -0.007726141717284918, -0.23498040437698364, 0.16741298139095306, 0.23075851798057556, -0.09389227628707886, -0.17006126046180725, -0.23318757116794586, 0.1766238510608673, 0.12911298871040344, -0.024073541164398193, 0.26478177309036255, -0.1615343987941742, 0.07447636127471924, -0.13037949800491333, 0.1602625548839569, -0.254550576210022, -0.0971725732088089, -0.23388755321502686, -0.12131702899932861, 0.2028590738773346, -0.2825625240802765]
[-0.26061633229255676, -0.23656006157398224, 0.11952222138643265, 0.14336606860160828, 0.8225899934768677, -0.2409229874610901, -0.02497047185897827, 0.4749464988708496, 0.2075376659631729, -0.24104838073253632, 0.19090864062309265, 0.041429728269577026, -0.13271476328372955, 0.6135467290878296, -0.1209467351436615, -0.31336984038352966, 0.05021744966506958, -0.26168859004974365, 0.1514481157064438, -0.0941556841135025, -0.2562671899795532, -0.2558404803276062, -0.03380598500370979, 0.1630098521709442, 0.4167492985725403, 0.12444531172513962, -0.13363011181354523, -0.480453222990036]
[-0.07031157612800598, 0.2280973494052887, -0.05291736498475075, 0.1465945839881897, 0.27130863070487976, -0.08088431507349014, -0.06941728293895721, 0.19435346126556396, 0.22549335658550262, 0.020680874586105347, 0.07789725065231323, 0.06251457333564758, -0.10920655727386475, 0.14470550417900085, -0.12963277101516724, 0.10656588524580002, -0.04301075637340546, -0.20359298586845398, -0.12087637186050415, 0.08199313282966614, -0.13933444023132324, -0.058534327894449234, -0.25706279277801514, -0.27817708253860474, 0.08160413056612015, -0.3015201985836029, 0.24121561646461487, -0.17761151492595673]
[-0.23268623650074005, -0.26812052726745605, -0.11571614444255829, 0.11619982123374939, 0.11096074432134628, 0.17451806366443634, -0.043097108602523804, 0.08688480406999588, -0.30779996514320374, -0.12716715037822723, 0.21748089790344238, -0.17360937595367432, -0.04897761344909668, 0.005024597514420748, -0.09602007269859314, -0.08486780524253845, 0.07951799035072327, -0.05052224546670914, 0.2695329785346985, 0.06177186965942383, -0.15460483729839325, 0.05117319896817207, -0.11225076019763947, 0.20536592602729797, 0.12531398236751556, 0.1772199124097824, 0.25498029589653015, -0.009695476852357388]
[0.012165405787527561, -0.07345059514045715, 0.07573064416646957, 0.0196455717086792, -0.020651716738939285, -0.09148987382650375, 0.09891974925994873, 0.09923327714204788, -0.2349005788564682, -0.015434381552040577, 0.17166143655776978, 0.26817116141319275, -0.0005440115928649902, -0.20459531247615814, 0.23718371987342834, -0.17134907841682434, -0.13622711598873138, -0.07295718789100647, 0.12437788397073746, 0.1998825967311859, 0.09048759937286377, -0.09284384548664093, -0.016397003084421158, -0.1739622801542282, 0.18210896849632263, -0.008155187591910362, -0.20788754522800446, -0.14982067048549652]

[0.0, 0.1300489753484726, 0.11273042857646942, 0.0, 0.0, 0.0, 0.0, -0.031762149184942245, 0.0, -0.022697370499372482, 0.0, 0.15738710761070251, -0.010149018839001656, 0.11812855303287506, -0.05345182493329048, 0.0, 0.09823437035083771, 0.0]
[-0.14343726634979248, 0.07429787516593933, 0.3331068456172943, -0.20876958966255188, -0.3136965036392212, -0.3292679488658905, -0.2975315451622009, -0.2563118040561676, -0.3571895956993103, -0.23821702599525452, -0.34709763526916504, 0.17611049115657806, -0.0713314488530159, -0.24878036975860596, -0.24914689362049103, 0.029047489166259766, 0.18239256739616394, 0.12501192092895508]
[0.10225892066955566, 0.12880706787109375, 0.04526171088218689, -0.24892449378967285, -0.27842164039611816, 0.31386908888816833, -0.21710273623466492, -0.2872485816478729, 0.02296033501625061, -0.2092331051826477, -0.13300855457782745, -0.0199107825756073, 0.12989836931228638, 0.23734143376350403, 0.20713862776756287, 0.1626836359500885, 0.018005430698394775, 0.1479288637638092]
[-0.2710496187210083, 0.19976243376731873, 0.11231104284524918, -0.29928407073020935, -0.0783793032169342, -0.14187124371528625, -0.2619379758834839, 0.12194619327783585, -0.2080325186252594, 0.19848433136940002, -0.17730595171451569, 0.32764795422554016, 0.06908425688743591, 0.35115689039230347, 0.00022200329112820327, -0.0074224770069122314, -0.1945037841796875, 0.18850156664848328]
[0.28835567831993103, -0.02474576234817505, -0.34790903329849243, -0.14149031043052673, -0.1995381861925125, 0.26717594265937805, 0.1283273696899414, 0.16757437586784363, 0.19909033179283142, 0.18877503275871277, -0.30006179213523865, 0.2582317888736725, 0.3587099611759186, -0.08527633547782898, 0.05862969160079956, 0.34320828318595886, -0.10178506374359131, 0.33521750569343567]
[-0.3024565875530243, 0.24132321774959564, -0.2980714440345764, -0.3281991183757782, -0.05477228760719299, -0.150933638215065, 0.1898956000804901, -0.18405069410800934, -0.19617176055908203, 0.06717322021722794, -0.25211456418037415, -0.3293338418006897, -0.06453647464513779, 0.2651613652706146, -0.1254429668188095, -0.03699323534965515, 0.24235759675502777, -0.27230116724967957]
[-0.026072323322296143, 0.06028620898723602, 0.020119594410061836, 0.35475823283195496, -0.12290538847446442, 0.10414454340934753, -0.1147211343050003, 0.0362342894077301, 0.14539894461631775, 0.25249001383781433, -0.2118244767189026, -0.1470092535018921, 0.19192439317703247, 0.13020044565200806, 0.007284169550985098, 0.28562280535697937, 0.04264141619205475, -0.058857083320617676]
[0.042703837156295776, 0.033102065324783325, 0.2246169149875641, 0.2006441056728363, -0.01869910955429077, -0.1732080578804016, -0.05797845125198364, -0.27303746342658997, 0.27295246720314026, 0.006453782320022583, 0.04413992166519165, -0.030638813972473145, 0.13079681992530823, 0.3342348635196686, 0.12086698412895203, -0.24234336614608765, 0.24053475260734558, 0.10039564967155457]
[0.0948106050491333, 0.07056797295808792, -0.10337139666080475, 0.036247819662094116, -0.11510008573532104, 0.1288425326347351, 0.19162705540657043, -0.14939668774604797, -0.29491958022117615, -0.1736091673374176, -0.14803218841552734, -0.09987115114927292, 0.3227735161781311, 0.21261852979660034, 0.295955628156662, -0.12328055500984192, -0.09415856003761292, 0.2485620081424713]
[0.35305115580558777, -0.2548820674419403, -0.3136056363582611, 0.16648933291435242, 0.27316412329673767, 0.10028275847434998, 0.0351385772228241, -0.018764019012451172, -0.050549864768981934, -0.28321653604507446, -0.01637423038482666, -0.19776184856891632, 0.346843957901001, -0.17055535316467285, -0.31444665789604187, 0.2729620039463043, 0.23514977097511292, -0.20577962696552277]
[-0.03123795986175537, -0.0121547756716609, -0.016362294554710388, -0.04301804304122925, 0.22313430905342102, -0.27047690749168396, -0.20990534126758575, -0.1438966542482376, -0.30281752347946167, 0.2309650480747223, 0.05143004655838013, 0.17580805718898773, 0.31969836354255676, 0.34236693382263184, 0.07976333051919937, 0.1622454822063446, 0.1610928624868393, -0.09526324272155762]
[-0.1492873579263687, 0.25587770342826843, 0.2515961825847626, -0.31539368629455566, 0.07033047080039978, 0.16517069935798645, -0.23599350452423096, -0.10550451278686523, -0.006550401449203491, -0.16778074204921722, 0.25308576226234436, 0.32219359278678894, -0.20740824937820435, 0.12434887886047363, 0.16845902800559998, 0.1668778955936432, -0.016737252473831177, -0.1620541363954544]
[-0.1982499361038208, 0.341753751039505, 0.20016375184059143, -0.1580447554588318, 0.22864285111427307, -0.1897984892129898, -0.13593152165412903, 0.22402909398078918, -0.06509372591972351, -0.17915156483650208, 0.06361028552055359, 0.21304091811180115, 0.2515037953853607, 0.17722246050834656, 0.3314562737941742, -0.03498050570487976, -0.2333393543958664, -0.043738216161727905]
[-0.15339361131191254, -0.324602872133255, -0.1045714020729065, 0.2754891812801361, -0.32331782579421997, -0.16183069348335266, -0.02395772933959961, -0.19946706295013428, 0.22388598322868347, -0.04414990544319153, 0.2743009030818939, 0.04409971833229065, 0.25198522210121155, 0.10178893804550171, 0.3515830338001251, -0.17570152878761292, -0.07469436526298523, -0.290795236825943]
[0.09815946221351624, 0.20741695165634155, -0.31115084886550903, 0.048919081687927246, -0.0598677396774292, -0.24160060286521912, -0.127859964966774, 0.13137412071228027, -0.02045956254005432, 0.32788485288619995, -0.23946714401245117, 0.33522477746009827, -0.19093282520771027, 0.02943653054535389, 0.030275100842118263, -0.10155084729194641, 0.3536762595176697, -0.2363933026790619]
[0.19511005282402039, 0.23040208220481873, -0.2963712513446808, -0.209628164768219, -0.3248075544834137, -0.1339494287967682, 0.016146719455718994, -0.15478578209877014, 0.2640121877193451, -0.12593910098075867, 0.353116899728775, -0.1645195484161377, -0.151646688580513, -0.07213467359542847, -0.20331688225269318, 0.0950424075126648, -0.0706433653831482, -0.3168773651123047]
[-0.18017786741256714, 0.09330481290817261, 0.22123277187347412, -0.10053738951683044, -0.08516183495521545, 0.2566223442554474, 0.024874061346054077, -0.07199975848197937, -0.18838348984718323, -0.24682331085205078, -0.2783188819885254, 0.16301339864730835, -0.32141998410224915, 0.3689844310283661, 0.23983365297317505, -0.04509854316711426, -0.05586283653974533, -0.28478336334228516]
[0.22858908772468567, 0.19498321413993835, -0.3338037133216858, -0.06701210141181946, -0.23660150170326233, -0.24481074512004852, -0.18927478790283203, -0.05166855454444885, 0.06780081987380981, -0.23179864883422852, -0.01575484871864319, -0.14200660586357117, 0.1271398663520813, -0.3352377414703369, -0.20325282216072083, -0.13824555277824402, -0.1372067630290985, -0.21579408645629883]
[-0.13553035259246826, -0.23045672476291656, -0.20963338017463684, -0.06209883093833923, -0.0043790340423583984, -0.1884029507637024, -0.05680742859840393, -0.08922314643859863, -0.11168242990970612, -0.041942298412323, 0.0810467004776001, -0.22950415313243866, -0.07467690110206604, -0.1448817402124405, -0.16542959213256836, -0.032309383153915405, -0.2930935323238373, -0.23643024265766144]
[-0.34349045157432556, 0.24855200946331024, 0.11118589341640472, 0.21464166045188904, -0.3065910041332245, 0.07212096452713013, -0.11892002820968628, 0.1134442687034607, 0.30747154355049133, -0.25896331667900085, 0.3044898808002472, 0.10564529150724411, 0.0037374466191977262, 0.18819138407707214, -0.3935987651348114, -0.2834134101867676, 0.26369237899780273, -0.05603522062301636]
[0.013822883367538452, 0.07027527689933777, 0.3058830201625824, -0.1624593585729599, 0.1577295958995819, 0.09898057579994202, -0.1889447420835495, -0.10469898581504822, -0.2864581346511841, 0.0775151252746582, 0.11740085482597351, -0.046603262424468994, -0.3191604018211365, -0.3116529583930969, -0.017376244068145752, 0.24386247992515564, -0.3073398470878601, 0.16023048758506775]
[-0.3584141135215759, -0.18079310655593872, 0.3160230219364166, -0.06401059031486511, 0.35641005635261536, -0.2995169758796692, -0.10560914874076843, 0.1745990812778473, -0.17850430309772491, -0.01487913727760315, 0.11313167214393616, 0.12927109003067017, 0.20421728491783142, 0.3517164885997772, 0.14548137784004211, 0.051284968852996826, 0.20183411240577698, 0.094980388879776]
[0.3395679295063019, -0.10678990185260773, 0.006509575992822647, -0.310272216796875, -0.2485722303390503, 0.15952542424201965, -0.18580864369869232, -0.1371917873620987, 0.15082737803459167, -0.04086162522435188, 0.25682225823402405, -0.012229181826114655, 0.2251293659210205, 0.007815433666110039, -0.4112074077129364, -0.14964160323143005, 0.15524208545684814, 0.11036300659179688]
[-0.0954691469669342, -0.15897879004478455, -0.2177160382270813, 0.21615704894065857, -0.29954108595848083, 0.17956951260566711, 0.1634928286075592, -0.3161964416503906, -0.06455665826797485, -0.24544572830200195, -0.258190780878067, -0.2041996419429779, 0.09374023228883743, -0.048994749784469604, -0.1814822107553482, 0.043782323598861694, 0.35101211071014404, -0.0694229006767273]
[-0.026347428560256958, 0.33482125401496887, 0.32908186316490173, -0.2910546660423279, 0.09733843803405762, -0.16342297196388245, 0.2276066243648529, 0.22532472014427185, 0.15137925744056702, 0.15283897519111633, 0.22081813216209412, -0.09351107478141785, -0.32898181676864624, -0.0532345175743103, -0.1559009552001953, -0.2632642686367035, 0.34072020649909973, -0.053664177656173706]
[0.027204036712646484, 0.14270062744617462, -0.1339881420135498, -0.11747662723064423, -0.22760120034217834, 0.18660899996757507, 0.2650116980075836, -0.25541388988494873, -0.35012635588645935, 0.1845111846923828, -0.33291536569595337, 0.2626475393772125, -0.23717370629310608, -0.044219039380550385, 0.12143524736166, -0.2837027311325073, 0.20549526810646057, -0.14253513514995575]
[0.28337523341178894, -0.12585796415805817, -0.0445614755153656, -0.28379613161087036, 0.1329665184020996, 0.33993569016456604, -0.2765863537788391, -0.015745043754577637, 0.06014740467071533, -0.20749728381633759, -0.11823341250419617, -0.10535066574811935, -0.2430267482995987, -0.0941709503531456, -0.20724692940711975, -0.1722428798675537, 0.14649657905101776, -0.054262369871139526]
[0.26142367720603943, 0.06942358613014221, -0.2742237448692322, 0.10554224252700806, 0.04426777362823486, 0.3370065987110138, -0.005090624094009399, 0.24844315648078918, 0.03891977667808533, -0.08495974540710449, 0.28364160656929016, -0.19263672828674316, 0.1266067624092102, 0.07116398215293884, 0.16458573937416077, -0.01931244134902954, 0.06027793884277344, 0.017913460731506348]
[-0.20175974071025848, -0.003597486997023225, 0.3383858799934387, -0.0878089964389801, 0.2960512936115265, 0.24564144015312195, 0.20421436429023743, 0.028816161677241325, -0.14651842415332794, -0.32177338004112244, 0.24237266182899475, 0.22727245092391968, -0.11398651450872421, -0.043272148817777634, -0.09229276329278946, 0.06220999360084534, -0.06534598767757416, -0.033956944942474365]

[0.0, 0.0, 0.0, -0.0052108499221503735, 0.15487246215343475, -0.10300513356924057, 0.21286694705486298, 0.0, 0.17565855383872986, 0.18191707134246826, 0.0, 0.0, 0.0, 0.010200188495218754, -0.0010540467919781804, -0.013135497458279133, -0.0586291179060936, 0.0, 0.0, -0.05957407131791115, 0.18071633577346802, 0.22590309381484985, 0.12322714179754257, 0.0, 0.0, -0.03176458925008774, 0.0, -0.03176342323422432]
[-0.17209503054618835, -0.35665202140808105, 0.08336374163627625, 0.2652033865451813, 0.26145729422569275, 0.05101338028907776, -0.2726871967315674, -0.2600143551826477, -0.09045135974884033, -0.04025927186012268, -0.18708370625972748, -0.12266731262207031, -0.07762491703033447, -0.1728936731815338, -0.09975448250770569, 0.18202242255210876, 0.3413923680782318, -0.233132004737854, 0.19081172347068787, 0.35098502039909363, 0.055837929248809814, -0.24900662899017334, 0.10435938835144043, 0.13878414034843445, 0.27502748370170593, 0.14267387986183167, 0.18001338839530945, -0.07665008306503296]
[-0.19930586218833923, 0.003516674041748047, 0.2867453992366791, -0.20635448396205902, 0.1762889325618744, 0.06813167780637741, 0.31793034076690674, 0.3137712776660919, 0.3776754140853882, -0.22670629620552063, 0.2689864933490753, 0.10323026776313782, -0.2636505365371704, 0.050693415105342865, 0.08925368636846542, 0.1881600320339203, -0.28191980719566345, -0.253814160823822, 0.16252419352531433, 0.09617244452238083, 0.2077871859073639, -0.14883063733577728, -0.0831722542643547, -0.025823146104812622, -0.2128758430480957, -0.04173225909471512, -0.32339659333229065, -0.07994019985198975]
[0.2754911482334137, -0.344713419675827, -0.34187906980514526, 0.11006616801023483, -0.18384145200252533, -0.26998579502105713, 0.3246804177761078, -0.3164220452308655, -0.2976391017436981, -0.0010340947192162275, 0.35646751523017883, -0.35723480582237244, -0.2889604866504669, -0.23502914607524872, -0.2984752655029297, -0.1437547653913498, 0.07491946965456009, -0.05093950033187866, -0.30700311064720154, 0.22008201479911804, -0.17267408967018127, 0.3293159008026123, -0.1217946857213974, -0.2282746434211731, -0.10915225744247437, -0.1465814858675003, -0.29722052812576294, -0.36012259125709534]
[0.271199494600296, 0.18151065707206726, -0.31839922070503235, 0.03247520327568054, 0.2827881872653961, -0.0923052430152893, 0.33658739924430847, -0.27974748611450195, -0.06980738043785095, 0.33194586634635925, 0.21866902709007263, 0.1270940601825714, -0.13462261855602264, 0.05012527108192444, -0.230605810880661, -0.3502942621707916, 0.21519610285758972, -0.3088749647140503, 0.14539483189582825, 0.22568246722221375, 0.2300579845905304, 0.03967544436454773, 0.20152691006660461, 0.03335222601890564, -0.1227390319108963, 0.03130960464477539, 0.08374863862991333, 0.11867532134056091]
[0.10841450095176697, 0.12630754709243774, -0.008259177207946777, 0.18848010897636414, -0.18006472289562225, -0.27953413128852844, -0.2932037115097046, -0.07892107963562012, 0.07218623161315918, -0.038796573877334595, -0.052924782037734985, 0.21730372309684753, -0.12245875597000122, 0.1435314118862152, 0.3229900896549225, -0.20538310706615448, 0.011597275733947754, 0.0539192259311676, 0.18939629197120667, -0.04402875900268555, 0.2884669005870819, -0.20385557413101196, 0.25576797127723694, -0.3033732771873474, 0.23654785752296448, -0.12186402082443237, -0.12239684164524078, -0.03738871216773987]
[0.3509393036365509, -0.001254647970199585, 0.13920363783836365, 0.07058826088905334, 0.10328167676925659, 0.3371739089488983, -0.3486209511756897, 0.01747596263885498, 0.23674753308296204, 0.14309009909629822, -0.14777050912380219, -0.1723717898130417, -0.2751818597316742, 0.19863680005073547, 0.3205379545688629, 0.049653083086013794, -0.07256975769996643, -0.21185031533241272, -0.042258650064468384, -0.28896158933639526, 0.1824738085269928, 0.20862898230552673, 0.1922454535961151, 0.11740586161613464, 0.030461877584457397, 0.3285699188709259, 0.16832277178764343, 0.24907371401786804]
[0.20245769619941711, -0.11991982161998749, -0.06426811218261719, 0.04603925347328186, 0.06144794821739197, 0.31249549984931946, 0.221498042345047, 0.23580190539360046, -0.051740050315856934, -0.27078527212142944, 0.34395214915275574, -0.014003455638885498, 0.2978490889072418, -0.30122506618499756, 0.16800108551979065, -0.017551392316818237, -0.08564171195030212, 0.19490376114845276, -0.10974708199501038, 0.05932524800300598, -0.20772451162338257, 0.09968861937522888, -0.32880547642707825, 0.3268831670284271, -0.2943805456161499, 0.04148110747337341, -0.35359248518943787, 0.2535773813724518]
[-0.0999661386013031, -0.09881353378295898, -0.004397213459014893, -0.2872731387615204, 0.1892392635345459, -0.14685682952404022, -0.24038833379745483, 0.12233838438987732, 0.29878875613212585, 0.059878796339035034, -0.07249492406845093, -0.26296478509902954, 0.03799191117286682, -0.11489205062389374, 0.23618701100349426, 0.14192810654640198, 0.016384810209274292, -0.025024503469467163, -0.2095324993133545, -0.12391006201505661, -0.11026954650878906, -0.02810356207191944, -0.17867442965507507, -0.11476236581802368, 0.03340068459510803, -0.0200996994972229, 0.022663354873657227, -0.16577428579330444]
[-0.25959697365760803, 0.1317656934261322, -0.1264083832502365, 0.30469390749931335, -0.19536596536636353, 0.07235467433929443, -0.11736683547496796, 0.2551371157169342, -0.049094051122665405, 0.0697307288646698, -0.3528349995613098, 0.1566963493824005, -0.3532930910587311, 0.13522398471832275, 0.3157986104488373, -0.18856759369373322, 0.18638691306114197, -0.2717597186565399, 0.13262665271759033, 0.05082505941390991, -0.3601743280887604, -0.10510948300361633, 0.17905893921852112, 0.06379538774490356, -0.2614685297012329, 0.11294087767601013, 0.0304412841796875, 0.24164220690727234]
[0.051358312368392944, -0.04219856858253479, 0.02649545669555664, -0.01826416328549385, 0.1208462342619896, -0.03006790392100811, 0.264832466840744, 0.35196730494499207, 0.09451261162757874, 0.2243279367685318, -0.1721387803554535, -0.13577359914779663, -0.18133583664894104, 0.11857154965400696, -0.15804371237754822, -0.09581544995307922, -0.15250563621520996, -0.00020873546600341797, 0.11061787605285645, -0.2801888883113861, 0.13692128658294678, -0.2995632588863373, 0.008136278949677944, 0.3351415693759918, 0.10342428088188171, 0.2536008656024933, 0.08530080318450928, -0.02354872226715088]
[0.358402818441391, -0.177588552236557, -0.2802707552909851, 0.36017534136772156, 0.08552348613739014, -0.17593109607696533, -0.3000885546207428, -0.18095265328884125, 0.3438200056552887, 0.2434605062007904, -0.2686518728733063, -0.027417927980422974, -0.1369042694568634, 0.050877511501312256, -0.3599095344543457, 0.3255797326564789, -0.017394930124282837, -0.03456184267997742, 0.07650542259216309, 0.28734949231147766, 0.207487553358078, 0.2656662166118622, 0.3524973690509796, 0.05522295832633972, 0.3317122757434845, 0.2722068727016449, -0.07351315021514893, -0.04631289839744568]
[-0.3566925823688507, -0.3167709410190582, -0.16485631465911865, 0.06698977202177048, 0.3359956443309784, -0.039640702307224274, 0.20481322705745697, -0.06842407584190369, 0.3152218461036682, 0.3482699394226074, -0.31419214606285095, -0.2933482229709625, 0.22625085711479187, -0.13408415019512177, 0.2518320679664612, -0.33450934290885925, 0.2191646248102188, -0.08244016766548157, -0.10349565744400024, -0.13940054178237915, -0.04207856208086014, 0.3244077265262604, 0.07347258180379868, -0.15348824858665466, 0.025153130292892456, 0.2670661211013794, -0.3254295885562897, 0.16023831069469452]
[0.25758644938468933, -0.22805283963680267, 0.3439285457134247, -0.12600119411945343, -0.016382256522774696, 0.05014808103442192, -0.1226639598608017, 0.19937369227409363, 0.2557006776332855, 0.2885758578777313, 0.09839865565299988, -0.11362223327159882, 0.21304622292518616, -0.1263192594051361, -0.213883638381958, 0.07414460927248001, -0.08243414759635925, 0.10983708500862122, 0.09485819935798645, -0.053892213851213455, -0.0960545614361763, 0.36952537298202515, 0.05656889081001282, -0.25036144256591797, 0.1902191936969757, -0.187472403049469, -0.2733936905860901, -0.07628682255744934]
[0.06877598166465759, -0.3264526128768921, -0.33035212755203247, -0.3137419521808624, 0.36814311146736145, 0.017706964164972305, 0.19311758875846863, -0.2734353542327881, -0.03264681249856949, 0.21909673511981964, -0.04986679553985596, -0.3239321708679199, -0.054607659578323364, 0.13550688326358795, -0.11309907585382462, 0.3007747530937195, -0.2717793583869934, -0.05069547891616821, 0.015486449003219604, -0.17065121233463287, 0.1660994589328766, -0.004708143882453442, 0.10311915725469589, -0.31360766291618347, -0.21604681015014648, -0.16111886501312256, -0.3580648601055145, 0.08544797450304031]
[0.24756452441215515, 0.35436829924583435, 0.09925344586372375, 0.3282873332500458, -0.2855212688446045, -0.2027735859155655, 0.2967500388622284, -0.35404670238494873, 0.0055531603284180164, -0.2975590229034424, -0.037386298179626465, 0.28211119771003723, -0.06308656930923462, -0.3068479597568512, -0.3414440453052521, 0.001526577863842249, -0.384083092212677, -0.1692853718996048, 0.013549059629440308, -0.404177188873291, -0.04094461351633072, -0.055730100721120834, -0.15124472975730896, 0.3472031056880951, -0.3167114555835724, 0.14061489701271057, 0.2782604992389679, -0.12540990114212036]
[0.19507059454917908, 0.044277697801589966, 0.32294586300849915, -0.2089998424053192, -0.3600598871707916, 0.25991925597190857, 0.1164943277835846, -0.2564534842967987, -0.2344808727502823, -0.08167114853858948, -0.2030760496854782, 0.07243216037750244, 0.35927388072013855, 0.3467116057872772, -0.1709686815738678, -0.005141168832778931, 0.2817438542842865, 0.16796252131462097, 0.07637575268745422, 0.1252557635307312, -0.13441406190395355, -0.3486245572566986, 0.04466301202774048, -0.2895174026489258, -0.2188664674758911, -0.15189793705940247, -0.23745034635066986, -0.15027198195457458]
[-0.25869113206863403, -0.006694376468658447, 0.21825829148292542, 0.25314846634864807, 0.010120936669409275, 0.1216387003660202, 0.27841758728027344, -0.16478510200977325, -0.30977529287338257, 0.30623504519462585, -0.19272997975349426, -0.05208370089530945, -0.11371290683746338, 0.11524468660354614, -0.2840791642665863, -0.23235580325126648, 0.1296776831150055, 0.235544353723526, -0.0904071033000946, 0.15553733706474304, -0.02078530564904213, 0.07731450349092484, 0.06062689796090126, 0.16457286477088928, 0.07193496823310852, -0.38132593035697937, -0.2498779594898224, -0.23110395669937134]
[0.25613078474998474, 0.09773674607276917, 0.1160804033279419, -0.20517386496067047, -0.19838400185108185, -0.02989417314529419, -0.18600617349147797, -0.07658973336219788, -0.20373398065567017, -0.19344854354858398, 0.04602047801017761, 0.26850202679634094, -0.26756080985069275, 0.24104192852973938, -0.10044938325881958, -0.10429662466049194, 0.008368372917175293, 0.3538399040699005, 0.3193909823894501, -0.2594109773635864, 0.10045412182807922, -0.04728221893310547, -0.03583243489265442, -0.2401842325925827, -0.26181524991989136, -0.023058325052261353, -0.2858407497406006, 0.2909294068813324]

[-0.0317649208009243, -0.10357560217380524, -0.07816416770219803, 0.0, -0.1276547908782959, -0.03631674498319626, -0.11559173464775085, 0.0, -0.016509050503373146, -0.09877422451972961, 0.0, 0.0, -0.10703779011964798, 0.0, 0.26024335622787476, -0.047458771616220474, 0.0, -0.03081320971250534, 0.29849377274513245, -0.06010734662413597, -0.09080836176872253, -0.06900475919246674, 0.29238957166671753, 0.0, -0.10598468780517578, -0.06438472867012024, 0.0, -0.04755478724837303, -0.009658630937337875, -0.06356732547283173, 0.2955172657966614, 0.0, 0.0, -0.029895445331931114, 0.0, 0.0, 0.0, 0.0, 0.23295968770980835, 0.0, -0.06409794837236404, 0.0, 0.2678869664669037, 0.0, -0.1256706416606903, -0.04029429331421852, 0.2653457522392273]
[-0.17292030155658722, -0.14386089146137238, -0.14947114884853363, -0.032803744077682495, -0.12221427261829376, 0.2511776387691498, -0.23906812071800232, -0.059495702385902405, 0.24118897318840027, 0.28150197863578796, 0.12558555603027344, 0.148064523935318, 0.07509475946426392, -0.2799716889858246, 0.24491199851036072, -0.07586109638214111, 0.07055753469467163, -0.01058351993560791, 0.019083619117736816, 0.17900973558425903, 0.24149832129478455, 0.1702479124069214, -0.2758808135986328, 0.1414797604084015, -0.16096246242523193, -0.2585238516330719, 0.2177269160747528, -0.047451019287109375, -0.2429698407649994, 0.08653727173805237, -0.22444674372673035, 0.05177190899848938, -0.2674204111099243, 0.22680267691612244, -0.05930966138839722, 0.0707642138004303, 0.10659721493721008, -0.019291937351226807, 0.213803231716156, 0.16386276483535767, 0.01446467638015747, -0.11734282970428467, 0.11521628499031067, -0.12691502273082733, -0.16902223229408264, 0.10850191116333008, -0.24959620833396912]
[0.18051576614379883, -0.12130700051784515, 0.2305351197719574, 0.25747159123420715, 0.0038314461708068848, 0.28248897194862366, 0.2783854901790619, -0.22634531557559967, 0.2796408236026764, 0.2099764049053192, 0.11812838912010193, 0.045331746339797974, 0.08254876732826233, -0.01053476333618164, 0.08799156546592712, -0.07143108546733856, -0.12270687520503998, -0.05860435962677002, -0.07831087708473206, 0.2010553777217865, -0.10242143273353577, -0.12036439776420593, -0.09167951345443726, -0.23292581737041473, -0.10462817549705505, 0.22278818488121033, 0.22648224234580994, 0.15686586499214172, 0.2190176546573639, 0.04054230451583862, -0.1539074182510376, -0.12435100972652435, -0.18391793966293335, 0.0003266632556915283, -0.23367124795913696, -0.13751943409442902, 0.1663704216480255, 0.24927487969398499, 0.05621114373207092, -0.06266097724437714, 0.06628552079200745, -0.04695180058479309, 0.26438847184181213, -0.17788007855415344, -0.1501721292734146, -0.009744614362716675, 0.27505454421043396]
[-0.13743750751018524, -0.021413028240203857, 0.08248010277748108, 0.049284517765045166, -0.04807958006858826, -0.04947413504123688, -0.004455626010894775, -0.19290781021118164, -0.003707289695739746, -0.25687384605407715, 0.17739394307136536, 0.09666052460670471, 0.23811259865760803, -0.13759632408618927, 0.12874966859817505, 0.17233145236968994, 0.14090454578399658, -0.17215964198112488, -0.09460808336734772, -0.1681409776210785, 0.22074326872825623, 0.03488221764564514, -0.23238296806812286, 0.26465752720832825, -0.22453387081623077, 0.23115786910057068, 0.27492645382881165, -0.11996801197528839, 0.05745682120323181, 0.13819783926010132, -0.07927343249320984, 0.16104891896247864, 0.1833495795726776, -0.009531110525131226, 0.26074495911598206, -0.21024292707443237, -0.230226531624794, 0.22971239686012268, -0.1868659257888794, 0.07209870219230652, 0.2770405113697052, -0.19263234734535217, 0.017878413200378418, 0.21566638350486755, 0.1756889820098877, -0.2681567370891571, 0.0862841010093689]
[-0.1934327334165573, 0.20474474132061005, 0.2773444354534149, 0.2463831603527069, -0.13769416511058807, 0.0690760537981987, -0.10391214489936829, 0.03129199147224426, 0.17215684056282043, -0.19530273973941803, 0.01872175931930542, 0.1278691589832306, 0.2645781338214874, 0.23749783635139465, -0.1955820769071579, -0.20027132332324982, 0.21566888689994812, 0.2019071727991104, -0.13995517790317535, -0.18180321156978607, 0.20401741564273834, -0.27805253863334656, -0.17084667086601257, 0.23550012707710266, 0.06264720857143402, 0.2176179736852646, -0.20353293418884277, -0.06995487213134766, 0.082039475440979, 0.21110032498836517, 0.1102980375289917, -0.23240913450717926, 0.01663997769355774, 0.15728983283042908, 0.13601362705230713, 0.07094711065292358, -0.06259569525718689, 0.24761930108070374, 0.20235669612884521, -0.24112442135810852, -0.1371542364358902, -0.1362222582101822, -0.07012588530778885, 0.03551045060157776, 0.08329512178897858, 0.14353349804878235, -0.06198582053184509]
[0.07486548274755478, 0.06324340403079987, -0.0054260133765637875, -0.0009459853172302246, -0.38301387429237366, -0.2673291265964508, 0.08234546333551407, -0.2285815179347992, 0.0407240055501461, -0.16005100309848785, 0.10022690892219543, -0.22590994834899902, 0.12398235499858856, -0.0633494108915329, 0.24958685040473938, -0.23917201161384583, -0.19872793555259705, -0.2671038508415222, 0.14637431502342224, -0.23854026198387146, -0.14025214314460754, -0.11697274446487427, 0.1481446623802185, -0.08334603905677795, 0.051090825349092484, -0.0833764374256134, -0.1833612620830536, 0.10080475360155106, 0.27191704511642456, -0.006226927507668734, 0.020508715882897377, -0.059934914112091064, -0.14511822164058685, -0.050951357930898666, -0.1529242843389511, 0.020060211420059204, -0.2601163387298584, 0.006208598613739014, 0.34482333064079285, -0.27006569504737854, -0.13603465259075165, -0.08661332726478577, 0.22791126370429993, -0.13191020488739014, -0.17569737136363983, 0.18223032355308533, 0.014028413221240044]
[-0.24192892014980316, -0.3599325716495514, 0.020308995619416237, 0.08463659882545471, -0.3174954950809479, -0.03493678197264671, 0.07033082842826843, -0.08999364078044891, -0.05836120992898941, 0.19279347360134125, -0.19663657248020172, -0.1019076406955719, -0.34008675813674927, 0.26547595858573914, -0.055166151374578476, -0.02119644172489643, 0.22362425923347473, 0.07192615419626236, 0.06347119808197021, -0.30430591106414795, -0.2158837467432022, 0.10508952289819717, -0.052551690489053726, -0.23239119350910187, -0.09418851882219315, 0.09352690726518631, -0.14555256068706512, -0.06051341071724892, -0.18026329576969147, -0.23567453026771545, -0.05970415472984314, -0.169775128364563, -0.1336333006620407, -0.2108222246170044, 0.0935181975364685, -0.10342998802661896, -0.010041147470474243, -0.04161566495895386, -0.029212897643446922, -0.13968916237354279, -0.10613442212343216, 0.06779244542121887, -0.01626780442893505, -0.035914987325668335, 0.0754225105047226, -0.13251692056655884, -0.05033045634627342]
[-0.27471572160720825, 0.06407071650028229, 0.17021401226520538, 0.025501936674118042, 0.14321117103099823, 0.06943849474191666, 0.14648553729057312, -0.24943234026432037, 0.030777115374803543, 0.018954366445541382, -0.04107511043548584, 0.05888921022415161, 0.004866884555667639, -0.19486114382743835, 0.3008663058280945, 0.12629075348377228, -0.15999943017959595, 0.15869493782520294, 0.37513360381126404, 0.17594359815120697, 0.022463619709014893, 0.10866288095712662, 0.2441202849149704, -0.07113289833068848, 0.13488484919071198, 0.16141612827777863, -0.08054675161838531, -0.2006182223558426, -0.1801164746284485, -0.1133749708533287, 0.18174543976783752, -0.14952711760997772, -0.15190339088439941, 0.12515592575073242, -0.05953711271286011, -0.2573469281196594, -0.2383345663547516, -0.26773136854171753, 0.20906661450862885, -0.10951410233974457, 0.2082175761461258, -0.03334766626358032, 0.30157119035720825, -0.1570422649383545, 0.07239295542240143, -0.13845539093017578, 0.23361165821552277]
[0.19719472527503967, -0.20045028626918793, -0.23659354448318481, -0.16468074917793274, -0.11562708020210266, -0.036076620221138, -0.05755850672721863, -0.00761076807975769, -0.15314209461212158, 0.14711004495620728, -0.013093233108520508, -0.04374067485332489, -0.20767971873283386, 0.2640756666660309, 0.006847739219665527, -0.062225207686424255, 0.1697780191898346, 0.15962624549865723, 0.16290175914764404, 0.07437953352928162, 0.10399320721626282, 0.07119566202163696, -0.17944186925888062, -0.07049211859703064, 0.09626346826553345, -0.1793794333934784, 0.035862237215042114, -0.21770614385604858, -0.03888826072216034, 0.049089401960372925, 0.10356694459915161, 0.009890764951705933, 0.13451150059700012, -0.24858367443084717, 0.0753442645072937, 0.20698964595794678, 0.0014837682247161865, 0.1423361897468567, -0.031171411275863647, 0.18334272503852844, -0.1538773477077484, 0.22664406895637512, -0.2798117995262146, 0.24239590764045715, 0.0858863890171051, -0.002089887857437134, -0.13340428471565247]
[0.22990135848522186, -0.0856805145740509, -0.2922254204750061, -0.15529590845108032, 0.030035395175218582, -0.30186760425567627, 0.0871555358171463, 0.11932063102722168, -0.06421595811843872, 0.13067498803138733, -0.1766800582408905, -0.10213914513587952, -0.09718535840511322, -0.04021733999252319, -0.11410365253686905, -0.18825770914554596, -0.029942065477371216, -0.020089799538254738, -0.010764709673821926, 0.09638044238090515, -0.12762536108493805, -0.24311116337776184, 0.31769654154777527, -0.23387813568115234, 0.163197860121727, -0.22266972064971924, -0.03346520662307739, 0.13042765855789185, 0.017549453303217888, 0.0013312222436070442, 0.3130261301994324, -0.2456810027360916, -0.2789306342601776, -0.09977903217077255, -0.20784129202365875, 0.0998559296131134, -0.22071604430675507, -0.2575283944606781, 0.020503854379057884, 0.27474597096443176, 0.09478259086608887, -0.04169739782810211, 0.031513750553131104, -0.15122047066688538, -0.026691127568483353, -0.06486707180738449, 0.3829280436038971]
[0.13317535817623138, -0.21047796308994293, -0.14581722021102905, -0.22458350658416748, -0.0010834747226908803, 0.21331878006458282, -0.12164682149887085, 0.07592716813087463, -0.22088176012039185, 0.07836588472127914, -0.2140154242515564, -0.14960762858390808, -0.09303861856460571, -0.19479802250862122, 0.2791493535041809, 0.06317611783742905, -0.1104789674282074, -0.05787476524710655, -0.07266774773597717, 0.17287328839302063, -0.03584375977516174, 0.07812117040157318, 0.07278379797935486, -0.058734506368637085, -0.013563806191086769, -0.11501745134592056, 0.08596858382225037, -0.13501426577568054, -0.2688860595226288, 0.0008580409921705723, 0.16259625554084778, -0.2083796262741089, 0.22870662808418274, -0.18063856661319733, -0.12024718523025513, 0.15908879041671753, 0.2281365692615509, 0.26305028796195984, 0.16928310692310333, -0.25198617577552795, 0.02445078268647194, -0.1503913551568985, 0.2137266993522644, 0.26703616976737976, 0.05724377930164337, -0.07454025745391846, 0.22178378701210022]
[0.24939027428627014, -0.23533755540847778, 0.2807560861110687, -0.16053202748298645, 0.19074484705924988, -0.19388604164123535, 0.06710007786750793, 0.04803520441055298, 0.13840344548225403, 0.13825899362564087, 0.21725943684577942, 0.06678232550621033, -0.2772303819656372, 0.15799430012702942, -0.10218487679958344, -0.22610267996788025, -0.13514795899391174, 0.1916089653968811, 0.23852762579917908, -0.02281486988067627, -0.02232077717781067, -0.00181540846824646, 0.24433717131614685, -0.0401952862739563, -0.20812714099884033, 0.2246083915233612, 0.2639406621456146, 0.12969934940338135, 0.04081892967224121, -0.23617078363895416, 0.12812939286231995, 0.08971533179283142, -0.15361684560775757, -0.1634145975112915, 0.1557939052581787, -0.2672880291938782, -0.08080744743347168, -0.24534234404563904, 0.11270108819007874, 0.25478437542915344, -0.1636318862438202, -0.12431816756725311, -0.22186729311943054, 0.20475244522094727, -0.01374351978302002, -0.12976893782615662, 0.07250499725341797]
[-0.11583377420902252, -0.15941429138183594, -0.22920024394989014, -0.1212601363658905, -0.14425842463970184, -0.18172386288642883, -0.23214256763458252, 0.2229389250278473, 0.27378740906715393, 0.01838114857673645, -0.1090010553598404, -0.07367222011089325, 0.0625479519367218, -0.17093372344970703, -0.013898283243179321, -0.10090474784374237, 0.10168051719665527, 0.22920730710029602, -0.26821231842041016, -0.05767159163951874, -0.09995047748088837, -0.15497322380542755, -0.036096855998039246, -0.20797353982925415, 0.18942904472351074, -0.2538905441761017, -0.18895679712295532, 0.03183099627494812, -0.17794448137283325, 0.0652894377708435, 0.056025564670562744, -0.04982048273086548, -0.11037053167819977, -0.13818617165088654, 0.09367477893829346, -0.05740649998188019, 0.22429874539375305, 0.02965661883354187, 0.2220601737499237, 0.056463152170181274, -0.10171613097190857, 0.13158643245697021, -0.228736013174057, -0.17855018377304077, 0.002888023853302002, 0.007823139429092407, 0.1705784797668457]
[-0.1847015917301178, -0.20206716656684875, 0.12368252873420715, -0.2713721692562103, 0.07807525992393494, 0.2664930522441864, -0.015240758657455444, -0.008912801742553711, -0.03213942050933838, -0.05460485816001892, 0.09796127676963806, -0.24537721276283264, 0.05030074715614319, -0.16482912003993988, -0.2461981624364853, -0.13121508061885834, -0.027606189250946045, -0.20443184673786163, 0.15835469961166382, -0.08619765937328339, 0.27446219325065613, -0.11253741383552551, 0.2520662248134613, 0.08852633833885193, 0.1516088843345642, -0.13617411255836487, -0.13541580736637115, 0.10960614681243896, -0.028820276260375977, 0.22009983658790588, 0.1988205909729004, -0.1775723695755005, -0.2283581793308258, -0.193405419588089, -0.18938703835010529, -0.20371299982070923, -0.2627717852592468, -0.17159372568130493, -0.1285839080810547, 0.26783594489097595, 0.09360241889953613, 0.027083218097686768, 0.07021448016166687, 0.1467188596725464, 0.13033053278923035, -0.1976824849843979, 0.008438736200332642]
[0.04792466759681702, 0.045111607760190964, 0.21583148837089539, -0.24854308366775513, 0.171708881855011, 0.002297030994668603, 0.15073499083518982, 0.20030158758163452, 0.2369670569896698, 0.0738590732216835, -0.1506919115781784, -0.21956026554107666, -0.16022561490535736, 0.02797558903694153, -0.0662432387471199, -0.28446173667907715, 0.214504212141037, -0.2740141451358795, 0.09445704519748688, -0.08500547707080841, -0.11842893064022064, 0.24045462906360626, -0.0665060356259346, -0.14144274592399597, 0.24127405881881714, 0.06323952972888947, -0.046598970890045166, -0.05724796652793884, -0.09485144913196564, 0.15509547293186188, 0.18594199419021606, -0.0678570419549942, -0.09471043944358826, 0.2360958755016327, -0.13890178501605988, 0.04188352823257446, -0.2773861587047577, -0.12934625148773193, 0.1761903464794159, -0.10420447587966919, -0.15849590301513672, 0.17672747373580933, 0.04246094450354576, 0.0578823983669281, 0.14879187941551208, -0.059577107429504395, 0.24840661883354187]
[0.011325627565383911, -0.02083045244216919, 0.10380741953849792, 0.010210543870925903, -0.01386570930480957, 0.08057188987731934, -0.11033803224563599, 0.26416483521461487, -0.22517268359661102, -0.2717842757701874, 0.10763576626777649, 0.2031211256980896, -0.22187073528766632, 0.1623966097831726, 0.0821976363658905, 0.006362020969390869, -0.0813504308462143, 0.14395961165428162, 0.031011974439024925, 0.11995741724967957, 0.25030556321144104, 0.060094475746154785, -0.19514057040214539, 0.1320115625858307, 0.2602398693561554, 0.10030794143676758, -0.19113744795322418, 0.053750187158584595, 0.11427763104438782, 0.003341078758239746, -0.09827940911054611, 0.21811088919639587, 0.20351269841194153, 0.029136687517166138, 0.06779417395591736, -0.06768292188644409, 0.11635619401931763, -0.08488713204860687, -0.024398157373070717, -0.12079045176506042, 0.13085341453552246, 0.09865081310272217, 0.08200330287218094, -0.044569388031959534, -0.03550693392753601, -0.2293442189693451, 0.008235037326812744]
[0.08315491676330566, 0.03651871159672737, -0.2448267936706543, 0.018122196197509766, -0.03723705932497978, 0.22565248608589172, -0.17253930866718292, 0.24078217148780823, 0.20270207524299622, 0.24226801097393036, -0.045103803277015686, 0.09953022003173828, -0.24100136756896973, -0.21108895540237427, 0.11885145306587219, -0.1200418695807457, 0.24456623196601868, 0.043389104306697845, -0.04044768586754799, 0.0473003163933754, 0.20531170070171356, -0.14885632693767548, -0.11602099239826202, -0.044018447399139404, 0.053625088185071945, -0.22863057255744934, 0.054848700761795044, 0.12587037682533264, -0.16560381650924683, -0.21505819261074066, 0.06157061457633972, -0.13644081354141235, -0.1766061633825302, -0.1605513095855713, 0.2810777723789215, -0.13960155844688416, 0.2651112973690033, 0.1162671148777008, -0.038463398814201355, -0.04705685377120972, -0.025865985080599785, 0.042042046785354614, -0.03241640701889992, -0.2453232705593109, -0.23516422510147095, -0.1589079201221466, -0.2387550324201584]
[-0.23747611045837402, 0.01311427354812622, -0.06840304285287857, 0.22925153374671936, 0.0637906864285469, 0.2234390676021576, -0.05393309146165848, -0.20459739863872528, 0.1927652806043625, -0.2001461237668991, -0.20903488993644714, 0.26074323058128357, 0.06977617740631104, -0.027831614017486572, 0.08340626955032349, -0.1240294873714447, -0.12904144823551178, 0.20965224504470825, 0.02294268272817135, -0.05692090094089508, -0.08265456557273865, -0.22696490585803986, -0.07955086976289749, 0.08397850394248962, -0.06450824439525604, -0.18208633363246918, 0.05897215008735657, 0.1880425661802292, 0.05304541811347008, -0.06187860295176506, 0.0048281289637088776, -0.1155228316783905, -0.1484052687883377, -0.11024004220962524, -0.11436861753463745, 0.2710008919239044, 0.27942612767219543, 0.2210535705089569, -0.011482841335237026, 0.18074074387550354, 0.19686880707740784, -0.1456299126148224, -0.11168254166841507, 0.006769388914108276, -0.26987969875335693, 0.16443265974521637, -0.040456611663103104]
[-0.2560593783855438, -0.2195267677307129, 0.2430163323879242, 0.19901439547538757, -0.1730256974697113, 0.05140113830566406, -0.09860879182815552, 0.01077839732170105, -0.03837481141090393, -0.15864309668540955, 0.08468925952911377, -0.14065563678741455, 0.10938552021980286, -0.16853150725364685, 0.049663275480270386, 0.18711766600608826, -0.14041206240653992, -0.02380204200744629, 0.25517842173576355, 0.12740838527679443, 0.15493115782737732, -0.23067867755889893, -0.08477714657783508, 0.21162202954292297, 0.252337783575058, 0.27004119753837585, 0.07966482639312744, 0.011842191219329834, -0.09382961690425873, 0.07136815786361694, -0.1756824254989624, -0.06450565159320831, 0.07390481233596802, 0.16134420037269592, 0.2815608084201813, -0.2771296501159668, 0.19524404406547546, 0.08198195695877075, 0.12999719381332397, -0.1714407205581665, -0.13891993463039398, -0.11177223920822144, -0.27637484669685364, 0.0846794843673706, -0.19960317015647888, 0.18865430355072021, 0.11883401870727539]
[0.1827150285243988, -0.07701976597309113, -0.2511269152164459, -0.09872734546661377, 0.05296441912651062, 0.21013393998146057, 0.15328431129455566, 0.10501134395599365, -0.0963570773601532, -0.0010558366775512695, -0.022729486227035522, 0.05504870414733887, -0.018627822399139404, 0.18863600492477417, -0.12188827991485596, 0.09637925028800964, -0.017982423305511475, -0.15648499131202698, 0.14495307207107544, 0.18059438467025757, -0.13655316829681396, 0.26292452216148376, 0.059199124574661255, 0.05779552459716797, -0.2206285148859024, 0.04747912287712097, -0.17682714760303497, -0.1920304298400879, 0.1905246078968048, 0.16988247632980347, -0.16916228830814362, -0.024589955806732178, -0.1897122859954834, -0.006701022386550903, 0.02894437313079834, 0.2162310779094696, 0.139541894197464, -0.1558813750743866, -0.1350027620792389, 0.006470799446105957, -0.004709720611572266, 0.2095264196395874, -0.04709260165691376, -0.07055254280567169, -0.0862150639295578, -0.1074337363243103, -0.11331096291542053]
[0.22217969596385956, 0.14187520742416382, 0.010553360916674137, 0.09062713384628296, -0.17259810864925385, 0.2274092435836792, 0.08454802632331848, 0.08988964557647705, 0.08935820311307907, 0.09453754127025604, -0.17098356783390045, 0.19590887427330017, -0.11568659543991089, -0.08378477394580841, -0.03305375203490257, 0.17319504916667938, -0.12270660698413849, -0.09112299233675003, 0.028369255363941193, -0.23978930711746216, -0.26813146471977234, -0.242067351937294, 0.16862329840660095, -0.1448875218629837, 0.1945880949497223, 0.09906957298517227, 0.08970049023628235, 0.0008075106889009476, 0.042886197566986084, 0.013785751536488533, -0.007655373774468899, 0.11186245083808899, -0.058416545391082764, -0.1925508975982666, 0.16919896006584167, -0.23343366384506226, 0.0686662495136261, -0.2329118549823761, -0.1837959736585617, 0.05461442470550537, 0.13029342889785767, -0.2601810097694397, -0.06647171825170517, 0.15521863102912903, -0.19072772562503815, 0.05929025262594223, 0.04818832129240036]
[-0.08472883701324463, -0.07571542263031006, -0.05018797516822815, -0.08729982376098633, 0.04581001028418541, 0.07382898032665253, -0.3568922281265259, 0.2633580267429352, 0.1900767683982849, -0.3389997184276581, 0.09871432185173035, 0.16075241565704346, -0.2684512734413147, -0.2516707181930542, 0.08171329647302628, -0.11601585149765015, 0.26908066868782043, -0.2881768047809601, -0.07115178555250168, -0.24488361179828644, -0.014230799861252308, -0.3419046401977539, 0.005953184794634581, -0.10014334321022034, -0.1304168403148651, -0.08842389285564423, -0.1613398939371109, 0.17928780615329742, -0.19365765154361725, -0.3213161826133728, 0.2343582808971405, -0.2071569561958313, 0.1940821409225464, 0.026181042194366455, -0.006802499294281006, -0.04357343912124634, 0.03498411178588867, -0.2139851599931717, 0.21355003118515015, -0.05150905251502991, -0.02369268797338009, -0.1684417426586151, -0.06999217718839645, -0.11359621584415436, 0.12523388862609863, -0.09273247420787811, 0.19495747983455658]
[-0.19689728319644928, 0.06827652454376221, -0.061748206615448, -0.11958140134811401, 0.07563940435647964, -0.1364564597606659, -0.2928430438041687, 0.11335897445678711, 0.12004333734512329, 0.105479896068573, -0.08705537021160126, 0.05662015080451965, 0.00847295019775629, 0.2569313943386078, -0.020573260262608528, 0.024022301658988, 0.06502038240432739, 0.1360911726951599, 0.35906997323036194, -0.18942944705486298, 0.1541949212551117, 0.014193011447787285, 0.16931119561195374, -0.008976668119430542, -0.4096851050853729, 0.04580352455377579, -0.08260169625282288, 0.02328670211136341, 0.21781376004219055, 0.15670651197433472, 0.36066678166389465, 0.1487637460231781, 0.01583036780357361, -0.10012998431921005, -0.13963474333286285, 0.05761900544166565, -0.16384348273277283, 0.13239336013793945, -0.007573490496724844, -0.07061883807182312, -0.31499630212783813, -0.10503150522708893, -0.04305800795555115, -0.0015664398670196533, -0.03144478425383568, -0.026783395558595657, 0.15630985796451569]
[0.043785687536001205, -0.26638129353523254, -0.0051278709433972836, -0.2047373354434967, 0.11846275627613068, 0.007265681400895119, -0.15790893137454987, 0.18425443768501282, -0.24236956238746643, -0.2879711389541626, -0.19434890151023865, -0.27532708644866943, -0.000806017778813839, -0.09950177371501923, -0.1625927984714508, 0.01943879947066307, -0.13040930032730103, 0.04244745895266533, 0.2093074470758438, -0.1495746374130249, -0.006805614102631807, 0.1831585019826889, 0.1830073446035385, -0.08590607345104218, -0.406036376953125, -0.1433691680431366, -0.10087710618972778, 0.09178156405687332, 0.14075255393981934, 0.16106180846691132, -0.030903741717338562, -0.23040495812892914, 0.2538336217403412, -0.08519411087036133, 0.0639716386795044, -0.17175252735614777, 0.16617411375045776, 0.08445507287979126, -0.10225947946310043, 0.17797529697418213, -0.3435666561126709, 0.09732255339622498, 0.2580111622810364, -0.10242190957069397, -0.029789961874485016, -0.14007307589054108, -0.03976202383637428]
[0.10634589195251465, -0.0007904767990112305, 0.14000406861305237, 0.09944531321525574, 0.1275930106639862, -0.13811597228050232, 0.11564305424690247, 0.019684135913848877, 0.01240682601928711, 0.050686538219451904, 0.03702989220619202, -0.11540906131267548, 0.12147289514541626, -0.21678660809993744, 0.15447118878364563, -0.12955692410469055, 0.031803131103515625, 0.21890023350715637, -0.147294819355011, 0.14664414525032043, 0.2650815546512604, -0.06126856803894043, -0.05476446449756622, 0.19674667716026306, 0.1629546880722046, 0.1564992070198059, 0.13379454612731934, 0.21040382981300354, 0.22925683856010437, -0.12474718689918518, 0.1394285261631012, 0.1928834617137909, -0.12012283504009247, 0.15588918328285217, 0.14824476838111877, 0.1858130693435669, -0.0614791065454483, 0.21020245552062988, 0.24017497897148132, 0.19790023565292358, -0.050143152475357056, 0.21886000037193298, 0.20897704362869263, 0.2266206443309784, 0.09019076824188232, -0.25121721625328064, -0.0874558538198471]
[0.25876012444496155, -0.2327726036310196, 0.052285969257354736, 0.13389745354652405, 0.279949814081192, 0.1544024646282196, -0.16342546045780182, -0.26381346583366394, 0.1716257631778717, -0.09669505059719086, -0.2739003896713257, -0.2595435380935669, 0.2560022175312042, -0.22278636693954468, -0.10275247693061829, 0.17613628506660461, 0.21666643023490906, 0.11376285552978516, 0.191374272108078, -0.2065267264842987, 0.1258196234703064, -0.2395157665014267, 0.06915751099586487, -0.06783026456832886, 0.21883293986320496, -0.055602073669433594, 0.23328593373298645, 0.258074015378952, -0.05608256161212921, 0.06792148947715759, 0.20873844623565674, -0.16113071143627167, -0.2812296748161316, 0.2618023455142975, -0.19158190488815308, -0.24329441785812378, -0.23917514085769653, -0.18747687339782715, 0.071979820728302, -0.025456279516220093, 0.03514266014099121, 0.17445456981658936, 0.10206303000450134, 0.27158352732658386, -0.1833381950855255, -0.1402052342891693, 0.20551079511642456]
[-0.12228669226169586, -0.13267214596271515, -0.14057572185993195, 0.21077921986579895, -0.12796472012996674, 0.27452680468559265, 0.1235705316066742, 0.08957237005233765, -0.028781503438949585, -0.1921427696943283, -0.1020880937576294, 0.19009220600128174, 0.07880252599716187, 0.08858633041381836, 0.11299140751361847, -0.06227092444896698, -0.14641425013542175, -0.18891304731369019, -0.15626411139965057, -0.01686239242553711, 0.01731148362159729, -0.15617477893829346, 0.07338572293519974, 0.13184046745300293, -0.10231529176235199, 0.03626313805580139, 0.18168386816978455, -0.15654601156711578, -0.21149978041648865, 0.09828296303749084, -0.09929922968149185, -0.026757240295410156, 0.07498207688331604, 0.09843596816062927, 0.1543956995010376, -0.25720205903053284, -0.014362156391143799, 0.2247850000858307, 0.1602533757686615, 0.08546152710914612, -0.040457263588905334, 0.10516738891601562, 0.06435776501893997, -0.16104823350906372, -0.27954399585723877, -0.18835899233818054, -0.18553529679775238]
[0.02646079659461975, -0.061014145612716675, 0.15858855843544006, -0.23806145787239075, -0.10526388883590698, -0.24391750991344452, -0.2186712771654129, 0.018965333700180054, 0.17579147219657898, -0.22996306419372559, 0.0036058127880096436, -0.10832886397838593, 0.11861094832420349, 0.12075990438461304, 0.026957809925079346, 0.034467220306396484, 0.27130118012428284, -0.05989491939544678, -0.18963688611984253, -0.08964142203330994, -0.03615175187587738, -0.16373613476753235, 0.04684606194496155, 0.16430488228797913, -0.26352423429489136, -0.026856034994125366, 0.06812319159507751, -0.24116933345794678, 0.00419694185256958, 0.07351690530776978, -0.04950703680515289, -0.14565041661262512, -0.05396530032157898, 0.05870434641838074, -0.08702704310417175, -0.25899502635002136, 0.20648673176765442, 0.017470240592956543, 0.003619760274887085, -0.03921639919281006, 0.252639502286911, -0.2627611458301544, -0.04346399009227753, 0.040488362312316895, 0.2525693476200104, 0.052496373653411865, 0.1263805329799652]
[-0.18722493946552277, -0.014152437448501587, 0.12540778517723083, 0.1630772352218628, 0.09662377834320068, 0.16383600234985352, -0.1868429183959961, -0.20687367022037506, -0.23140528798103333, 0.25249531865119934, 0.06385645270347595, 0.2104291021823883, -0.27821317315101624, 0.1266656517982483, -0.006264489609748125, -0.1515229195356369, 0.03447753190994263, 0.2384263575077057, -0.13047628104686737, 0.18964168429374695, 0.06641566753387451, 0.1645684838294983, -0.1758851259946823, 0.2511633336544037, 0.09359708428382874, 0.15019100904464722, -0.012251704931259155, 0.13330301642417908, -0.03086027503013611, -0.02078312635421753, -0.031611401587724686, -0.0897069126367569, 0.14465749263763428, -0.22632817924022675, 0.0918622612953186, -0.15821576118469238, 0.19042405486106873, 0.1329839825630188, 0.17642591893672943, 0.262375146150589, 0.015156209468841553, -0.008404433727264404, 0.03177396580576897, -0.16093111038208008, -0.06881791353225708, 0.07703661918640137, -0.23706312477588654]

